SVM-light Version V6.02
0 # kernel type
3 # kernel parameter -d 
1 # kernel parameter -g 
1 # kernel parameter -s 
1 # kernel parameter -r 
empty# kernel parameter -u 
14 # highest feature index 
552 # number of training documents 
199 # number of support vectors plus 1 
-0.16846229 # threshold b, each following line is a SV (starting with alpha*y)
-0.078413786006859665 1:-1 2:-0.892331 3:-0.32142901 4:0 5:-0.23076899 6:-0.25 7:-0.87719297 8:-1 9:1 10:-0.70149302 11:1 12:0 13:-1 14:-0.99980003 #
0.11005051622544543 1:1 2:-0.71428603 3:-0.71428603 4:0 5:0.076922998 6:0 7:-0.98245603 8:1 9:-1 10:-1 11:1 12:0 13:-0.83999997 14:-1 #
-0.11005051622544543 1:1 2:-0.353383 3:-0.773929 4:0 5:1 6:0.75 7:-0.73684198 8:1 9:-1 10:-1 11:1 12:0 13:-0.31999999 14:-1 #
0.11005051622544543 1:-1 2:-0.80962402 3:-0.99107099 4:0 5:0.53846198 6:-0.25 7:-0.92982501 8:-1 9:1 10:-0.97014898 11:-1 12:0 13:-0.75999999 14:-0.98464 #
0.10981481214597721 1:1 2:-0.46105301 3:0.154643 4:0 5:-0.84615397 6:-0.25 7:-0.78947401 8:1 9:1 10:-0.73134297 11:-1 12:0 13:-0.75 14:-0.98540002 #
-0.11005051622544543 1:-1 2:-0.46406001 3:-0.196429 4:0 5:-1 6:-1 7:-1 8:-1 9:-1 10:-1 11:-1 12:0 13:-0.81599998 14:-0.89600003 #
-0.11005051622544543 1:1 2:-0.112782 3:0.80071402 4:0 5:0.53846198 6:0.75 7:-0.98526299 8:1 9:1 10:-0.97014898 11:-1 12:0 13:-0.23999999 14:-0.9982 #
0.11005051622544543 1:1 2:-0.285714 3:-0.91964298 4:-1 5:-0.84615397 6:-0.25 7:-0.89473701 8:-1 9:-1 10:-1 11:1 12:0 13:-0.56900001 14:-1 #
-0.11005051622544543 1:1 2:0.160301 3:-0.90178603 4:-1 5:0.076922998 6:0.75 7:-0.33614001 8:1 9:-1 10:-1 11:1 12:0 13:-0.80000001 14:-0.99800003 #
-0.11005051622544543 1:-1 2:-0.493835 3:-0.238214 4:0 5:0.53846198 6:0.75 7:-0.99403501 8:-1 9:1 10:-0.64179099 11:1 12:0 13:-0.87099999 14:-0.99993998 #
-0.11005051622544543 1:1 2:-0.46406001 3:-0.97321397 4:0 5:-0.84615397 6:-0.25 7:-0.93859601 8:1 9:-1 10:-1 11:1 12:-1 13:-0.071999997 14:-1 #
-0.0017935512984166846 1:1 2:-0.71939802 3:-1 4:0 5:-0.53846198 6:-0.25 7:-0.92982501 8:-1 9:1 10:-0.67164201 11:-1 12:-1 13:-1 14:-1 #
0.11005051622544543 1:1 2:-0.56391001 3:-0.63999999 4:-1 5:0.076922998 6:0 7:-0.89473701 8:1 9:1 10:-0.76119399 11:1 12:0 13:-0.85600001 14:-0.99985999 #
-0.11005051622544543 1:1 2:-0.378346 3:-0.904643 4:0 5:-0.69230801 6:0 7:-0.99122798 8:-1 9:-1 10:-1 11:1 12:0 13:-0.56 14:-0.91000003 #
0.11005051622544543 1:1 2:-0.71188003 3:-0.89285702 4:0 5:0.076922998 6:0.75 7:-0.900702 8:1 9:-1 10:-1 11:-1 12:0 13:-0.57800001 14:-0.99599999 #
0.0072485965051738016 1:1 2:-0.61142898 3:-0.80642903 4:-1 5:0.84615397 6:-0.25 7:-0.63157898 8:1 9:1 10:-0.97014898 11:-1 12:0 13:-0.78899997 14:-1 #
-0.11005051622544543 1:-1 2:-0.73684198 3:-0.39285699 4:0 5:0.53846198 6:-0.25 7:-0.87719297 8:1 9:1 10:-0.70149302 11:-1 12:0 13:-0.92000002 14:-0.98019999 #
-0.11005051622544543 1:1 2:-0.85202998 3:-0.64285702 4:0 5:0.53846198 6:-0.25 7:-0.97368401 8:1 9:1 10:-0.94029897 11:-1 12:0 13:-1 14:-0.99923998 #
-0.11005051622544543 1:1 2:0.235489 3:0.107143 4:0 5:0.384615 6:1 7:-1 8:1 9:1 10:-0.40298501 11:-1 12:0 13:-0.84799999 14:-0.99739999 #
-0.11005051622544543 1:1 2:-0.761805 3:-0.91678602 4:-1 5:-0.53846198 6:-0.25 7:-0.824561 8:1 9:1 10:-0.97014898 11:-1 12:0 13:-0.81999999 14:-0.99959999 #
0.11005051622544543 1:1 2:-0.83699203 3:-1 4:-1 5:-0.076922998 6:0 7:-1 8:-1 9:-1 10:-1 11:1 12:-1 13:-0.5 14:-0.99997997 #
0.11005051622544543 1:1 2:-0.30827099 3:-0.99107099 4:-1 5:0.076922998 6:-0.25 7:-0.89473701 8:-1 9:-1 10:-1 11:1 12:0 13:-0.76800001 14:-0.99773997 #
0.11005051622544543 1:1 2:-0.74947399 3:-0.940714 4:0 5:0.076922998 6:0.75 7:-0.84807003 8:-1 9:-1 10:-1 11:1 12:0 13:-0.87199998 14:-1 #
0.11005051622544543 1:1 2:-0.385865 3:-0.625 4:0 5:0.23076899 6:-0.25 7:-0.99403501 8:-1 9:-1 10:-1 11:1 12:0 13:-0.70999998 14:-0.99988002 #
-0.11005051622544543 1:1 2:-0.29082701 3:-0.80964297 4:0 5:0.84615397 6:-0.25 7:-0.98842102 8:-1 9:-1 10:-1 11:1 12:0 13:-1 14:-0.98997998 #
0.11005051622544543 1:1 2:-0.781955 3:-0.657857 4:-1 5:0.23076899 6:-0.25 7:-0.84210497 8:1 9:1 10:-0.97014898 11:1 12:0 13:-0.92000002 14:-0.99400002 #
0.0024646375964891077 1:-1 2:-0.78947401 3:-0.26785699 4:0 5:0.53846198 6:-0.25 7:-0.95017499 8:1 9:1 10:-0.94029897 11:1 12:0 13:-0.95099998 14:-1 #
0.11005051622544543 1:-1 2:0.51368397 3:-0.98821402 4:0 5:-1 6:-1 7:-1 8:1 9:1 10:-0.97014898 11:-1 12:0 13:-0.76800001 14:-0.99800003 #
0.11005051622544543 1:1 2:-0.56391001 3:-0.9375 4:0 5:-0.076922998 6:-0.25 7:-0.93263203 8:1 9:1 10:-0.91044801 11:1 12:0 13:-0.60399997 14:-1 #
0.11005051622544543 1:1 2:-0.58406001 3:-0.85428602 4:-1 5:-0.23076899 6:-0.25 7:-0.859649 8:1 9:1 10:-0.91044801 11:1 12:0 13:-0.63 14:-0.98879999 #
-0.11005051622544543 1:1 2:-0.46406001 3:-0.95535702 4:0 5:-0.53846198 6:-0.25 7:-0.98245603 8:-1 9:-1 10:-1 11:-1 12:0 13:-0.62 14:-0.9598 #
-0.11005051622544543 1:1 2:-0.71428603 3:-0.098214 4:0 5:0.076922998 6:-0.25 7:-0.99122798 8:-1 9:1 10:-0.94029897 11:-1 12:0 13:-1 14:-0.88896 #
-0.11005051622544543 1:-1 2:-0.66406 3:-0.91071397 4:0 5:-1 6:-1 7:-1 8:1 9:-1 10:-1 11:-1 12:0 13:-0.92000002 14:-1 #
0.11005051622544543 1:1 2:-0.35578999 3:-0.67857099 4:0 5:1 6:0.75 7:-0.59649098 8:-1 9:-1 10:-1 11:1 12:-1 13:-0.289 14:-1 #
0.11005051622544543 1:1 2:-0.73172897 3:-0.98821402 4:0 5:0.076922998 6:-0.5 7:-0.84210497 8:-1 9:-1 10:-1 11:1 12:-1 13:-1 14:-1 #
-0.079760325976176563 1:1 2:-0.491128 3:-0.82142901 4:0 5:0.84615397 6:0.75 7:-0.84210497 8:-1 9:-1 10:-1 11:1 12:-1 13:-0.66000003 14:-1 #
0.11005051622544543 1:-1 2:0.285714 3:0.142857 4:0 5:-0.384615 6:-1 7:-1 8:1 9:1 10:-0.552239 11:-1 12:0 13:-1 14:-0.99506003 #
-0.11005051622544543 1:-1 2:-0.398496 3:-0.94642901 4:0 5:-0.53846198 6:0 7:-0.92982501 8:1 9:1 10:-0.91044801 11:1 12:0 13:-0.78799999 14:-1 #
0.11005051622544543 1:1 2:-0.71669197 3:-1 4:0 5:0.076922998 6:-0.25 7:-1 8:-1 9:-1 10:-1 11:-1 12:1 13:-0.81599998 14:-1 #
-0.11005051622544543 1:1 2:-0.400902 3:-0.845357 4:0 5:0.076922998 6:-0.25 7:-0.89473701 8:-1 9:-1 10:-1 11:-1 12:1 13:-0.88 14:-1 #
-0.068938351883205962 1:1 2:-0.63669199 3:-0.083214 4:0 5:0.84615397 6:-0.25 7:-0.964912 8:-1 9:-1 10:-1 11:-1 12:0 13:-1 14:-0.99996001 #
-0.080201872849366862 1:1 2:-0.79939801 3:-1 4:0 5:0.076922998 6:-0.25 7:-1 8:-1 9:-1 10:-1 11:-1 12:1 13:-0.81599998 14:-1 #
-0.11005051622544543 1:1 2:-0.32571399 3:0.29464301 4:0 5:0.23076899 6:-0.25 7:-0.99403501 8:-1 9:-1 10:-1 11:-1 12:0 13:-0.68000001 14:-0.92896003 #
0.11005051622544543 1:-1 2:-0.84451097 3:-0.339286 4:-1 5:0.076922998 6:-0.25 7:-0.92982501 8:1 9:1 10:-0.880597 11:1 12:0 13:-0.92000002 14:-0.99000001 #
0.11005051622544543 1:-1 2:-0.54887199 3:-0.73214298 4:0 5:0.076922998 6:-0.25 7:-0.92386001 8:1 9:1 10:-0.97014898 11:1 12:0 13:-0.62900001 14:-1 #
0.11005051622544543 1:-1 2:-0.63909799 3:-0.96428603 4:0 5:0.076922998 6:0.75 7:-0.93859601 8:1 9:-1 10:-1 11:1 12:0 13:-0.509 14:-1 #
-0.11005051622544543 1:-1 2:-0.81954902 3:-0.94642901 4:0 5:0.076922998 6:-0.25 7:-0.94421101 8:1 9:1 10:-0.85074598 11:1 12:0 13:-0.86000001 14:-0.99989998 #
-0.11005051622544543 1:-1 2:-0.556391 3:-0.92857099 4:0 5:0.53846198 6:-0.25 7:-0.92982501 8:1 9:1 10:-0.94029897 11:1 12:0 13:-0.833 14:-0.99000001 #
-0.11005051622544543 1:-1 2:-0.553985 3:-0.74714297 4:0 5:-0.69230801 6:0 7:-0.964912 8:1 9:-1 10:-1 11:1 12:0 13:-0.829 14:-1 #
-0.11005051622544543 1:-1 2:-0.65172899 3:-0.851071 4:0 5:0.076922998 6:0.75 7:-0.80701798 8:1 9:-1 10:-1 11:1 12:0 13:-0.63999999 14:-0.99997997 #
-0.11005051622544543 1:-1 2:-0.83699203 3:-0.95821398 4:-1 5:-0.23076899 6:-0.25 7:-0.958947 8:1 9:-1 10:-1 11:1 12:0 13:-0.83999997 14:-1 #
0.11005051622544543 1:1 2:-0.283308 3:-1 4:0 5:0.076922998 6:-0.25 7:-1 8:-1 9:-1 10:-1 11:-1 12:1 13:-0.81599998 14:-1 #
0.11005051622544543 1:1 2:-0.87217999 3:-0.98821402 4:0 5:0.53846198 6:0.5 7:-0.98526299 8:-1 9:-1 10:-1 11:-1 12:0 13:-0.80000001 14:-0.99919999 #
0.11005051622544543 1:1 2:-0.774436 3:-0.89285702 4:0 5:0.23076899 6:-0.25 7:-0.89473701 8:-1 9:-1 10:-1 11:-1 12:0 13:-0.85000002 14:-0.99984002 #
0.11005051622544543 1:1 2:-0.69413501 3:-0.95249999 4:0 5:0.076922998 6:-0.25 7:-0.98842102 8:-1 9:-1 10:-1 11:-1 12:0 13:-0.89999998 14:-1 #
-0.11005051622544543 1:1 2:-0.62646598 3:-0.94035703 4:0 5:0.84615397 6:-0.25 7:-0.91824597 8:-1 9:-1 10:-1 11:-1 12:0 13:-0.89999998 14:-1 #
-0.048930573664658361 1:-1 2:-0.56631601 3:-0.95821398 4:0 5:-0.23076899 6:-0.25 7:-0.99719298 8:-1 9:-1 10:-1 11:-1 12:0 13:-0.74000001 14:-0.97992003 #
0.11005051622544543 1:1 2:-0.41593999 3:-0.773929 4:-1 5:1 6:-0.25 7:-0.77789497 8:1 9:1 10:-0.91044801 11:1 12:0 13:-0.62 14:-1 #
0.10810637083742392 1:1 2:-0.67909801 3:-0.118929 4:0 5:0.53846198 6:0.75 7:-0.88877201 8:1 9:-1 10:-1 11:1 12:0 13:-0.88 14:-1 #
-0.11005051622544543 1:-1 2:-0.553985 3:-0.88107097 4:0 5:0.53846198 6:-0.25 7:-0.83052599 8:1 9:-1 10:-1 11:1 12:0 13:-0.56 14:-1 #
0.11005051622544543 1:1 2:-0.18045101 3:-0.99714297 4:0 5:0.384615 6:-0.25 7:-0.99719298 8:-1 9:1 10:-0.97014898 11:-1 12:-1 13:-0.44 14:-1 #
0.11005051622544543 1:1 2:0.032481 3:-0.56857097 4:0 5:-0.53846198 6:-0.25 7:-0.99719298 8:-1 9:-1 10:-1 11:-1 12:0 13:-1 14:-0.94620001 #
0.11005051622544543 1:1 2:-0.16541401 3:-0.88999999 4:0 5:-0.69230801 6:0 7:-0.75438601 8:-1 9:-1 10:-1 11:-1 12:0 13:-0.78399998 14:-1 #
-0.075095225614624825 1:1 2:0.47368401 3:-0.5 4:0 5:0.384615 6:1 7:-1 8:-1 9:-1 10:-1 11:-1 12:0 13:-1 14:-0.99975997 #
-0.11005051622544543 1:1 2:-0.884812 3:-0.285714 4:0 5:0.23076899 6:0.75 7:-0.98842102 8:-1 9:1 10:-0.97014898 11:-1 12:0 13:-0.88 14:-0.99997997 #
-0.11005051622544543 1:1 2:-0.60391003 3:-0.83928603 4:0 5:-0.69230801 6:0 7:-0.964912 8:-1 9:-1 10:-1 11:1 12:0 13:-0.36000001 14:-0.92000002 #
0.11005051622544543 1:1 2:-0.53383499 3:0.056428999 4:0 5:-0.23076899 6:-0.25 7:-0.64631599 8:1 9:1 10:-0.85074598 11:1 12:0 13:-0.83200002 14:-1 #
0.0045809163211636417 1:1 2:-0.65654099 3:-0.57142901 4:0 5:0.076922998 6:-0.25 7:-0.92982501 8:1 9:1 10:-0.91044801 11:-1 12:0 13:-1 14:-1 #
-0.11005051622544543 1:1 2:0.46616501 3:-0.089286 4:-1 5:0.076922998 6:0.75 7:-0.64912301 8:1 9:-1 10:-1 11:-1 12:0 13:-0.88800001 14:-1 #
-0.11005051622544543 1:1 2:1 3:-0.60714298 4:0 5:0.076922998 6:-0.25 7:-0.96210498 8:1 9:-1 10:-1 11:-1 12:0 13:-1 14:-0.9932 #
-0.11005051622544543 1:1 2:-0.12782 3:-0.78571397 4:0 5:-0.69230801 6:0 7:-0.92982501 8:1 9:-1 10:-1 11:-1 12:0 13:-1 14:-0.99599999 #
-0.11005051622544543 1:1 2:-0.25804499 3:-0.94964302 4:0 5:0.076922998 6:-0.25 7:-0.97368401 8:-1 9:1 10:-0.94029897 11:-1 12:0 13:-0.77499998 14:-0.99000001 #
-0.11005051622544543 1:1 2:-0.082707003 3:-0.96428603 4:0 5:-0.076922998 6:-0.25 7:-0.24561401 8:1 9:-1 10:-1 11:-1 12:-1 13:-0.60000002 14:-1 #
0.11005051622544543 1:1 2:-0.75428599 3:-0.961429 4:-1 5:1 6:-0.25 7:-0.99719298 8:1 9:1 10:-0.97014898 11:1 12:0 13:-0.16 14:-0.99882001 #
0.11005051622544543 1:1 2:-0.37594 3:-0.711429 4:-1 5:-0.69230801 6:0 7:-0.40350899 8:1 9:1 10:-0.79104501 11:1 12:0 13:-0.80500001 14:-1 #
0.061613800033567312 1:1 2:-0.57142901 3:-0.85714298 4:0 5:-0.53846198 6:0.75 7:-0.70771903 8:1 9:1 10:-0.94029897 11:1 12:0 13:-0.81900001 14:-1 #
-0.11005051622544543 1:1 2:-0.89985001 3:-0.98214298 4:0 5:0.53846198 6:-0.25 7:-0.97649097 8:-1 9:1 10:-0.880597 11:-1 12:0 13:-0.83999997 14:-0.99984002 #
0.11005051622544543 1:-1 2:-0.030075001 3:-0.71428603 4:0 5:-0.384615 6:-0.5 7:-1 8:1 9:-1 10:-1 11:-1 12:0 13:-0.89999998 14:-0.98079997 #
0.11005051622544543 1:-1 2:-0.84721798 3:-0.318571 4:0 5:-0.23076899 6:-0.25 7:-0.99403501 8:1 9:-1 10:-1 11:-1 12:0 13:-0.89999998 14:-1 #
0.11005051622544543 1:1 2:0.223158 3:-0.96428603 4:-1 5:-0.53846198 6:0.75 7:-0.72210503 8:1 9:-1 10:-1 11:-1 12:0 13:-0.81999999 14:-0.99372 #
0.11005051622544543 1:-1 2:-0.78706801 3:-0.78571397 4:0 5:-0.23076899 6:-0.25 7:-0.99719298 8:1 9:-1 10:-1 11:-1 12:0 13:-0.89999998 14:-1 #
0.11005051622544543 1:1 2:-0.887218 3:0.57142901 4:1 5:-1 6:0.5 7:-1 8:-1 9:-1 10:-1 11:1 12:1 13:-0.55000001 14:1 #
0.11005051622544543 1:1 2:-0.92721802 3:-0.99714297 4:0 5:0.076922998 6:-0.25 7:-0.99719298 8:-1 9:-1 10:-1 11:-1 12:0 13:-1 14:-1 #
-0.11005051622544543 1:1 2:-0.18285701 3:-0.94035703 4:0 5:-1 6:-1 7:-1 8:1 9:-1 10:-1 11:-1 12:0 13:-0.87 14:-0.99997997 #
0.11005051622544543 1:-1 2:-0.86977398 3:-0.97321397 4:1 5:0.84615397 6:-1 7:-0.298246 8:-1 9:-1 10:-1 11:1 12:-1 13:-0.69999999 14:-1 #
-0.0022531234661655047 1:1 2:-0.72421098 3:-0.773929 4:-1 5:0.076922998 6:-0.25 7:-0.98842102 8:-1 9:-1 10:-1 11:-1 12:0 13:-0.83999997 14:-0.97883999 #
-0.096600955431086488 1:1 2:-0.57654101 3:-0.89285702 4:0 5:0.23076899 6:-0.25 7:-0.84210497 8:-1 9:1 10:-0.97014898 11:1 12:0 13:-0.89999998 14:-0.99993998 #
-0.10051633620061651 1:-1 2:-0.93744397 3:-0.45535699 4:0 5:0.53846198 6:-0.25 7:-0.99122798 8:-1 9:1 10:-0.97014898 11:1 12:0 13:-1 14:-0.99680001 #
-0.11005051622544543 1:-1 2:-0.498647 3:-0.90178603 4:0 5:0.23076899 6:0.75 7:-0.99719298 8:-1 9:1 10:-0.91044801 11:-1 12:0 13:-1 14:-0.99934 #
0.10512181598669201 1:1 2:-0.378346 3:-0.69642901 4:0 5:-0.69230801 6:0 7:-0.77192998 8:1 9:1 10:-0.94029897 11:-1 12:0 13:-0.72600001 14:-0.9878 #
0.11005051622544543 1:1 2:-0.68180501 3:-0.52678603 4:-1 5:-0.84615397 6:-0.25 7:-0.61403501 8:1 9:-1 10:-1 11:1 12:-1 13:-0.89999998 14:-1 #
0.11005051622544543 1:1 2:-0.796992 3:-0.285714 4:-1 5:0.076922998 6:-0.25 7:-0.824561 8:1 9:-1 10:-1 11:-1 12:-1 13:-0.95999998 14:-1 #
0.11005051622544543 1:1 2:-0.73172897 3:-0.81857097 4:-1 5:0.076922998 6:0.75 7:-0.81859601 8:1 9:-1 10:-1 11:-1 12:0 13:-1 14:-1 #
0.11005051622544543 1:-1 2:0.73924798 3:-1 4:0 5:0.076922998 6:-0.25 7:-1 8:-1 9:-1 10:-1 11:-1 12:1 13:-0.81599998 14:-1 #
-0.11005051622544543 1:1 2:-0.082707003 3:-0.214286 4:-1 5:-0.84615397 6:-0.25 7:-0.89473701 8:1 9:-1 10:-1 11:-1 12:-1 13:-1 14:-1 #
0.11005051622544543 1:-1 2:-0.400902 3:-0.97321397 4:0 5:0.84615397 6:-0.25 7:-0.97368401 8:-1 9:-1 10:-1 11:-1 12:0 13:-0.69999999 14:-0.99912 #
-0.11005051622544543 1:1 2:-0.18285701 3:-0.83928603 4:-1 5:1 6:0.75 7:-0.298246 8:1 9:-1 10:-1 11:1 12:0 13:-0.824 14:-1 #
-0.11005051622544543 1:1 2:-0.76691699 3:-0.30357099 4:0 5:0.076922998 6:-0.25 7:-0.98245603 8:1 9:-1 10:-1 11:-1 12:0 13:-0.86000001 14:-1 #
-0.11005051622544543 1:1 2:-0.383459 3:-0.875 4:0 5:0.23076899 6:0 7:-0.98245603 8:1 9:-1 10:-1 11:1 12:0 13:-0.83700001 14:-1 #
-0.11005051622544543 1:1 2:-0.59398502 3:-0.95535702 4:0 5:-0.23076899 6:-0.25 7:-0.96806997 8:1 9:-1 10:-1 11:1 12:0 13:-0.80000001 14:-1 #
0.11005051622544543 1:-1 2:-0.64421099 3:-1 4:0 5:0.076922998 6:-0.25 7:-1 8:-1 9:-1 10:-1 11:-1 12:1 13:-0.81599998 14:-1 #
-0.11005051622544543 1:1 2:-0.56631601 3:-0.99107099 4:-1 5:-0.53846198 6:-0.25 7:-0.99403501 8:-1 9:-1 10:-1 11:-1 12:0 13:-0.78399998 14:-0.958 #
-0.11005051622544543 1:-1 2:-0.72421098 3:-0.91071397 4:0 5:0.53846198 6:-0.25 7:-0.98245603 8:-1 9:-1 10:-1 11:1 12:0 13:-0.88 14:-0.98382002 #
0.11005051622544543 1:1 2:-0.661654 3:-0.107143 4:0 5:-0.23076899 6:-0.25 7:-0.78947401 8:1 9:-1 10:-1 11:1 12:-1 13:-0.98000002 14:-1 #
0.11005051622544543 1:1 2:-0.31067699 3:-0.68464297 4:-1 5:-0.53846198 6:-0.25 7:-0.98245603 8:1 9:1 10:-0.70149302 11:1 12:0 13:-0.68000001 14:-1 #
0.11005051622544543 1:1 2:0.29323301 3:-0.125 4:0 5:-0.076922998 6:-0.25 7:-0.91228098 8:1 9:1 10:-0.880597 11:1 12:0 13:-0.80000001 14:-1 #
0.11005051622544543 1:1 2:-0.117895 3:-0.97321397 4:-1 5:0.076922998 6:-0.25 7:-0.97368401 8:1 9:1 10:-0.76119399 11:1 12:0 13:-0.69999999 14:-0.99676001 #
-0.11005051622544543 1:1 2:-0.36601499 3:-0.71428603 4:0 5:-0.84615397 6:0 7:-0.122807 8:1 9:-1 10:-1 11:1 12:0 13:-0.81599998 14:-1 #
-0.11005051622544543 1:1 2:-0.67428601 3:-0.107143 4:0 5:0.23076899 6:-0.25 7:-0.93859601 8:1 9:-1 10:-1 11:1 12:0 13:-0.74000001 14:-1 #
-0.11005051622544543 1:1 2:-0.441203 3:-0.464286 4:0 5:0.384615 6:0 7:-0.88877201 8:1 9:-1 10:-1 11:1 12:-1 13:-0.57999998 14:-1 #
-0.11005051622544543 1:1 2:-0.285714 3:-0.875 4:-1 5:0.076922998 6:0 7:-0.98245603 8:1 9:-1 10:-1 11:1 12:0 13:-0.83600003 14:-0.99199998 #
0.11005051622544543 1:1 2:0.035188001 3:-0.75 4:0 5:-0.23076899 6:-0.25 7:-0.75438601 8:1 9:-1 10:-1 11:-1 12:-1 13:-0.76999998 14:-1 #
0.11005051622544543 1:1 2:-0.71428603 3:-0.92857099 4:0 5:0.076922998 6:-0.25 7:-0.94140399 8:1 9:-1 10:-1 11:-1 12:-1 13:-0.69999999 14:-1 #
0.11005051622544543 1:1 2:-0.125413 3:-0.66964298 4:0 5:0.53846198 6:-0.25 7:-0.67859602 8:1 9:-1 10:-1 11:-1 12:-1 13:-1 14:-1 #
0.11005051622544543 1:1 2:-0.80691701 3:-0.59821397 4:0 5:0.23076899 6:-0.25 7:-0.88 8:1 9:-1 10:-1 11:-1 12:-1 13:-0.88 14:-1 #
0.11005051622544543 1:1 2:-0.15037601 3:-0.98535699 4:0 5:-0.69230801 6:0.75 7:-0.640351 8:1 9:-1 10:-1 11:-1 12:0 13:-0.60000002 14:-1 #
-0.11005051622544543 1:1 2:-0.215639 3:-0.96428603 4:0 5:-0.076922998 6:-0.25 7:-0.98245603 8:1 9:-1 10:-1 11:-1 12:-1 13:-0.71200001 14:-1 #
0.11005051622544543 1:1 2:-0.71188003 3:-0.169643 4:-1 5:0.23076899 6:-0.25 7:-0.94140399 8:1 9:-1 10:-1 11:1 12:0 13:-0.83999997 14:-0.99400002 #
-0.11005051622544543 1:1 2:-0.92481202 3:-0.94035703 4:0 5:-0.076922998 6:-0.25 7:-0.99403501 8:1 9:-1 10:-1 11:-1 12:-1 13:-0.80000001 14:-1 #
0.11005051622544543 1:1 2:-0.60150403 3:-0.89285702 4:-1 5:0.23076899 6:-0.25 7:-0.97368401 8:1 9:-1 10:-1 11:1 12:0 13:-0.74000001 14:-0.97869998 #
0.11005051622544543 1:1 2:0.381053 3:-0.88999999 4:0 5:0.53846198 6:-0.25 7:-0.99122798 8:1 9:-1 10:-1 11:1 12:0 13:-0.74000001 14:-1 #
-0.11005051622544543 1:1 2:-0.46857101 3:0.107143 4:0 5:0.076922998 6:-0.25 7:-0.964912 8:1 9:-1 10:-1 11:-1 12:0 13:-0.88 14:-1 #
0.11005051622544543 1:1 2:-0.45112801 3:-0.875 4:-1 5:0.384615 6:0.75 7:-0.99719298 8:1 9:-1 10:-1 11:1 12:0 13:-0.60699999 14:-1 #
0.11005051622544543 1:1 2:-0.80451101 3:-0.288571 4:0 5:0.384615 6:-0.75 7:-1 8:1 9:-1 10:-1 11:-1 12:0 13:-1 14:-1 #
-0.11005051622544543 1:1 2:-0.64150399 3:-0.842143 4:-1 5:-0.23076899 6:-0.25 7:-0.71929801 8:1 9:-1 10:-1 11:-1 12:0 13:-0.81199998 14:-1 #
0.11005051622544543 1:-1 2:0.085112996 3:-0.029642999 4:0 5:-0.53846198 6:0.75 7:-0.40350899 8:1 9:-1 10:-1 11:1 12:0 13:-1 14:-1 #
-0.11005051622544543 1:1 2:-0.29563901 3:-0.71428603 4:0 5:0.076922998 6:0 7:-0.64912301 8:1 9:-1 10:-1 11:1 12:-1 13:-0.72000003 14:-1 #
-0.11005051622544543 1:1 2:-0.46406001 3:-0.96428603 4:0 5:0.076922998 6:0 7:-0.94140399 8:1 9:-1 10:-1 11:1 12:-1 13:-0.68000001 14:-1 #
-0.11005051622544543 1:1 2:-0.055038001 3:-0.89285702 4:0 5:0.076922998 6:-0.25 7:-0.824561 8:1 9:-1 10:-1 11:1 12:0 13:-0.86000001 14:-1 #
-0.11005051622544543 1:1 2:-0.38857099 3:-0.53571397 4:0 5:-0.23076899 6:-0.25 7:-0.99122798 8:1 9:-1 10:-1 11:1 12:0 13:-0.55699998 14:-1 #
0.099941890479587625 1:1 2:-0.71669197 3:-1 4:0 5:0.84615397 6:-0.25 7:-0.99403501 8:1 9:-1 10:-1 11:-1 12:0 13:-1 14:-1 #
0.02084223648024372 1:1 2:-0.157895 3:-0.93142903 4:0 5:1 6:-0.25 7:-0.824561 8:1 9:-1 10:-1 11:-1 12:0 13:-0.49000001 14:-0.98799998 #
0.11005051622544543 1:1 2:-0.74947399 3:-0.214286 4:0 5:0.84615397 6:-0.25 7:-0.95333302 8:1 9:-1 10:-1 11:-1 12:0 13:-0.89999998 14:-1 #
0.11005051622544543 1:1 2:-0.080301002 3:-0.96428603 4:0 5:-0.69230801 6:0.75 7:-0.64912301 8:1 9:-1 10:-1 11:1 12:0 13:-0.68000001 14:-1 #
0.11005051622544543 1:1 2:-0.62646598 3:-0.98214298 4:0 5:-0.69230801 6:0 7:-1 8:1 9:-1 10:-1 11:1 12:0 13:-1 14:-1 #
-0.11005051622544543 1:1 2:-0.85954899 3:-0.256071 4:-1 5:-0.23076899 6:-0.25 7:-0.99122798 8:1 9:-1 10:-1 11:-1 12:0 13:-0.88 14:-0.99250001 #
0.01441799321968007 1:1 2:-0.57654101 3:-0.89285702 4:0 5:0.23076899 6:-0.25 7:-0.859649 8:1 9:1 10:-0.67164201 11:1 12:0 13:-0.56599998 14:-0.9993 #
0.11005051622544543 1:1 2:0.045113001 3:-0.69642901 4:0 5:-0.076922998 6:-0.25 7:-0.99122798 8:1 9:-1 10:-1 11:1 12:0 13:-0.77499998 14:-1 #
0.11005051622544543 1:-1 2:-0.170526 3:-0.92857099 4:0 5:-0.69230801 6:0 7:-0.84210497 8:1 9:-1 10:-1 11:1 12:0 13:-1 14:-0.99400002 #
0.11005051622544543 1:1 2:0.039999999 3:-0.142857 4:0 5:-0.076922998 6:-0.25 7:0.122807 8:1 9:-1 10:-1 11:-1 12:-1 13:-0.88999999 14:-1 #
-0.11005051622544543 1:1 2:-0.27819499 3:-0.5 4:0 5:0.53846198 6:0.75 7:-0.192982 8:1 9:1 10:-0.79104501 11:1 12:0 13:-0.69999999 14:-0.99989998 #
-0.11005051622544543 1:1 2:-0.53624099 3:-0.75 4:0 5:0.23076899 6:-0.25 7:-0.75438601 8:1 9:1 10:-0.91044801 11:1 12:0 13:-0.671 14:-1 #
-0.11005051622544543 1:1 2:-0.661654 3:-0.142857 4:0 5:-0.53846198 6:-0.25 7:-0.84210497 8:1 9:1 10:-0.94029897 11:1 12:0 13:-0.88 14:-0.99989998 #
-0.11005051622544543 1:-1 2:-0.25323299 3:-0.64285702 4:0 5:0.84615397 6:-0.25 7:-0.052632 8:1 9:-1 10:-1 11:1 12:0 13:-0.02 14:-1 #
0.11005051622544543 1:-1 2:-0.84721798 3:-0.68464297 4:-1 5:0.076922998 6:0.75 7:-0.78947401 8:1 9:-1 10:-1 11:-1 12:0 13:-0.75999999 14:-1 #
0.11005051622544543 1:1 2:-0.448722 3:-0.71428603 4:0 5:-0.076922998 6:-0.25 7:-0.824561 8:1 9:-1 10:-1 11:1 12:0 13:-0.63999999 14:-1 #
-0.11005051622544543 1:-1 2:-0.67428601 3:-0.95214301 4:0 5:-0.23076899 6:0.75 7:-0.87719297 8:1 9:-1 10:-1 11:-1 12:0 13:-0.60000002 14:-1 #
-0.11005051622544543 1:-1 2:-0.58135301 3:-0.89285702 4:0 5:-0.076922998 6:-0.25 7:-0.859649 8:1 9:-1 10:-1 11:-1 12:-1 13:-0.63200003 14:-1 #
-0.11005051622544543 1:-1 2:-0.661654 3:-0.214286 4:-1 5:-0.23076899 6:-0.25 7:-0.68421102 8:1 9:-1 10:-1 11:-1 12:0 13:-0.88 14:-1 #
-0.11005051622544543 1:-1 2:-0.39338401 3:-0.88678598 4:-1 5:-1 6:-1 7:-1 8:1 9:-1 10:-1 11:-1 12:0 13:-0.68000001 14:-1 #
-0.11005051622544543 1:1 2:-0.70917302 3:-0.95821398 4:0 5:0.076922998 6:0.75 7:-0.99403501 8:1 9:-1 10:-1 11:-1 12:0 13:-0.81999999 14:-1 #
0.0012727978916670865 1:-1 2:0.54646599 3:0 4:0 5:-1 6:-1 7:-1 8:1 9:1 10:-0.67164201 11:1 12:0 13:-1 14:-0.972 #
0.10747180319958627 1:1 2:-0.73172897 3:-0.88678598 4:-1 5:0.23076899 6:-0.25 7:-0.78350902 8:1 9:1 10:-0.82089603 11:-1 12:0 13:-0.92000002 14:-1 #
0.0029134033249063052 1:1 2:-0.52390999 3:-0.67857099 4:0 5:0.23076899 6:-0.25 7:-0.47368401 8:1 9:1 10:-0.94029897 11:1 12:0 13:-0.67000002 14:-1 #
0.11005051622544543 1:-1 2:-0.796992 3:-0.154643 4:0 5:0.076922998 6:0.75 7:-0.57894701 8:1 9:-1 10:-1 11:-1 12:0 13:-0.66000003 14:-1 #
-0.11005051622544543 1:1 2:0.077593997 3:0.35714301 4:0 5:-1 6:-1 7:-1 8:1 9:1 10:-0.97014898 11:-1 12:0 13:-0.90600002 14:-1 #
0.11005051622544543 1:-1 2:-0.884812 3:-0.35714301 4:0 5:-0.23076899 6:-0.25 7:-0.90350902 8:1 9:-1 10:-1 11:1 12:0 13:-1 14:-1 #
-0.11005051622544543 1:-1 2:0.060150001 3:-0.89285702 4:0 5:-0.384615 6:-0.5 7:-1 8:1 9:-1 10:-1 11:1 12:0 13:-0.89999998 14:-0.99945998 #
-0.11005051622544543 1:1 2:-0.390977 3:-0.67857099 4:0 5:-0.23076899 6:-0.25 7:-0.92982501 8:1 9:-1 10:-1 11:1 12:0 13:-0.75999999 14:-1 #
-0.11005051622544543 1:1 2:-0.54887199 3:-0.89285702 4:-1 5:0.076922998 6:-0.25 7:-0.89473701 8:1 9:-1 10:-1 11:1 12:0 13:-1 14:-0.99550003 #
-0.11005051622544543 1:1 2:-0.70436102 3:-0.967143 4:-1 5:0.23076899 6:-0.25 7:-0.81578898 8:1 9:1 10:-0.82089603 11:1 12:0 13:-0.792 14:-0.99305999 #
-0.067894605162860638 1:-1 2:-0.91729301 3:-0.91071397 4:0 5:0.53846198 6:-0.25 7:-0.98245603 8:-1 9:1 10:-0.97014898 11:-1 12:0 13:-0.89200002 14:-0.99804002 #
0.11005051622544543 1:1 2:-0.85714298 3:-0.85714298 4:0 5:-0.69230801 6:-0.25 7:-0.89473701 8:1 9:1 10:-0.94029897 11:-1 12:0 13:-0.88 14:-0.99400002 #
-0.11005051622544543 1:1 2:-0.86706799 3:-0.82428598 4:0 5:0.076922998 6:0.5 7:-0.93263203 8:-1 9:1 10:-0.94029897 11:1 12:0 13:-0.83999997 14:-0.98825997 #
-0.11005051622544543 1:1 2:-0.57654101 3:-0.71428603 4:-1 5:-0.69230801 6:0.75 7:-0.59649098 8:1 9:1 10:-0.94029897 11:1 12:0 13:-0.92500001 14:-1 #
-0.11005051622544543 1:1 2:-0.46406001 3:-0.64285702 4:-1 5:-0.23076899 6:-0.25 7:-0.40350899 8:1 9:-1 10:-1 11:-1 12:0 13:-1 14:-1 #
-0.11005051622544543 1:1 2:-0.353383 3:0.178571 4:-1 5:0.076922998 6:-0.25 7:-0.71929801 8:1 9:-1 10:-1 11:-1 12:0 13:-0.92000002 14:-1 #
0.11005051622544543 1:1 2:-0.63157898 3:-0.92857099 4:0 5:0.53846198 6:-0.25 7:-0.87719297 8:1 9:-1 10:-1 11:1 12:0 13:-0.72000003 14:-1 #
0.11005051622544543 1:1 2:-0.36330801 3:-0.82142901 4:0 5:0.23076899 6:-0.25 7:-1 8:1 9:-1 10:-1 11:1 12:0 13:-0.76099998 14:-0.99599999 #
0.048217157443474365 1:1 2:-0.83218002 3:-0.32142901 4:0 5:0.53846198 6:-0.25 7:-0.92982501 8:1 9:-1 10:-1 11:1 12:0 13:-0.94 14:-0.99199998 #
0.11005051622544543 1:1 2:-0.58135301 3:-0.017857 4:0 5:0.23076899 6:-0.25 7:-0.59649098 8:1 9:-1 10:-1 11:1 12:0 13:-0.51300001 14:-0.99000001 #
-0.11005051622544543 1:1 2:-0.50887197 3:-0.92571402 4:-1 5:-0.69230801 6:0 7:-0.964912 8:1 9:1 10:-0.70149302 11:1 12:0 13:-0.86799997 14:-0.99944001 #
-0.11005051622544543 1:1 2:-0.76691699 3:-0.178571 4:0 5:-0.69230801 6:-0.25 7:-0.964912 8:1 9:-1 10:-1 11:1 12:0 13:-0.89999998 14:-0.99864 #
-0.11005051622544543 1:1 2:-0.72180498 3:-0.94642901 4:0 5:-0.076922998 6:-0.25 7:-0.964912 8:1 9:-1 10:-1 11:1 12:-1 13:-0.68000001 14:-1 #
0.11005051622544543 1:-1 2:-0.52631599 3:-0.967143 4:0 5:-0.53846198 6:-0.25 7:-0.96210498 8:1 9:1 10:-0.880597 11:-1 12:0 13:-0.62 14:-0.99000001 #
0.081818888377258814 1:-1 2:0 3:-0.071428999 4:0 5:-0.69230801 6:0 7:-0.63754398 8:1 9:1 10:-0.73134297 11:1 12:0 13:-1 14:-1 #
-0.11005051622544543 1:-1 2:-0.73684198 3:-0.214286 4:-1 5:0.53846198 6:-0.25 7:-0.78947401 8:1 9:-1 10:-1 11:1 12:0 13:-0.73199999 14:-1 #
-0.11005051622544543 1:1 2:-0.67909801 3:-0.85714298 4:0 5:0.384615 6:-0.75 7:-0.98842102 8:-1 9:1 10:-0.94029897 11:-1 12:0 13:-0.68000001 14:-0.97399998 #
0.11005051622544543 1:-1 2:-0.774436 3:-0.83321398 4:0 5:-0.69230801 6:0 7:-0.964912 8:1 9:1 10:-0.880597 11:-1 12:-1 13:-0.92000002 14:-1 #
0.005608303498810141 1:1 2:-0.65924799 3:-0.87785703 4:0 5:1 6:-0.25 7:-0.88315803 8:1 9:1 10:-0.97014898 11:1 12:0 13:-0.60500002 14:-0.99959999 #
0.052665072411518965 1:1 2:-0.63909799 3:-0.96428603 4:0 5:0.076922998 6:-0.25 7:-0.89754403 8:1 9:1 10:-0.85074598 11:1 12:0 13:-0.68800002 14:-1 #
0.11005051622544543 1:-1 2:-0.491128 3:-0.142857 4:0 5:0.076922998 6:-0.25 7:-0.859649 8:1 9:1 10:-0.97014898 11:-1 12:0 13:-0.77999997 14:-0.99962002 #
-0.11005051622544543 1:1 2:-0.125413 3:-0.91071397 4:0 5:-0.076922998 6:-0.25 7:-0.026316 8:-1 9:1 10:-0.97014898 11:1 12:0 13:-0.648 14:-0.99776 #
0.11005051622544543 1:1 2:0.037594002 3:0.79178602 4:0 5:0.23076899 6:-0.25 7:-0.87719297 8:1 9:1 10:-0.91044801 11:-1 12:0 13:-0.88 14:-0.99971998 #
0.019443894311645615 1:1 2:-0.35578999 3:0.79464298 4:0 5:1 6:0.75 7:-0.88596499 8:1 9:1 10:-0.97014898 11:1 12:0 13:-0.48500001 14:-0.99000001 #
0.11005051622544543 1:-1 2:-0.79939801 3:-0.464286 4:0 5:-0.53846198 6:-0.25 7:-0.89473701 8:1 9:1 10:-0.97014898 11:-1 12:0 13:-0.83999997 14:-0.99532002 #
-0.11005051622544543 1:1 2:-0.68932301 3:-0.9375 4:0 5:-0.076922998 6:-0.25 7:-0.99403501 8:-1 9:1 10:-0.880597 11:-1 12:0 13:-0.74599999 14:-0.96100003 #
0.081814292840505259 1:1 2:0.047518998 3:-0.53571397 4:0 5:0.53846198 6:0.75 7:-0.57894701 8:1 9:-1 10:-1 11:1 12:0 13:-0.64999998 14:-1 #
0.00017303995485429269 1:1 2:-0.74195498 3:-0.214286 4:0 5:0.23076899 6:-0.25 7:-0.859649 8:1 9:1 10:-0.97014898 11:-1 12:0 13:-0.92000002 14:-0.99444002 #
-0.0039318456568202403 1:1 2:-0.60902297 3:-0.67857099 4:-1 5:0.076922998 6:0 7:-0.824561 8:-1 9:-1 10:-1 11:-1 12:0 13:-0.80000001 14:-0.97579998 #
0.002427923134787395 1:1 2:-0.26556399 3:-0.276786 4:0 5:1 6:-0.25 7:-0.824561 8:1 9:1 10:-0.82089603 11:-1 12:0 13:-0.47999999 14:-0.99607998 #
-0.00042940443922541427 1:1 2:-0.58406001 3:-0.76785702 4:-1 5:0.53846198 6:0.75 7:-0.64315802 8:-1 9:1 10:-0.94029897 11:1 12:0 13:-0.63099998 14:-0.99997997 #
0.0022163165759453707 1:-1 2:0.41864699 3:-0.64285702 4:0 5:-0.23076899 6:-0.25 7:-0.71929801 8:1 9:1 10:-0.880597 11:-1 12:0 13:-1 14:-0.99801999 #
-0.0023421179628805855 1:1 2:-0.52872199 3:-0.91071397 4:0 5:0.076922998 6:0.75 7:-0.98245603 8:-1 9:1 10:-0.94029897 11:1 12:0 13:-0.60000002 14:-0.99783999 #
-0.0003737538440880539 1:1 2:-0.93233103 3:-0.77678603 4:0 5:0.23076899 6:-0.25 7:-0.99403501 8:-1 9:1 10:-0.97014898 11:-1 12:0 13:-1 14:-0.99988002 #
-0.00045940648546693996 1:1 2:-0.649023 3:-0.961429 4:0 5:0.23076899 6:-0.25 7:-0.98842102 8:-1 9:1 10:-0.97014898 11:-1 12:0 13:-0.72799999 14:-0.99111998 #
-0.012164937990007285 1:-1 2:-0.73172897 3:-0.94642901 4:0 5:0.076922998 6:-0.25 7:-0.859649 8:-1 9:1 10:-0.94029897 11:1 12:0 13:-0.80000001 14:-0.99212003 #
5.243812459365671e-006 1:1 2:-0.090226002 3:-0.85714298 4:0 5:-0.076922998 6:-0.25 7:-0.87719297 8:1 9:1 10:-0.94029897 11:1 12:0 13:-1 14:-0.99970001 #
