SVM-light Version V6.02
2 # kernel type
3 # kernel parameter -d 
0.5 # kernel parameter -g 
1 # kernel parameter -s 
1 # kernel parameter -r 
empty# kernel parameter -u 
14 # highest feature index 
552 # number of training documents 
290 # number of support vectors plus 1 
0.11327697 # threshold b, each following line is a SV (starting with alpha*y)
-0.38017000909824128 1:1 2:-0.67909801 3:-0.85714298 4:0 5:0.384615 6:-0.75 7:-0.98842102 8:-1 9:1 10:-0.94029897 11:-1 12:0 13:-0.68000001 14:-0.97399998 #
-0.50610413343740768 1:1 2:-0.390977 3:-0.67857099 4:0 5:-0.23076899 6:-0.25 7:-0.92982501 8:1 9:-1 10:-1 11:1 12:0 13:-0.75999999 14:-1 #
0.43053924171856311 1:-1 2:-0.79939801 3:-0.94035703 4:0 5:0.53846198 6:-0.25 7:-0.88877201 8:1 9:1 10:-0.97014898 11:-1 12:0 13:-1 14:-1 #
-0.50610413343740768 1:1 2:0.47368401 3:-0.5 4:0 5:0.384615 6:1 7:-1 8:-1 9:-1 10:-1 11:-1 12:0 13:-1 14:-0.99975997 #
-0.038900210156359333 1:1 2:-0.86225599 3:-0.913571 4:-1 5:0.384615 6:-0.75 7:-1 8:-1 9:-1 10:-1 11:-1 12:0 13:-0.89999998 14:-1 #
0.50610413343740768 1:1 2:-0.71428603 3:-0.71428603 4:0 5:0.076922998 6:0 7:-0.98245603 8:1 9:-1 10:-1 11:1 12:0 13:-0.83999997 14:-1 #
0.49234503682345132 1:1 2:-0.75428599 3:-0.961429 4:-1 5:1 6:-0.25 7:-0.99719298 8:1 9:1 10:-0.97014898 11:1 12:0 13:-0.16 14:-0.99882001 #
0.50610413343740768 1:1 2:-0.35578999 3:0.79464298 4:0 5:1 6:0.75 7:-0.88596499 8:1 9:1 10:-0.97014898 11:1 12:0 13:-0.48500001 14:-0.99000001 #
0.21613512093019949 1:1 2:0.62405998 3:-0.60714298 4:0 5:0.384615 6:1 7:-0.087719001 8:1 9:1 10:-0.97014898 11:1 12:0 13:-1 14:-1 #
0.50610413343740768 1:-1 2:0.012632 3:-0.78571397 4:0 5:1 6:-0.25 7:-0.026316 8:1 9:1 10:-0.94029897 11:1 12:0 13:-0.48100001 14:-0.96591997 #
-0.50610413343740768 1:1 2:-0.27819499 3:-0.5 4:0 5:0.53846198 6:0.75 7:-0.192982 8:1 9:1 10:-0.79104501 11:1 12:0 13:-0.69999999 14:-0.99989998 #
-0.50610413343740768 1:1 2:-0.70436102 3:-0.967143 4:-1 5:0.23076899 6:-0.25 7:-0.81578898 8:1 9:1 10:-0.82089603 11:1 12:0 13:-0.792 14:-0.99305999 #
-0.50610413343740768 1:1 2:-0.53624099 3:-0.75 4:0 5:0.23076899 6:-0.25 7:-0.75438601 8:1 9:1 10:-0.91044801 11:1 12:0 13:-0.671 14:-1 #
0.50610413343740768 1:1 2:0.032481 3:-0.56857097 4:0 5:-0.53846198 6:-0.25 7:-0.99719298 8:-1 9:-1 10:-1 11:-1 12:0 13:-1 14:-0.94620001 #
0.50610413343740768 1:-1 2:-0.64421099 3:-1 4:0 5:0.076922998 6:-0.25 7:-1 8:-1 9:-1 10:-1 11:-1 12:1 13:-0.81599998 14:-1 #
0.50610413343740768 1:1 2:-0.16541401 3:-0.88999999 4:0 5:-0.69230801 6:0 7:-0.75438601 8:-1 9:-1 10:-1 11:-1 12:0 13:-0.78399998 14:-1 #
-0.46389630949222943 1:1 2:0.032481 3:-0.73214298 4:0 5:-0.69230801 6:0 7:-0.92982501 8:-1 9:-1 10:-1 11:-1 12:0 13:-0.89999998 14:-0.99996001 #
-0.2885226771868421 1:1 2:0.16300701 3:-0.89285702 4:0 5:-0.84615397 6:-0.25 7:-0.73684198 8:-1 9:-1 10:-1 11:1 12:0 13:-1 14:-0.99299997 #
-0.11059645157334037 1:-1 2:-0.238195 3:-0.71428603 4:0 5:0.076922998 6:-0.25 7:-0.78947401 8:-1 9:-1 10:-1 11:-1 12:0 13:-0.51999998 14:-1 #
0.19166820186270545 1:1 2:0.035188001 3:-0.45535699 4:0 5:0.23076899 6:0.75 7:0.087719001 8:1 9:1 10:-0.64179099 11:-1 12:0 13:-1 14:-0.9842 #
0.26962264880819831 1:1 2:-0.53383499 3:0.056428999 4:0 5:-0.23076899 6:-0.25 7:-0.64631599 8:1 9:1 10:-0.85074598 11:1 12:0 13:-0.83200002 14:-1 #
0.029909125361671462 1:1 2:-0.80691701 3:-0.339286 4:0 5:0.076922998 6:-0.25 7:-0.88315803 8:1 9:1 10:-0.91044801 11:1 12:0 13:-0.95999998 14:-0.99944001 #
-0.50610413343740768 1:1 2:-0.661654 3:-0.142857 4:0 5:-0.53846198 6:-0.25 7:-0.84210497 8:1 9:1 10:-0.94029897 11:1 12:0 13:-0.88 14:-0.99989998 #
0.50610413343740768 1:1 2:-0.69413501 3:-0.95249999 4:0 5:0.076922998 6:-0.25 7:-0.98842102 8:-1 9:-1 10:-1 11:-1 12:0 13:-0.89999998 14:-1 #
-0.50610413343740768 1:-1 2:-0.556391 3:-0.92857099 4:0 5:0.53846198 6:-0.25 7:-0.92982501 8:1 9:1 10:-0.94029897 11:1 12:0 13:-0.833 14:-0.99000001 #
-0.50610413343740768 1:1 2:-0.50887197 3:-0.92571402 4:-1 5:-0.69230801 6:0 7:-0.964912 8:1 9:1 10:-0.70149302 11:1 12:0 13:-0.86799997 14:-0.99944001 #
0.50610413343740768 1:1 2:-0.774436 3:-0.89285702 4:0 5:0.23076899 6:-0.25 7:-0.89473701 8:-1 9:-1 10:-1 11:-1 12:0 13:-0.85000002 14:-0.99984002 #
0.50610413343740768 1:1 2:-0.92721802 3:-0.99714297 4:0 5:0.076922998 6:-0.25 7:-0.99719298 8:-1 9:-1 10:-1 11:-1 12:0 13:-1 14:-1 #
-0.50610413343740768 1:1 2:-0.84721798 3:-1 4:0 5:0.53846198 6:-0.25 7:-0.95333302 8:-1 9:-1 10:-1 11:-1 12:0 13:-0.83999997 14:-0.99997997 #
-0.11363060337266485 1:1 2:-0.80962402 3:-0.98214298 4:0 5:0.53846198 6:-0.25 7:-0.99122798 8:-1 9:-1 10:-1 11:-1 12:0 13:-0.80000001 14:-1 #
0.13925244326067143 1:1 2:0.37594 3:-0.80357099 4:0 5:0.23076899 6:-0.25 7:-0.87719297 8:1 9:1 10:-0.85074598 11:1 12:0 13:-0.94 14:-0.99883997 #
0.50610413343740768 1:-1 2:-0.86977398 3:-0.97321397 4:1 5:0.84615397 6:-1 7:-0.298246 8:-1 9:-1 10:-1 11:1 12:-1 13:-0.69999999 14:-1 #
0.50610413343740768 1:1 2:-0.37594 3:-0.711429 4:-1 5:-0.69230801 6:0 7:-0.40350899 8:1 9:1 10:-0.79104501 11:1 12:0 13:-0.80500001 14:-1 #
0.50610413343740768 1:1 2:0.045113001 3:-0.69642901 4:0 5:-0.076922998 6:-0.25 7:-0.99122798 8:1 9:-1 10:-1 11:1 12:0 13:-0.77499998 14:-1 #
-0.50610413343740768 1:1 2:-0.383459 3:-0.875 4:0 5:0.23076899 6:0 7:-0.98245603 8:1 9:-1 10:-1 11:1 12:0 13:-0.83700001 14:-1 #
-0.50610413343740768 1:1 2:-0.055038001 3:-0.89285702 4:0 5:0.076922998 6:-0.25 7:-0.824561 8:1 9:-1 10:-1 11:1 12:0 13:-0.86000001 14:-1 #
-0.50610413343740768 1:1 2:-0.59398502 3:-0.95535702 4:0 5:-0.23076899 6:-0.25 7:-0.96806997 8:1 9:-1 10:-1 11:1 12:0 13:-0.80000001 14:-1 #
0.50610413343740768 1:1 2:-0.87217999 3:-0.98821402 4:0 5:0.53846198 6:0.5 7:-0.98526299 8:-1 9:-1 10:-1 11:-1 12:0 13:-0.80000001 14:-0.99919999 #
-0.049078517769232992 1:1 2:-0.22797 3:-0.87785703 4:-1 5:-0.076922998 6:-0.25 7:-0.98842102 8:-1 9:-1 10:-1 11:-1 12:-1 13:-0.60000002 14:-1 #
0.50610413343740768 1:-1 2:-0.54887199 3:-0.73214298 4:0 5:0.076922998 6:-0.25 7:-0.92386001 8:1 9:1 10:-0.97014898 11:1 12:0 13:-0.62900001 14:-1 #
-0.50610413343740768 1:-1 2:-0.81954902 3:-0.94642901 4:0 5:0.076922998 6:-0.25 7:-0.94421101 8:1 9:1 10:-0.85074598 11:1 12:0 13:-0.86000001 14:-0.99989998 #
-0.50610413343740768 1:-1 2:-0.398496 3:-0.94642901 4:0 5:-0.53846198 6:0 7:-0.92982501 8:1 9:1 10:-0.91044801 11:1 12:0 13:-0.78799999 14:-1 #
-0.50610413343740768 1:-1 2:-0.93473703 3:-0.79464298 4:0 5:0.53846198 6:-0.25 7:-0.99403501 8:-1 9:-1 10:-1 11:-1 12:0 13:-0.88 14:-1 #
0.50610413343740768 1:1 2:-0.448722 3:-0.71428603 4:0 5:-0.076922998 6:-0.25 7:-0.824561 8:1 9:-1 10:-1 11:1 12:0 13:-0.63999999 14:-1 #
0.50610413343740768 1:1 2:-0.36330801 3:-0.82142901 4:0 5:0.23076899 6:-0.25 7:-1 8:1 9:-1 10:-1 11:1 12:0 13:-0.76099998 14:-0.99599999 #
0.50610413343740768 1:1 2:-0.62646598 3:-0.98214298 4:0 5:-0.69230801 6:0 7:-1 8:1 9:-1 10:-1 11:1 12:0 13:-1 14:-1 #
-0.50610413343740768 1:1 2:-0.38857099 3:-0.53571397 4:0 5:-0.23076899 6:-0.25 7:-0.99122798 8:1 9:-1 10:-1 11:1 12:0 13:-0.55699998 14:-1 #
-0.50610413343740768 1:1 2:-0.67428601 3:-0.107143 4:0 5:0.23076899 6:-0.25 7:-0.93859601 8:1 9:-1 10:-1 11:1 12:0 13:-0.74000001 14:-1 #
-0.50610413343740768 1:1 2:-0.76691699 3:-0.178571 4:0 5:-0.69230801 6:-0.25 7:-0.964912 8:1 9:-1 10:-1 11:1 12:0 13:-0.89999998 14:-0.99864 #
0.50610413343740768 1:-1 2:-0.400902 3:-0.97321397 4:0 5:0.84615397 6:-0.25 7:-0.97368401 8:-1 9:-1 10:-1 11:-1 12:0 13:-0.69999999 14:-0.99912 #
0.34611317673018321 1:-1 2:0 3:-0.071428999 4:0 5:-0.69230801 6:0 7:-0.63754398 8:1 9:1 10:-0.73134297 11:1 12:0 13:-1 14:-1 #
0.50610413343740768 1:1 2:-0.145263 3:-0.63999999 4:0 5:0.53846198 6:0.75 7:-0.105263 8:1 9:-1 10:-1 11:1 12:0 13:-0.90799999 14:-1 #
-0.50610413343740768 1:-1 2:-0.52631599 3:-0.92250001 4:-1 5:1 6:-0.25 7:-0.92982501 8:-1 9:-1 10:-1 11:-1 12:0 13:-0.72000003 14:-0.99974 #
-0.32408009468919113 1:1 2:-0.91729301 3:-0.99107099 4:0 5:0.076922998 6:-0.25 7:-0.98842102 8:-1 9:-1 10:-1 11:-1 12:0 13:-0.86799997 14:-1 #
-0.50610413343740768 1:-1 2:-0.73684198 3:-0.39285699 4:0 5:0.53846198 6:-0.25 7:-0.87719297 8:1 9:1 10:-0.70149302 11:-1 12:0 13:-0.92000002 14:-0.98019999 #
0.50610413343740768 1:1 2:-0.58135301 3:-0.017857 4:0 5:0.23076899 6:-0.25 7:-0.59649098 8:1 9:-1 10:-1 11:1 12:0 13:-0.51300001 14:-0.99000001 #
0.39651893949877126 1:1 2:-0.83218002 3:-0.32142901 4:0 5:0.53846198 6:-0.25 7:-0.92982501 8:1 9:-1 10:-1 11:1 12:0 13:-0.94 14:-0.99199998 #
0.50610413343740768 1:1 2:-0.56150401 3:-0.64285702 4:0 5:0.23076899 6:-0.25 7:-0.22807001 8:1 9:-1 10:-1 11:1 12:0 13:-0.93000001 14:-1 #
-0.50610413343740768 1:1 2:-0.353383 3:-0.773929 4:0 5:1 6:0.75 7:-0.73684198 8:1 9:-1 10:-1 11:1 12:0 13:-0.31999999 14:-1 #
-0.50610413343740768 1:1 2:-0.441203 3:-0.464286 4:0 5:0.384615 6:0 7:-0.88877201 8:1 9:-1 10:-1 11:1 12:-1 13:-0.57999998 14:-1 #
-0.50610413343740768 1:1 2:-0.29563901 3:-0.71428603 4:0 5:0.076922998 6:0 7:-0.64912301 8:1 9:-1 10:-1 11:1 12:-1 13:-0.72000003 14:-1 #
0.42853069390584586 1:-1 2:-0.73924798 3:-0.196429 4:-1 5:1 6:0.75 7:-0.94736803 8:1 9:1 10:-0.880597 11:-1 12:0 13:-1 14:-0.99357998 #
0.079878709645753845 1:-1 2:-0.58887202 3:0.035714 4:0 5:1 6:0.75 7:-0.78350902 8:1 9:1 10:-0.97014898 11:-1 12:0 13:-0.88 14:-0.99978 #
0.0092640405762631529 1:-1 2:-0.52631599 3:-0.967143 4:0 5:-0.53846198 6:-0.25 7:-0.96210498 8:1 9:1 10:-0.880597 11:-1 12:0 13:-0.62 14:-0.99000001 #
-0.50610413343740768 1:1 2:-0.85202998 3:-0.64285702 4:0 5:0.53846198 6:-0.25 7:-0.97368401 8:1 9:1 10:-0.94029897 11:-1 12:0 13:-1 14:-0.99923998 #
-0.50610413343740768 1:1 2:-0.112782 3:0.80071402 4:0 5:0.53846198 6:0.75 7:-0.98526299 8:1 9:1 10:-0.97014898 11:-1 12:0 13:-0.23999999 14:-0.9982 #
-0.50610413343740768 1:-1 2:-0.91729301 3:-0.91071397 4:0 5:0.53846198 6:-0.25 7:-0.98245603 8:-1 9:1 10:-0.97014898 11:-1 12:0 13:-0.89200002 14:-0.99804002 #
0.50610413343740768 1:1 2:-0.661654 3:-0.107143 4:0 5:-0.23076899 6:-0.25 7:-0.78947401 8:1 9:-1 10:-1 11:1 12:-1 13:-0.98000002 14:-1 #
0.48110948704980339 1:1 2:0.047518998 3:-0.53571397 4:0 5:0.53846198 6:0.75 7:-0.57894701 8:1 9:-1 10:-1 11:1 12:0 13:-0.64999998 14:-1 #
0.063406349638686132 1:1 2:-0.42857099 3:-0.89285702 4:0 5:0.84615397 6:0.75 7:-0.61403501 8:1 9:1 10:-0.91044801 11:1 12:0 13:-1 14:-1 #
-0.50610413343740768 1:1 2:-0.18285701 3:-0.83928603 4:-1 5:1 6:0.75 7:-0.298246 8:1 9:-1 10:-1 11:1 12:0 13:-0.824 14:-1 #
-0.50610413343740768 1:1 2:0.160301 3:-0.90178603 4:-1 5:0.076922998 6:0.75 7:-0.33614001 8:1 9:-1 10:-1 11:1 12:0 13:-0.80000001 14:-0.99800003 #
-0.50610413343740768 1:1 2:-0.36601499 3:-0.71428603 4:0 5:-0.84615397 6:0 7:-0.122807 8:1 9:-1 10:-1 11:1 12:0 13:-0.81599998 14:-1 #
0.50610413343740768 1:-1 2:-0.80962402 3:-0.99107099 4:0 5:0.53846198 6:-0.25 7:-0.92982501 8:-1 9:1 10:-0.97014898 11:-1 12:0 13:-0.75999999 14:-0.98464 #
0.37199731500712074 1:1 2:-0.75699198 3:-0.214286 4:0 5:1 6:-0.25 7:-0.97964901 8:1 9:1 10:-0.82089603 11:-1 12:0 13:-0.87900001 14:-1 #
0.20133324851601914 1:-1 2:-0.0099250004 3:-0.967143 4:0 5:0.84615397 6:0.75 7:-0.97087699 8:1 9:1 10:-0.67164201 11:1 12:0 13:-0.56 14:-0.99988002 #
-0.50610413343740768 1:1 2:-0.761805 3:-0.91678602 4:-1 5:-0.53846198 6:-0.25 7:-0.824561 8:1 9:1 10:-0.97014898 11:-1 12:0 13:-0.81999999 14:-0.99959999 #
-0.50610413343740768 1:1 2:0.077593997 3:0.35714301 4:0 5:-1 6:-1 7:-1 8:1 9:1 10:-0.97014898 11:-1 12:0 13:-0.90600002 14:-1 #
-0.50610413343740768 1:-1 2:-0.25323299 3:-0.64285702 4:0 5:0.84615397 6:-0.25 7:-0.052632 8:1 9:-1 10:-1 11:1 12:0 13:-0.02 14:-1 #
0.50610413343740768 1:1 2:-0.45112801 3:-0.875 4:-1 5:0.384615 6:0.75 7:-0.99719298 8:1 9:-1 10:-1 11:1 12:0 13:-0.60699999 14:-1 #
0.50610413343740768 1:1 2:-0.080301002 3:-0.96428603 4:0 5:-0.69230801 6:0.75 7:-0.64912301 8:1 9:-1 10:-1 11:1 12:0 13:-0.68000001 14:-1 #
0.50610413343740768 1:1 2:-0.13533799 3:-0.648929 4:-1 5:0.23076899 6:-0.25 7:-0.77789497 8:1 9:-1 10:-1 11:1 12:0 13:-0.94800001 14:-0.97115999 #
-0.50610413343740768 1:1 2:-0.54887199 3:-0.89285702 4:-1 5:0.076922998 6:-0.25 7:-0.89473701 8:1 9:-1 10:-1 11:1 12:0 13:-1 14:-0.99550003 #
-0.50610413343740768 1:1 2:-0.285714 3:-0.875 4:-1 5:0.076922998 6:0 7:-0.98245603 8:1 9:-1 10:-1 11:1 12:0 13:-0.83600003 14:-0.99199998 #
-0.50610413343740768 1:1 2:-0.70917302 3:-0.95821398 4:0 5:0.076922998 6:0.75 7:-0.99403501 8:1 9:-1 10:-1 11:-1 12:0 13:-0.81999999 14:-1 #
0.50610413343740768 1:1 2:0.268271 3:-0.178571 4:0 5:-1 6:-1 7:-0.64912301 8:1 9:1 10:-0.85074598 11:-1 12:0 13:-1 14:-0.82297999 #
0.50610413343740768 1:1 2:0.047518998 3:-0.98535699 4:-1 5:-0.53846198 6:-0.25 7:-0.98245603 8:1 9:1 10:-0.67164201 11:-1 12:0 13:-0.62 14:-0.94536 #
0.50610413343740768 1:1 2:-0.283308 3:-1 4:0 5:0.076922998 6:-0.25 7:-1 8:-1 9:-1 10:-1 11:-1 12:1 13:-0.81599998 14:-1 #
-0.50610413343740768 1:1 2:-0.37353399 3:-1 4:0 5:0.076922998 6:-0.25 7:-1 8:-1 9:-1 10:-1 11:-1 12:1 13:-0.81599998 14:-1 #
-0.50610413343740768 1:1 2:-0.400902 3:-0.845357 4:0 5:0.076922998 6:-0.25 7:-0.89473701 8:-1 9:-1 10:-1 11:-1 12:1 13:-0.88 14:-1 #
-0.50610413343740768 1:1 2:-0.79939801 3:-1 4:0 5:0.076922998 6:-0.25 7:-1 8:-1 9:-1 10:-1 11:-1 12:1 13:-0.81599998 14:-1 #
0.50610413343740768 1:1 2:-0.71188003 3:-0.89285702 4:0 5:0.076922998 6:0.75 7:-0.900702 8:1 9:-1 10:-1 11:-1 12:0 13:-0.57800001 14:-0.99599999 #
0.50610413343740768 1:1 2:-0.60150403 3:-0.89285702 4:-1 5:0.23076899 6:-0.25 7:-0.97368401 8:1 9:-1 10:-1 11:1 12:0 13:-0.74000001 14:-0.97869998 #
0.50610413343740768 1:1 2:-0.68180501 3:-0.52678603 4:-1 5:-0.84615397 6:-0.25 7:-0.61403501 8:1 9:-1 10:-1 11:1 12:-1 13:-0.89999998 14:-1 #
-0.50610413343740768 1:-1 2:-0.67428601 3:-0.95214301 4:0 5:-0.23076899 6:0.75 7:-0.87719297 8:1 9:-1 10:-1 11:-1 12:0 13:-0.60000002 14:-1 #
0.50610413343740768 1:1 2:-0.71669197 3:-1 4:0 5:0.076922998 6:-0.25 7:-1 8:-1 9:-1 10:-1 11:-1 12:1 13:-0.81599998 14:-1 #
-0.50610413343740768 1:-1 2:-0.498647 3:-0.90178603 4:0 5:0.23076899 6:0.75 7:-0.99719298 8:-1 9:1 10:-0.91044801 11:-1 12:0 13:-1 14:-0.99934 #
-0.50610413343740768 1:1 2:-0.082707003 3:-0.214286 4:-1 5:-0.84615397 6:-0.25 7:-0.89473701 8:1 9:-1 10:-1 11:-1 12:-1 13:-1 14:-1 #
0.50610413343740768 1:-1 2:-0.30827099 3:-0.63392901 4:0 5:0.384615 6:-0.25 7:-0.64912301 8:1 9:-1 10:-1 11:1 12:0 13:-1 14:-0.92000002 #
0.50610413343740768 1:1 2:-0.385865 3:-0.625 4:0 5:0.23076899 6:-0.25 7:-0.99403501 8:-1 9:-1 10:-1 11:1 12:0 13:-0.70999998 14:-0.99988002 #
-0.50610413343740768 1:1 2:-0.353383 3:0.178571 4:-1 5:0.076922998 6:-0.25 7:-0.71929801 8:1 9:-1 10:-1 11:-1 12:0 13:-0.92000002 14:-1 #
-0.50610413343740768 1:1 2:0.666767 3:-0.35714301 4:0 5:-1 6:-1 7:-0.71929801 8:-1 9:1 10:-0.97014898 11:-1 12:0 13:-0.93000001 14:-0.99988002 #
-0.50610413343740768 1:1 2:-0.46857101 3:0.107143 4:0 5:0.076922998 6:-0.25 7:-0.964912 8:1 9:-1 10:-1 11:-1 12:0 13:-0.88 14:-1 #
0.44523502893445804 1:-1 2:-0.796992 3:-0.154643 4:0 5:0.076922998 6:0.75 7:-0.57894701 8:1 9:-1 10:-1 11:-1 12:0 13:-0.66000003 14:-1 #
0.50610413343740768 1:-1 2:-0.84721798 3:-0.68464297 4:-1 5:0.076922998 6:0.75 7:-0.78947401 8:1 9:-1 10:-1 11:-1 12:0 13:-0.75999999 14:-1 #
0.50610413343740768 1:-1 2:-0.78706801 3:-0.78571397 4:0 5:-0.23076899 6:-0.25 7:-0.99719298 8:1 9:-1 10:-1 11:-1 12:0 13:-0.89999998 14:-1 #
-0.50610413343740768 1:-1 2:-0.661654 3:-0.214286 4:-1 5:-0.23076899 6:-0.25 7:-0.68421102 8:1 9:-1 10:-1 11:-1 12:0 13:-0.88 14:-1 #
0.50610413343740768 1:1 2:-0.796992 3:-0.285714 4:-1 5:0.076922998 6:-0.25 7:-0.824561 8:1 9:-1 10:-1 11:-1 12:-1 13:-0.95999998 14:-1 #
0.1237753431819686 1:-1 2:-0.556391 3:-0.782857 4:-1 5:1 6:0.75 7:-0.82175398 8:1 9:1 10:-0.97014898 11:-1 12:0 13:-0.93000001 14:-1 #
0.50610413343740768 1:-1 2:0.085112996 3:-0.029642999 4:0 5:-0.53846198 6:0.75 7:-0.40350899 8:1 9:-1 10:-1 11:1 12:0 13:-1 14:-1 #
0.50610413343740768 1:1 2:-0.80451101 3:-0.288571 4:0 5:0.384615 6:-0.75 7:-1 8:1 9:-1 10:-1 11:-1 12:0 13:-1 14:-1 #
0.50610413343740768 1:1 2:0.035188001 3:-0.75 4:0 5:-0.23076899 6:-0.25 7:-0.75438601 8:1 9:-1 10:-1 11:-1 12:-1 13:-0.76999998 14:-1 #
0.50610413343740768 1:1 2:-0.63157898 3:-0.92857099 4:0 5:0.53846198 6:-0.25 7:-0.87719297 8:1 9:-1 10:-1 11:1 12:0 13:-0.72000003 14:-1 #
-0.078987156290113131 1:1 2:-0.86466199 3:-0.98821402 4:0 5:-0.84615397 6:-0.25 7:-0.98245603 8:-1 9:-1 10:-1 11:1 12:-1 13:-0.72000003 14:-1 #
-0.16279735394097811 1:-1 2:-0.31338301 3:-0.97928602 4:0 5:-1 6:-1 7:-1 8:-1 9:1 10:-0.70149302 11:-1 12:0 13:-0.80000001 14:-0.99963999 #
0.50610413343740768 1:1 2:-0.74947399 3:-0.214286 4:0 5:0.84615397 6:-0.25 7:-0.95333302 8:1 9:-1 10:-1 11:-1 12:0 13:-0.89999998 14:-1 #
0.50610413343740768 1:1 2:0.223158 3:-0.96428603 4:-1 5:-0.53846198 6:0.75 7:-0.72210503 8:1 9:-1 10:-1 11:-1 12:0 13:-0.81999999 14:-0.99372 #
0.50610413343740768 1:1 2:0.039999999 3:-0.142857 4:0 5:-0.076922998 6:-0.25 7:0.122807 8:1 9:-1 10:-1 11:-1 12:-1 13:-0.88999999 14:-1 #
-0.50610413343740768 1:1 2:-0.082707003 3:-0.96428603 4:0 5:-0.076922998 6:-0.25 7:-0.24561401 8:1 9:-1 10:-1 11:-1 12:-1 13:-0.60000002 14:-1 #
-0.50610413343740768 1:1 2:-0.215639 3:-0.96428603 4:0 5:-0.076922998 6:-0.25 7:-0.98245603 8:1 9:-1 10:-1 11:-1 12:-1 13:-0.71200001 14:-1 #
-0.50610413343740768 1:1 2:-0.92481202 3:-0.94035703 4:0 5:-0.076922998 6:-0.25 7:-0.99403501 8:1 9:-1 10:-1 11:-1 12:-1 13:-0.80000001 14:-1 #
0.50610413343740768 1:1 2:-0.30827099 3:-0.99107099 4:-1 5:0.076922998 6:-0.25 7:-0.89473701 8:-1 9:-1 10:-1 11:1 12:0 13:-0.76800001 14:-0.99773997 #
0.50610413343740768 1:1 2:-0.74947399 3:-0.940714 4:0 5:0.076922998 6:0.75 7:-0.84807003 8:-1 9:-1 10:-1 11:1 12:0 13:-0.87199998 14:-1 #
0.50610413343740768 1:1 2:-0.73172897 3:-0.98821402 4:0 5:0.076922998 6:-0.5 7:-0.84210497 8:-1 9:-1 10:-1 11:1 12:-1 13:-1 14:-1 #
-0.50610413343740768 1:-1 2:-0.553985 3:-0.88107097 4:0 5:0.53846198 6:-0.25 7:-0.83052599 8:1 9:-1 10:-1 11:1 12:0 13:-0.56 14:-1 #
-0.50610413343740768 1:-1 2:-0.65172899 3:-0.851071 4:0 5:0.076922998 6:0.75 7:-0.80701798 8:1 9:-1 10:-1 11:1 12:0 13:-0.63999999 14:-0.99997997 #
-0.50610413343740768 1:-1 2:0.060150001 3:-0.89285702 4:0 5:-0.384615 6:-0.5 7:-1 8:1 9:-1 10:-1 11:1 12:0 13:-0.89999998 14:-0.99945998 #
0.50610413343740768 1:1 2:-0.71428603 3:-0.92857099 4:0 5:0.076922998 6:-0.25 7:-0.94140399 8:1 9:-1 10:-1 11:-1 12:-1 13:-0.69999999 14:-1 #
0.50610413343740768 1:1 2:-0.80691701 3:-0.59821397 4:0 5:0.23076899 6:-0.25 7:-0.88 8:1 9:-1 10:-1 11:-1 12:-1 13:-0.88 14:-1 #
0.50610413343740768 1:1 2:-0.125413 3:-0.66964298 4:0 5:0.53846198 6:-0.25 7:-0.67859602 8:1 9:-1 10:-1 11:-1 12:-1 13:-1 14:-1 #
-0.50610413343740768 1:1 2:-0.76691699 3:-0.30357099 4:0 5:0.076922998 6:-0.25 7:-0.98245603 8:1 9:-1 10:-1 11:-1 12:0 13:-0.86000001 14:-1 #
-0.50610413343740768 1:1 2:-0.64150399 3:-0.842143 4:-1 5:-0.23076899 6:-0.25 7:-0.71929801 8:1 9:-1 10:-1 11:-1 12:0 13:-0.81199998 14:-1 #
-0.50610413343740768 1:1 2:-0.46406001 3:-0.64285702 4:-1 5:-0.23076899 6:-0.25 7:-0.40350899 8:1 9:-1 10:-1 11:-1 12:0 13:-1 14:-1 #
0.50610413343740768 1:-1 2:-0.63909799 3:-0.96428603 4:0 5:0.076922998 6:0.75 7:-0.93859601 8:1 9:-1 10:-1 11:1 12:0 13:-0.509 14:-1 #
0.50610413343740768 1:-1 2:-0.170526 3:-0.92857099 4:0 5:-0.69230801 6:0 7:-0.84210497 8:1 9:-1 10:-1 11:1 12:0 13:-1 14:-0.99400002 #
0.50610413343740768 1:-1 2:-0.661654 3:-0.9375 4:0 5:1 6:0.75 7:-0.92701799 8:1 9:-1 10:-1 11:1 12:0 13:-0.83999997 14:-0.88279998 #
-0.50610413343740768 1:-1 2:-0.58135301 3:-0.89285702 4:0 5:-0.076922998 6:-0.25 7:-0.859649 8:1 9:-1 10:-1 11:-1 12:-1 13:-0.63200003 14:-1 #
-0.50610413343740768 1:-1 2:-0.553985 3:-0.74714297 4:0 5:-0.69230801 6:0 7:-0.964912 8:1 9:-1 10:-1 11:1 12:0 13:-0.829 14:-1 #
-0.50610413343740768 1:-1 2:-0.66406 3:-0.91071397 4:0 5:-1 6:-1 7:-1 8:1 9:-1 10:-1 11:-1 12:0 13:-0.92000002 14:-1 #
0.50610413343740768 1:1 2:-0.73172897 3:-0.81857097 4:-1 5:0.076922998 6:0.75 7:-0.81859601 8:1 9:-1 10:-1 11:-1 12:0 13:-1 14:-1 #
0.50610413343740768 1:1 2:-0.285714 3:-0.91964298 4:-1 5:-0.84615397 6:-0.25 7:-0.89473701 8:-1 9:-1 10:-1 11:1 12:0 13:-0.56900001 14:-1 #
0.50610413343740768 1:1 2:-0.15037601 3:-0.98535699 4:0 5:-0.69230801 6:0.75 7:-0.640351 8:1 9:-1 10:-1 11:-1 12:0 13:-0.60000002 14:-1 #
-0.39110795642528789 1:1 2:-0.46406001 3:-0.99714297 4:-1 5:-0.84615397 6:-0.25 7:-0.70175397 8:-1 9:-1 10:-1 11:1 12:0 13:-0.54000002 14:-1 #
-0.50610413343740768 1:1 2:-0.493835 3:-0.80642903 4:-1 5:-0.076922998 6:-0.25 7:-0.99122798 8:-1 9:-1 10:-1 11:1 12:-1 13:-0.92000002 14:-1 #
-0.13104338730464574 1:1 2:-0.89985001 3:-0.98214298 4:0 5:0.53846198 6:-0.25 7:-0.97649097 8:-1 9:1 10:-0.880597 11:-1 12:0 13:-0.83999997 14:-0.99984002 #
0.50610413343740768 1:-1 2:-0.030075001 3:-0.71428603 4:0 5:-0.384615 6:-0.5 7:-1 8:1 9:-1 10:-1 11:-1 12:0 13:-0.89999998 14:-0.98079997 #
0.50610413343740768 1:-1 2:-0.884812 3:-0.35714301 4:0 5:-0.23076899 6:-0.25 7:-0.90350902 8:1 9:-1 10:-1 11:1 12:0 13:-1 14:-1 #
0.50610413343740768 1:-1 2:-0.84721798 3:-0.318571 4:0 5:-0.23076899 6:-0.25 7:-0.99403501 8:1 9:-1 10:-1 11:-1 12:0 13:-0.89999998 14:-1 #
-0.50610413343740768 1:-1 2:-0.73684198 3:-0.214286 4:-1 5:0.53846198 6:-0.25 7:-0.78947401 8:1 9:-1 10:-1 11:1 12:0 13:-0.73199999 14:-1 #
-0.50610413343740768 1:1 2:1 3:-0.60714298 4:0 5:0.076922998 6:-0.25 7:-0.96210498 8:1 9:-1 10:-1 11:-1 12:0 13:-1 14:-0.9932 #
-0.50610413343740768 1:1 2:0.46616501 3:-0.089286 4:-1 5:0.076922998 6:0.75 7:-0.64912301 8:1 9:-1 10:-1 11:-1 12:0 13:-0.88800001 14:-1 #
0.50610413343740768 1:1 2:-0.83699203 3:-1 4:-1 5:-0.076922998 6:0 7:-1 8:-1 9:-1 10:-1 11:1 12:-1 13:-0.5 14:-0.99997997 #
0.50610413343740768 1:1 2:-0.35578999 3:-0.67857099 4:0 5:1 6:0.75 7:-0.59649098 8:-1 9:-1 10:-1 11:1 12:-1 13:-0.289 14:-1 #
0.50610413343740768 1:1 2:-0.18045101 3:-0.99714297 4:0 5:0.384615 6:-0.25 7:-0.99719298 8:-1 9:1 10:-0.97014898 11:-1 12:-1 13:-0.44 14:-1 #
-0.50610413343740768 1:1 2:-0.491128 3:-0.82142901 4:0 5:0.84615397 6:0.75 7:-0.84210497 8:-1 9:-1 10:-1 11:1 12:-1 13:-0.66000003 14:-1 #
-0.50610413343740768 1:1 2:-0.71939802 3:-1 4:0 5:-0.53846198 6:-0.25 7:-0.92982501 8:-1 9:1 10:-0.67164201 11:-1 12:-1 13:-1 14:-1 #
-0.12057757046798173 1:-1 2:-0.52631599 3:-0.85714298 4:-1 5:0.384615 6:0.75 7:-0.859649 8:-1 9:-1 10:-1 11:-1 12:0 13:-0.74400002 14:-0.99966002 #
0.50610413343740768 1:1 2:0.037594002 3:0.79178602 4:0 5:0.23076899 6:-0.25 7:-0.87719297 8:1 9:1 10:-0.91044801 11:-1 12:0 13:-0.88 14:-0.99971998 #
0.50610413343740768 1:1 2:-0.887218 3:0.57142901 4:1 5:-1 6:0.5 7:-1 8:-1 9:-1 10:-1 11:1 12:1 13:-0.55000001 14:1 #
0.50610413343740768 1:1 2:-0.31067699 3:-0.68464297 4:-1 5:-0.53846198 6:-0.25 7:-0.98245603 8:1 9:1 10:-0.70149302 11:1 12:0 13:-0.68000001 14:-1 #
-0.50610413343740768 1:1 2:-0.57654101 3:-0.71428603 4:-1 5:-0.69230801 6:0.75 7:-0.59649098 8:1 9:1 10:-0.94029897 11:1 12:0 13:-0.92500001 14:-1 #
-0.50610413343740768 1:1 2:0.235489 3:0.107143 4:0 5:0.384615 6:1 7:-1 8:1 9:1 10:-0.40298501 11:-1 12:0 13:-0.84799999 14:-0.99739999 #
-0.50610413343740768 1:1 2:-0.72180498 3:-0.94642901 4:0 5:-0.076922998 6:-0.25 7:-0.964912 8:1 9:-1 10:-1 11:1 12:-1 13:-0.68000001 14:-1 #
0.50610413343740768 1:-1 2:0.40842101 3:0.178571 4:0 5:0.53846198 6:-0.25 7:-0.22807001 8:1 9:-1 10:-1 11:1 12:0 13:-0.97899997 14:-0.78877997 #
0.50610413343740768 1:1 2:0.283308 3:1 4:-1 5:0.076922998 6:-0.25 7:1 8:1 9:1 10:0.19403 11:-1 12:0 13:-1 14:-0.99970001 #
0.50610413343740768 1:-1 2:0.73924798 3:-1 4:0 5:0.076922998 6:-0.25 7:-1 8:-1 9:-1 10:-1 11:-1 12:1 13:-0.81599998 14:-1 #
-0.40573466990239954 1:-1 2:0.16541401 3:-0.5 4:0 5:-0.23076899 6:0.75 7:-0.78947401 8:-1 9:-1 10:-1 11:-1 12:0 13:-1 14:-1 #
-0.50610413343740768 1:-1 2:-0.82466203 3:-0.95249999 4:-1 5:0.076922998 6:-0.25 7:-0.92982501 8:-1 9:1 10:-0.97014898 11:-1 12:0 13:1 14:-0.99996001 #
-0.48219582751349355 1:1 2:-0.58406001 3:-0.76785702 4:-1 5:0.53846198 6:0.75 7:-0.64315802 8:-1 9:1 10:-0.94029897 11:1 12:0 13:-0.63099998 14:-0.99997997 #
0.33879808008585033 1:1 2:0.31338301 3:-0.39285699 4:0 5:0.384615 6:0.75 7:-0.50877202 8:1 9:1 10:-0.91044801 11:-1 12:0 13:-1 14:-1 #
0.50610413343740768 1:1 2:-0.41593999 3:-0.782857 4:-1 5:0.076922998 6:0.75 7:-0.85684198 8:1 9:1 10:-0.97014898 11:1 12:0 13:-0.81999999 14:-0.63946003 #
0.50610413343740768 1:1 2:0.381053 3:-0.88999999 4:0 5:0.53846198 6:-0.25 7:-0.99122798 8:1 9:-1 10:-1 11:1 12:0 13:-0.74000001 14:-1 #
-0.25384562303185992 1:1 2:-0.50135303 3:-0.96428603 4:0 5:-0.84615397 6:0.75 7:-0.99403501 8:-1 9:-1 10:-1 11:1 12:-1 13:-0.74800003 14:-1 #
-0.39955630527237657 1:-1 2:0.190376 3:-0.98821402 4:0 5:-1 6:-1 7:-1 8:-1 9:-1 10:-1 11:1 12:-1 13:-0.93800002 14:-0.99945998 #
-0.50610413343740768 1:-1 2:0.318196 3:-0.85714298 4:0 5:-1 6:-1 7:-0.54386002 8:-1 9:1 10:-0.97014898 11:-1 12:0 13:-1 14:-0.99980003 #
0.50610413343740768 1:1 2:0.39338401 3:0.035714 4:0 5:-1 6:-1 7:0.26315799 8:1 9:1 10:-0.552239 11:1 12:0 13:-1 14:-0.98000002 #
0.50610413343740768 1:-1 2:0.65172899 3:0.071428999 4:0 5:0.384615 6:1 7:-1 8:1 9:1 10:-0.58209002 11:-1 12:0 13:-1 14:-0.93247998 #
0.50610413343740768 1:-1 2:0.51368397 3:-0.98821402 4:0 5:-1 6:-1 7:-1 8:1 9:1 10:-0.97014898 11:-1 12:0 13:-0.76800001 14:-0.99800003 #
-0.47959250133350756 1:-1 2:-0.79939801 3:-0.25 4:-1 5:1 6:0.75 7:-1 8:-1 9:-1 10:-1 11:1 12:0 13:-0.84600002 14:-0.99936002 #
-0.50610413343740768 1:-1 2:-0.39338401 3:-0.88678598 4:-1 5:-1 6:-1 7:-1 8:1 9:-1 10:-1 11:-1 12:0 13:-0.68000001 14:-1 #
-0.47757741809339621 1:1 2:-0.125413 3:-0.91071397 4:0 5:-0.076922998 6:-0.25 7:-0.026316 8:-1 9:1 10:-0.97014898 11:1 12:0 13:-0.648 14:-0.99776 #
0.50610413343740768 1:1 2:-0.64150399 3:-0.107143 4:0 5:0.84615397 6:-0.25 7:-0.915088 8:1 9:1 10:1 11:1 12:0 13:-0.86000001 14:-0.99484003 #
0.50610413343740768 1:1 2:0.13293201 3:-0.99714297 4:0 5:1 6:0.75 7:-0.99719298 8:1 9:-1 10:-1 11:-1 12:0 13:-1 14:-0.94 #
0.50610413343740768 1:1 2:-0.71669197 3:-0.205357 4:0 5:1 6:0.75 7:-0.96771902 8:1 9:1 10:-0.97014898 11:-1 12:0 13:-0.89999998 14:-1 #
-0.50610413343740768 1:1 2:-0.12782 3:-0.78571397 4:0 5:-0.69230801 6:0 7:-0.92982501 8:1 9:-1 10:-1 11:-1 12:0 13:-1 14:-0.99599999 #
0.40652833091135765 1:-1 2:-0.18045101 3:-0.85428602 4:-1 5:0.53846198 6:0.75 7:-0.99122798 8:1 9:1 10:-0.31343299 11:1 12:0 13:-0.54500002 14:-0.97527999 #
-0.31782280062438423 1:1 2:-0.69413501 3:-0.95821398 4:-1 5:0.84615397 6:0.75 7:-0.99122798 8:-1 9:-1 10:-1 11:-1 12:0 13:-0.75999999 14:-0.99997997 #
-0.13546658612761409 1:1 2:-0.51639098 3:-0.85428602 4:-1 5:1 6:0.75 7:-0.99719298 8:-1 9:-1 10:-1 11:-1 12:0 13:-0.87199998 14:-0.99997997 #
0.50610413343740768 1:1 2:-0.71188003 3:-0.169643 4:-1 5:0.23076899 6:-0.25 7:-0.94140399 8:1 9:-1 10:-1 11:1 12:0 13:-0.83999997 14:-0.99400002 #
0.4254874723543044 1:-1 2:-0.70917302 3:-0.94357097 4:-1 5:0.53846198 6:-0.25 7:-0.89473701 8:1 9:1 10:-0.94029897 11:1 12:0 13:-0.92000002 14:-0.99199998 #
-0.50610413343740768 1:-1 2:-0.83699203 3:-0.95821398 4:-1 5:-0.23076899 6:-0.25 7:-0.958947 8:1 9:-1 10:-1 11:1 12:0 13:-0.83999997 14:-1 #
-0.45658588280957779 1:1 2:-0.76932299 3:-0.94642901 4:-1 5:0.69230801 6:0.5 7:-0.94736803 8:-1 9:-1 10:-1 11:1 12:0 13:-0.86799997 14:-0.99996001 #
-0.50610413343740768 1:-1 2:-0.493835 3:-0.238214 4:0 5:0.53846198 6:0.75 7:-0.99403501 8:-1 9:1 10:-0.64179099 11:1 12:0 13:-0.87099999 14:-0.99993998 #
0.50610413343740768 1:-1 2:-0.774436 3:-0.83321398 4:0 5:-0.69230801 6:0 7:-0.964912 8:1 9:1 10:-0.880597 11:-1 12:-1 13:-0.92000002 14:-1 #
0.41430616765188905 1:1 2:-0.69413501 3:-0.89285702 4:0 5:-0.84615397 6:0.75 7:-0.86842102 8:1 9:1 10:-0.82089603 11:-1 12:0 13:-0.80000001 14:-0.99346 #
-0.50610413343740768 1:1 2:-0.46406001 3:-0.96428603 4:0 5:0.076922998 6:0 7:-0.94140399 8:1 9:-1 10:-1 11:1 12:-1 13:-0.68000001 14:-1 #
-0.32813928997669517 1:-1 2:-0.185564 3:-0.75 4:0 5:-0.69230801 6:0 7:-0.964912 8:-1 9:-1 10:-1 11:-1 12:-1 13:0.16 14:-1 #
-0.31812223876850226 1:1 2:-0.443609 3:0 4:-1 5:-1 6:-1 7:-1 8:-1 9:1 10:-0.94029897 11:-1 12:0 13:-0.83999997 14:-0.99997997 #
0.32605792468863998 1:1 2:0.51368397 3:0.42857099 4:0 5:1 6:0.75 7:0.22807001 8:1 9:1 10:-0.73134297 11:1 12:0 13:-1 14:-0.98000002 #
0.36579268096992246 1:1 2:0.89473701 3:0.592143 4:0 5:0.384615 6:1 7:-0.105263 8:1 9:1 10:-0.97014898 11:1 12:0 13:-1 14:-0.99782002 #
0.50610413343740768 1:-1 2:0.54646599 3:0 4:0 5:-1 6:-1 7:-1 8:1 9:1 10:-0.67164201 11:1 12:0 13:-1 14:-0.972 #
-0.50610413343740768 1:-1 2:-0.45353401 3:-0.77678603 4:0 5:-1 6:-1 7:-0.78666699 8:-1 9:1 10:-0.94029897 11:1 12:0 13:-0.80000001 14:-0.99992001 #
-0.43332131080964931 1:-1 2:0.29563901 3:-0.69642901 4:-1 5:-1 6:-1 7:-0.64912301 8:-1 9:-1 10:-1 11:1 12:0 13:-1 14:-0.99992001 #
-0.50610413343740768 1:1 2:-0.884812 3:-0.285714 4:0 5:0.23076899 6:0.75 7:-0.98842102 8:-1 9:1 10:-0.97014898 11:-1 12:0 13:-0.88 14:-0.99997997 #
0.50610413343740768 1:-1 2:-0.56902301 3:0.071428999 4:-1 5:0.384615 6:1 7:-1 8:1 9:-1 10:-1 11:-1 12:0 13:-1 14:-0.73575997 #
0.50610413343740768 1:-1 2:-0.441203 3:-0.961429 4:0 5:0.84615397 6:-0.25 7:-0.99719298 8:1 9:-1 10:-1 11:-1 12:0 13:-0.56 14:-0.77645999 #
-0.33665214162116447 1:-1 2:-0.669173 3:-0.023929 4:0 5:0.53846198 6:0.75 7:-0.89473701 8:-1 9:-1 10:-1 11:-1 12:0 13:-0.72000003 14:-0.99997997 #
-0.37382917135249477 1:-1 2:-0.060150001 3:-0.67250001 4:0 5:-0.53846198 6:0.75 7:-0.92982501 8:-1 9:-1 10:-1 11:1 12:-1 13:-0.75999999 14:-1 #
-0.50610413343740768 1:1 2:0.024962001 3:-0.70249999 4:0 5:1 6:0 7:-0.99403501 8:-1 9:-1 10:-1 11:1 12:0 13:-0.47999999 14:-1 #
0.33585052688410183 1:1 2:-0.57894701 3:-0.95821398 4:-1 5:0.84615397 6:-0.25 7:-0.98245603 8:1 9:1 10:-0.94029897 11:-1 12:0 13:-0.74000001 14:-0.99000001 #
0.41227692158941864 1:1 2:-0.73172897 3:-0.88678598 4:-1 5:0.23076899 6:-0.25 7:-0.78350902 8:1 9:1 10:-0.82089603 11:-1 12:0 13:-0.92000002 14:-1 #
-0.091244530946625491 1:1 2:-0.90466201 3:-0.976071 4:-1 5:-0.53846198 6:-0.25 7:-0.97964901 8:-1 9:-1 10:-1 11:-1 12:-1 13:-0.80000001 14:-1 #
-0.22294979637280704 1:1 2:-0.69924802 3:-0.142857 4:0 5:0.076922998 6:-0.25 7:-0.85368401 8:-1 9:-1 10:-1 11:-1 12:-1 13:-0.92000002 14:-1 #
-0.17180447819939987 1:1 2:0.145263 3:-0.85428602 4:-1 5:-1 6:-1 7:-0.89473701 8:-1 9:-1 10:-1 11:-1 12:0 13:-0.88 14:-0.99997997 #
0.41682151799255041 1:-1 2:0.34345901 3:0.5 4:0 5:-0.69230801 6:0 7:-0.298246 8:1 9:1 10:-0.61194003 11:-1 12:0 13:-1 14:-0.866 #
0.50610413343740768 1:1 2:-0.57142901 3:-0.85714298 4:0 5:-0.53846198 6:0.75 7:-0.70771903 8:1 9:1 10:-0.94029897 11:1 12:0 13:-0.81900001 14:-1 #
-0.29510673806174448 1:-1 2:-0.200601 3:-0.41964301 4:-1 5:-0.53846198 6:-0.25 7:-0.98842102 8:-1 9:1 10:-0.94029897 11:-1 12:0 13:-0.81599998 14:-0.99963999 #
-0.29855506597613257 1:1 2:-0.70676702 3:-0.773929 4:-1 5:-0.53846198 6:-0.25 7:-0.97087699 8:-1 9:1 10:-0.97014898 11:1 12:0 13:-0.72000003 14:-0.99839997 #
-0.50610413343740768 1:-1 2:0.67669201 3:-0.57142901 4:0 5:-1 6:-1 7:-1 8:-1 9:-1 10:-1 11:-1 12:-1 13:-1 14:-1 #
0.50610413343740768 1:1 2:-0.46105301 3:0.154643 4:0 5:-0.84615397 6:-0.25 7:-0.78947401 8:1 9:1 10:-0.73134297 11:-1 12:0 13:-0.75 14:-0.98540002 #
0.4276013920705492 1:1 2:-0.157895 3:-0.93142903 4:0 5:1 6:-0.25 7:-0.824561 8:1 9:-1 10:-1 11:-1 12:0 13:-0.49000001 14:-0.98799998 #
0.21879416838844301 1:1 2:-0.71669197 3:-1 4:0 5:0.84615397 6:-0.25 7:-0.99403501 8:1 9:-1 10:-1 11:-1 12:0 13:-1 14:-1 #
-0.50610413343740768 1:1 2:-0.776842 3:-1 4:0 5:0.076922998 6:-0.25 7:-0.964912 8:-1 9:-1 10:-1 11:1 12:-1 13:-1 14:-1 #
-0.35848832743034487 1:1 2:-0.46406001 3:-0.97321397 4:0 5:-0.84615397 6:-0.25 7:-0.93859601 8:1 9:-1 10:-1 11:1 12:-1 13:-0.071999997 14:-1 #
-0.14357459680882914 1:1 2:-0.92240602 3:-0.70821398 4:0 5:-0.69230801 6:0.75 7:-0.97087699 8:-1 9:-1 10:-1 11:1 12:0 13:-0.88 14:-1 #
0.49419661900024286 1:1 2:-0.385865 3:-0.88999999 4:0 5:0.84615397 6:-0.25 7:-0.89192998 8:1 9:1 10:-0.97014898 11:1 12:0 13:-0.47999999 14:0 #
0.30060057876265428 1:-1 2:-0.72180498 3:-0.160714 4:0 5:1 6:0.75 7:-0.964912 8:1 9:1 10:-0.94029897 11:1 12:0 13:-0.69999999 14:-0.98898 #
0.33973003340659319 1:1 2:0.28812 3:0.32142901 4:0 5:-0.84615397 6:0 7:0.052632 8:1 9:1 10:-0.49253699 11:1 12:0 13:-1 14:-1 #
-0.28835316830882357 1:1 2:-0.85954899 3:-0.256071 4:-1 5:-0.23076899 6:-0.25 7:-0.99122798 8:1 9:-1 10:-1 11:-1 12:0 13:-0.88 14:-0.99250001 #
-0.23901394308495838 1:1 2:-0.18285701 3:-0.94035703 4:0 5:-1 6:-1 7:-1 8:1 9:-1 10:-1 11:-1 12:0 13:-0.87 14:-0.99997997 #
-0.14610564508971424 1:1 2:-0.85473698 3:-0.26499999 4:0 5:-1 6:-1 7:-0.97087699 8:-1 9:-1 10:-1 11:-1 12:0 13:-0.92000002 14:-1 #
0.4373052518279083 1:-1 2:0.285714 3:0.142857 4:0 5:-0.384615 6:-1 7:-1 8:1 9:1 10:-0.552239 11:-1 12:0 13:-1 14:-0.99506003 #
0.29511256539344155 1:-1 2:0.012632 3:-0.42857099 4:0 5:0.384615 6:0 7:-0.54386002 8:1 9:1 10:-0.82089603 11:-1 12:0 13:-0.625 14:0.022 #
-0.50610413343740768 1:1 2:-0.84721798 3:-0.74714297 4:-1 5:-1 6:-1 7:-1 8:-1 9:-1 10:-1 11:1 12:0 13:-0.81999999 14:-0.99997997 #
-0.26695774803201555 1:-1 2:-0.36601499 3:-0.91071397 4:-1 5:-0.69230801 6:0.75 7:-0.964912 8:-1 9:-1 10:-1 11:1 12:0 13:-0.83999997 14:-1 #
-0.22269720122073131 1:-1 2:-0.73172897 3:-0.976071 4:0 5:0.53846198 6:-0.25 7:-0.94736803 8:-1 9:-1 10:-1 11:-1 12:-1 13:-0.83999997 14:-1 #
0.29177148496501371 1:1 2:-1 3:-0.71428603 4:-1 5:0.23076899 6:-0.25 7:-0.87719297 8:1 9:1 10:-0.94029897 11:1 12:0 13:-0.88 14:-0.98000002 #
0.21793025268584659 1:1 2:-0.58406001 3:-0.85428602 4:-1 5:-0.23076899 6:-0.25 7:-0.859649 8:1 9:1 10:-0.91044801 11:1 12:0 13:-0.63 14:-0.98879999 #
0.48708502512630997 1:1 2:-0.85714298 3:-0.85714298 4:0 5:-0.69230801 6:-0.25 7:-0.89473701 8:1 9:1 10:-0.94029897 11:-1 12:0 13:-0.88 14:-0.99400002 #
-0.33212303106337304 1:1 2:-0.779549 3:-0.70535702 4:-1 5:-0.69230801 6:0.75 7:-0.99719298 8:-1 9:-1 10:-1 11:-1 12:0 13:-0.86000001 14:-0.99800003 #
-0.21378559039942738 1:1 2:-0.52872199 3:-0.91071397 4:0 5:0.076922998 6:0.75 7:-0.98245603 8:-1 9:1 10:-0.94029897 11:1 12:0 13:-0.60000002 14:-0.99783999 #
0.50610413343740768 1:-1 2:-0.51127797 3:-0.62214297 4:0 5:0.384615 6:-0.75 7:-0.84210497 8:1 9:1 10:-0.85074598 11:1 12:0 13:-0.90100002 14:-0.99000001 #
-0.50610413343740768 1:1 2:-0.62165397 3:-0.071428999 4:0 5:0.384615 6:-0.75 7:-1 8:-1 9:-1 10:-1 11:1 12:0 13:-0.86000001 14:-0.97780001 #
-0.17430347460563142 1:-1 2:-0.70436102 3:-0.940714 4:0 5:0.53846198 6:-0.25 7:-0.97087699 8:-1 9:1 10:-0.97014898 11:1 12:0 13:-0.80000001 14:-0.99978 #
-0.31856388867602065 1:1 2:-0.62646598 3:-0.107143 4:-1 5:-0.53846198 6:0.75 7:-0.91228098 8:-1 9:-1 10:-1 11:1 12:0 13:-1 14:-0.99966002 #
0.22528386492084587 1:-1 2:-0.93744397 3:-0.95821398 4:0 5:0.076922998 6:0.75 7:-0.89473701 8:1 9:1 10:-0.94029897 11:-1 12:0 13:-0.89999998 14:-1 #
0.19285689505925252 1:1 2:-0.59398502 3:-0.88678598 4:0 5:0.84615397 6:0.75 7:-0.87122798 8:1 9:1 10:-0.64179099 11:1 12:0 13:-0.417 14:-0.98574001 #
0.17868172914580938 1:1 2:0.02015 3:-0.97928602 4:0 5:0.076922998 6:0 7:0.052632 8:1 9:1 10:-0.40298501 11:-1 12:0 13:-1 14:-0.69999999 #
-0.12705660839996791 1:-1 2:-0.88210499 3:-1 4:-1 5:-0.384615 6:-1 7:-1 8:-1 9:-1 10:-1 11:-1 12:0 13:-0.91399997 14:-1 #
-0.30341171937046335 1:-1 2:-0.87458599 3:-0.27071401 4:0 5:-1 6:-1 7:-1 8:-1 9:-1 10:-1 11:-1 12:0 13:-1 14:-0.99900001 #
-0.1754964179168112 1:-1 2:-0.86466199 3:-0.285714 4:0 5:0.23076899 6:-0.25 7:-0.92982501 8:-1 9:1 10:-0.97014898 11:-1 12:0 13:-0.88 14:-0.99997997 #
-0.24516380137944299 1:1 2:-0.84210497 3:-1 4:-1 5:-1 6:-1 7:-1 8:-1 9:1 10:-0.880597 11:-1 12:0 13:-0.95499998 14:-0.99997997 #
-0.34671763418439072 1:-1 2:-0.82706797 3:-0.98821402 4:0 5:0.53846198 6:-0.25 7:-0.99719298 8:-1 9:-1 10:-1 11:1 12:0 13:-0.62 14:-1 #
0.30240496557832425 1:-1 2:-0.84451097 3:-0.339286 4:-1 5:0.076922998 6:-0.25 7:-0.92982501 8:1 9:1 10:-0.880597 11:1 12:0 13:-0.92000002 14:-0.99000001 #
0.16968030732848471 1:-1 2:-0.65654099 3:-0.79464298 4:0 5:1 6:0.75 7:-0.93859601 8:1 9:-1 10:-1 11:-1 12:0 13:-0.63999999 14:-1 #
-0.38858464373674828 1:1 2:0.112782 3:-0.95821398 4:0 5:-1 6:-1 7:-1 8:-1 9:-1 10:-1 11:-1 12:0 13:-0.85500002 14:-1 #
0.10655223839078319 1:-1 2:-0.34827101 3:-0.142857 4:0 5:0.53846198 6:0.75 7:-0.017543999 8:1 9:1 10:-0.76119399 11:-1 12:0 13:-1 14:-0.8682 #
-0.24943548240422633 1:1 2:-0.42105299 3:-0.82142901 4:-1 5:0.23076899 6:-0.25 7:-0.50877202 8:-1 9:-1 10:-1 11:1 12:0 13:-0.72000003 14:-1 #
-0.080891250487467578 1:-1 2:-0.41593999 3:-0.83928603 4:-1 5:0.84615397 6:-0.25 7:-0.75438601 8:-1 9:-1 10:-1 11:1 12:0 13:-0.80000001 14:-0.99717999 #
0.20046337891819405 1:1 2:-0.67909801 3:-0.118929 4:0 5:0.53846198 6:0.75 7:-0.88877201 8:1 9:-1 10:-1 11:1 12:0 13:-0.88 14:-1 #
-0.3498466170754328 1:1 2:-0.72421098 3:-0.98785698 4:0 5:-0.076922998 6:-0.25 7:-0.99403501 8:-1 9:-1 10:-1 11:-1 12:-1 13:-1 14:-1 #
-0.16561069181356358 1:-1 2:-0.83699203 3:-0.61321402 4:0 5:-0.69230801 6:0.75 7:-0.97964901 8:-1 9:-1 10:-1 11:-1 12:0 13:-0.92000002 14:-0.99032003 #
0.50610413343740768 1:1 2:-0.92992502 3:-0.94642901 4:0 5:0.076922998 6:-0.25 7:-0.87719297 8:1 9:1 10:-0.85074598 11:1 12:0 13:-0.648 14:-0.98619998 #
-0.23925150004147336 1:1 2:-0.29082701 3:-0.80964297 4:0 5:0.84615397 6:-0.25 7:-0.98842102 8:-1 9:-1 10:-1 11:1 12:0 13:-1 14:-0.98997998 #
-0.085732251537570428 1:1 2:-0.18285701 3:-0.96428603 4:-1 5:-0.076922998 6:-0.25 7:-0.964912 8:-1 9:-1 10:-1 11:1 12:0 13:-0.87 14:-1 #
-0.24014573193077943 1:1 2:-0.86706799 3:-0.26785699 4:0 5:0.076922998 6:0.75 7:-0.92386001 8:-1 9:-1 10:-1 11:-1 12:0 13:-0.68000001 14:-0.99974 #
-0.14754123320571558 1:-1 2:-0.65413499 3:-0.107143 4:0 5:-0.84615397 6:-0.25 7:-0.92982501 8:-1 9:-1 10:-1 11:1 12:0 13:-0.81999999 14:-0.97876 #
-0.095661863343716236 1:1 2:-0.63669199 3:-0.083214 4:0 5:0.84615397 6:-0.25 7:-0.964912 8:-1 9:-1 10:-1 11:-1 12:0 13:-1 14:-0.99996001 #
-0.40035774872274882 1:1 2:-0.64421099 3:-0.976071 4:0 5:-0.53846198 6:0.75 7:-0.75438601 8:-1 9:-1 10:-1 11:1 12:0 13:-0.66000003 14:-1 #
-0.091388469776232717 1:1 2:-0.69924802 3:-0.970357 4:-1 5:0.076922998 6:-0.25 7:-0.99719298 8:-1 9:1 10:-0.94029897 11:-1 12:0 13:-0.87199998 14:-0.99988002 #
-0.50610413343740768 1:1 2:-0.62646598 3:-0.94035703 4:0 5:0.84615397 6:-0.25 7:-0.91824597 8:-1 9:-1 10:-1 11:-1 12:0 13:-0.89999998 14:-1 #
-0.083879832913481542 1:1 2:-0.58887202 3:-0.107143 4:0 5:-0.23076899 6:0 7:-0.98245603 8:-1 9:-1 10:-1 11:1 12:0 13:-0.28 14:-1 #
-0.15189969248189195 1:1 2:-0.74676698 3:-0.133929 4:0 5:0.076922998 6:-0.25 7:-0.76596498 8:-1 9:1 10:-0.94029897 11:1 12:0 13:-0.81999999 14:-0.99654001 #
-0.23830244465605568 1:-1 2:-0.93744397 3:-0.45535699 4:0 5:0.53846198 6:-0.25 7:-0.99122798 8:-1 9:1 10:-0.97014898 11:1 12:0 13:-1 14:-0.99680001 #
-0.14630381851139423 1:-1 2:-0.74436098 3:-0.91071397 4:-1 5:-1 6:-1 7:-0.77192998 8:-1 9:-1 10:-1 11:-1 12:0 13:-0.72000003 14:-1 #
0.21654244845216924 1:-1 2:-0.72691703 3:-0.836429 4:0 5:0.53846198 6:0.75 7:-0.83929801 8:1 9:1 10:-0.79104501 11:1 12:0 13:-0.86000001 14:-0.95231998 #
-0.24440395830750924 1:1 2:-0.81203002 3:-1 4:0 5:-0.84615397 6:-0.25 7:-0.964912 8:-1 9:-1 10:-1 11:-1 12:0 13:-0.85600001 14:-1 #
-0.095794890330551469 1:1 2:-0.32571399 3:0.29464301 4:0 5:0.23076899 6:-0.25 7:-0.99403501 8:-1 9:-1 10:-1 11:-1 12:0 13:-0.68000001 14:-0.92896003 #
-0.027841496938300656 1:1 2:0.0051130001 3:-0.58321398 4:0 5:0.23076899 6:-0.25 7:-0.61403501 8:-1 9:-1 10:-1 11:-1 12:0 13:-0.53500003 14:-0.99699998 #
-0.05025282076681499 1:1 2:-0.36601499 3:-0.82142901 4:-1 5:0.23076899 6:-0.25 7:-0.78947401 8:-1 9:-1 10:-1 11:-1 12:-1 13:-0.80000001 14:-1 #
0.26546211005167336 1:1 2:0.553985 3:-0.214286 4:0 5:0.384615 6:1 7:0.40350899 8:1 9:1 10:-0.79104501 11:1 12:0 13:-0.97799999 14:-1 #
0.16620843675878585 1:-1 2:-0.669173 3:-0.107143 4:0 5:-0.23076899 6:-0.25 7:-0.89473701 8:1 9:1 10:-0.64179099 11:1 12:0 13:-0.88 14:-0.98865998 #
0.17475333765939674 1:1 2:-0.383459 3:-0.78571397 4:0 5:0.84615397 6:0.75 7:-0.47964901 8:1 9:-1 10:-1 11:1 12:0 13:-1 14:-1 #
-0.11601547427501512 1:1 2:-0.67428601 3:-0.035714 4:-1 5:-1 6:-1 7:-1 8:-1 9:-1 10:-1 11:-1 12:0 13:-0.81599998 14:-1 #
0.031828737148054134 1:1 2:-0.58135301 3:-0.85714298 4:0 5:1 6:0.75 7:-0.92982501 8:1 9:1 10:-0.880597 11:-1 12:0 13:-0.86000001 14:-0.84912002 #
0.032135843981048559 1:1 2:-0.56391001 3:-0.9375 4:0 5:-0.076922998 6:-0.25 7:-0.93263203 8:1 9:1 10:-0.91044801 11:1 12:0 13:-0.60399997 14:-1 #
-0.0061226576138754887 1:1 2:-0.42857099 3:-0.83321398 4:0 5:-0.84615397 6:0.75 7:-0.59649098 8:-1 9:-1 10:-1 11:1 12:0 13:-0.708 14:-1 #
-0.065143829220005278 1:-1 2:-0.90466201 3:-0.96428603 4:0 5:-0.69230801 6:-0.25 7:-0.98842102 8:-1 9:1 10:-0.82089603 11:1 12:0 13:-0.75999999 14:-0.9993 #
0.13165576383721808 1:-1 2:-0.84962398 3:-0.464286 4:0 5:0.53846198 6:-0.25 7:-0.809825 8:1 9:1 10:-0.85074598 11:-1 12:0 13:-0.81599998 14:-0.46548 #
