SVM-light Version V6.02
2 # kernel type
3 # kernel parameter -d 
0.5 # kernel parameter -g 
1 # kernel parameter -s 
1 # kernel parameter -r 
empty# kernel parameter -u 
10 # highest feature index 
547 # number of training documents 
123 # number of support vectors plus 1 
0.74806067 # threshold b, each following line is a SV (starting with alpha*y)
-0.062403423838392959 1:-0.84360701 2:-0.111111 3:-0.111111 4:-0.111111 5:0.555556 6:1 7:0.555556 8:0.33333299 9:-0.555556 10:0.33333299 #
-0.0016600778823167538 1:-0.91449898 2:0.555556 3:-0.33333299 4:1 5:-0.111111 6:-0.33333299 7:-0.33333299 8:0.33333299 9:1 10:-1 #
-0.52699168834670862 1:-0.84322798 2:0.555556 3:-0.77777803 4:-0.33333299 5:-1 6:-0.111111 7:-1 8:-0.111111 9:-0.33333299 10:-0.33333299 #
-0.11776586507111284 1:-0.81611699 2:1 3:0.555556 4:1 5:-1 6:-0.555556 7:1 8:-0.111111 9:-1 10:-1 #
0.52699168834670862 1:-0.84149402 2:-1 3:-0.555556 4:-0.555556 5:-0.77777803 6:-0.77777803 7:-1 8:0.33333299 9:-0.77777803 10:-1 #
0.52699168834670862 1:-0.84789503 2:0.111111 3:-0.77777803 4:-1 5:-1 6:-1 7:-1 8:0.33333299 9:-1 10:-1 #
-0.52699168834670862 1:-0.84754503 2:0.111111 3:-0.555556 4:-0.77777803 5:-1 6:-0.555556 7:-0.33333299 8:-0.33333299 9:-1 10:-1 #
-0.52699168834670862 1:-0.85386801 2:-0.111111 3:-0.555556 4:-0.555556 5:-0.555556 6:-0.77777803 7:-0.555556 8:-0.33333299 9:-0.33333299 10:-1 #
-0.52699168834670862 1:-0.82635498 2:-0.33333299 3:-1 4:-1 5:-0.555556 6:-1 7:-0.111111 8:-0.77777803 9:-1 10:-1 #
0.52699168834670862 1:-0.82824302 2:0.555556 3:-0.33333299 4:-0.33333299 5:-0.111111 6:-0.33333299 7:0.33333299 8:0.33333299 9:0.555556 10:-0.77777803 #
0.52699168834670862 1:-0.85756898 2:0.111111 3:-0.555556 4:-0.555556 5:-0.111111 6:-0.555556 7:1 8:-0.555556 9:-0.111111 10:-0.555556 #
0.52699168834670862 1:-0.81628501 2:0.111111 3:0.77777803 4:0.33333299 5:-0.111111 6:-0.111111 7:0.555556 8:-0.33333299 9:-0.77777803 10:-1 #
-0.09819335405575276 1:-0.82921797 2:1 3:-0.111111 4:0.111111 5:1 6:0.111111 7:1 8:0.33333299 9:0.33333299 10:1 #
-0.087182939792079917 1:-0.93655503 2:-1 3:-0.33333299 4:-0.555556 5:1 6:-0.33333299 7:1 8:-0.111111 9:0.111111 10:-1 #
0.52699168834670862 1:-0.83911198 2:0.33333299 3:-1 4:-0.77777803 5:-0.555556 6:-0.77777803 7:-1 8:-0.77777803 9:-1 10:-1 #
0.52699168834670862 1:-0.91170597 2:-1 3:-1 4:-1 5:-1 6:-0.77777803 7:-1 8:-1 9:-1 10:0.555556 #
-0.092655487112689672 1:-0.819942 2:1 3:1 4:0.33333299 5:0.555556 6:0.33333299 7:-1 8:1 9:1 10:-0.555556 #
-0.1735410502199734 1:-1 2:0.77777803 3:-1 4:-0.77777803 5:0.111111 6:-0.33333299 7:1 8:0.33333299 9:0.33333299 10:-0.77777803 #
-0.019651448506425938 1:-0.83465803 2:-1 3:0.111111 4:0.555556 5:1 6:0.555556 7:1 8:-0.111111 9:0.33333299 10:-1 #
0.52699168834670862 1:-0.83422101 2:0.555556 3:-0.555556 4:-0.555556 5:-1 6:-0.77777803 7:-0.77777803 8:-0.555556 9:-0.77777803 10:-1 #
0.52699168834670862 1:-0.82550502 2:0.555556 3:-0.33333299 4:0.111111 5:-0.555556 6:-0.555556 7:-1 8:-0.33333299 9:-0.555556 10:-1 #
0.52699168834670862 1:-0.90821701 2:-0.111111 3:-0.77777803 4:-0.77777803 5:-0.33333299 6:-0.77777803 7:-0.33333299 8:-1 9:-1 10:-1 #
-0.52699168834670862 1:-0.94540697 2:0.33333299 3:-0.77777803 4:-0.33333299 5:-1 6:-0.555556 7:-0.33333299 8:-0.555556 9:-0.555556 10:-1 #
-0.52699168834670862 1:-0.84391397 2:-0.111111 3:-0.555556 4:-0.555556 5:-0.33333299 6:-0.77777803 7:-0.33333299 8:-0.555556 9:-0.33333299 10:-1 #
-0.52699168834670862 1:-0.843099 2:0.77777803 3:-0.111111 4:-0.111111 5:-0.77777803 6:-0.77777803 7:-0.77777803 8:-0.111111 9:-1 10:-1 #
0.52699168834670862 1:-0.85768002 2:0.111111 3:0.555556 4:0.555556 5:-1 6:-0.555556 7:-0.33333299 8:-0.555556 9:0.33333299 10:-1 #
0.52699168834670862 1:-0.859671 2:-0.111111 3:-0.33333299 4:-0.33333299 5:-0.111111 6:0.33333299 7:1 8:-0.555556 9:-0.77777803 10:-1 #
0.52699168834670862 1:-0.97317702 2:-0.111111 3:0.33333299 4:0.33333299 5:-1 6:-0.111111 7:0.555556 8:-0.555556 9:-0.33333299 10:-1 #
-0.30114475992270429 1:-0.83490998 2:-0.111111 3:0.111111 4:0.111111 5:-0.77777803 6:-0.33333299 7:1 8:-0.555556 9:0.111111 10:-1 #
-0.082961446360515279 1:-0.84415603 2:0.33333299 3:0.555556 4:0.33333299 5:-0.77777803 6:-0.33333299 7:0.555556 8:-0.555556 9:0.555556 10:-0.77777803 #
-0.52699168834670862 1:-0.82981998 2:-0.111111 3:-0.555556 4:-0.555556 5:-0.555556 6:0.111111 7:1 8:-0.555556 9:-1 10:-1 #
0.52699168834670862 1:-0.82438099 2:-0.555556 3:-0.555556 4:-0.77777803 5:0.111111 6:-0.555556 7:-0.555556 8:-0.555556 9:-0.111111 10:-1 #
0.52699168834670862 1:-0.81024498 2:-0.111111 3:-0.33333299 4:-0.111111 5:-1 6:0.555556 7:-1 8:-0.555556 9:0.111111 10:-1 #
0.52699168834670862 1:-0.83211398 2:-0.555556 3:-1 4:-1 5:-0.555556 6:0.555556 7:-1 8:-0.111111 9:0.555556 10:-1 #
-0.52699168834670862 1:-0.88516903 2:-0.555556 3:-0.33333299 4:-0.33333299 5:1 6:-0.111111 7:-1 8:-0.555556 9:-0.555556 10:-1 #
-0.38077313081238495 1:-0.844791 2:-0.111111 3:0.111111 4:-0.111111 5:0.111111 6:1 7:-1 8:-0.555556 9:-1 10:-1 #
-0.52699168834670862 1:-0.84276599 2:0.111111 3:-0.555556 4:-0.33333299 5:-1 6:-0.111111 7:-0.77777803 8:-0.555556 9:0.77777803 10:-1 #
0.52699168834670862 1:-0.85740799 2:-1 3:-1 4:-1 5:-1 6:-0.77777803 7:1 8:-0.555556 9:-1 10:-1 #
0.52699168834670862 1:-0.83681703 2:-0.111111 3:-1 4:-0.77777803 5:1 6:-0.33333299 7:-0.111111 8:-0.77777803 9:-1 10:-1 #
0.52699168834670862 1:1 2:-1 3:-1 4:-0.555556 5:-1 6:-0.77777803 7:-1 8:-0.77777803 9:-1 10:-1 #
-0.52699168834670862 1:-0.83510298 2:-0.77777803 3:-0.555556 4:-0.33333299 5:-0.33333299 6:-0.77777803 7:-0.111111 8:-0.77777803 9:-0.111111 10:-1 #
-0.26868763120785277 1:-0.84276903 2:0.77777803 3:1 4:1 5:-1 6:1 7:0.555556 8:-0.555556 9:-0.555556 10:-1 #
-0.2135629569757615 1:-0.87834102 2:-0.555556 3:1 4:-0.555556 5:1 6:0.111111 7:1 8:-0.111111 9:-1 10:-0.33333299 #
0.52699168834670862 1:-0.88298702 2:-0.555556 3:-0.33333299 4:-0.111111 5:-0.555556 6:0.33333299 7:-0.555556 8:-0.33333299 9:0.111111 10:-1 #
0.52699168834670862 1:-0.83359897 2:-1 3:-1 4:-1 5:-1 6:1 7:-1 8:-1 9:-1 10:-1 #
-0.52699168834670862 1:-0.84648103 2:-0.77777803 3:-0.111111 4:-0.555556 5:-0.555556 6:0.111111 7:0.33333299 8:0.33333299 9:-0.111111 10:-1 #
-0.13014212698255995 1:-0.83804399 2:-0.111111 3:1 4:0.111111 5:-1 6:1 7:-0.33333299 8:-0.33333299 9:1 10:1 #
-0.17936461797873243 1:-0.84173101 2:0.111111 3:1 4:-0.77777803 5:0.555556 6:1 7:-0.77777803 8:0.33333299 9:0.555556 10:1 #
0.52699168834670862 1:-0.87676102 2:-0.33333299 3:-0.33333299 4:-0.33333299 5:-0.77777803 6:-0.77777803 7:-0.555556 8:-0.77777803 9:-1 10:-1 #
0.52699168834670862 1:-0.821495 2:-0.111111 3:-0.555556 4:0.111111 5:-1 6:-0.77777803 7:-1 8:-1 9:-1 10:-1 #
-0.52699168834670862 1:-0.852997 2:0.33333299 3:-0.33333299 4:0.111111 5:-0.33333299 6:0.111111 7:-1 8:-0.33333299 9:-0.555556 10:-1 #
-0.31467944556024857 1:-0.84392601 2:0.77777803 3:-0.111111 4:0.555556 5:-1 6:-0.77777803 7:-0.555556 8:-0.77777803 9:-1 10:-0.111111 #
-0.43789402389850907 1:-0.823286 2:1 3:-0.77777803 4:-0.77777803 5:-1 6:-0.77777803 7:0.111111 8:-1 9:-1 10:-0.77777803 #
0.52699168834670862 1:-0.98444402 2:-0.33333299 3:-1 4:-1 5:-1 6:-0.77777803 7:-1 8:-0.555556 9:0.111111 10:-1 #
0.52699168834670862 1:-0.824857 2:-0.555556 3:-0.555556 4:-0.77777803 5:-1 6:-0.555556 7:-1 8:-0.555556 9:0.111111 10:-1 #
-0.083852424979725421 1:-0.92828298 2:0.111111 3:-1 4:-0.555556 5:-1 6:-0.33333299 7:-0.111111 8:-0.111111 9:1 10:-1 #
-0.1602840795577973 1:-0.842893 2:-0.111111 3:-0.555556 4:-0.111111 5:-0.111111 6:-0.555556 7:-0.555556 8:-0.33333299 9:1 10:-1 #
-0.28867350768578853 1:-0.80778903 2:-0.111111 3:0.33333299 4:-0.33333299 5:-1 6:0.111111 7:-1 8:0.33333299 9:1 10:-0.555556 #
0.52699168834670862 1:-0.82759398 2:-0.111111 3:-1 4:-1 5:0.111111 6:-0.555556 7:-1 8:-1 9:-1 10:-1 #
0.52699168834670862 1:-0.83062297 2:-1 3:-1 4:-1 5:-0.77777803 6:-1 7:-0.555556 8:-1 9:-1 10:0.33333299 #
-0.30653560715517542 1:-0.834966 2:0.555556 3:-0.77777803 4:-0.555556 5:-1 6:0.111111 7:-0.555556 8:0.33333299 9:-1 10:-1 #
-0.32480562755852238 1:-0.91182101 2:0.555556 3:-0.555556 4:-0.33333299 5:0.77777803 6:-0.555556 7:1 8:-0.555556 9:-0.555556 10:-1 #
-0.14678700387289501 1:-0.92618799 2:-0.111111 3:1 4:1 5:1 6:1 7:1 8:1 9:-1 10:-1 #
0.52699168834670862 1:-0.90885502 2:-0.555556 3:-1 4:-1 5:-1 6:-0.77777803 7:-0.111111 8:-0.111111 9:-1 10:-1 #
0.46965033024338226 1:-0.99033898 2:-1 3:-1 4:-1 5:-1 6:-0.77777803 7:-0.111111 8:-0.111111 9:-1 10:-1 #
-0.35400400763749068 1:-0.84335202 2:0.555556 3:1 4:1 5:-1 6:-0.555556 7:0.111111 8:-0.555556 9:0.77777803 10:-1 #
-0.16165746781628898 1:-0.81602401 2:1 3:1 4:1 5:-1 6:0.111111 7:-1 8:-0.77777803 9:0.555556 10:-1 #
-0.042568730839666634 1:-0.84813499 2:1 3:1 4:1 5:0.555556 6:0.111111 7:-1 8:0.555556 9:0.77777803 10:-1 #
0.33251235013111247 1:0.220274 2:-0.33333299 3:-1 4:-1 5:-1 6:-1 7:-1 8:-0.77777803 9:-1 10:-1 #
-0.26279013359701825 1:-0.96157098 2:-0.555556 3:-0.555556 4:-0.111111 5:-0.77777803 6:-0.555556 7:1 8:0.33333299 9:-1 10:-1 #
-0.20094098235361779 1:-0.83465803 2:1 3:1 4:1 5:0.555556 6:-0.77777803 7:1 8:-0.33333299 9:-1 10:-1 #
-0.1349709875050967 1:-0.82638699 2:1 3:0.111111 4:-0.33333299 5:-0.555556 6:1 7:1 8:0.77777803 9:1 10:-1 #
-0.089363219212352463 1:-0.82573301 2:1 3:1 4:1 5:-0.555556 6:1 7:1 8:0.77777803 9:1 10:-1 #
-0.11068411999320313 1:-0.930408 2:1 3:1 4:1 5:1 6:1 7:1 8:-0.33333299 9:1 10:1 #
0.30012718693770474 1:-0.81996399 2:-0.555556 3:-1 4:-1 5:-1 6:-0.77777803 7:-0.111111 8:-1 9:-1 10:-1 #
-0.4043027800284783 1:-0.85029501 2:-0.111111 3:-0.77777803 4:-0.555556 5:-0.33333299 6:-0.77777803 7:0.33333299 8:-0.555556 9:0.111111 10:-1 #
-0.22321617293586424 1:-0.83796501 2:-0.555556 3:-0.555556 4:0.111111 5:-0.33333299 6:-0.111111 7:0.555556 8:-0.33333299 9:-0.33333299 10:-1 #
-0.14254845470565713 1:-0.842637 2:1 3:-0.33333299 4:-0.77777803 5:-1 6:-0.555556 7:-0.77777803 8:-0.33333299 9:-0.555556 10:1 #
-0.049265529008305914 1:-0.81061298 2:-0.111111 3:0.33333299 4:1 5:1 6:-0.111111 7:1 8:1 9:1 10:-1 #
-0.12269827102795365 1:-0.84210497 2:0.555556 3:-0.555556 4:0.555556 5:-0.555556 6:-0.33333299 7:0.77777803 8:0.555556 9:0.77777803 10:0.555556 #
-0.083426977133136834 1:-0.82856703 2:0.33333299 3:-0.111111 4:1 5:1 6:1 7:1 8:-0.33333299 9:1 10:-0.555556 #
-0.19248371909839807 1:-0.81616199 2:-0.33333299 3:1 4:0.555556 5:-0.111111 6:-0.33333299 7:-1 8:1 9:-1 10:-1 #
-0.073544930856462506 1:-0.886572 2:0.555556 3:1 4:1 5:1 6:0.111111 7:1 8:1 9:1 10:1 #
-0.16561202800615885 1:-0.84231001 2:-0.111111 3:0.555556 4:0.77777803 5:-0.33333299 6:-0.555556 7:1 8:0.33333299 9:-1 10:-1 #
-0.10647341559267347 1:-0.81331497 2:-0.33333299 3:1 4:-0.33333299 5:0.33333299 6:-0.555556 7:1 8:0.77777803 9:1 10:-1 #
-0.12640227463138223 1:-0.918634 2:1 3:-0.33333299 4:-0.555556 5:1 6:-0.33333299 7:1 8:1 9:-1 10:-1 #
-0.1208191521819704 1:-0.835329 2:0.77777803 3:0.111111 4:0.77777803 5:-0.77777803 6:1 7:0.111111 8:-0.77777803 9:0.77777803 10:1 #
-0.073933413053868441 1:-0.82855803 2:-0.555556 3:1 4:0.555556 5:0.33333299 6:0.111111 7:0.77777803 8:0.77777803 9:-0.555556 10:0.555556 #
-0.11004799827244065 1:-0.82995099 2:-0.111111 3:1 4:1 5:-0.555556 6:0.555556 7:-1 8:-0.111111 9:1 10:-0.555556 #
-0.090550028961184553 1:-0.910945 2:1 3:0.555556 4:-0.33333299 5:-0.33333299 6:-0.33333299 7:1 8:-0.555556 9:1 10:-0.33333299 #
-0.12661975702462194 1:-0.80743903 2:-0.111111 3:-0.33333299 4:0.111111 5:0.555556 6:-0.33333299 7:-1 8:0.555556 9:1 10:-1 #
-0.070352248131842793 1:-0.88239002 2:-0.77777803 3:0.33333299 4:1 5:1 6:0.33333299 7:1 8:-0.33333299 9:0.77777803 10:-0.33333299 #
-0.078041933825449147 1:-0.82774699 2:1 3:0.555556 4:0.555556 5:-0.33333299 6:1 7:1 8:0.555556 9:-1 10:-1 #
-0.062761908078988848 1:-0.82694697 2:1 3:1 4:1 5:1 6:-0.555556 7:1 8:1 9:0.111111 10:-1 #
-0.044333949611587681 1:-0.80882698 2:1 3:1 4:0.555556 5:1 6:0.111111 7:-0.111111 8:1 9:-0.555556 10:-1 #
-0.086140960960326182 1:-0.83522099 2:1 3:-0.555556 4:-0.111111 5:-1 6:1 7:-0.111111 8:-0.555556 9:1 10:-0.77777803 #
-0.088756119713266857 1:-0.89595598 2:0.555556 3:1 4:-0.555556 5:-0.77777803 6:0.111111 7:-0.33333299 8:-0.555556 9:1 10:-1 #
-0.040732036419108303 1:-0.84143698 2:0.77777803 3:-0.33333299 4:-0.111111 5:1 6:0.111111 7:1 8:-0.33333299 9:0.555556 10:-1 #
-0.040982231627446748 1:-0.83383399 2:-0.111111 3:-0.33333299 4:0.111111 5:0.33333299 6:0.77777803 7:0.33333299 8:0.555556 9:1 10:-1 #
-0.090184017646989259 1:-0.82617599 2:1 3:-0.111111 4:-0.111111 5:0.111111 6:-0.555556 7:1 8:0.33333299 9:0.77777803 10:-0.77777803 #
-0.044524959661157437 1:-0.83009797 2:-0.111111 3:0.555556 4:0.33333299 5:0.33333299 6:1 7:1 8:-0.111111 9:0.33333299 10:-1 #
-0.06182842652343986 1:-0.83419698 2:-0.33333299 3:-0.111111 4:-0.111111 5:1 6:-0.33333299 7:1 8:0.33333299 9:-0.111111 10:0.555556 #
-0.03905248267451137 1:-0.96101099 2:1 3:0.555556 4:0.555556 5:-0.77777803 6:-0.555556 7:-0.33333299 8:0.555556 9:0.33333299 10:0.555556 #
-0.046879177658752817 1:-0.84906501 2:1 3:1 4:1 5:1 6:0.111111 7:1 8:0.555556 9:-1 10:-0.111111 #
-0.037916224852744845 1:-0.88945502 2:-0.111111 3:1 4:1 5:1 6:-0.111111 7:-0.77777803 8:0.555556 9:-0.111111 10:-1 #
-0.053215786484545419 1:-0.812989 2:-0.33333299 3:0.555556 4:0.111111 5:-0.555556 6:-0.33333299 7:1 8:0.33333299 9:-1 10:-1 #
-0.022377673872813982 1:-0.87542403 2:-0.33333299 3:0.555556 4:0.111111 5:-0.33333299 6:-0.555556 7:-0.33333299 8:1 9:0.111111 10:-1 #
-0.053493706567046578 1:-0.878438 2:0.111111 3:1 4:1 5:1 6:1 7:1 8:0.555556 9:1 10:1 #
-0.023166896775617927 1:-0.90616798 2:0.555556 3:0.111111 4:-0.33333299 5:1 6:1 7:-1 8:-0.555556 9:-0.111111 10:-1 #
-0.036777671808174352 1:-0.82391298 2:0.555556 3:1 4:1 5:0.555556 6:0.111111 7:0.77777803 8:-0.555556 9:1 10:1 #
-0.015468704845547868 1:-0.81725502 2:0.555556 3:1 4:1 5:1 6:0.33333299 7:-0.111111 8:-0.33333299 9:0.555556 10:0.33333299 #
-0.015660885050604301 1:-0.83424002 2:1 3:1 4:1 5:-0.555556 6:1 7:0.555556 8:0.555556 9:-1 10:-1 #
-0.031694677049509248 1:-0.80487698 2:1 3:1 4:1 5:1 6:-0.111111 7:1 8:1 9:1 10:0.33333299 #
-0.013582788506230591 1:-0.98811799 2:0.33333299 3:0.111111 4:1 5:-0.111111 6:-0.555556 7:1 8:0.77777803 9:1 10:-0.77777803 #
-0.022132640913403525 1:-0.84248102 2:-0.111111 3:-0.555556 4:-0.33333299 5:-1 6:0.555556 7:1 8:-0.33333299 9:0.77777803 10:-1 #
0.019694671743575858 1:-0.82666099 2:0.111111 3:-1 4:-0.555556 5:-1 6:-0.77777803 7:-1 8:-0.555556 9:-1 10:-1 #
-0.008179153444360935 1:-0.97010499 2:-0.111111 3:1 4:1 5:0.111111 6:1 7:1 8:1 9:0.111111 10:-0.111111 #
-0.029116385448647496 1:-0.89038098 2:0.111111 3:-0.111111 4:-0.111111 5:0.555556 6:-0.33333299 7:1 8:-0.555556 9:-0.33333299 10:-1 #
-0.0149812785922998 1:-0.82209498 2:0.555556 3:1 4:1 5:1 6:0.111111 7:1 8:1 9:1 10:-1 #
-0.0059837738944969049 1:-0.82004303 2:0.77777803 3:0.555556 4:0.555556 5:0.77777803 6:0.111111 7:-0.555556 8:-0.33333299 9:-1 10:-1 #
-0.0058513476405605939 1:-0.93355799 2:0.33333299 3:-0.33333299 4:-0.111111 5:1 6:-0.77777803 7:1 8:-0.555556 9:0.555556 10:-0.77777803 #
-0.00056322751572363558 1:-0.82688498 2:0.111111 3:1 4:1 5:1 6:-0.33333299 7:1 8:0.33333299 9:1 10:-1 #
