SVM-light Version V6.02
0 # kernel type
3 # kernel parameter -d 
1 # kernel parameter -g 
1 # kernel parameter -s 
1 # kernel parameter -r 
empty# kernel parameter -u 
10 # highest feature index 
547 # number of training documents 
58 # number of support vectors plus 1 
1.6191331 # threshold b, each following line is a SV (starting with alpha*y)
0.147790953300863 1:-0.821495 2:-0.111111 3:-0.555556 4:0.111111 5:-1 6:-0.77777803 7:-1 8:-1 9:-1 10:-1 #
0.147790953300863 1:-0.83814901 2:-0.555556 3:-1 4:-1 5:-1 6:-0.77777803 7:-0.77777803 8:0.33333299 9:-1 10:-1 #
-0.147790953300863 1:-0.834966 2:0.555556 3:-0.77777803 4:-0.555556 5:-1 6:0.111111 7:-0.555556 8:0.33333299 9:-1 10:-1 #
0.147790953300863 1:-0.82824302 2:0.555556 3:-0.33333299 4:-0.33333299 5:-0.111111 6:-0.33333299 7:0.33333299 8:0.33333299 9:0.555556 10:-0.77777803 #
-0.147790953300863 1:-0.82635498 2:-0.33333299 3:-1 4:-1 5:-0.555556 6:-1 7:-0.111111 8:-0.77777803 9:-1 10:-1 #
0.147790953300863 1:-0.81628501 2:0.111111 3:0.77777803 4:0.33333299 5:-0.111111 6:-0.111111 7:0.555556 8:-0.33333299 9:-0.77777803 10:-1 #
-0.078694188005844712 1:-0.81616199 2:-0.33333299 3:1 4:0.555556 5:-0.111111 6:-0.33333299 7:-1 8:1 9:-1 10:-1 #
0.147790953300863 1:-0.83286798 2:-0.111111 3:-1 4:-0.33333299 5:-1 6:-0.77777803 7:-1 8:-0.555556 9:-0.77777803 10:-1 #
-0.0093030005416249728 1:-0.90616798 2:0.555556 3:0.111111 4:-0.33333299 5:1 6:1 7:-1 8:-0.555556 9:-0.111111 10:-1 #
0.147790953300863 1:-0.85768002 2:0.111111 3:0.555556 4:0.555556 5:-1 6:-0.555556 7:-0.33333299 8:-0.555556 9:0.33333299 10:-1 #
0.147790953300863 1:-0.83911198 2:0.33333299 3:-1 4:-0.77777803 5:-0.555556 6:-0.77777803 7:-1 8:-0.77777803 9:-1 10:-1 #
0.147790953300863 1:-0.85756898 2:0.111111 3:-0.555556 4:-0.555556 5:-0.111111 6:-0.555556 7:1 8:-0.555556 9:-0.111111 10:-0.555556 #
-0.147790953300863 1:-0.823286 2:1 3:-0.77777803 4:-0.77777803 5:-1 6:-0.77777803 7:0.111111 8:-1 9:-1 10:-0.77777803 #
0.147790953300863 1:-0.81024498 2:-0.111111 3:-0.33333299 4:-0.111111 5:-1 6:0.555556 7:-1 8:-0.555556 9:0.111111 10:-1 #
-0.147790953300863 1:-0.83510298 2:-0.77777803 3:-0.555556 4:-0.33333299 5:-0.33333299 6:-0.77777803 7:-0.111111 8:-0.77777803 9:-0.111111 10:-1 #
0.147790953300863 1:-0.82550502 2:0.555556 3:-0.33333299 4:0.111111 5:-0.555556 6:-0.555556 7:-1 8:-0.33333299 9:-0.555556 10:-1 #
-0.147790953300863 1:-0.844791 2:-0.111111 3:0.111111 4:-0.111111 5:0.111111 6:1 7:-1 8:-0.555556 9:-1 10:-1 #
0.147790953300863 1:-0.97317702 2:-0.111111 3:0.33333299 4:0.33333299 5:-1 6:-0.111111 7:0.555556 8:-0.555556 9:-0.33333299 10:-1 #
-0.147790953300863 1:-0.96157098 2:-0.555556 3:-0.555556 4:-0.111111 5:-0.77777803 6:-0.555556 7:1 8:0.33333299 9:-1 10:-1 #
0.147790953300863 1:-0.83681703 2:-0.111111 3:-1 4:-0.77777803 5:1 6:-0.33333299 7:-0.111111 8:-0.77777803 9:-1 10:-1 #
-0.147790953300863 1:-0.88516903 2:-0.555556 3:-0.33333299 4:-0.33333299 5:1 6:-0.111111 7:-1 8:-0.555556 9:-0.555556 10:-1 #
0.147790953300863 1:-0.859671 2:-0.111111 3:-0.33333299 4:-0.33333299 5:-0.111111 6:0.33333299 7:1 8:-0.555556 9:-0.77777803 10:-1 #
-0.147790953300863 1:-0.82981998 2:-0.111111 3:-0.555556 4:-0.555556 5:-0.555556 6:0.111111 7:1 8:-0.555556 9:-1 10:-1 #
-0.147790953300863 1:-0.85029501 2:-0.111111 3:-0.77777803 4:-0.555556 5:-0.33333299 6:-0.77777803 7:0.33333299 8:-0.555556 9:0.111111 10:-1 #
-0.147790953300863 1:-0.84648103 2:-0.77777803 3:-0.111111 4:-0.555556 5:-0.555556 6:0.111111 7:0.33333299 8:0.33333299 9:-0.111111 10:-1 #
-0.06041209372652534 1:-0.842637 2:1 3:-0.33333299 4:-0.77777803 5:-1 6:-0.555556 7:-0.77777803 8:-0.33333299 9:-0.555556 10:1 #
0.037917415620649209 1:-0.84149402 2:-1 3:-0.555556 4:-0.555556 5:-0.77777803 6:-0.77777803 7:-1 8:0.33333299 9:-0.77777803 10:-1 #
0.147790953300863 1:-0.88298702 2:-0.555556 3:-0.33333299 4:-0.111111 5:-0.555556 6:0.33333299 7:-0.555556 8:-0.33333299 9:0.111111 10:-1 #
0.147790953300863 1:-0.84789503 2:0.111111 3:-0.77777803 4:-1 5:-1 6:-1 7:-1 8:0.33333299 9:-1 10:-1 #
0.147790953300863 1:-0.82438099 2:-0.555556 3:-0.555556 4:-0.77777803 5:0.111111 6:-0.555556 7:-0.555556 8:-0.555556 9:-0.111111 10:-1 #
-0.147790953300863 1:-0.85386801 2:-0.111111 3:-0.555556 4:-0.555556 5:-0.555556 6:-0.77777803 7:-0.555556 8:-0.33333299 9:-0.33333299 10:-1 #
0.147790953300863 1:-0.85740799 2:-1 3:-1 4:-1 5:-1 6:-0.77777803 7:1 8:-0.555556 9:-1 10:-1 #
-0.147790953300863 1:-0.84754503 2:0.111111 3:-0.555556 4:-0.77777803 5:-1 6:-0.555556 7:-0.33333299 8:-0.33333299 9:-1 10:-1 #
0.147790953300863 1:-0.83422101 2:0.555556 3:-0.555556 4:-0.555556 5:-1 6:-0.77777803 7:-0.77777803 8:-0.555556 9:-0.77777803 10:-1 #
-0.147790953300863 1:-0.84391397 2:-0.111111 3:-0.555556 4:-0.555556 5:-0.33333299 6:-0.77777803 7:-0.33333299 8:-0.555556 9:-0.33333299 10:-1 #
0.147790953300863 1:-0.87676102 2:-0.33333299 3:-0.33333299 4:-0.33333299 5:-0.77777803 6:-0.77777803 7:-0.555556 8:-0.77777803 9:-1 10:-1 #
-0.147790953300863 1:-0.84276599 2:0.111111 3:-0.555556 4:-0.33333299 5:-1 6:-0.111111 7:-0.77777803 8:-0.555556 9:0.77777803 10:-1 #
0.147790953300863 1:-0.83211398 2:-0.555556 3:-1 4:-1 5:-0.555556 6:0.555556 7:-1 8:-0.111111 9:0.555556 10:-1 #
-0.147790953300863 1:-0.84322798 2:0.555556 3:-0.77777803 4:-0.33333299 5:-1 6:-0.111111 7:-1 8:-0.111111 9:-0.33333299 10:-0.33333299 #
-0.147790953300863 1:-0.94540697 2:0.33333299 3:-0.77777803 4:-0.33333299 5:-1 6:-0.555556 7:-0.33333299 8:-0.555556 9:-0.555556 10:-1 #
-0.147790953300863 1:-0.852997 2:0.33333299 3:-0.33333299 4:0.111111 5:-0.33333299 6:0.111111 7:-1 8:-0.33333299 9:-0.555556 10:-1 #
-0.147790953300863 1:-0.83796501 2:-0.555556 3:-0.555556 4:0.111111 5:-0.33333299 6:-0.111111 7:0.555556 8:-0.33333299 9:-0.33333299 10:-1 #
-0.147790953300863 1:-0.843099 2:0.77777803 3:-0.111111 4:-0.111111 5:-0.77777803 6:-0.77777803 7:-0.77777803 8:-0.111111 9:-1 10:-1 #
0.147790953300863 1:-0.90821701 2:-0.111111 3:-0.77777803 4:-0.77777803 5:-0.33333299 6:-0.77777803 7:-0.33333299 8:-1 9:-1 10:-1 #
0.147790953300863 1:-0.81971401 2:-0.111111 3:-1 4:-0.555556 5:-0.555556 6:-0.77777803 7:-0.77777803 8:-0.77777803 9:-0.555556 10:-1 #
0.147790953300863 1:-0.84299999 2:-0.111111 3:-0.555556 4:-0.555556 5:-0.77777803 6:-0.555556 7:-1 8:-0.555556 9:-1 10:-1 #
-0.057382545654664607 1:-0.93655503 2:-1 3:-0.33333299 4:-0.555556 5:1 6:-0.33333299 7:1 8:-0.111111 9:0.111111 10:-1 #
0.147790953300863 1:-0.82666099 2:0.111111 3:-1 4:-0.555556 5:-1 6:-0.77777803 7:-1 8:-0.555556 9:-1 10:-1 #
-0.147790953300863 1:-0.96157098 2:-0.555556 3:-0.555556 4:-0.111111 5:-0.77777803 6:-0.555556 7:1 8:0.33333299 9:-1 10:-1 #
0.147790953300863 1:-0.824857 2:-0.555556 3:-0.555556 4:-0.77777803 5:-1 6:-0.555556 7:-1 8:-0.555556 9:0.111111 10:-1 #
-0.147790953300863 1:-0.842893 2:-0.111111 3:-0.555556 4:-0.111111 5:-0.111111 6:-0.555556 7:-0.555556 8:-0.33333299 9:1 10:-1 #
-0.147790953300863 1:-0.92828298 2:0.111111 3:-1 4:-0.555556 5:-1 6:-0.33333299 7:-0.111111 8:-0.111111 9:1 10:-1 #
-0.147790953300863 1:-0.84392601 2:0.77777803 3:-0.111111 4:0.555556 5:-1 6:-0.77777803 7:-0.555556 8:-0.77777803 9:-1 10:-0.111111 #
0.147790953300863 1:-0.90885502 2:-0.555556 3:-1 4:-1 5:-1 6:-0.77777803 7:-0.111111 8:-0.111111 9:-1 10:-1 #
-0.147790953300863 1:-0.84122998 2:1 3:0.111111 4:-0.33333299 5:-1 6:-0.555556 7:-0.33333299 8:-0.555556 9:-0.77777803 10:-0.555556 #
-0.10161150848575096 1:-0.845249 2:1 3:-0.33333299 4:-0.555556 5:-1 6:-0.555556 7:-0.555556 8:0.111111 9:-0.111111 10:-0.77777803 #
-0.026093090746648784 1:-0.88511801 2:-0.33333299 3:-0.77777803 4:-0.555556 5:-0.111111 6:-0.555556 7:0.555556 8:0.33333299 9:0.111111 10:-1 #
