SVM-light Version V6.02
2 # kernel type
3 # kernel parameter -d 
0.5 # kernel parameter -g 
1 # kernel parameter -s 
1 # kernel parameter -r 
empty# kernel parameter -u 
8 # highest feature index 
615 # number of training documents 
350 # number of support vectors plus 1 
0.064430834 # threshold b, each following line is a SV (starting with alpha*y)
-0.67278145640619746 1:0.17647099 2:0.085427001 3:0.081967004 4:-1 5:-1 6:-0.034277 7:-0.83433002 8:-0.30000001 #
-0.67278145640619746 1:-0.29411799 2:0.045226 3:0.21311501 4:-0.63636398 5:-0.63120598 6:-0.108793 7:-0.45004299 8:-0.33333299 #
-0.67278145640619746 1:-0.29411799 2:0.34673399 3:0.31147501 4:-0.252525 5:-0.125296 6:0.377049 7:-0.86336499 8:-0.166667 #
-0.67278145640619746 1:-0.76470602 2:0.46733701 3:-1 4:-1 5:-1 6:-0.180328 7:-0.86165702 8:-0.76666701 #
-0.67278145640619746 1:-0.17647099 2:0.14572901 3:0.081967004 4:-1 5:-1 6:-0.022355 7:-0.84628499 8:-0.30000001 #
0.67278145640619746 1:-0.52941197 2:0.296482 3:0.40983599 4:-0.59596002 5:-0.361702 6:0.0462 7:-0.86934203 8:-0.93333298 #
0.67278145640619746 1:-1 2:0.61808997 3:-0.180328 4:-1 5:-1 6:-0.34724301 7:-0.84970099 8:0.466667 #
0.67278145640619746 1:-0.058823999 2:-0.25628099 3:0.147541 4:-0.191919 5:-0.884161 6:0.052161001 7:-0.46456 8:-0.40000001 #
0.67278145640619746 1:-0.41176501 2:0.065327004 3:0.344262 4:-0.39393899 5:-1 6:0.177347 7:-0.82237399 8:-0.43333301 #
0.67278145640619746 1:-0.76470602 2:0.39698499 3:0.229508 4:-1 5:-1 6:-0.23695999 7:-0.92399698 8:-0.73333299 #
-0.67278145640619746 1:-1 2:-0.045226 3:0.39344299 4:-0.49494901 5:-0.91489398 6:0.114754 7:-0.85567898 8:-0.89999998 #
-0.67278145640619746 1:-1 2:0.045226 3:0.049180001 4:-0.252525 5:-0.84869999 6:0.0014900001 7:-0.63108498 8:-0.966667 #
0.67278145640619746 1:0.52941197 2:0.065327004 3:0.147541 4:-1 5:-1 6:0.019374 7:-0.85226297 8:0.033333 #
0.67278145640619746 1:0.17647099 2:0.62814099 3:0.377049 4:-1 5:-1 6:-0.174367 7:-0.91118699 8:0.1 #
-0.67278145640619746 1:0.41176501 2:-0.155779 3:0.180328 4:-0.37373701 5:-1 6:-0.114754 7:-0.81298 8:-0.166667 #
-0.67278145640619746 1:0.058823999 2:0.19598 3:0.31147501 4:-0.29292899 5:-1 6:-0.135618 7:-0.84201503 8:-0.73333299 #
0.67278145640619746 1:-0.17647099 2:0.19598 3:-1 4:-1 5:-1 6:-0.248882 7:-0.88813001 8:-0.466667 #
0.67278145640619746 1:-0.52941197 2:-0.095477 3:-1 4:-1 5:-1 6:-0.165425 7:-0.54568702 8:-0.66666698 #
-0.67278145640619746 1:-0.17647099 2:0.0050249998 3:-1 4:-1 5:-1 6:-0.105812 7:-0.65328801 8:-0.63333303 #
-0.67278145640619746 1:-0.058823999 2:0.20603 3:-1 4:-1 5:-1 6:-0.105812 7:-0.91033298 8:-0.43333301 #
0.67278145640619746 1:0.058823999 2:0.246231 3:0.147541 4:-0.33333299 5:-0.049644999 6:0.055142 7:-0.82578999 8:-0.56666702 #
0.67278145640619746 1:-0.29411799 2:0.447236 3:0.180328 4:-0.45454499 5:-0.46099299 6:0.010432 7:-0.84884697 8:-0.366667 #
-0.67278145640619746 1:-0.76470602 2:0.46733701 3:0.147541 4:-0.23232301 5:-0.148936 6:-0.165425 7:-0.778822 8:-0.73333299 #
-0.67278145640619746 1:-0.88235301 2:0.33668301 3:0.672131 4:-0.43434301 5:-0.66903102 6:-0.022355 7:-0.866781 8:-0.2 #
0.67278145640619746 1:-0.29411799 2:-0.085427001 3:-1 4:-1 5:-1 6:-0.111773 7:-0.63876998 8:-0.66666698 #
0.67278145640619746 1:-0.29411799 2:-0.035176001 3:-1 4:-1 5:-1 6:-0.29359201 7:-0.90435499 8:-0.76666701 #
-0.67278145640619746 1:-0.52941197 2:0.32663301 3:-1 4:-1 5:-1 6:-0.019374 7:-0.80871099 8:-0.93333298 #
-0.67278145640619746 1:-1 2:0.19598 3:-1 4:-1 5:-1 6:-0.034277 7:-0.94620001 8:-0.89999998 #
0.67278145640619746 1:-1 2:0.52763802 3:0.344262 4:-0.21212099 5:-0.35697401 6:0.23695999 7:-0.83603799 8:-0.80000001 #
0.67278145640619746 1:-0.76470602 2:0.57788903 3:0.21311501 4:-0.29292899 5:0.040189002 6:0.174367 7:-0.952178 8:-0.69999999 #
-0.67278145640619746 1:-0.64705902 2:0.738693 3:0.377049 4:-0.33333299 5:0.120567 6:0.064084001 7:-0.84628499 8:-0.966667 #
-0.67278145640619746 1:-1 2:0.81909502 3:0.44262299 4:-0.111111 5:0.20567399 6:0.290611 7:-0.87702799 8:-0.83333302 #
0.67278145640619746 1:-1 2:0.175879 3:-1 4:-1 5:-1 6:0.0074519999 7:-0.27070901 8:-0.23333301 #
0.67278145640619746 1:-0.88235301 2:0.35678399 3:-0.114754 4:-1 5:-1 6:-0.204173 7:-0.47993201 8:0.366667 #
-0.67278145640619746 1:-1 2:0.055275999 3:0.377049 4:-1 5:-1 6:-0.168405 7:-0.433817 8:0.366667 #
-0.67278145640619746 1:-0.52941197 2:0.46733701 3:0.278689 4:-1 5:-1 6:0.147541 7:-0.622545 8:0.533333 #
0.67278145640619746 1:-1 2:0.65829098 3:0.47541001 4:-0.33333299 5:0.60756499 6:0.55886698 7:-0.70196402 8:-0.93333298 #
0.67278145640619746 1:-0.88235301 2:0.53768802 3:0.344262 4:-0.15151501 5:0.14657199 6:0.210134 7:-0.47993201 8:-0.93333298 #
-0.67278145640619746 1:-0.88235301 2:0.728643 3:0.114754 4:-0.010101 5:0.36879399 6:0.263785 7:-0.46712199 8:-0.76666701 #
-0.67278145640619746 1:-0.76470602 2:0.55778903 3:-0.147541 4:-0.45454499 5:0.27659601 6:0.153502 7:-0.86165702 8:-0.86666697 #
0.67278145640619746 1:-0.76470602 2:0.095477 3:0.50819701 4:-1 5:-1 6:0.27272701 7:-0.34500399 8:0.1 #
0.67278145640619746 1:-0.64705902 2:0.427136 3:0.31147501 4:-0.69696999 5:-1 6:-0.034277 7:-0.89581603 8:0.40000001 #
-0.67278145640619746 1:-0.88235301 2:0.266332 3:-0.016393 4:-1 5:-1 6:-0.102832 7:-0.768574 8:-0.133333 #
-0.67278145640619746 1:-0.76470602 2:0.085427001 3:0.31147501 4:-1 5:-1 6:-0.19523101 7:-0.84543103 8:0.033333 #
0.67278145640619746 1:-0.88235301 2:0.93969798 3:-0.180328 4:-0.676768 5:-0.113475 6:-0.228018 7:-0.50725901 8:-0.89999998 #
0.67278145640619746 1:-0.88235301 2:0.39698499 3:0.016393 4:-0.171717 5:0.13475201 6:0.21311501 7:-0.608881 8:-1 #
-0.67278145640619746 1:-1 2:0.77889401 3:-0.016393 4:-0.414141 5:0.130024 6:0.031296 7:-0.151153 8:-1 #
-0.3690500728264105 1:-0.17647099 2:0.52763802 3:0.44262299 4:-0.111111 5:-1 6:0.49031299 7:-0.778822 8:-0.5 #
0.67278145640619746 1:-0.52941197 2:0.105528 3:0.081967004 4:-1 5:-1 6:-0.049180001 7:-0.66438901 8:-0.73333299 #
0.67278145640619746 1:-0.64705902 2:0.286432 3:0.278689 4:-1 5:-1 6:-0.371088 7:-0.83774602 8:0.133333 #
-0.67278145640619746 1:0.058823999 2:0.56783903 3:0.40983599 4:-1 5:-1 6:-0.26080501 7:-0.87019598 8:0.066666998 #
-0.67278145640619746 1:-0.29411799 2:0.94974899 3:0.278689 4:-1 5:-1 6:-0.29955301 7:-0.95644701 8:0.26666701 #
0.67278145640619746 1:-0.88235301 2:0.437186 3:0.377049 4:-0.53535402 5:-0.26713899 6:0.263785 7:-0.147737 8:-0.966667 #
0.67278145640619746 1:-0.52941197 2:0.97989899 3:0.147541 4:-0.21212099 5:0.758865 6:0.093889996 7:0.92228901 8:-0.66666698 #
-0.67278145640619746 1:-0.76470602 2:-0.065327004 3:0.049180001 4:-0.353535 5:-0.62174898 6:0.13263801 7:-0.49103299 8:-0.93333298 #
-0.67278145640619746 1:-0.76470602 2:0.0050249998 3:0.081967004 4:-0.59596002 5:-0.78723401 6:-0.019374 7:-0.326217 8:-0.76666701 #
0.67278145640619746 1:-0.29411799 2:0.66834199 3:0.21311501 4:-1 5:-1 6:-0.20715301 7:-0.80700302 8:0.5 #
0.67278145640619746 1:-0.17647099 2:0.59798998 3:0.049180001 4:-1 5:-1 6:-0.18330801 7:-0.81554198 8:-0.366667 #
-0.67278145640619746 1:-0.29411799 2:0.90954798 3:0.50819701 4:-1 5:-1 6:0.058122002 7:-0.82920599 8:0.5 #
-0.67278145640619746 1:-0.29411799 2:0.62814099 3:0.016393 4:-1 5:-1 6:-0.27570799 7:-0.91460299 8:-0.033333 #
0.67278145640619746 1:-0.76470602 2:0.22613101 3:-0.147541 4:-0.131313 5:-0.62647802 6:0.078987002 7:-0.36976901 8:-0.76666701 #
0.56747072288954203 1:-0.88235301 2:0.266332 3:-0.081967004 4:-0.414141 5:-0.64066201 6:-0.14455999 7:-0.382579 8:-1 #
-0.67278145640619746 1:-0.88235301 2:0.25628099 3:-0.180328 4:-0.191919 5:-0.60520101 6:-0.0074519999 7:-0.24508999 8:-0.76666701 #
-0.67278145640619746 1:-1 2:0.075377002 3:0.016393 4:-0.39393899 5:-0.825059 6:0.090908997 7:-0.42015401 8:-0.86666697 #
0.67278145640619746 1:-0.17647099 2:0.79899502 3:0.55737698 4:-0.37373701 5:-1 6:0.019374 7:-0.92655802 8:0.30000001 #
0.67278145640619746 1:-0.41176501 2:0.47738701 3:0.278689 4:-1 5:-1 6:0.0044709998 7:-0.88044399 8:0.466667 #
-0.67278145640619746 1:-0.29411799 2:0.25628099 3:0.245902 4:-1 5:-1 6:0.0074519999 7:-0.96327901 8:0.1 #
-0.67278145640619746 1:-0.52941197 2:0.46733701 3:0.50819701 4:-1 5:-1 6:-0.070045002 7:-0.60631901 8:0.33333299 #
0.27533845513669375 1:-0.76470602 2:-0.175879 3:-0.147541 4:-0.555556 5:-0.72813201 6:-0.15052199 7:0.384287 8:-0.86666697 #
0.67278145640619746 1:-1 2:0.19598 3:0.049180001 4:-0.63636398 5:-0.78250599 6:0.040238999 7:-0.44748101 8:-0.93333298 #
-0.67278145640619746 1:-0.76470602 2:0.025126001 3:0.40983599 4:-0.27272701 5:-0.71631199 6:0.35618499 7:-0.95815498 8:-0.93333298 #
-0.67278145640619746 1:-0.64705902 2:-0.21608 3:-0.180328 4:-0.353535 5:-0.79196203 6:-0.076006003 7:-0.85482502 8:-0.83333302 #
0.67278145640619746 1:-0.17647099 2:0.36683401 3:0.47541001 4:-1 5:-1 6:-0.108793 7:-0.88727599 8:-0.033333 #
0.60004007396266024 1:-0.058823999 2:0.105528 3:0.245902 4:-1 5:-1 6:-0.171386 7:-0.86421901 8:0.23333301 #
-0.67278145640619746 1:-0.058823999 2:0.25628099 3:0.57376999 4:-1 5:-1 6:-1 7:-0.86848801 8:0.1 #
-0.67278145640619746 1:0.17647099 2:-0.095477 3:0.39344299 4:-0.353535 5:-1 6:0.040238999 7:-0.362084 8:0.166667 #
0.59836081238742134 1:-0.76470602 2:0.12562799 3:0.40983599 4:-0.15151501 5:-0.62174898 6:0.14455999 7:-0.85653299 8:-0.76666701 #
0.67278145640619746 1:-0.76470602 2:0.25628099 3:-0.016393 4:-0.59596002 5:-0.66903102 6:0.0074519999 7:-0.99146003 8:-0.66666698 #
-0.67278145640619746 1:-1 2:0.386935 3:-0.016393 4:-0.29292899 5:-0.60520101 6:0.031296 7:-0.61058903 8:-1 #
-0.67278145640619746 1:-1 2:0.35678399 3:0.114754 4:-0.15151501 5:-0.40898299 6:0.26080501 7:-0.75490999 8:-0.89999998 #
0.67278145640619746 1:0.41176501 2:0.0050249998 3:0.377049 4:-0.33333299 5:-0.751773 6:-0.105812 7:-0.649872 8:-0.166667 #
0.67278145640619746 1:0.17647099 2:-0.31658301 3:0.73770499 4:-0.53535402 5:-0.884161 6:0.058122002 7:-0.823228 8:-0.133333 #
-0.67278145640619746 1:0.64705902 2:0.0050249998 3:0.278689 4:-0.49494901 5:-0.56501198 6:0.090908997 7:-0.71477401 8:-0.166667 #
-0.67278145640619746 1:0.29411799 2:0.437186 3:0.54098397 4:-0.33333299 5:-0.65484601 6:0.090908997 7:-0.84970099 8:0 #
0.67278145640619746 1:-1 2:0.65829098 3:0.245902 4:-0.131313 5:-0.397163 6:0.42772001 7:-0.84543103 8:-0.83333302 #
0.67278145640619746 1:-1 2:0.276382 3:0.31147501 4:-0.252525 5:-0.503546 6:0.081967004 7:-0.38001701 8:-0.93333298 #
-0.67278145640619746 1:-1 2:0.51758802 3:0.47541001 4:-0.070707001 5:-1 6:0.254843 7:-0.74978697 8:-1 #
-0.67278145640619746 1:-1 2:0.18593 3:0.377049 4:-0.050505001 5:-0.456265 6:0.365127 7:-0.59607202 8:-0.66666698 #
0.67278145640619746 1:0.52941197 2:0.457286 3:0.344262 4:-0.616162 5:-0.73995298 6:-0.338301 7:-0.85738701 8:0.2 #
0.67278145640619746 1:-0.29411799 2:0.296482 3:0.47541001 4:-0.85858601 5:-0.229314 6:-0.415797 7:-0.56959897 8:0.30000001 #
-0.67278145640619746 1:0.41176501 2:-0.075377002 3:0.016393 4:-0.85858601 5:-0.390071 6:-0.177347 7:-0.27583301 8:-0.23333301 #
-0.67278145640619746 1:-0.058823999 2:0.246231 3:0.245902 4:-0.51515198 5:0.41844001 6:-0.14455999 7:-0.47993201 8:0.033333 #
0.67278145640619746 1:-1 2:0.47738701 3:0.39344299 4:0.090908997 5:-1 6:0.27570799 7:-0.74637097 8:-0.89999998 #
0.67278145640619746 1:-1 2:0.35678399 3:0.54098397 4:-0.070707001 5:-0.65720999 6:0.210134 7:-0.82408202 8:-0.83333302 #
-0.67278145640619746 1:-1 2:0.79899502 3:0.47541001 4:-0.45454499 5:-1 6:0.31445599 7:-0.480786 8:-0.93333298 #
-0.67278145640619746 1:-0.64705902 2:0.12562799 3:0.21311501 4:-0.39393899 5:-1 6:-0.058122002 7:-0.898377 8:-0.86666697 #
0.67278145640619746 1:0.52941197 2:0.53768802 3:0.44262299 4:-0.252525 5:-0.66903102 6:0.210134 7:-0.064048 8:-0.40000001 #
0.67278145640619746 1:-0.058823999 2:0.18593 3:0.180328 4:-0.616162 5:-1 6:-0.31147501 7:0.19385099 8:-0.166667 #
-0.67278145640619746 1:0.058823999 2:0.12562799 3:0.344262 4:-0.51515198 5:-1 6:-0.159463 7:0.028181 8:-0.033333 #
0.67278145640619746 1:-0.29411799 2:0.175879 3:0.57376999 4:-1 5:-1 6:-0.14455999 7:-0.93253601 8:-0.69999999 #
0.67278145640619746 1:-0.88235301 2:0.51758802 3:-0.016393 4:-1 5:-1 6:-0.222057 7:-0.91374898 8:-0.966667 #
0.67278145640619746 1:-0.76470602 2:0.276382 3:-0.245902 4:-0.57575798 5:-0.208038 6:0.025335001 7:-0.91631103 8:-0.966667 #
-0.67278145640619746 1:-1 2:0.13567799 3:0.245902 4:-1 5:-1 6:-0.0074519999 7:-0.82920599 8:-0.93333298 #
-0.67278145640619746 1:-1 2:0.21608 3:0.081967004 4:-0.39393899 5:-0.60992903 6:0.022355 7:-0.89325398 8:-0.60000002 #
0.67278145640619746 1:-0.29411799 2:0.83919603 3:0.54098397 4:-1 5:-1 6:0.216095 7:0.181042 8:-0.2 #
0.67278145640619746 1:0.17647099 2:0.39698499 3:0.31147501 4:-1 5:-1 6:-0.19225 7:0.16396201 8:0.2 #
-0.67278145640619746 1:-0.64705902 2:0.738693 3:0.344262 4:-0.030303 5:0.099290997 6:0.14455999 7:0.75832599 8:-0.86666697 #
0.67278145640619746 1:-0.88235301 2:0.19598 3:-0.278689 4:-0.050505001 5:-0.85106403 6:0.058122002 7:-0.82749802 8:-0.86666697 #
0.67278145640619746 1:-0.88235301 2:0.246231 3:-0.016393 4:-0.353535 5:-1 6:0.067064002 7:-0.62766898 8:-1 #
0.67278145640619746 1:-0.76470602 2:0.22613101 3:0.147541 4:-0.45454499 5:-1 6:0.096869998 7:-0.77626002 8:-0.80000001 #
-0.67278145640619746 1:-0.76470602 2:-0.095477 3:0.114754 4:-0.15151501 5:-1 6:0.13859899 7:-0.63706201 8:-0.80000001 #
-0.67278145640619746 1:-0.64705902 2:0.296482 3:0.049180001 4:-0.414141 5:-0.72813201 6:-0.21311501 7:-0.87958997 8:-0.76666701 #
0.67278145640619746 1:-1 2:0.738693 3:0.278689 4:-0.353535 5:-0.37352201 6:0.38599101 7:-0.076857001 8:0.23333301 #
0.67278145640619746 1:-0.52941197 2:0.89949697 3:0.80327898 4:-0.37373701 5:-1 6:-0.15052199 7:-0.48590899 8:-0.466667 #
-0.67278145640619746 1:-0.76470602 2:0.58793998 3:0.47541001 4:-1 5:-1 6:-0.058122002 7:-0.379163 8:0.5 #
0.67278145640619746 1:-0.76470602 2:0.20603 3:0.245902 4:-0.252525 5:-0.751773 6:0.183309 7:-0.88300598 8:-0.73333299 #
0.67278145640619746 1:-0.76470602 2:0.22613101 3:0.245902 4:-0.45454499 5:-0.52718699 6:0.070045002 7:-0.65414202 8:-0.83333302 #
0.22561752886628383 1:-0.41176501 2:-0.0050249998 3:-0.114754 4:-0.43434301 5:-0.803783 6:0.013413 7:-0.64047801 8:-0.69999999 #
-0.67278145640619746 1:-0.64705902 2:0.075377002 3:0.016393 4:-0.73737401 5:-0.88652498 6:-0.31743699 7:-0.48761699 8:-0.93333298 #
-0.67278145640619746 1:-0.41176501 2:0.095477 3:0.016393 4:-0.171717 5:-0.69503498 6:0.067064002 7:-0.62766898 8:-0.86666697 #
0.018841887638667433 1:-0.41176501 2:0.36683401 3:0.344262 4:-1 5:-1 6:-1 7:-0.52006799 8:0.60000002 #
0.67278145640619746 1:-0.29411799 2:0.65829098 3:0.114754 4:-0.474747 5:-0.60283703 6:0.0014900001 7:-0.52775401 8:-0.066666998 #
-0.03848523748489268 1:-0.17647099 2:0.95979899 3:0.147541 4:-0.33333299 5:-0.65720999 6:-0.251863 7:-0.92741197 8:0.133333 #
-0.67278145640619746 1:-0.29411799 2:0.48743701 3:0.180328 4:-0.29292899 5:-1 6:0.0014900001 7:-0.53117001 8:-0.033333 #
0.67278145640619746 1:-0.76470602 2:0.286432 3:0.049180001 4:-0.15151501 5:-1 6:0.19225 7:-0.126388 8:-0.89999998 #
0.67278145640619746 1:-0.76470602 2:0.21608 3:0.147541 4:-0.353535 5:-0.77541399 6:0.165425 7:-0.309991 8:-0.93333298 #
-0.67278145640619746 1:-0.88235301 2:-0.115578 3:-0.50819701 4:-0.15151501 5:-0.765957 6:0.63934398 7:-0.64304 8:-0.83333302 #
0.67278145640619746 1:-0.058823999 2:0.266332 3:0.44262299 4:-0.27272701 5:-0.744681 6:0.147541 7:-0.768574 8:-0.066666998 #
-0.67278145640619746 1:-1 2:0.40703499 3:0.065573998 4:-0.474747 5:-0.692671 6:0.26974699 7:-0.69854802 8:-0.89999998 #
0.67278145640619746 1:0.17647099 2:0.015075 3:0.245902 4:-0.030303 5:-0.57446802 6:-0.019374 7:-0.92058098 8:0.40000001 #
-0.67278145640619746 1:-0.88235301 2:0.286432 3:0.60655701 4:-0.171717 5:-0.86288399 6:-0.0462 7:0.061485998 8:-0.60000002 #
-0.67278145640619746 1:-0.41176501 2:-0.14572901 3:0.21311501 4:-0.555556 5:-1 6:-0.135618 7:-0.021349 8:-0.63333303 #
0.67278145640619746 1:-0.88235301 2:0.035176001 3:-0.50819701 4:-0.23232301 5:-0.803783 6:0.290611 7:-0.91033298 8:-0.60000002 #
0.67278145640619746 1:-0.64705902 2:0.91959798 3:0.114754 4:-0.69696999 5:-0.692671 6:-0.078987002 7:-0.81127203 8:-0.56666702 #
-0.67278145640619746 1:0.17647099 2:0.115578 3:0.147541 4:-0.45454499 5:-1 6:-0.180328 7:-0.94620001 8:-0.366667 #
-0.67278145640619746 1:-0.41176501 2:-0.025126001 3:0.245902 4:-0.45454499 5:-1 6:0.061103001 7:-0.74380898 8:0.033333 #
0.67278145640619746 1:-1 2:-0.065327004 3:0.63934398 4:-0.21212099 5:-0.82978702 6:0.29359201 7:-0.19470499 8:-0.533333 #
-0.35552094014743307 1:-1 2:0.41708499 3:-1 4:-1 5:-1 6:0.263785 7:-0.89154601 8:-0.73333299 #
-0.67278145640619746 1:-1 2:0.88944697 3:0.344262 4:-0.71717203 5:-0.562648 6:-0.0462 7:-0.484202 8:-0.966667 #
-0.67278145640619746 1:-1 2:0.296482 3:0.80327898 4:-0.070707001 5:-0.692671 6:1 7:-0.79419303 8:-0.83333302 #
0.67278145640619746 1:0.29411799 2:0.386935 3:0.245902 4:-1 5:-1 6:-0.010432 7:-0.70794201 8:-0.533333 #
0.67278145640619746 1:0.29411799 2:-0.14572901 3:0.21311501 4:-1 5:-1 6:-0.102832 7:-0.81041801 8:-0.533333 #
-0.67278145640619746 1:0.52941197 2:0.045226 3:0.180328 4:-1 5:-1 6:-0.070045002 7:-0.66951299 8:-0.43333301 #
-0.67278145640619746 1:0.52941197 2:0.266332 3:0.47541001 4:-1 5:-1 6:0.29359201 7:-0.56874502 8:-0.30000001 #
0.67278145640619746 1:-0.88235301 2:0.19598 3:0.44262299 4:-0.171717 5:-0.59810901 6:0.35022399 7:-0.63364601 8:-0.83333302 #
0.67278145640619746 1:-0.88235301 2:0.447236 3:0.344262 4:-0.191919 5:-1 6:0.23099899 7:-0.54824901 8:-0.76666701 #
-0.67278145640619746 1:-0.88235301 2:0.22613101 3:0.049180001 4:-0.353535 5:-0.63120598 6:0.0462 7:-0.47566199 8:-0.69999999 #
-0.67278145640619746 1:-0.88235301 2:0.155779 3:0.147541 4:-0.39393899 5:-0.77305001 6:0.031296 7:-0.61485898 8:-0.63333303 #
0.67278145640619746 1:0.52941197 2:-0.23618101 3:-0.016393 4:-1 5:-1 6:-0.022355 7:-0.91289502 8:-0.33333299 #
0.67278145640619746 1:0.17647099 2:0.155779 3:0.60655701 4:-1 5:-1 6:-0.28465 7:-0.19385099 8:-0.56666702 #
-0.67278145640619746 1:0.17647099 2:0.155779 3:-1 4:-1 5:-1 6:-1 7:-0.843723 8:-0.69999999 #
-0.67278145640619746 1:-0.058823999 2:0.20603 3:0.40983599 4:-1 5:-1 6:-0.153502 7:-0.84543103 8:-0.966667 #
0.67278145640619746 1:-0.52941197 2:0.47738701 3:0.21311501 4:-0.49494901 5:-0.307329 6:0.040238999 7:-0.737831 8:-0.69999999 #
0.67278145640619746 1:-0.76470602 2:0.46733701 3:0.245902 4:-0.29292899 5:-0.54137099 6:0.13859899 7:-0.785653 8:-0.73333299 #
-0.67278145640619746 1:-0.41176501 2:0.58793998 3:0.377049 4:-0.171717 5:-0.503546 6:0.174367 7:-0.72929102 8:-0.73333299 #
0.67278145640619746 1:-0.29411799 2:0.14572901 3:-1 4:-1 5:-1 6:-1 7:-0.905209 8:-0.83333302 #
-0.67278145640619746 1:-0.88235301 2:0.22613101 3:0.47541001 4:0.030303 5:-0.47990501 6:0.48137099 7:-0.789069 8:-0.66666698 #
0.59857508288924399 1:-0.17647099 2:0.055275999 3:-1 4:-1 5:-1 6:-1 7:-0.80614901 8:-0.89999998 #
-0.67278145640619746 1:-0.64705902 2:0.41708499 3:-1 4:-1 5:-1 6:-0.105812 7:-0.416738 8:-0.80000001 #
-0.67278145640619746 1:-1 2:0.386935 3:-1 4:-1 5:-1 6:0.081967004 7:-0.26985499 8:-0.86666697 #
0.63968534833057222 1:-1 2:0.055275999 3:0.47541001 4:-1 5:-1 6:-0.117735 7:-0.898377 8:-0.166667 #
0.67278145640619746 1:-0.41176501 2:0.437186 3:0.278689 4:-1 5:-1 6:0.34128201 7:-0.90435499 8:-0.133333 #
-0.67278145640619746 1:-0.29411799 2:0.47738701 3:0.31147501 4:-1 5:-1 6:-0.120715 7:-0.91460299 8:-0.033333 #
0.67278145640619746 1:-0.76470602 2:0.276382 3:-0.049180001 4:-0.51515198 5:-0.34988201 6:-0.174367 7:0.29974401 8:-0.86666697 #
-0.67278145640619746 1:-0.52941197 2:0.155779 3:0.180328 4:-1 5:-1 6:-0.13859899 7:-0.74551702 8:-0.166667 #
0.67278145640619746 1:-1 2:0.0050249998 3:0.44262299 4:0.21212099 5:-0.73995298 6:0.39493299 7:-0.24508999 8:-0.66666698 #
-0.67278145640619746 1:-0.29411799 2:0.025126001 3:0.344262 4:-1 5:-1 6:-0.081967004 7:-0.91289502 8:-0.5 #
-0.67278145640619746 1:-0.52941197 2:0.25628099 3:0.147541 4:-0.63636398 5:-0.71158397 6:-0.13859899 7:-0.089667 8:-0.2 #
0.67278145640619746 1:-0.29411799 2:0.54773903 3:0.278689 4:-0.171717 5:-0.66903102 6:0.37406901 7:-0.57899201 8:-0.80000001 #
0.67278145640619746 1:-0.64705902 2:0.80904502 3:0.049180001 4:-0.49494901 5:-0.83451498 6:0.013413 7:-0.83518398 8:-0.83333302 #
-0.67278145640619746 1:-1 2:0.62814099 3:0.245902 4:0.131313 5:-0.76359302 6:0.585693 7:-0.418446 8:-0.86666697 #
-0.67278145640619746 1:-0.76470602 2:0.74874401 3:0.44262299 4:-0.252525 5:-0.71631199 6:0.326379 7:-0.51494402 8:-0.89999998 #
0.67278145640619746 1:-0.41176501 2:0.14572901 3:0.21311501 4:-1 5:-1 6:-0.257824 7:-0.43125501 8:0.2 #
0.67278145640619746 1:-0.058823999 2:0.12562799 3:0.180328 4:-1 5:-1 6:-0.296572 7:-0.34927401 8:0.23333301 #
-0.67278145640619746 1:-0.41176501 2:-1 3:0.31147501 4:-0.353535 5:-1 6:0.222057 7:-0.77113599 8:-0.466667 #
-0.67278145640619746 1:-0.88235301 2:-0.045226 3:0.344262 4:-0.49494901 5:-0.57446802 6:0.043219 7:-0.86763501 8:-0.26666701 #
0.67278145640619746 1:-0.88235301 2:0.46733701 3:-0.081967004 4:-1 5:-1 6:-0.114754 7:-0.58497 8:-0.73333299 #
0.67278145640619746 1:-1 2:0.075377002 3:0.245902 4:-1 5:-1 6:0.35022399 7:-0.480786 8:-0.89999998 #
-0.67278145640619746 1:-0.52941197 2:0.36683401 3:0.147541 4:-1 5:-1 6:-0.070045002 7:-0.057216 8:-0.966667 #
-0.67278145640619746 1:-1 2:0.31658301 3:0.44262299 4:-1 5:-1 6:-0.058122002 7:-0.432109 8:-0.63333303 #
0.67278145640619746 1:-0.52941197 2:0.12562799 3:0.278689 4:-0.191919 5:-1 6:0.174367 7:-0.86507303 8:-0.43333301 #
0.67278145640619746 1:-0.41176501 2:0.085427001 3:0.180328 4:-0.131313 5:-0.82269502 6:0.076006003 7:-0.84201503 8:-0.60000002 #
-0.67278145640619746 1:-0.29411799 2:0.155779 3:-0.016393 4:-0.21212099 5:-1 6:0.0044709998 7:-0.85738701 8:-0.366667 #
-0.67278145640619746 1:-0.058823999 2:0.055275999 3:0.63934398 4:-0.27272701 5:-1 6:0.290611 7:-0.86251098 8:-0.2 #
0.67278145640619746 1:-0.52941197 2:0.18593 3:0.147541 4:-1 5:-1 6:0.326379 7:-0.29462001 8:-0.83333302 #
0.67278145640619746 1:-1 2:0.296482 3:0.31147501 4:-1 5:-1 6:-0.070045002 7:-0.466268 8:-0.73333299 #
-0.67278145640619746 1:-0.76470602 2:0.18593 3:0.31147501 4:-1 5:-1 6:0.278689 7:-0.47480801 8:-1 #
-0.67278145640619746 1:-0.64705902 2:0.39698499 3:-0.114754 4:-1 5:-1 6:-0.23695999 7:-0.72331297 8:-0.966667 #
0.67278145640619746 1:-0.17647099 2:0.37688401 3:0.47541001 4:-0.171717 5:-1 6:-0.0462 7:-0.73270702 8:-0.40000001 #
0.67278145640619746 1:0.058823999 2:0.23618101 3:0.147541 4:-0.111111 5:-0.77777803 6:-0.013413 7:-0.74722499 8:-0.366667 #
-0.67278145640619746 1:0.058823999 2:0.025126001 3:0.245902 4:-0.252525 5:-1 6:-0.019374 7:-0.49871901 8:-0.166667 #
-0.67278145640619746 1:-0.058823999 2:0.095477 3:0.245902 4:-0.21212099 5:-0.73049599 6:-0.168405 7:-0.52006799 8:-0.66666698 #
0.67278145640619746 1:-1 2:0.32663301 3:0.278689 4:-1 5:-1 6:-0.034277 7:-0.73099899 8:-1 #
0.67278145640619746 1:-0.76470602 2:0.20603 3:-0.114754 4:-1 5:-1 6:-0.20119201 7:-0.67805302 8:-0.80000001 #
-0.67278145640619746 1:-0.52941197 2:-0.045226 3:0.049180001 4:-1 5:-1 6:-0.0462 7:-0.92912 8:-0.66666698 #
-0.67278145640619746 1:-0.64705902 2:0.21608 3:-0.147541 4:-1 5:-1 6:0.073025003 7:-0.95815498 8:-0.86666697 #
0.67278145640619746 1:-0.29411799 2:0.54773903 3:0.21311501 4:-0.353535 5:-0.54373503 6:-0.12667701 7:-0.350128 8:-0.40000001 #
0.67278145640619746 1:-0.29411799 2:0.23618101 3:0.180328 4:-0.090908997 5:-0.456265 6:0.0014900001 7:-0.440649 8:-0.56666702 #
-0.67278145640619746 1:-0.64705902 2:0.296482 3:0.50819701 4:-0.010101 5:-0.63357002 6:0.084948003 7:-0.23996601 8:-0.63333303 #
-0.67278145640619746 1:-0.64705902 2:0.58793998 3:0.245902 4:-0.27272701 5:-0.42080399 6:-0.058122002 7:-0.33987999 8:-0.76666701 #
0.67278145640619746 1:0.17647099 2:0.33668301 3:0.114754 4:-1 5:-1 6:-0.19523101 7:-0.85738701 8:-0.5 #
0.32867450366217998 1:0.17647099 2:-0.246231 3:0.344262 4:-1 5:-1 6:-0.0074519999 7:-0.84201503 8:-0.43333301 #
-0.67278145640619746 1:0.17647099 2:0.61808997 3:0.114754 4:-0.53535402 5:-0.68794298 6:-0.23994 7:-0.78821498 8:-0.133333 #
-0.67278145640619746 1:0.76470602 2:0.36683401 3:0.147541 4:-0.353535 5:-0.73995298 6:0.105812 7:-0.93595201 8:-0.26666701 #
0.67278145640619746 1:-0.88235301 2:-0.18593 3:0.21311501 4:-0.171717 5:-0.86524802 6:0.38003001 7:-0.130658 8:-0.63333303 #
0.67278145640619746 1:-0.76470602 2:0.0050249998 3:0.147541 4:0.050505001 5:-0.86524802 6:0.20715401 7:-0.488471 8:-0.86666697 #
-0.67278145640619746 1:-1 2:0.095477 3:0.44262299 4:-0.39393899 5:-1 6:-0.031296 7:-0.336465 8:-0.43333301 #
-0.67278145640619746 1:-0.52941197 2:0.095477 3:0.049180001 4:-0.111111 5:-0.765957 6:0.037257999 7:-0.29376599 8:-0.83333302 #
0.67278145640619746 1:0.52941197 2:0.065327004 3:0.180328 4:0.090908997 5:-1 6:0.090908997 7:-0.91460299 8:-0.2 #
0.67278145640619746 1:0.29411799 2:0.035176001 3:0.114754 4:-0.191919 5:-1 6:0.377049 7:-0.95900899 8:-0.30000001 #
-0.67278145640619746 1:0.17647099 2:0.296482 3:0.016393 4:-0.27272701 5:-1 6:0.228018 7:-0.690009 8:-0.43333301 #
-0.67278145640619746 1:-0.17647099 2:0.035176001 3:0.081967004 4:-0.353535 5:-1 6:0.165425 7:-0.77284402 8:-0.66666698 #
0.67278145640619746 1:-0.88235301 2:0.40703499 3:0.21311501 4:-0.474747 5:-0.57446802 6:-0.28166899 7:-0.35952201 8:-0.93333298 #
0.67278145640619746 1:-0.88235301 2:0.39698499 3:-0.245902 4:-0.616162 5:-0.803783 6:-0.14455999 7:-0.50811303 8:-0.966667 #
-0.67278145640619746 1:-0.76470602 2:0.55778903 3:0.21311501 4:-0.65656602 5:-0.77305001 6:-0.20715301 7:-0.69683999 8:-0.80000001 #
-0.67278145640619746 1:-0.88235301 2:0.67839199 3:0.21311501 4:-0.65656602 5:-0.65957397 6:-0.30253401 7:-0.68488503 8:-0.60000002 #
0.67278145640619746 1:-0.17647099 2:0.36683401 3:0.21311501 4:-0.474747 5:-0.68085098 6:-0.22503699 7:-0.51409101 8:0 #
0.67278145640619746 1:-0.17647099 2:0.33668301 3:0.377049 4:-1 5:-1 6:0.198212 7:-0.47224599 8:-0.466667 #
-0.67278145640619746 1:0.058823999 2:0.30653301 3:0.147541 4:-1 5:-1 6:0.019374 7:-0.509821 8:-0.2 #
-0.67278145640619746 1:0.058823999 2:0.40703499 3:0.54098397 4:-1 5:-1 6:-0.025335001 7:-0.43979499 8:-0.2 #
0.67278145640619746 1:-0.52941197 2:0.54773903 3:0.180328 4:-0.414141 5:-0.70212799 6:-0.067064002 7:-0.77796799 8:-0.466667 #
0.67278145640619746 1:-0.29411799 2:0.51758802 3:0.016393 4:-0.37373701 5:-0.71631199 6:0.058122002 7:-0.47566199 8:-0.76666701 #
-0.67278145640619746 1:-0.76470602 2:0.055275999 3:0.31147501 4:-0.090908997 5:-0.54846299 6:0.0044709998 7:-0.459436 8:-0.73333299 #
-0.67278145640619746 1:-0.76470602 2:0.447236 3:-0.049180001 4:-0.33333299 5:-0.68085098 6:-0.058122002 7:-0.70623398 8:-0.86666697 #
0.67278145640619746 1:0.29411799 2:0.276382 3:0.73770499 4:-1 5:-1 6:0.162444 7:-0.90435499 8:0 #
0.67278145640619746 1:0.17647099 2:0.22613101 3:0.114754 4:-1 5:-1 6:-0.070045002 7:-0.84628499 8:-0.33333299 #
-0.67278145640619746 1:0.058823999 2:0.65829098 3:0.44262299 4:-1 5:-1 6:-0.093889996 7:-0.80871099 8:-0.066666998 #
-0.28698907509865412 1:0.058823999 2:0.64824098 3:0.278689 4:-1 5:-1 6:-0.022355 7:-0.94022202 8:-0.2 #
-0.13511020417478958 1:-0.64705902 2:0.74874401 3:-0.049180001 4:-0.555556 5:-0.54137099 6:-0.019374 7:-0.56020498 8:-0.5 #
0.67278145640619746 1:-1 2:0.14572901 3:0.31147501 4:-0.313131 5:-0.32624099 6:0.31743699 7:-0.92399698 8:-0.80000001 #
-0.67278145640619746 1:-0.88235301 2:0.19598 3:0.40983599 4:-0.21212099 5:-0.47990501 6:0.35916501 7:-0.37660101 8:-0.73333299 #
-0.67278145640619746 1:-0.52941197 2:0.48743701 3:-0.016393 4:-0.45454499 5:-0.248227 6:-0.078987002 7:-0.93851399 8:-0.73333299 #
0.67278145640619746 1:-0.41176501 2:0.47738701 3:0.229508 4:-1 5:-1 6:-0.108793 7:-0.69598597 8:-0.76666701 #
0.67278145640619746 1:-0.52941197 2:0.41708499 3:0.21311501 4:-1 5:-1 6:-0.177347 7:-0.85824102 8:-0.366667 #
-0.67278145640619746 1:-0.52941197 2:0.25628099 3:0.31147501 4:-1 5:-1 6:-0.037257999 7:-0.608881 8:-0.80000001 #
-0.67278145640619746 1:-0.52941197 2:0.23618101 3:0.016393 4:-1 5:-1 6:-0.0462 7:-0.87361199 8:-0.533333 #
0.67278145640619746 1:-0.88235301 2:0.64824098 3:0.344262 4:-0.131313 5:-0.84160799 6:-0.022355 7:-0.775406 8:-0.033333 #
0.67278145640619746 1:-0.52941197 2:0.51758802 3:0.47541001 4:-0.23232301 5:-1 6:-0.114754 7:-0.81554198 8:-0.5 #
-0.67278145640619746 1:-0.29411799 2:0.25628099 3:0.278689 4:-0.37373701 5:-1 6:-0.177347 7:-0.58411598 8:-0.066666998 #
-0.67278145640619746 1:-0.88235301 2:0.447236 3:0.344262 4:-0.070707001 5:-0.57446802 6:0.37406901 7:-0.78052902 8:-0.166667 #
0.67278145640619746 1:-0.52941197 2:0.22613101 3:0.114754 4:-1 5:-1 6:0.043219 7:-0.73014498 8:-0.73333299 #
0.67278145640619746 1:-0.058823999 2:0.075377002 3:0.31147501 4:-1 5:-1 6:-0.26676601 7:-0.33561099 8:-0.56666702 #
-0.67278145640619746 1:-0.29411799 2:0.246231 3:0.180328 4:-1 5:-1 6:-0.177347 7:-0.75234801 8:-0.73333299 #
-0.67278145640619746 1:-0.17647099 2:0.14572901 3:0.049180001 4:-1 5:-1 6:-0.18330801 7:-0.44150299 8:-0.56666702 #
0.67278145640619746 1:-0.64705902 2:0.20603 3:0.147541 4:-0.39393899 5:-0.68085098 6:0.278689 7:-0.68061501 8:-0.69999999 #
0.67278145640619746 1:-0.17647099 2:0.427136 3:-0.016393 4:-0.33333299 5:-0.55082703 6:-0.14158 7:-0.47993201 8:0.33333299 #
-0.52398238047969437 1:0.41176501 2:0.40703499 3:0.344262 4:-0.131313 5:-0.23167799 6:0.168405 7:-0.615713 8:0.23333301 #
-0.67278145640619746 1:-0.41176501 2:0.447236 3:0.344262 4:-0.474747 5:-0.32624099 6:-0.0462 7:-0.68061501 8:0.23333301 #
0.67278145640619746 1:-0.52941197 2:0.20603 3:0.114754 4:-1 5:-1 6:-0.117735 7:-0.461144 8:-0.56666702 #
0.67278145640619746 1:-0.17647099 2:0.33668301 3:0.44262299 4:-0.69696999 5:-0.63357002 6:-0.034277 7:-0.84286898 8:-0.466667 #
-0.67278145640619746 1:-0.52941197 2:0.175879 3:0.016393 4:-0.75757599 5:-1 6:-0.114754 7:-0.74210101 8:-0.69999999 #
0.67278145640619746 1:-0.29411799 2:0.035176001 3:0.180328 4:-0.353535 5:-0.55082703 6:0.123696 7:-0.78992301 8:0.133333 #
-0.67278145640619746 1:-0.52941197 2:0.427136 3:0.40983599 4:-1 5:-1 6:0.31147501 7:-0.51579797 8:-0.966667 #
0.67278145640619746 1:-0.41176501 2:0.035176001 3:0.77049202 4:-0.252525 5:-1 6:0.168405 7:-0.80614901 8:0.466667 #
-0.67278145640619746 1:-0.41176501 2:0.155779 3:0.60655701 4:-1 5:-1 6:0.57675099 7:-0.88813001 8:-0.76666701 #
-0.67278145640619746 1:-0.88235301 2:0.175879 3:0.44262299 4:-0.51515198 5:-0.65720999 6:0.028316 7:-0.72245902 8:-0.366667 #
0.67278145640619746 1:-0.76470602 2:-0.12562799 3:-1 4:-0.53535402 5:-1 6:-0.13859899 7:-0.40649 8:-0.86666697 #
0.67278145640619746 1:-0.52941197 2:0.54773903 3:0.016393 4:-0.37373701 5:-0.328605 6:-0.022355 7:-0.86421901 8:-0.93333298 #
-0.59602750444895181 1:0.52941197 2:0.296482 3:-1 4:-0.39393899 5:-1 6:0.18927 7:-0.58069998 8:-0.23333301 #
0.67278145640619746 1:-0.41176501 2:0.22613101 3:0.40983599 4:-1 5:-1 6:0.034277 7:-0.81895798 8:-0.60000002 #
-0.67278145640619746 1:-0.29411799 2:0.19598 3:-0.180328 4:-0.555556 5:-0.583924 6:-0.19225 7:0.058924001 8:-0.60000002 #
0.67278145640619746 1:-0.52941197 2:0.37688401 3:0.377049 4:-1 5:-1 6:-0.070045002 7:-0.85140902 8:-0.69999999 #
-0.67278145640619746 1:-0.64705902 2:0.30653301 3:0.278689 4:-0.53535402 5:-0.81323898 6:-0.153502 7:-0.79077703 8:-0.56666702 #
-0.67278145640619746 1:-0.17647099 2:0.065327004 3:-0.016393 4:-0.51515198 5:-1 6:-0.210134 7:-0.81383401 8:-0.73333299 #
0.31236033084757331 1:-0.41176501 2:0.055275999 3:0.180328 4:-0.414141 5:-0.23167799 6:0.099850997 7:-0.93082798 8:-0.76666701 #
0.67278145640619746 1:-0.52941197 2:-0.075377002 3:0.31147501 4:-1 5:-1 6:0.257824 7:-0.86421901 8:-0.73333299 #
-0.67278145640619746 1:-0.41176501 2:0.12562799 3:0.081967004 4:-1 5:-1 6:0.12667701 7:-0.843723 8:-0.33333299 #
0.67278145640619746 1:-0.76470602 2:0.065327004 3:0.049180001 4:-0.29292899 5:-0.71867597 6:-0.090908997 7:0.12895 8:-0.56666702 #
-0.67278145640619746 1:-0.64705902 2:0.32663301 3:0.31147501 4:-1 5:-1 6:0.025335001 7:-0.72331297 8:-0.23333301 #
0.38140533461300852 1:-0.52941197 2:0.035176001 3:-0.016393 4:-0.33333299 5:-0.54609901 6:-0.28465 7:-0.24167401 8:-0.60000002 #
-0.67278145640619746 1:-0.88235301 2:0.63819098 3:0.180328 4:-1 5:-1 6:0.162444 7:-0.023057001 8:-0.60000002 #
-0.67278145640619746 1:-0.41176501 2:0.246231 3:0.21311501 4:-1 5:-1 6:0.013413 7:-0.87873602 8:-0.43333301 #
0.67278145640619746 1:0.058823999 2:0.065327004 3:-0.147541 4:-1 5:-1 6:-0.070045002 7:-0.74210101 8:-0.30000001 #
0.67278145640619746 1:-0.17647099 2:-0.055275999 3:0.049180001 4:-0.49494901 5:-0.81323898 6:-0.0074519999 7:-0.43637899 8:-0.33333299 #
-0.67278145640619746 1:-0.52941197 2:0.115578 3:0.180328 4:-0.050505001 5:-0.510638 6:0.105812 7:0.12041 8:0.166667 #
-0.67278145640619746 1:-0.058823999 2:0.0050249998 3:0.21311501 4:-0.191919 5:-0.49172601 6:0.174367 7:-0.50213498 8:-0.26666701 #
0.67278145640619746 1:-0.64705902 2:0.50753802 3:0.245902 4:-1 5:-1 6:-0.37406901 7:-0.88983798 8:-0.466667 #
0.67278145640619746 1:-0.76470602 2:0.75879401 3:0.44262299 4:-1 5:-1 6:-0.31743699 7:-0.78821498 8:-0.966667 #
-0.67278145640619746 1:-0.64705902 2:0.63819098 3:0.147541 4:-0.63636398 5:-0.751773 6:-0.058122002 7:-0.83774602 8:-0.76666701 #
-0.67278145640619746 1:-0.41176501 2:0.39698499 3:0.31147501 4:-0.29292899 5:-0.62174898 6:-0.058122002 7:-0.75832599 8:-0.86666697 #
0.67278145640619746 1:-1 2:0.46733701 3:0.344262 4:-1 5:-1 6:0.20715401 7:0.45431301 8:-0.23333301 #
0.67278145640619746 1:-0.41176501 2:0.175879 3:0.40983599 4:-0.39393899 5:-0.751773 6:0.165425 7:-0.85226297 8:-0.30000001 #
-0.56513987016460665 1:-1 2:0.80904502 3:0.278689 4:0.27272701 5:-0.96690297 6:0.77049202 7:1 8:-0.86666697 #
0.67278145640619746 1:-0.29411799 2:0.25628099 3:0.114754 4:-0.39393899 5:-0.71631199 6:-0.105812 7:-0.670367 8:-0.63333303 #
-0.67278145640619746 1:-0.41176501 2:0.62814099 3:0.70491803 4:-1 5:-1 6:0.123696 7:-0.93765998 8:0.033333 #
0.67278145640619746 1:-0.41176501 2:0.39698499 3:0.049180001 4:-0.29292899 5:-0.66903102 6:-0.147541 7:-0.71562803 8:-0.83333302 #
-0.67278145640619746 1:0.058823999 2:0.12562799 3:0.344262 4:-0.353535 5:-0.58628798 6:0.019374 7:-0.84457701 8:-0.5 #
-0.67278145640619746 1:-0.058823999 2:0.33668301 3:0.180328 4:-1 5:-1 6:-0.019374 7:-0.83603799 8:-0.40000001 #
0.67278145640619746 1:-0.17647099 2:0.246231 3:0.147541 4:-0.33333299 5:-0.49172601 6:-0.23994 7:-0.92912 8:-0.466667 #
0.67278145640619746 1:-0.29411799 2:-0.015075 3:-0.049180001 4:-0.33333299 5:-0.55082703 6:0.013413 7:-0.69940197 8:-0.26666701 #
-0.67278145640619746 1:-0.41176501 2:0.36683401 3:0.377049 4:-0.171717 5:-0.79196203 6:0.043219 7:-0.82237399 8:-0.533333 #
-0.67278145640619746 1:-0.29411799 2:0.34673399 3:0.147541 4:-0.53535402 5:-0.692671 6:0.055142 7:-0.60375702 8:-0.73333299 #
0.67278145640619746 1:-0.058823999 2:0.0050249998 3:0.245902 4:-1 5:-1 6:0.153502 7:-0.90435499 8:-0.30000001 #
0.67278145640619746 1:-0.29411799 2:0.37688401 3:0 4:-1 5:-1 6:-0.27868801 7:-0.93765998 8:0.133333 #
-0.67278145640619746 1:0.058823999 2:0.22613101 3:-0.081967004 4:-1 5:-1 6:-0.0074519999 7:-0.115286 8:-0.60000002 #
0.67278145640619746 1:-0.29411799 2:0.025126001 3:0.47541001 4:-0.21212099 5:-1 6:0.064084001 7:-0.49103299 8:-0.76666701 #
-0.67278145640619746 1:-0.058823999 2:0.437186 3:0.081967004 4:-1 5:-1 6:0.040238999 7:-0.95644701 8:-0.33333299 #
0.67278145640619746 1:-0.52941197 2:0.276382 3:0.44262299 4:-0.77777803 5:-0.63357002 6:0.028316 7:-0.55593503 8:-0.76666701 #
-0.67278145640619746 1:-0.64705902 2:0.69849199 3:0.21311501 4:-0.616162 5:-0.70449197 6:-0.108793 7:-0.83774602 8:-0.66666698 #
-0.67278145640619746 1:-0.88235301 2:0.286432 3:0.44262299 4:-0.21212099 5:-0.73995298 6:0.087929003 7:-0.16396201 8:-0.466667 #
0.67278145640619746 1:-0.64705902 2:0.48743701 3:0.081967004 4:-0.49494901 5:-1 6:-0.031296 7:-0.84799302 8:-0.966667 #
0.67278145640619746 1:-0.52941197 2:0.46733701 3:0.39344299 4:-0.45454499 5:-0.76359302 6:-0.13859899 7:-0.905209 8:-0.80000001 #
-0.67278145640619746 1:-0.64705902 2:0.708543 3:0.049180001 4:-0.252525 5:-0.46808499 6:0.028316 7:-0.76259601 8:-0.69999999 #
-0.67278145640619746 1:-1 2:0.79899502 3:-0.180328 4:-0.27272701 5:-0.62411302 6:0.12667701 7:-0.67805302 8:-0.966667 #
0.67278145640619746 1:-0.41176501 2:-0.035176001 3:0.21311501 4:-0.63636398 5:-0.84160799 6:0.0014900001 7:-0.21520101 8:-0.26666701 #
-0.67278145640619746 1:-0.17647099 2:0.095477 3:0.31147501 4:-0.37373701 5:-1 6:0.070045002 7:-0.104184 8:-0.26666701 #
-0.67278145640619746 1:0.17647099 2:0.015075 3:0.40983599 4:-0.252525 5:-1 6:0.35916501 7:-0.096499003 8:-0.43333301 #
0.67278145640619746 1:-0.76470602 2:0.296482 3:0.21311501 4:-0.474747 5:-0.51536602 6:-0.010432 7:-0.56191301 8:-0.86666697 #
0.67278145640619746 1:-0.88235301 2:0.57788903 3:0.180328 4:-0.57575798 5:-0.60283703 6:-0.23695999 7:-0.96157098 8:-0.89999998 #
-0.67278145640619746 1:-0.64705902 2:0.82914603 3:0.21311501 4:-1 5:-1 6:-0.090908997 7:-0.77199 8:-0.73333299 #
-0.67278145640619746 1:-0.52941197 2:0.738693 3:0.147541 4:-0.71717203 5:-0.60283703 6:-0.114754 7:-0.75832599 8:-0.60000002 #
0.67278145640619746 1:-0.058823999 2:-0.155779 3:0.21311501 4:-0.37373701 5:-1 6:0.14158 7:-0.67634499 8:-0.40000001 #
0.67278145640619746 1:0.41176501 2:0.21608 3:0.278689 4:-0.65656602 5:-1 6:-0.210134 7:-0.84543103 8:0.366667 #
-0.67278145640619746 1:-0.17647099 2:0.427136 3:0.47541001 4:-0.51515198 5:0.13475201 6:-0.093889996 7:-0.95730102 8:-0.26666701 #
-0.42592121416207446 1:-0.88235301 2:0.89949697 3:-0.016393 4:-0.53535402 5:1 6:-0.102832 7:-0.72672898 8:0.26666701 #
0.67278145640619746 1:-1 2:0.175879 3:0.31147501 4:-0.37373701 5:-0.874704 6:0.34724301 7:-0.99060601 8:-0.89999998 #
-0.67278145640619746 1:-0.52941197 2:0.447236 3:0.344262 4:-0.353535 5:-1 6:0.147541 7:-0.59350997 8:-0.466667 #
-0.67278145640619746 1:-0.64705902 2:0.62814099 3:-0.147541 4:-0.23232301 5:-1 6:0.108793 7:-0.509821 8:-0.89999998 #
0.67278145640619746 1:-0.52941197 2:0.296482 3:-0.016393 4:-0.75757599 5:-0.45390099 6:-0.180328 7:-0.61656702 8:-0.66666698 #
0.67278145640619746 1:-0.41176501 2:0.266332 3:0.278689 4:-0.45454499 5:-0.94799101 6:-0.117735 7:-0.69171602 8:-0.366667 #
-0.67278145640619746 1:-0.17647099 2:0.61808997 3:0.40983599 4:-1 5:-1 6:-0.093889996 7:-0.92570502 8:-0.133333 #
-0.67278145640619746 1:0.058823999 2:0.457286 3:0.44262299 4:-0.313131 5:-0.60992903 6:-0.096869998 7:-0.408198 8:0.066666998 #
-0.67278145640619746 1:-1 2:0.31658301 3:-1 4:-1 5:-1 6:0.28762999 7:-0.83603799 8:-0.83333302 #
0.67278145640619746 1:-0.41176501 2:0.095477 3:0.229508 4:-0.474747 5:-1 6:0.073025003 7:-0.60034198 8:0.30000001 #
0.67278145640619746 1:-0.058823999 2:-0.045226 3:0.180328 4:-1 5:-1 6:0.096869998 7:-0.65243399 8:0.2 #
-0.67278145640619746 1:-0.17647099 2:0.50753802 3:0.278689 4:-0.414141 5:-0.70212799 6:0.049180001 7:-0.47566199 8:0.1 #
-0.67278145640619746 1:-0.058823999 2:0.54773903 3:0.278689 4:-0.353535 5:-1 6:-0.034277 7:-0.68830103 8:-0.2 #
-0.67278145640619746 1:-1 2:0.80904502 3:0.47541001 4:-0.474747 5:-0.78723401 6:0.087929003 7:-0.79846299 8:-0.533333 #
-0.67278145640619746 1:-0.64705902 2:0.93969798 3:0.147541 4:-0.37373701 5:-1 6:0.040238999 7:-0.86080301 8:-0.86666697 #
0.67278145640619746 1:-1 2:0.37688401 3:0.377049 4:-0.45454499 5:-1 6:-0.186289 7:-0.86934203 8:0.26666701 #
-0.67278145640619746 1:-0.17647099 2:0.47738701 3:0.245902 4:-1 5:-1 6:0.174367 7:-0.847139 8:-0.26666701 #
-0.67278145640619746 1:0.29411799 2:0.386935 3:0.21311501 4:-0.474747 5:-0.65957397 6:0.076006003 7:-0.59094799 8:-0.033333 #
0.67278145640619746 1:-0.76470602 2:0.427136 3:0.344262 4:-0.63636398 5:-0.84869999 6:-0.263785 7:-0.416738 8:-1 #
0.41384276317446278 1:0.058823999 2:0.34673399 3:0.21311501 4:-0.33333299 5:-0.85815603 6:-0.228018 7:-0.673783 8:1 #
-0.67278145640619746 1:-0.17647099 2:0.59798998 3:0.081967004 4:-1 5:-1 6:-0.093889996 7:-0.73953903 8:-0.5 #
0.67278145640619746 1:-0.29411799 2:0.115578 3:0.049180001 4:-0.21212099 5:-1 6:0.019374 7:-0.84457701 8:-0.89999998 #
0.6044804735079532 1:-1 2:-0.266332 3:-1 4:-1 5:-1 6:-0.371088 7:-0.77455199 8:-0.86666697 #
0.18501183878649674 1:-1 2:0.18593 3:0.049180001 4:-0.53535402 5:-0.78959799 6:-1 7:0.411614 8:-1 #
0.67278145640619746 1:-0.29411799 2:0.085427001 3:-0.278689 4:-0.59596002 5:-0.692671 6:-0.28465 7:-0.37233099 8:-0.533333 #
0.67278145640619746 1:-0.52941197 2:0.105528 3:0.50819701 4:-1 5:-1 6:0.120715 7:-0.90350097 8:-0.69999999 #
-0.67278145640619746 1:-0.17647099 2:0.60803998 3:-0.114754 4:-0.353535 5:-0.58628798 6:-0.090908997 7:-0.564475 8:-0.40000001 #
0.67278145640619746 1:-1 2:0.37688401 3:0.147541 4:-0.23232301 5:-1 6:-0.010432 7:-0.921435 8:-0.966667 #
-0.43816804435448198 1:-1 2:0.89949697 3:0.70491803 4:-0.49494901 5:-1 6:0.022355 7:-0.69513202 8:-0.33333299 #
-0.67278145640619746 1:-0.88235301 2:0.81909502 3:0.049180001 4:-0.39393899 5:-0.57446802 6:0.016393 7:-0.78650701 8:-0.43333301 #
-0.26943227176823525 1:-0.52941197 2:0.56783903 3:0.229508 4:-1 5:-1 6:0.43964201 7:-0.86336499 8:-0.63333303 #
0.41687359765499749 1:-0.64705902 2:0.115578 3:-0.081967004 4:-0.21212099 5:-1 6:-0.102832 7:-0.59094799 8:-0.69999999 #
0.67278145640619746 1:-0.17647099 2:0.14572901 3:0.245902 4:-0.65656602 5:-0.73995298 6:-0.290611 7:-0.66865897 8:-0.66666698 #
0.59588736322748925 1:-1 2:0.23618101 3:0.44262299 4:-0.252525 5:-1 6:0.049180001 7:-0.898377 8:-0.73333299 #
0.60526797956596567 1:-1 2:0.19598 3:0.081967004 4:-0.45454499 5:-1 6:0.15648299 7:-0.84543103 8:-0.966667 #
