SVM-light Version V6.02
2 # kernel type
3 # kernel parameter -d 
0.5 # kernel parameter -g 
1 # kernel parameter -s 
1 # kernel parameter -r 
empty# kernel parameter -u 
24 # highest feature index 
800 # number of training documents 
741 # number of support vectors plus 1 
0.73241491 # threshold b, each following line is a SV (starting with alpha*y)
-0.14103182962553862 1:1 2:-0.41176501 3:0 4:-0.64835203 5:0 6:1 7:0.33333299 8:-0.33333299 9:0.33333299 10:-0.57142901 11:1 12:-1 13:1 14:1 15:-1 16:-1 17:-1 18:1 19:-1 20:-1 21:1 22:-1 23:-1 24:1 #
-0.17903703291350448 1:-0.33333299 2:-0.58823502 3:0 4:-0.90109903 5:-1 6:0 7:-0.33333299 8:1 9:-1 10:-0.75 11:1 12:-1 13:1 14:-1 15:-1 16:-1 17:-1 18:-1 19:-1 20:-1 21:1 22:-1 23:1 24:-1 #
-0.28021289139847277 1:-0.33333299 2:-0.82352901 3:0 4:-0.21978 5:-1 6:-1 7:0.33333299 8:1 9:1 10:0.82142901 11:-1 12:-1 13:-1 14:1 15:-1 16:1 17:-1 18:1 19:-1 20:-1 21:-1 22:-1 23:-1 24:-1 #
-0.18761911178570159 1:1 2:-0.058823999 3:0 4:-0.92307699 5:0 6:1 7:0.33333299 8:1 9:-0.33333299 10:-0.39285699 11:1 12:-1 13:-1 14:-1 15:-1 16:1 17:-1 18:1 19:-1 20:-1 21:1 22:-1 23:-1 24:1 #
-0.50005884962638114 1:-0.33333299 2:-0.41176501 3:0 4:-0.80219799 5:-1 6:1 7:-0.33333299 8:1 9:0.33333299 10:-0.96428603 11:1 12:-1 13:-1 14:1 15:-1 16:-1 17:-1 18:1 19:-1 20:-1 21:1 22:-1 23:-1 24:1 #
0.50005884962638114 1:-0.33333299 2:0.029412 3:1 4:-0.48351601 5:-1 6:0.5 7:0.33333299 8:-0.33333299 9:-1 10:-0.78571397 11:1 12:-0.33333299 13:-1 14:-1 15:-1 16:-1 17:-1 18:-1 19:-1 20:-1 21:1 22:-1 23:-1 24:1 #
0.50005884962638114 1:-0.33333299 2:-0.76470602 3:0 4:-0.85714298 5:-1 6:-0.5 7:1 8:-1 9:-1 10:-0.85714298 11:1 12:-1 13:-1 14:-1 15:-1 16:-1 17:-1 18:1 19:-1 20:1 21:-1 22:-1 23:-1 24:1 #
0.50005884962638114 1:-1 2:-0.58823502 3:0 4:-0.89011002 5:-1 6:-0.5 7:-0.33333299 8:0.33333299 9:0.33333299 10:-0.85714298 11:1 12:-1 13:-1 14:1 15:-1 16:1 17:-1 18:1 19:-1 20:1 21:-1 22:-1 23:-1 24:1 #
0.50005884962638114 1:-0.33333299 2:0.29411799 3:0.5 4:-0.34065899 5:-1 6:1 7:0.33333299 8:1 9:1 10:0.107143 11:1 12:-1 13:-1 14:-1 15:-1 16:-1 17:-1 18:1 19:-1 20:-1 21:-1 22:-1 23:-1 24:1 #
0.50005884962638114 1:0.33333299 2:-0.058823999 3:0 4:-0.56044 5:-1 6:0 7:0.33333299 8:-0.33333299 9:0.33333299 10:-0.75 11:1 12:-1 13:-1 14:-1 15:-1 16:-1 17:-1 18:1 19:-1 20:-1 21:1 22:-1 23:-1 24:1 #
-0.14088988348914344 1:0.33333299 2:-0.058823999 3:0 4:-0.384615 5:-1 6:0 7:0.33333299 8:-1 9:0.33333299 10:-0.82142901 11:1 12:-1 13:-1 14:-1 15:-1 16:-1 17:-1 18:1 19:-1 20:-1 21:1 22:-1 23:-1 24:1 #
-0.17744703860688033 1:0.33333299 2:-0.058823999 3:0 4:-0.52747297 5:-1 6:1 7:0.33333299 8:-0.33333299 9:0.33333299 10:-0.57142901 11:1 12:-1 13:-1 14:-1 15:-1 16:-1 17:-1 18:1 19:-1 20:-1 21:1 22:-1 23:-1 24:1 #
-0.49222935085724145 1:-1 2:-0.058823999 3:1 4:-0.42857099 5:-1 6:0 7:0.33333299 8:-0.33333299 9:-0.33333299 10:-0.67857099 11:1 12:-0.33333299 13:-1 14:-1 15:-1 16:-1 17:-1 18:-1 19:-1 20:-1 21:1 22:-1 23:-1 24:1 #
0.50005884962638114 1:-0.33333299 2:-0.41176501 3:0 4:-0.57142901 5:-1 6:0.5 7:-1 8:0.33333299 9:0.33333299 10:-0.142857 11:1 12:-1 13:-1 14:1 15:-1 16:-1 17:-1 18:1 19:-1 20:-1 21:1 22:-1 23:-1 24:1 #
0.50005884962638114 1:-0.33333299 2:-0.32352901 3:0 4:-0.59340698 5:-1 6:0 7:0.33333299 8:-0.33333299 9:0.33333299 10:-0.39285699 11:1 12:-1 13:1 14:1 15:-1 16:-1 17:-1 18:1 19:-1 20:-1 21:1 22:-1 23:-1 24:1 #
0.50005884962638114 1:-0.33333299 2:-0.41176501 3:1 4:-0.813187 5:-1 6:1 7:-1 8:1 9:-1 10:-0.57142901 11:1 12:-0.33333299 13:-1 14:1 15:-1 16:-1 17:-1 18:1 19:-1 20:-1 21:1 22:-1 23:-1 24:1 #
-0.50005884962638114 1:-0.33333299 2:-0.41176501 3:0 4:-0.681319 5:-0.5 6:1 7:0.33333299 8:1 9:1 10:-0.60714298 11:1 12:-1 13:-1 14:-1 15:-1 16:-1 17:-1 18:1 19:-1 20:-1 21:-1 22:-1 23:-1 24:1 #
-0.50005884962638114 1:-0.33333299 2:-0.32352901 3:0 4:-0.747253 5:-1 6:-0.5 7:-0.33333299 8:-1 9:-0.33333299 10:-0.53571397 11:1 12:-1 13:1 14:1 15:-1 16:-1 17:-1 18:1 19:-1 20:-1 21:1 22:-1 23:-1 24:1 #
-0.17931641167133458 1:1 2:-0.941176 3:0 4:-0.82417601 5:-1 6:0 7:1 8:-0.33333299 9:-0.33333299 10:-0.92857099 11:1 12:-1 13:-1 14:-1 15:-1 16:-1 17:-1 18:1 19:-1 20:1 21:-1 22:-1 23:-1 24:1 #
0.50005884962638114 1:-0.33333299 2:-0.85294098 3:0 4:-0.92307699 5:-1 6:0 7:-0.33333299 8:-1 9:-0.33333299 10:-0.60714298 11:1 12:-1 13:-1 14:-1 15:-1 16:-1 17:-1 18:1 19:-1 20:-1 21:1 22:-1 23:-1 24:1 #
0.50005884962638114 1:-0.33333299 2:-0.235294 3:1 4:-0.098901004 5:-1 6:0.5 7:0.33333299 8:-0.33333299 9:-0.33333299 10:0.071428999 11:1 12:-1 13:-1 14:-1 15:-1 16:-1 17:-1 18:1 19:-1 20:-1 21:1 22:-1 23:-1 24:1 #
0.50005884962638114 1:-0.33333299 2:-0.76470602 3:0 4:-0.95604402 5:-1 6:0 7:0.33333299 8:-0.33333299 9:0.33333299 10:-0.60714298 11:1 12:-1 13:-1 14:-1 15:-1 16:-1 17:-1 18:1 19:-1 20:-1 21:1 22:-1 23:-1 24:1 #
-0.50005884962638114 1:-0.33333299 2:-0.41176501 3:0.5 4:-0.318681 5:-1 6:-0.5 7:0.33333299 8:-0.33333299 9:0.33333299 10:-0.5 11:1 12:-1 13:-1 14:-1 15:-1 16:-1 17:-1 18:1 19:-1 20:-1 21:1 22:-1 23:-1 24:1 #
-0.50005884962638114 1:0.33333299 2:-0.82352901 3:0 4:-0.87912101 5:-1 6:-0.5 7:-0.33333299 8:-0.33333299 9:-0.33333299 10:-0.85714298 11:1 12:-1 13:-1 14:-1 15:-1 16:-1 17:-1 18:1 19:-1 20:-1 21:1 22:-1 23:-1 24:1 #
-0.26964880227172033 1:-0.33333299 2:-0.76470602 3:0 4:-0.70329702 5:-1 6:0.5 7:-0.33333299 8:-1 9:-1 10:-0.71428603 11:1 12:-1 13:-1 14:-1 15:-1 16:-1 17:-1 18:1 19:-1 20:-1 21:1 22:-1 23:-1 24:1 #
0.50005884962638114 1:-1 2:-0.941176 3:-0.5 4:-0.89011002 5:-1 6:1 7:-0.33333299 8:1 9:1 10:-0.42857099 11:1 12:-1 13:-1 14:-1 15:-1 16:-1 17:-1 18:1 19:-1 20:-1 21:-1 22:-1 23:-1 24:1 #
0.50005884962638114 1:1 2:-0.76470602 3:0 4:-0.868132 5:0 6:0 7:-0.33333299 8:-0.33333299 9:-0.33333299 10:-0.75 11:1 12:-1 13:-1 14:-1 15:-1 16:1 17:-1 18:1 19:-1 20:-1 21:1 22:-1 23:-1 24:1 #
0.50005884962638114 1:-0.33333299 2:0.29411799 3:0 4:-0.29670301 5:-0.5 6:0.5 7:0.33333299 8:-0.33333299 9:-0.33333299 10:-0.82142901 11:1 12:-1 13:-1 14:-1 15:-1 16:1 17:-1 18:1 19:-1 20:-1 21:1 22:-1 23:-1 24:1 #
-0.50005884962638114 1:-0.33333299 2:-0.76470602 3:0 4:-0.351648 5:-1 6:0.5 7:0.33333299 8:-0.33333299 9:0.33333299 10:-0.53571397 11:1 12:-1 13:-1 14:-1 15:-1 16:1 17:-1 18:1 19:-1 20:-1 21:1 22:-1 23:-1 24:1 #
-0.39729942900514248 1:0.33333299 2:-0.76470602 3:0 4:-0.87912101 5:-1 6:-0.5 7:0.33333299 8:-1 9:-1 10:-0.75 11:1 12:-1 13:-1 14:-1 15:-1 16:1 17:-1 18:1 19:-1 20:-1 21:1 22:-1 23:-1 24:1 #
-0.50005884962638114 1:-0.33333299 2:0.29411799 3:0 4:-0.087912001 5:1 6:0.5 7:-0.33333299 8:-0.33333299 9:0.33333299 10:-0.82142901 11:1 12:-1 13:-1 14:-1 15:-1 16:1 17:-1 18:1 19:-1 20:-1 21:1 22:-1 23:-1 24:1 #
0.50005884962638114 1:1 2:-0.58823502 3:0.5 4:-0.82417601 5:-1 6:0.5 7:-0.33333299 8:-1 9:-1 10:-0.89285702 11:1 12:-1 13:-1 14:-1 15:-1 16:-1 17:-1 18:1 19:-1 20:-1 21:1 22:-1 23:-1 24:1 #
0.50005884962638114 1:1 2:-0.058823999 3:0.5 4:0.032967001 5:-1 6:-0.5 7:-1 8:-1 9:0.33333299 10:-0.67857099 11:1 12:-0.33333299 13:-1 14:-1 15:-1 16:-1 17:-1 18:1 19:-1 20:-1 21:1 22:-1 23:-1 24:1 #
0.50005884962638114 1:1 2:-0.58823502 3:0 4:-0.813187 5:-1 6:-0.5 7:-0.33333299 8:1 9:-1 10:-0.85714298 11:1 12:-1 13:-1 14:-1 15:-1 16:-1 17:-1 18:1 19:-1 20:-1 21:1 22:-1 23:-1 24:1 #
-0.10933106317349113 1:1 2:-0.941176 3:0.5 4:-0.92307699 5:-1 6:0 7:-0.33333299 8:-0.33333299 9:-1 10:-0.82142901 11:1 12:-1 13:-1 14:-1 15:-1 16:-1 17:-1 18:1 19:-1 20:-1 21:1 22:-1 23:-1 24:1 #
-0.22316374695317484 1:1 2:-0.67647099 3:0 4:-0.62637401 5:1 6:0 7:0.33333299 8:-0.33333299 9:1 10:-0.64285702 11:1 12:-1 13:-1 14:-1 15:-1 16:1 17:-1 18:1 19:-1 20:-1 21:1 22:-1 23:-1 24:1 #
-0.39262736625797906 1:1 2:-0.058823999 3:0.5 4:-0.52747297 5:-1 6:0 7:-0.33333299 8:1 9:-1 10:-0.464286 11:1 12:-0.33333299 13:-1 14:-1 15:-1 16:-1 17:-1 18:1 19:-1 20:-1 21:1 22:-1 23:-1 24:1 #
0.50005884962638114 1:-0.33333299 2:-0.85294098 3:-0.5 4:-0.868132 5:-0.5 6:0.5 7:0.33333299 8:0.33333299 9:1 10:-0.64285702 11:1 12:-1 13:-1 14:-1 15:-1 16:1 17:-1 18:1 19:-1 20:-1 21:1 22:-1 23:-1 24:1 #
0.50005884962638114 1:-1 2:-0.41176501 3:0 4:-0.681319 5:-1 6:-0.5 7:-0.33333299 8:-1 9:-0.33333299 10:-0.71428603 11:1 12:-1 13:-1 14:-1 15:-1 16:1 17:-1 18:1 19:-1 20:-1 21:1 22:-1 23:-1 24:1 #
0.50005884962638114 1:-1 2:-0.41176501 3:0 4:-0.868132 5:1 6:0 7:-0.33333299 8:-0.33333299 9:-0.33333299 10:-0.42857099 11:1 12:-1 13:-1 14:-1 15:-1 16:1 17:-1 18:1 19:-1 20:-1 21:1 22:-1 23:-1 24:1 #
-0.50005884962638114 1:-1 2:-0.76470602 3:0 4:-0.73626399 5:-1 6:0 7:-1 8:-1 9:0.33333299 10:-0.178571 11:1 12:-1 13:-1 14:-1 15:-1 16:-1 17:-1 18:1 19:-1 20:-1 21:1 22:-1 23:-1 24:1 #
-0.40445696540835385 1:0.33333299 2:-0.41176501 3:0 4:-0.70329702 5:-1 6:1 7:-1 8:1 9:1 10:0.142857 11:1 12:-1 13:-1 14:-1 15:-1 16:-1 17:-1 18:1 19:-1 20:-1 21:-1 22:-1 23:-1 24:1 #
-0.50005884962638114 1:-1 2:-0.67647099 3:0 4:-0.83516502 5:-1 6:-0.5 7:0.33333299 8:0.33333299 9:-1 10:-0.39285699 11:1 12:-1 13:-1 14:-1 15:-1 16:1 17:-1 18:1 19:-1 20:-1 21:1 22:-1 23:-1 24:1 #
0.50005884962638114 1:-1 2:-0.58823502 3:0 4:-0.67032999 5:-1 6:0 7:-0.33333299 8:-0.33333299 9:-1 10:-0.82142901 11:1 12:-1 13:-1 14:-1 15:-1 16:-1 17:-1 18:1 19:-1 20:-1 21:1 22:-1 23:-1 24:1 #
0.50005884962638114 1:-0.33333299 2:0.29411799 3:0 4:-0.681319 5:-1 6:0.5 7:0.33333299 8:1 9:-1 10:-0.67857099 11:1 12:-0.33333299 13:-1 14:-1 15:-1 16:-1 17:-1 18:1 19:-1 20:-1 21:1 22:-1 23:-1 24:1 #
0.50005884962638114 1:1 2:-0.941176 3:0 4:-0.51648402 5:-1 6:-0.5 7:-0.33333299 8:1 9:-0.33333299 10:-0.53571397 11:1 12:-1 13:-1 14:-1 15:-1 16:-1 17:-1 18:1 19:-1 20:-1 21:1 22:-1 23:-1 24:1 #
-0.50005884962638114 1:-1 2:-0.76470602 3:0 4:-0.83516502 5:-1 6:0 7:0.33333299 8:-0.33333299 9:-1 10:-0.71428603 11:1 12:-1 13:-1 14:-1 15:-1 16:-1 17:-1 18:1 19:-1 20:-1 21:1 22:-1 23:-1 24:1 #
-0.50005884962638114 1:-1 2:-0.41176501 3:0 4:-0.56044 5:-1 6:0 7:0.33333299 8:1 9:-0.33333299 10:-0.67857099 11:1 12:-1 13:-1 14:-1 15:-1 16:-1 17:-1 18:1 19:-1 20:-1 21:1 22:-1 23:-1 24:1 #
-0.50005884962638114 1:-1 2:-0.85294098 3:0 4:-0.79120898 5:-1 6:0 7:0.33333299 8:-0.33333299 9:-1 10:-0.78571397 11:1 12:-1 13:-1 14:-1 15:-1 16:-1 17:-1 18:1 19:-1 20:-1 21:1 22:-1 23:-1 24:1 #
0.50005884962638114 1:-1 2:-0.76470602 3:0 4:-0.934066 5:-1 6:0.5 7:0.33333299 8:-0.33333299 9:-1 10:-0.75 11:1 12:-1 13:-1 14:-1 15:-1 16:1 17:-1 18:1 19:-1 20:-1 21:1 22:-1 23:-1 24:1 #
0.50005884962638114 1:-1 2:-0.76470602 3:1 4:-0.94505501 5:-1 6:1 7:0.33333299 8:0.33333299 9:-0.33333299 10:-0.42857099 11:1 12:-0.33333299 13:-1 14:-1 15:-1 16:1 17:-1 18:1 19:-1 20:-1 21:1 22:-1 23:-1 24:1 #
0.50005884962638114 1:-1 2:-0.58823502 3:0 4:-0.90109903 5:-1 6:-1 7:-0.33333299 8:-0.33333299 9:0.33333299 10:-0.5 11:1 12:-1 13:-1 14:-1 15:-1 16:-1 17:-1 18:1 19:-1 20:-1 21:1 22:-1 23:-1 24:1 #
-0.50005884962638114 1:0.33333299 2:-0.41176501 3:0 4:-0.615385 5:-1 6:-0.5 7:-0.33333299 8:1 9:0.33333299 10:-0.75 11:1 12:-1 13:-1 14:-1 15:-1 16:-1 17:-1 18:1 19:-1 20:-1 21:1 22:-1 23:-1 24:1 #
0.50005884962638114 1:-1 2:-0.76470602 3:0 4:-0.94505501 5:-0.5 6:0.5 7:1 8:-1 9:-0.33333299 10:-0.96428603 11:1 12:-1 13:-1 14:-1 15:-1 16:-1 17:-1 18:1 19:-1 20:-1 21:1 22:-1 23:-1 24:1 #
-0.4044562905163781 1:-1 2:-0.5 3:1 4:-0.95604402 5:-1 6:1 7:0.33333299 8:1 9:-1 10:0.64285702 11:1 12:-0.33333299 13:-1 14:-1 15:-1 16:1 17:-1 18:1 19:-1 20:-1 21:1 22:-1 23:-1 24:1 #
-0.34736031114550003 1:1 2:-0.73529398 3:0 4:-0.868132 5:-0.5 6:-1 7:-0.33333299 8:1 9:-1 10:0.60714298 11:1 12:-1 13:-1 14:-1 15:-1 16:-1 17:-1 18:1 19:-1 20:-1 21:1 22:-1 23:-1 24:1 #
0.50005884962638114 1:-1 2:-0.941176 3:0 4:-0.97802198 5:-1 6:-0.5 7:-0.33333299 8:1 9:-0.33333299 10:-0.85714298 11:1 12:-1 13:-1 14:-1 15:-1 16:-1 17:-1 18:1 19:-1 20:-1 21:1 22:-1 23:-1 24:1 #
0.50005884962638114 1:-1 2:-0.76470602 3:-1 4:-0.90109903 5:-1 6:0.5 7:0.33333299 8:0.33333299 9:-1 10:-0.67857099 11:1 12:-0.33333299 13:-1 14:-1 15:-1 16:-1 17:-1 18:1 19:-1 20:-1 21:1 22:-1 23:-1 24:1 #
-0.29772549015823496 1:-1 2:-0.76470602 3:0 4:-0.83516502 5:0 6:1 7:1 8:-1 9:-1 10:-0.42857099 11:1 12:-1 13:-1 14:-1 15:-1 16:-1 17:-1 18:1 19:-1 20:-1 21:1 22:-1 23:-1 24:1 #
-0.38565776037896965 1:-1 2:-0.58823502 3:0 4:-0.72527498 5:0.5 6:0 7:0.33333299 8:-0.33333299 9:0.33333299 10:-0.67857099 11:1 12:-1 13:-1 14:-1 15:-1 16:-1 17:-1 18:1 19:-1 20:-1 21:1 22:-1 23:-1 24:1 #
-0.47607268712901957 1:-0.33333299 2:0.29411799 3:-1 4:-0.098901004 5:0 6:-0.5 7:-0.33333299 8:-1 9:0.33333299 10:-0.60714298 11:1 12:-0.33333299 13:-1 14:-1 15:-1 16:1 17:-1 18:1 19:-1 20:-1 21:1 22:-1 23:-1 24:1 #
0.50005884962638114 1:-0.33333299 2:-0.88235301 3:0 4:-0.89011002 5:-1 6:0 7:-0.33333299 8:1 9:-1 10:-0.82142901 11:1 12:-1 13:-1 14:-1 15:-1 16:-1 17:-1 18:1 19:-1 20:-1 21:1 22:-1 23:-1 24:1 #
0.50005884962638114 1:-1 2:-0.76470602 3:0 4:-0.934066 5:-1 6:-0.5 7:-0.33333299 8:1 9:-0.33333299 10:0.214286 11:1 12:-1 13:-1 14:-1 15:-1 16:-1 17:-1 18:1 19:-1 20:-1 21:1 22:-1 23:-1 24:1 #
0.50005884962638114 1:-1 2:0.117647 3:0 4:-0.58241802 5:-1 6:-0.5 7:0.33333299 8:0.33333299 9:0.33333299 10:-0.464286 11:1 12:-1 13:-1 14:-1 15:-1 16:-1 17:-1 18:1 19:-1 20:-1 21:1 22:-1 23:-1 24:1 #
-0.24413272607827535 1:-0.33333299 2:-0.85294098 3:0 4:-0.89011002 5:-1 6:1 7:-0.33333299 8:1 9:-1 10:-0.78571397 11:1 12:-1 13:-1 14:-1 15:-1 16:-1 17:-1 18:1 19:-1 20:-1 21:1 22:-1 23:-1 24:1 #
-0.50005884962638114 1:-1 2:-0.85294098 3:0 4:-0.868132 5:-1 6:0.5 7:0.33333299 8:1 9:-1 10:0.42857099 11:1 12:-1 13:-1 14:-1 15:-1 16:-1 17:-1 18:1 19:-1 20:-1 21:1 22:-1 23:-1 24:1 #
-0.050983762986688601 1:-0.33333299 2:-0.41176501 3:0.5 4:-0.252747 5:-0.5 6:0.5 7:0.33333299 8:1 9:0.33333299 10:-0.39285699 11:1 12:-1 13:-1 14:1 15:-1 16:-1 17:-1 18:1 19:-1 20:1 21:-1 22:-1 23:-1 24:-1 #
0.50005884962638114 1:-1 2:-0.41176501 3:0 4:-0.69230801 5:1 6:0 7:1 8:1 9:0.33333299 10:-0.96428603 11:1 12:-1 13:-1 14:-1 15:-1 16:-1 17:-1 18:1 19:-1 20:-1 21:1 22:-1 23:-1 24:1 #
0.50005884962638114 1:-0.33333299 2:-0.76470602 3:0 4:-0.85714298 5:1 6:0 7:1 8:-1 9:-1 10:-0.78571397 11:1 12:-1 13:-1 14:1 15:-1 16:-1 17:-1 18:1 19:-1 20:-1 21:1 22:-1 23:-1 24:1 #
0.50005884962638114 1:-0.33333299 2:-0.67647099 3:0.5 4:-0.85714298 5:0.5 6:0 7:1 8:0.33333299 9:-0.33333299 10:0.5 11:0 12:-0.33333299 13:-1 14:-1 15:-1 16:-1 17:-1 18:1 19:-1 20:-1 21:1 22:-1 23:-1 24:1 #
-0.50005884962638114 1:-1 2:-0.41176501 3:0 4:-0.58241802 5:-1 6:0 7:0.33333299 8:-0.33333299 9:0.33333299 10:-0.71428603 11:0 12:-1 13:-1 14:-1 15:-1 16:-1 17:-1 18:1 19:-1 20:-1 21:1 22:-1 23:-1 24:1 #
-0.50005884962638114 1:-1 2:-0.67647099 3:1 4:-0.91208798 5:-1 6:0 7:-1 8:0.33333299 9:-0.33333299 10:-0.78571397 11:1 12:-0.33333299 13:-1 14:-1 15:-1 16:-1 17:-1 18:1 19:-1 20:-1 21:1 22:-1 23:-1 24:1 #
-0.50005884962638114 1:-1 2:-0.58823502 3:0 4:-0.75824201 5:-1 6:-0.5 7:-0.33333299 8:-1 9:0.33333299 10:-0.71428603 11:0 12:-1 13:-1 14:-1 15:-1 16:-1 17:-1 18:1 19:-1 20:-1 21:1 22:-1 23:-1 24:1 #
0.50005884962638114 1:-1 2:-0.76470602 3:1 4:-0.78021997 5:-1 6:1 7:0.33333299 8:0.33333299 9:-0.33333299 10:0.464286 11:1 12:-0.33333299 13:-1 14:-1 15:-1 16:-1 17:-1 18:1 19:-1 20:-1 21:1 22:-1 23:-1 24:1 #
0.50005884962638114 1:-1 2:-0.41176501 3:0.5 4:-0.91208798 5:-1 6:-0.5 7:1 8:1 9:-1 10:0.035714 11:0 12:-1 13:-1 14:-1 15:-1 16:-1 17:-1 18:1 19:-1 20:-1 21:1 22:-1 23:-1 24:1 #
0.50005884962638114 1:-0.33333299 2:-0.67647099 3:0 4:-0.934066 5:-1 6:1 7:0.33333299 8:0.33333299 9:0.33333299 10:-0.35714301 11:1 12:-1 13:1 14:-1 15:-1 16:-1 17:-1 18:1 19:-1 20:-1 21:1 22:-1 23:-1 24:1 #
-0.50005884962638114 1:-0.33333299 2:-0.941176 3:0 4:-0.90109903 5:-1 6:1 7:0.33333299 8:1 9:0.33333299 10:-0.67857099 11:1 12:-1 13:1 14:-1 15:-1 16:-1 17:-1 18:1 19:-1 20:-1 21:1 22:-1 23:-1 24:1 #
-0.24181654918715487 1:-0.33333299 2:-0.85294098 3:0 4:-0.80219799 5:1 6:0.5 7:0.33333299 8:-1 9:0.33333299 10:-0.82142901 11:1 12:-1 13:-1 14:1 15:-1 16:-1 17:-1 18:1 19:-1 20:-1 21:1 22:-1 23:-1 24:1 #
-0.25046957027587063 1:-1 2:-0.941176 3:1 4:-0.98901099 5:0 6:1 7:0.33333299 8:1 9:0.33333299 10:0.178571 11:1 12:-0.33333299 13:-1 14:-1 15:-1 16:-1 17:-1 18:1 19:-1 20:-1 21:1 22:-1 23:-1 24:1 #
0.50005884962638114 1:-0.33333299 2:-0.76470602 3:0 4:-0.87912101 5:-1 6:-0.5 7:0.33333299 8:-1 9:0.33333299 10:-0.89285702 11:0 12:-1 13:-1 14:-1 15:-1 16:-1 17:-1 18:1 19:-1 20:-1 21:1 22:-1 23:-1 24:1 #
0.50005884962638114 1:-1 2:-0.58823502 3:0 4:-0.747253 5:-1 6:0 7:0.33333299 8:-0.33333299 9:0.33333299 10:-0.89285702 11:1 12:-1 13:-1 14:-1 15:-1 16:-1 17:-1 18:1 19:-1 20:-1 21:1 22:-1 23:-1 24:1 #
0.50005884962638114 1:-1 2:-0.58823502 3:-0.5 4:-0.84615397 5:-1 6:0 7:0.33333299 8:0.33333299 9:0.33333299 10:-0.107143 11:-1 12:-1 13:-1 14:-1 15:-1 16:-1 17:-1 18:1 19:-1 20:-1 21:1 22:-1 23:-1 24:1 #
-0.45865267645677449 1:-0.33333299 2:-0.41176501 3:0 4:-0.70329702 5:-0.5 6:-0.5 7:0.33333299 8:-1 9:0.33333299 10:-0.64285702 11:1 12:-1 13:-1 14:-1 15:-1 16:-1 17:-1 18:1 19:-1 20:-1 21:1 22:-1 23:-1 24:1 #
-0.50005884962638114 1:-0.33333299 2:-0.058823999 3:0 4:-0.76923102 5:-1 6:0.5 7:0.33333299 8:-1 9:0.33333299 10:-0.53571397 11:1 12:-0.33333299 13:1 14:-1 15:-1 16:-1 17:-1 18:1 19:-1 20:-1 21:1 22:-1 23:-1 24:1 #
-0.50005884962638114 1:-0.33333299 2:-0.58823502 3:0 4:-0.73626399 5:-0.5 6:0 7:0.33333299 8:1 9:0.33333299 10:-0.464286 11:1 12:-1 13:-1 14:-1 15:-1 16:-1 17:-1 18:1 19:-1 20:-1 21:1 22:-1 23:-1 24:1 #
0.50005884962638114 1:-1 2:-0.14705899 3:1 4:-0.54945099 5:0 6:0 7:-0.33333299 8:1 9:0.33333299 10:-0.85714298 11:1 12:-0.33333299 13:-1 14:-1 15:-1 16:-1 17:-1 18:1 19:-1 20:-1 21:1 22:-1 23:-1 24:1 #
0.50005884962638114 1:1 2:-0.41176501 3:0 4:-0.37362599 5:1 6:-0.5 7:-0.33333299 8:-1 9:0.33333299 10:-0.107143 11:1 12:-0.33333299 13:-1 14:1 15:-1 16:-1 17:-1 18:1 19:-1 20:-1 21:1 22:-1 23:-1 24:1 #
0.50005884962638114 1:-0.33333299 2:-0.76470602 3:0 4:-0.71428603 5:1 6:1 7:-0.33333299 8:-0.33333299 9:-0.33333299 10:-0.78571397 11:-1 12:-1 13:-1 14:1 15:-1 16:-1 17:-1 18:1 19:-1 20:-1 21:1 22:-1 23:-1 24:1 #
-0.18982912910743074 1:1 2:-0.41176501 3:1 4:-0.813187 5:1 6:0 7:-0.33333299 8:-0.33333299 9:0.33333299 10:-0.5 11:1 12:-0.33333299 13:-1 14:1 15:-1 16:-1 17:-1 18:1 19:-1 20:-1 21:1 22:-1 23:-1 24:1 #
-0.2749769997384181 1:-0.33333299 2:-0.58823502 3:1 4:-0.813187 5:1 6:0 7:1 8:1 9:-1 10:-0.67857099 11:-1 12:-0.33333299 13:-1 14:-1 15:-1 16:-1 17:-1 18:1 19:-1 20:-1 21:1 22:-1 23:-1 24:1 #
-0.1973044392485418 1:0.33333299 2:-0.41176501 3:1 4:-0.87912101 5:0.5 6:0 7:-1 8:1 9:-1 10:-0.39285699 11:1 12:-0.33333299 13:-1 14:1 15:-1 16:-1 17:-1 18:1 19:-1 20:-1 21:1 22:-1 23:-1 24:1 #
0.50005884962638114 1:-1 2:-0.41176501 3:0 4:-0.75824201 5:-0.5 6:-1 7:-1 8:-1 9:-0.33333299 10:-0.5 11:1 12:-1 13:-1 14:-1 15:-1 16:-1 17:-1 18:1 19:-1 20:-1 21:1 22:-1 23:-1 24:1 #
0.50005884962638114 1:-1 2:-0.058823999 3:0 4:-0.64835203 5:-1 6:1 7:0.33333299 8:-0.33333299 9:0.33333299 10:-0.178571 11:1 12:-1 13:1 14:-1 15:-1 16:-1 17:-1 18:1 19:-1 20:-1 21:1 22:-1 23:-1 24:1 #
0.50005884962638114 1:-0.33333299 2:1 3:0 4:-0.40659299 5:-0.5 6:0 7:1 8:-0.33333299 9:0.33333299 10:-0.82142901 11:1 12:-1 13:-1 14:-1 15:-1 16:-1 17:-1 18:1 19:-1 20:-1 21:1 22:-1 23:-1 24:1 #
-0.50005884962638114 1:-1 2:-0.41176501 3:-0.5 4:-0.76923102 5:-0.5 6:0.5 7:0.33333299 8:0.33333299 9:0.33333299 10:-0.53571397 11:-1 12:-1 13:-1 14:-1 15:-1 16:1 17:-1 18:1 19:-1 20:-1 21:1 22:-1 23:-1 24:1 #
-0.50005884962638114 1:-0.33333299 2:-0.58823502 3:0 4:-0.59340698 5:-1 6:-1 7:-0.33333299 8:1 9:0.33333299 10:0.71428603 11:1 12:-1 13:-1 14:1 15:-1 16:-1 17:-1 18:1 19:-1 20:-1 21:1 22:-1 23:-1 24:1 #
-0.50005884962638114 1:-0.33333299 2:0.29411799 3:-0.5 4:-0.62637401 5:-0.5 6:0.5 7:0.33333299 8:-0.33333299 9:0.33333299 10:-0.60714298 11:1 12:-1 13:-1 14:-1 15:-1 16:-1 17:-1 18:1 19:-1 20:-1 21:1 22:-1 23:-1 24:1 #
0.50005884962638114 1:1 2:-0.58823502 3:-1 4:-0.56044 5:-1 6:0 7:0.33333299 8:-0.33333299 9:0.33333299 10:-0.39285699 11:0 12:-0.33333299 13:1 14:-1 15:-1 16:-1 17:-1 18:1 19:-1 20:-1 21:1 22:-1 23:-1 24:1 #
0.50005884962638114 1:0.33333299 2:-0.67647099 3:1 4:-0.87912101 5:1 6:0 7:0.33333299 8:1 9:1 10:-0.285714 11:1 12:-0.33333299 13:-1 14:1 15:-1 16:-1 17:-1 18:1 19:-1 20:-1 21:-1 22:-1 23:-1 24:1 #
0.50005884962638114 1:0.33333299 2:-0.85294098 3:0 4:-0.94505501 5:-1 6:0 7:-0.33333299 8:-0.33333299 9:-1 10:-0.67857099 11:1 12:-1 13:-1 14:-1 15:-1 16:-1 17:-1 18:1 19:-1 20:-1 21:1 22:-1 23:1 24:-1 #
-0.50005884962638114 1:-0.33333299 2:-0.67647099 3:0 4:-0.73626399 5:-0.5 6:0 7:-0.33333299 8:-0.33333299 9:-1 10:-0.78571397 11:1 12:-1 13:-1 14:-1 15:-1 16:-1 17:-1 18:1 19:-1 20:-1 21:1 22:-1 23:1 24:-1 #
-0.35836967252761748 1:1 2:-0.76470602 3:0 4:-0.76923102 5:1 6:0 7:0.33333299 8:1 9:1 10:-0.35714301 11:1 12:-1 13:-1 14:1 15:-1 16:-1 17:-1 18:1 19:-1 20:-1 21:-1 22:-1 23:-1 24:1 #
-0.50005884962638114 1:-0.33333299 2:-0.76470602 3:1 4:-0.62637401 5:-1 6:0 7:-0.33333299 8:-1 9:-1 10:-0.85714298 11:1 12:-1 13:-1 14:-1 15:-1 16:-1 17:-1 18:1 19:-1 20:-1 21:1 22:-1 23:1 24:-1 #
0.50005884962638114 1:-1 2:-0.41176501 3:0 4:-0.92307699 5:1 6:1 7:-0.33333299 8:-0.33333299 9:0.33333299 10:-0.64285702 11:-1 12:-1 13:-1 14:-1 15:-1 16:1 17:-1 18:1 19:-1 20:-1 21:1 22:-1 23:-1 24:1 #
0.50005884962638114 1:-1 2:-0.32352901 3:-1 4:-0.43956 5:-1 6:-1 7:0.33333299 8:1 9:-0.33333299 10:0.107143 11:0 12:-0.33333299 13:-1 14:1 15:-1 16:-1 17:-1 18:1 19:-1 20:-1 21:1 22:-1 23:-1 24:1 #
0.50005884962638114 1:-0.33333299 2:-0.235294 3:0 4:-0.78021997 5:-1 6:0 7:-0.33333299 8:-0.33333299 9:1 10:-0.82142901 11:-1 12:-1 13:-1 14:-1 15:-1 16:1 17:-1 18:-1 19:-1 20:-1 21:1 22:-1 23:-1 24:1 #
-0.3356143278921957 1:1 2:-0.41176501 3:0 4:-0.84615397 5:-1 6:0.5 7:0.33333299 8:-1 9:0.33333299 10:-0.53571397 11:-1 12:-1 13:1 14:-1 15:-1 16:-1 17:-1 18:1 19:-1 20:-1 21:1 22:-1 23:-1 24:1 #
-0.49791830009413762 1:-1 2:-0.41176501 3:-0.5 4:-0.71428603 5:0 6:0 7:0.33333299 8:1 9:-1 10:-0.89285702 11:0 12:-1 13:-1 14:1 15:-1 16:-1 17:-1 18:1 19:-1 20:-1 21:1 22:-1 23:-1 24:1 #
-0.31909302198159883 1:1 2:-0.41176501 3:0 4:-0.76923102 5:1 6:-0.5 7:0.33333299 8:-1 9:-0.33333299 10:0.25 11:1 12:-1 13:-1 14:-1 15:-1 16:1 17:-1 18:1 19:-1 20:-1 21:1 22:-1 23:-1 24:1 #
0.50005884962638114 1:-0.33333299 2:-0.58823502 3:1 4:-0.813187 5:-1 6:-0.5 7:0.33333299 8:-0.33333299 9:-1 10:-0.57142901 11:1 12:-0.33333299 13:-1 14:-1 15:-1 16:-1 17:-1 18:1 19:-1 20:-1 21:1 22:-1 23:1 24:-1 #
0.50005884962638114 1:-0.33333299 2:-0.32352901 3:1 4:-0.747253 5:0 6:0 7:0.33333299 8:-0.33333299 9:-0.33333299 10:-0.85714298 11:1 12:-0.33333299 13:-1 14:-1 15:-1 16:-1 17:-1 18:1 19:-1 20:-1 21:1 22:-1 23:1 24:-1 #
0.50005884962638114 1:-0.33333299 2:-0.76470602 3:0 4:-0.813187 5:-1 6:0 7:0.33333299 8:-0.33333299 9:-0.33333299 10:-0.35714301 11:1 12:-1 13:-1 14:-1 15:-1 16:-1 17:-1 18:1 19:-1 20:-1 21:1 22:-1 23:1 24:-1 #
-0.34789299721882494 1:-1 2:-0.76470602 3:0 4:-0.78021997 5:-1 6:0 7:0.33333299 8:0.33333299 9:-0.33333299 10:-0.82142901 11:1 12:-1 13:-1 14:-1 15:-1 16:-1 17:-1 18:1 19:-1 20:-1 21:1 22:-1 23:1 24:-1 #
-0.43977855734255505 1:0.33333299 2:-0.76470602 3:0 4:-0.76923102 5:-1 6:0 7:-0.33333299 8:-0.33333299 9:0.33333299 10:-0.035714 11:1 12:-1 13:-1 14:-1 15:-1 16:-1 17:-1 18:1 19:-1 20:-1 21:1 22:-1 23:1 24:-1 #
-0.22977956791756626 1:1 2:-0.235294 3:0.5 4:-0.54945099 5:-0.5 6:0 7:0.33333299 8:-0.33333299 9:-0.33333299 10:-0.75 11:1 12:-0.33333299 13:-1 14:-1 15:-1 16:-1 17:-1 18:1 19:-1 20:-1 21:1 22:-1 23:1 24:-1 #
0.50005884962638114 1:-1 2:-0.058823999 3:0.5 4:-0.26373601 5:-1 6:0 7:0.33333299 8:0.33333299 9:-0.33333299 10:-0.64285702 11:0 12:-1 13:-1 14:1 15:-1 16:-1 17:-1 18:1 19:-1 20:-1 21:1 22:-1 23:-1 24:1 #
0.50005884962638114 1:1 2:-0.058823999 3:0 4:-0.82417601 5:-1 6:0 7:0.33333299 8:1 9:1 10:-0.35714301 11:0 12:-1 13:-1 14:1 15:-1 16:-1 17:-1 18:1 19:-1 20:-1 21:-1 22:-1 23:-1 24:1 #
0.50005884962638114 1:-0.33333299 2:-0.85294098 3:0 4:-0.91208798 5:-1 6:0 7:-0.33333299 8:-0.33333299 9:0.33333299 10:-0.64285702 11:1 12:-1 13:-1 14:-1 15:1 16:-1 17:-1 18:1 19:-1 20:-1 21:1 22:-1 23:-1 24:1 #
-0.50005884962638114 1:-0.33333299 2:-0.52941197 3:0.5 4:-0.73626399 5:-1 6:0 7:0.33333299 8:0.33333299 9:0.33333299 10:-0.64285702 11:-1 12:-0.33333299 13:-1 14:1 15:-1 16:-1 17:-1 18:1 19:-1 20:-1 21:1 22:-1 23:-1 24:1 #
-0.13125051645743557 1:1 2:-0.67647099 3:1 4:-0.85714298 5:-1 6:0 7:0.33333299 8:1 9:1 10:-0.42857099 11:1 12:-0.33333299 13:-1 14:1 15:-1 16:-1 17:-1 18:1 19:-1 20:-1 21:-1 22:-1 23:-1 24:1 #
-0.35513621315883748 1:1 2:0.29411799 3:1 4:-0.351648 5:-1 6:0 7:0.33333299 8:0.33333299 9:1 10:-0.57142901 11:-1 12:-1 13:-1 14:1 15:-1 16:-1 17:-1 18:1 19:-1 20:-1 21:-1 22:-1 23:-1 24:1 #
0.50005884962638114 1:-1 2:-0.41176501 3:0 4:-0.87912101 5:-0.5 6:0 7:-0.33333299 8:-0.33333299 9:0.33333299 10:-0.53571397 11:1 12:-1 13:-1 14:-1 15:-1 16:-1 17:-1 18:1 19:-1 20:-1 21:1 22:-1 23:1 24:-1 #
0.50005884962638114 1:-1 2:-0.235294 3:0 4:-0.681319 5:-1 6:-0.5 7:-1 8:1 9:-0.33333299 10:-0.57142901 11:1 12:-1 13:-1 14:-1 15:-1 16:-1 17:-1 18:1 19:-1 20:-1 21:1 22:-1 23:1 24:-1 #
0.50005884962638114 1:-1 2:-0.76470602 3:0 4:-0.94505501 5:-1 6:1 7:0.33333299 8:1 9:-1 10:0.35714301 11:0 12:-1 13:-1 14:-1 15:-1 16:-1 17:-1 18:1 19:-1 20:-1 21:1 22:-1 23:1 24:-1 #
-0.50005884962638114 1:-1 2:-0.67647099 3:0 4:-0.934066 5:-1 6:0 7:-0.33333299 8:1 9:-0.33333299 10:-0.89285702 11:1 12:-1 13:-1 14:-1 15:-1 16:-1 17:-1 18:1 19:-1 20:-1 21:1 22:-1 23:1 24:-1 #
-0.34541172434570916 1:-1 2:-0.76470602 3:0 4:-0.94505501 5:-1 6:0 7:1 8:-0.33333299 9:-1 10:-0.25 11:1 12:-1 13:-1 14:-1 15:-1 16:-1 17:-1 18:1 19:-1 20:-1 21:1 22:-1 23:1 24:-1 #
-0.33016931438727126 1:-0.33333299 2:-0.41176501 3:1 4:-0.83516502 5:-1 6:1 7:0.33333299 8:-0.33333299 9:-0.33333299 10:0.035714 11:1 12:-0.33333299 13:-1 14:-1 15:-1 16:-1 17:-1 18:1 19:-1 20:-1 21:1 22:-1 23:1 24:-1 #
0.50005884962638114 1:-1 2:0.058823999 3:1 4:-0.36263701 5:-1 6:0 7:0.33333299 8:0.33333299 9:1 10:-0.71428603 11:-1 12:-1 13:-1 14:1 15:-1 16:-1 17:-1 18:1 19:-1 20:-1 21:1 22:-1 23:-1 24:1 #
0.50005884962638114 1:-1 2:-0.76470602 3:-0.5 4:-0.94505501 5:-1 6:-0.5 7:0.33333299 8:-0.33333299 9:0.33333299 10:-0.035714 11:-1 12:-0.33333299 13:-1 14:1 15:-1 16:1 17:-1 18:1 19:-1 20:-1 21:1 22:-1 23:-1 24:1 #
0.50005884962638114 1:1 2:-0.41176501 3:0 4:-0.75824201 5:0 6:1 7:0.33333299 8:-0.33333299 9:0.33333299 10:-0.42857099 11:-1 12:-0.33333299 13:-1 14:1 15:-1 16:-1 17:-1 18:1 19:-1 20:-1 21:1 22:-1 23:-1 24:1 #
-0.14769240058055164 1:1 2:-0.58823502 3:0 4:-0.80219799 5:-1 6:0.5 7:0.33333299 8:-1 9:0.33333299 10:-0.464286 11:0 12:-0.33333299 13:-1 14:1 15:-1 16:-1 17:-1 18:1 19:-1 20:-1 21:1 22:-1 23:-1 24:1 #
-0.092915954572937345 1:1 2:-0.67647099 3:0 4:-0.89011002 5:0 6:1 7:0.33333299 8:0.33333299 9:-0.33333299 10:0 11:0 12:-1 13:-1 14:1 15:-1 16:-1 17:-1 18:1 19:-1 20:-1 21:1 22:-1 23:-1 24:1 #
-0.50005884962638114 1:-1 2:-0.76470602 3:0 4:-0.813187 5:-1 6:-0.5 7:-0.33333299 8:-1 9:0.33333299 10:-0.89285702 11:1 12:-1 13:-1 14:-1 15:-1 16:-1 17:-1 18:1 19:-1 20:1 21:-1 22:-1 23:-1 24:1 #
0.50005884962638114 1:-1 2:-0.58823502 3:0 4:-0.89011002 5:-1 6:0 7:1 8:0.33333299 9:-1 10:0 11:1 12:-1 13:-1 14:1 15:-1 16:-1 17:-1 18:1 19:-1 20:-1 21:1 22:-1 23:1 24:-1 #
0.50005884962638114 1:-1 2:-0.76470602 3:0 4:-0.89011002 5:-1 6:0 7:-0.33333299 8:-0.33333299 9:-1 10:-0.82142901 11:1 12:-1 13:-1 14:-1 15:-1 16:1 17:-1 18:1 19:-1 20:-1 21:1 22:-1 23:1 24:-1 #
0.50005884962638114 1:-0.33333299 2:-0.76470602 3:0 4:-0.934066 5:0 6:0 7:0.33333299 8:0.33333299 9:-1 10:0.67857099 11:1 12:-1 13:-1 14:-1 15:-1 16:-1 17:-1 18:1 19:-1 20:-1 21:1 22:-1 23:1 24:-1 #
-0.50005884962638114 1:-0.33333299 2:-0.85294098 3:0 4:-0.934066 5:0 6:0 7:-0.33333299 8:0.33333299 9:-1 10:0.67857099 11:1 12:-1 13:-1 14:-1 15:-1 16:-1 17:-1 18:1 19:-1 20:-1 21:1 22:-1 23:1 24:-1 #
-0.19256719936485259 1:-0.33333299 2:-0.941176 3:1 4:-0.92307699 5:1 6:0.5 7:-0.33333299 8:0.33333299 9:-0.33333299 10:-0.285714 11:1 12:-0.33333299 13:-1 14:-1 15:-1 16:-1 17:-1 18:1 19:-1 20:-1 21:1 22:-1 23:1 24:-1 #
-0.3808731183980571 1:-0.33333299 2:-0.58823502 3:0 4:-0.813187 5:0.5 6:0 7:0.33333299 8:-0.33333299 9:-0.33333299 10:-0.42857099 11:1 12:-1 13:-1 14:1 15:-1 16:-1 17:-1 18:1 19:-1 20:-1 21:1 22:-1 23:1 24:-1 #
0.50005884962638114 1:-1 2:-0.76470602 3:0 4:-0.87912101 5:-1 6:0 7:-0.33333299 8:1 9:0.33333299 10:-0.96428603 11:1 12:-1 13:-1 14:-1 15:-1 16:-1 17:-1 18:1 19:-1 20:1 21:-1 22:-1 23:-1 24:1 #
0.50005884962638114 1:1 2:-0.67647099 3:0 4:-0.51648402 5:-0.5 6:0 7:0.33333299 8:-0.33333299 9:-0.33333299 10:-0.25 11:1 12:-1 13:-1 14:1 15:-1 16:-1 17:-1 18:1 19:-1 20:-1 21:1 22:-1 23:-1 24:-1 #
0.50005884962638114 1:1 2:-0.058823999 3:0.5 4:-0.52747297 5:-1 6:0 7:0.33333299 8:-0.33333299 9:0.33333299 10:-0.75 11:1 12:-0.33333299 13:-1 14:1 15:-1 16:-1 17:-1 18:1 19:-1 20:-1 21:1 22:-1 23:-1 24:-1 #
-0.50005884962638114 1:-1 2:-0.58823502 3:0 4:-0.62637401 5:-1 6:-0.5 7:-0.33333299 8:1 9:0.33333299 10:-0.89285702 11:1 12:-1 13:-1 14:-1 15:-1 16:-1 17:-1 18:1 19:-1 20:1 21:-1 22:-1 23:-1 24:1 #
-0.50005884962638114 1:-1 2:-0.76470602 3:0 4:-0.94505501 5:-1 6:1 7:-0.33333299 8:1 9:-0.33333299 10:-0.82142901 11:1 12:-1 13:-1 14:-1 15:-1 16:-1 17:-1 18:1 19:-1 20:1 21:-1 22:-1 23:-1 24:1 #
-0.41403195486647215 1:1 2:-0.41176501 3:0 4:-0.87912101 5:-1 6:1 7:0.33333299 8:-1 9:-1 10:-0.39285699 11:1 12:-1 13:-1 14:1 15:-1 16:-1 17:-1 18:1 19:-1 20:-1 21:1 22:-1 23:-1 24:-1 #
0.50005884962638114 1:-1 2:-0.76470602 3:-0.5 4:-0.79120898 5:-1 6:0 7:-1 8:-1 9:1 10:-0.64285702 11:1 12:-1 13:-1 14:-1 15:-1 16:-1 17:-1 18:1 19:-1 20:-1 21:-1 22:-1 23:-1 24:1 #
0.50005884962638114 1:0.33333299 2:-0.67647099 3:0 4:-0.76923102 5:-1 6:-0.5 7:-0.33333299 8:0.33333299 9:-1 10:-0.78571397 11:1 12:-1 13:-1 14:-1 15:-1 16:-1 17:-1 18:1 19:-1 20:-1 21:1 22:-1 23:1 24:-1 #
0.50005884962638114 1:0.33333299 2:-0.58823502 3:0 4:-0.70329702 5:-1 6:0 7:0.33333299 8:-1 9:-1 10:-0.464286 11:1 12:-1 13:1 14:-1 15:-1 16:-1 17:-1 18:1 19:-1 20:-1 21:1 22:-1 23:1 24:-1 #
-0.47610526955096788 1:-0.33333299 2:-0.85294098 3:0 4:-0.79120898 5:-1 6:0 7:0.33333299 8:-0.33333299 9:-1 10:-0.35714301 11:1 12:-1 13:1 14:-1 15:-1 16:-1 17:-1 18:1 19:-1 20:-1 21:1 22:-1 23:1 24:-1 #
-0.50005884962638114 1:1 2:-0.58823502 3:1 4:-0.60439599 5:-1 6:-0.5 7:-1 8:-0.33333299 9:0.33333299 10:-0.42857099 11:1 12:-0.33333299 13:-1 14:1 15:-1 16:-1 17:-1 18:1 19:-1 20:-1 21:1 22:-1 23:-1 24:-1 #
-0.22588290670094066 1:1 2:-0.76470602 3:0 4:-0.83516502 5:-1 6:0.5 7:-0.33333299 8:1 9:-1 10:-0.57142901 11:1 12:-1 13:-1 14:-1 15:-1 16:-1 17:-1 18:1 19:-1 20:-1 21:1 22:-1 23:1 24:-1 #
0.50005884962638114 1:-1 2:-0.85294098 3:0 4:-0.868132 5:-1 6:-0.5 7:-0.33333299 8:1 9:-0.33333299 10:-0.89285702 11:1 12:-1 13:-1 14:-1 15:-1 16:-1 17:-1 18:1 19:-1 20:1 21:-1 22:-1 23:-1 24:1 #
0.50005884962638114 1:-1 2:0.29411799 3:0 4:-0.54945099 5:-1 6:-0.5 7:-0.33333299 8:1 9:-0.33333299 10:-0.82142901 11:1 12:-1 13:-1 14:-1 15:-1 16:-1 17:-1 18:1 19:-1 20:1 21:-1 22:-1 23:-1 24:1 #
0.50005884962638114 1:-1 2:-0.058823999 3:0 4:-0.76923102 5:-1 6:0 7:-1 8:1 9:0.33333299 10:-0.57142901 11:1 12:-1 13:-1 14:-1 15:-1 16:-1 17:-1 18:1 19:-1 20:1 21:-1 22:-1 23:-1 24:1 #
-0.50005884962638114 1:-1 2:-0.67647099 3:0 4:-0.868132 5:-1 6:0 7:-0.33333299 8:1 9:0.33333299 10:-0.67857099 11:1 12:-1 13:-1 14:-1 15:-1 16:1 17:-1 18:1 19:-1 20:1 21:-1 22:-1 23:-1 24:1 #
-0.49608038149345129 1:1 2:0.29411799 3:0.5 4:0.37362599 5:0 6:0.5 7:0.33333299 8:-1 9:0.33333299 10:-0.35714301 11:1 12:-1 13:-1 14:1 15:-1 16:-1 17:-1 18:1 19:-1 20:-1 21:1 22:-1 23:-1 24:-1 #
-0.50005884962638114 1:-1 2:-0.67647099 3:0 4:-0.747253 5:-1 6:-1 7:-0.33333299 8:1 9:0.33333299 10:-0.85714298 11:1 12:-1 13:-1 14:-1 15:-1 16:1 17:-1 18:1 19:-1 20:1 21:-1 22:-1 23:-1 24:1 #
0.50005884962638114 1:-1 2:0.117647 3:0 4:-0.23076899 5:1 6:0.5 7:-0.33333299 8:0.33333299 9:0.33333299 10:-0.60714298 11:1 12:-1 13:-1 14:1 15:-1 16:-1 17:-1 18:1 19:-1 20:-1 21:1 22:-1 23:-1 24:-1 #
0.50005884962638114 1:1 2:-0.58823502 3:1 4:-0.85714298 5:-1 6:0 7:0.33333299 8:-0.33333299 9:-0.33333299 10:-0.53571397 11:-1 12:-0.33333299 13:-1 14:-1 15:-1 16:1 17:-1 18:1 19:-1 20:-1 21:1 22:-1 23:-1 24:1 #
0.50005884962638114 1:1 2:-0.76470602 3:0.5 4:-0.84615397 5:0.5 6:1 7:0.33333299 8:1 9:1 10:0.285714 11:1 12:-0.33333299 13:1 14:-1 15:-1 16:-1 17:-1 18:1 19:-1 20:-1 21:-1 22:-1 23:-1 24:1 #
-0.42130330572183733 1:1 2:-0.41176501 3:1 4:-0.84615397 5:-1 6:1 7:0.33333299 8:1 9:1 10:0.25 11:1 12:-0.33333299 13:1 14:-1 15:-1 16:-1 17:-1 18:1 19:-1 20:-1 21:-1 22:-1 23:-1 24:1 #
-0.40629158045861896 1:-1 2:0.029412 3:1 4:0.53846198 5:1 6:0.5 7:0.33333299 8:1 9:-0.33333299 10:-0.60714298 11:1 12:-0.33333299 13:-1 14:1 15:-1 16:-1 17:-1 18:1 19:-1 20:-1 21:1 22:-1 23:-1 24:-1 #
-0.50005884962638114 1:-1 2:-0.058823999 3:0 4:-0.58241802 5:-1 6:-1 7:0.33333299 8:0.33333299 9:-0.33333299 10:-0.60714298 11:1 12:-1 13:-1 14:1 15:-1 16:-1 17:-1 18:1 19:-1 20:-1 21:1 22:-1 23:-1 24:-1 #
0.50005884962638114 1:-1 2:-0.41176501 3:0 4:-0.89011002 5:-1 6:-0.5 7:-0.33333299 8:1 9:-0.33333299 10:-0.82142901 11:1 12:-1 13:-1 14:-1 15:-1 16:1 17:-1 18:1 19:-1 20:1 21:-1 22:-1 23:-1 24:1 #
0.50005884962638114 1:-1 2:-0.41176501 3:0 4:-0.868132 5:-1 6:0.5 7:-0.33333299 8:1 9:0.33333299 10:-0.85714298 11:1 12:-0.33333299 13:-1 14:-1 15:-1 16:1 17:-1 18:1 19:-1 20:1 21:-1 22:-1 23:-1 24:1 #
0.50005884962638114 1:-0.33333299 2:-0.76470602 3:0 4:-0.87912101 5:-1 6:-0.5 7:-0.33333299 8:-1 9:0.33333299 10:-0.78571397 11:1 12:-1 13:-1 14:-1 15:-1 16:1 17:-1 18:1 19:-1 20:1 21:-1 22:-1 23:-1 24:1 #
-0.50005884962638114 1:-0.33333299 2:-0.058823999 3:0.5 4:-0.208791 5:-1 6:0 7:-0.33333299 8:-0.33333299 9:-0.33333299 10:0.25 11:1 12:-1 13:-1 14:-1 15:-1 16:1 17:-1 18:1 19:-1 20:1 21:-1 22:-1 23:-1 24:1 #
-0.1545890401274265 1:1 2:-1 3:1 4:-0.85714298 5:-1 6:0.5 7:0.33333299 8:-1 9:-1 10:-0.178571 11:1 12:-0.33333299 13:1 14:-1 15:-1 16:-1 17:-1 18:1 19:-1 20:-1 21:1 22:-1 23:1 24:-1 #
-0.43817726747268509 1:-0.33333299 2:-0.79411799 3:1 4:-0.87912101 5:0.5 6:0 7:-0.33333299 8:1 9:0.33333299 10:-0.25 11:1 12:-0.33333299 13:-1 14:-1 15:-1 16:1 17:-1 18:1 19:-1 20:-1 21:1 22:-1 23:-1 24:1 #
0.50005884962638114 1:-0.33333299 2:-0.41176501 3:0.5 4:-0.79120898 5:-1 6:-1 7:-0.33333299 8:-0.33333299 9:-0.33333299 10:-0.464286 11:1 12:-1 13:-1 14:1 15:-1 16:-1 17:-1 18:1 19:-1 20:-1 21:1 22:-1 23:-1 24:-1 #
0.50005884962638114 1:-0.33333299 2:-0.058823999 3:0.5 4:-0.52747297 5:-1 6:0 7:-1 8:-0.33333299 9:-1 10:-0.60714298 11:0 12:-0.33333299 13:-1 14:1 15:-1 16:-1 17:-1 18:1 19:-1 20:-1 21:1 22:-1 23:-1 24:-1 #
0.50005884962638114 1:-0.33333299 2:0.29411799 3:1 4:-0.46153799 5:-1 6:0 7:-0.33333299 8:0.33333299 9:0.33333299 10:-0.60714298 11:1 12:-1 13:-1 14:1 15:-1 16:-1 17:-1 18:1 19:-1 20:-1 21:1 22:-1 23:-1 24:-1 #
-0.50005884962638114 1:-0.33333299 2:-0.058823999 3:0 4:-0.49450499 5:-1 6:-0.5 7:-0.33333299 8:-1 9:1 10:-0.60714298 11:1 12:-1 13:-1 14:1 15:-1 16:-1 17:-1 18:1 19:-1 20:-1 21:1 22:-1 23:-1 24:-1 #
-0.46877952250469673 1:-0.33333299 2:-0.941176 3:0.5 4:-0.91208798 5:-1 6:-1 7:0.33333299 8:-1 9:-0.33333299 10:-0.42857099 11:0 12:-0.33333299 13:-1 14:1 15:-1 16:-1 17:-1 18:1 19:-1 20:-1 21:1 22:-1 23:-1 24:-1 #
-0.27322208267391029 1:0.33333299 2:-0.76470602 3:0 4:-0.85714298 5:-1 6:-0.5 7:-0.33333299 8:-1 9:-0.33333299 10:-0.5 11:-1 12:-1 13:-1 14:1 15:-1 16:-1 17:-1 18:1 19:-1 20:-1 21:1 22:-1 23:-1 24:-1 #
0.50005884962638114 1:-0.33333299 2:-0.058823999 3:1 4:-0.71428603 5:-1 6:-0.5 7:-1 8:1 9:0.33333299 10:-0.71428603 11:1 12:-0.33333299 13:-1 14:-1 15:-1 16:1 17:-1 18:1 19:-1 20:-1 21:1 22:-1 23:-1 24:1 #
0.50005884962638114 1:-0.33333299 2:-0.76470602 3:0 4:-0.89011002 5:-1 6:1 7:-1 8:-1 9:-1 10:-0.035714 11:1 12:-0.33333299 13:-1 14:-1 15:-1 16:1 17:-1 18:1 19:-1 20:1 21:-1 22:-1 23:-1 24:1 #
0.50005884962638114 1:-1 2:-0.76470602 3:0 4:-0.94505501 5:-0.5 6:-0.5 7:1 8:0.33333299 9:1 10:-0.5 11:1 12:-1 13:-1 14:1 15:-1 16:-1 17:-1 18:1 19:-1 20:-1 21:1 22:-1 23:1 24:-1 #
-0.50005884962638114 1:-0.33333299 2:-0.85294098 3:0 4:-0.89011002 5:-1 6:0.5 7:-0.33333299 8:1 9:-0.33333299 10:0.71428603 11:1 12:-0.33333299 13:-1 14:1 15:-1 16:-1 17:-1 18:1 19:-1 20:-1 21:1 22:-1 23:-1 24:-1 #
-0.42587332748423157 1:1 2:-0.41176501 3:1 4:-0.52747297 5:-1 6:0 7:0.33333299 8:-0.33333299 9:-1 10:0.96428603 11:1 12:-1 13:-1 14:1 15:-1 16:-1 17:-1 18:1 19:-1 20:-1 21:1 22:-1 23:-1 24:-1 #
-0.26536728011882971 1:-1 2:-0.941176 3:0 4:-0.89011002 5:-0.5 6:1 7:0.33333299 8:-0.33333299 9:-0.33333299 10:-0.142857 11:1 12:-1 13:-1 14:1 15:-1 16:1 17:-1 18:1 19:-1 20:-1 21:1 22:-1 23:-1 24:1 #
0.50005884962638114 1:1 2:-0.76470602 3:1 4:-0.76923102 5:-1 6:-1 7:0.33333299 8:-0.33333299 9:0.33333299 10:-0.178571 11:0 12:-0.33333299 13:-1 14:1 15:-1 16:-1 17:-1 18:1 19:-1 20:-1 21:1 22:-1 23:-1 24:-1 #
0.50005884962638114 1:-0.33333299 2:-0.058823999 3:-1 4:-0.60439599 5:-1 6:0 7:-0.33333299 8:-1 9:0.33333299 10:-0.178571 11:1 12:-1 13:-1 14:1 15:-1 16:-1 17:-1 18:1 19:-1 20:-1 21:1 22:-1 23:-1 24:1 #
0.50005884962638114 1:-0.33333299 2:-0.76470602 3:0 4:-0.30769199 5:1 6:-1 7:0.33333299 8:-1 9:1 10:0.178571 11:1 12:-1 13:-1 14:1 15:-1 16:-1 17:-1 18:1 19:-1 20:-1 21:1 22:-1 23:-1 24:-1 #
-0.50005884962638114 1:-0.33333299 2:-0.76470602 3:0 4:-0.84615397 5:-1 6:0 7:-0.33333299 8:-1 9:0.33333299 10:-0.89285702 11:1 12:-1 13:-1 14:1 15:-1 16:-1 17:-1 18:1 19:-1 20:-1 21:1 22:-1 23:-1 24:1 #
0.50005884962638114 1:0.33333299 2:-0.235294 3:0.5 4:-0.813187 5:-1 6:1 7:0.33333299 8:1 9:-1 10:0.67857099 11:1 12:-1 13:-1 14:1 15:-1 16:-1 17:-1 18:1 19:-1 20:-1 21:1 22:-1 23:-1 24:-1 #
-0.38696337175654538 1:-0.33333299 2:-0.58823502 3:1 4:-0.208791 5:-1 6:-1 7:0.33333299 8:1 9:-0.33333299 10:-0.25 11:0 12:-0.33333299 13:-1 14:1 15:-1 16:-1 17:-1 18:1 19:-1 20:-1 21:1 22:-1 23:-1 24:-1 #
-0.26507549544522802 1:0.33333299 2:-0.67647099 3:0 4:-0.97802198 5:-1 6:-0.5 7:-0.33333299 8:1 9:-0.33333299 10:-0.85714298 11:1 12:-1 13:-1 14:1 15:-1 16:-1 17:-1 18:1 19:-1 20:1 21:-1 22:-1 23:-1 24:1 #
0.50005884962638114 1:-1 2:-0.058823999 3:0 4:0 5:-1 6:0.5 7:0.33333299 8:-1 9:0.33333299 10:-0.82142901 11:1 12:-1 13:-1 14:1 15:-1 16:1 17:-1 18:1 19:-1 20:-1 21:1 22:-1 23:-1 24:1 #
0.50005884962638114 1:0.33333299 2:-0.76470602 3:1 4:-0.92307699 5:0 6:0.5 7:1 8:-0.33333299 9:-1 10:-0.67857099 11:1 12:0.33333299 13:-1 14:1 15:-1 16:1 17:-1 18:1 19:-1 20:-1 21:1 22:-1 23:-1 24:1 #
-0.32596079401079264 1:-1 2:-0.941176 3:1 4:-0.95604402 5:-1 6:0.5 7:-0.33333299 8:0.33333299 9:-0.33333299 10:-0.35714301 11:1 12:-0.33333299 13:-1 14:-1 15:1 16:1 17:-1 18:1 19:-1 20:-1 21:1 22:-1 23:-1 24:1 #
-0.21306811072824364 1:-1 2:-0.235294 3:0 4:-0.747253 5:-1 6:1 7:0.33333299 8:0.33333299 9:-0.33333299 10:-0.285714 11:1 12:-1 13:1 14:-1 15:-1 16:-1 17:-1 18:-1 19:-1 20:-1 21:1 22:-1 23:-1 24:1 #
-0.12797799590985953 1:1 2:-0.41176501 3:0 4:-0.16483501 5:-1 6:0.5 7:0.33333299 8:0.33333299 9:0.33333299 10:-0.32142901 11:1 12:-1 13:-1 14:1 15:-1 16:-1 17:1 18:1 19:-1 20:-1 21:1 22:-1 23:-1 24:-1 #
0.50005884962638114 1:-0.33333299 2:-0.85294098 3:0 4:-0.83516502 5:-1 6:-0.5 7:-0.33333299 8:-0.33333299 9:0.33333299 10:-0.89285702 11:1 12:-1 13:-1 14:1 15:-1 16:-1 17:-1 18:1 19:-1 20:-1 21:1 22:-1 23:-1 24:1 #
0.50005884962638114 1:-1 2:-0.058823999 3:0.5 4:-0.79120898 5:-1 6:0.5 7:0.33333299 8:-1 9:0.33333299 10:-0.82142901 11:1 12:-0.33333299 13:-1 14:1 15:-1 16:-1 17:-1 18:1 19:-1 20:-1 21:1 22:-1 23:-1 24:1 #
0.50005884962638114 1:-0.33333299 2:-0.41176501 3:0 4:-0.80219799 5:-1 6:-0.5 7:1 8:-1 9:-0.33333299 10:-0.89285702 11:1 12:-1 13:-1 14:1 15:-1 16:-1 17:-1 18:1 19:-1 20:-1 21:1 22:-1 23:-1 24:1 #
-0.45049095979982606 1:-0.33333299 2:-0.88235301 3:0 4:-0.92307699 5:-1 6:-0.5 7:1 8:-0.33333299 9:-1 10:-0.75 11:1 12:-1 13:-1 14:1 15:-1 16:-1 17:-1 18:1 19:-1 20:-1 21:1 22:-1 23:-1 24:1 #
-0.50005884962638114 1:-1 2:-0.41176501 3:1 4:-0.868132 5:-0.5 6:0.5 7:0.33333299 8:-1 9:-1 10:-0.75 11:1 12:-0.33333299 13:-1 14:1 15:-1 16:-1 17:-1 18:1 19:-1 20:-1 21:1 22:-1 23:-1 24:1 #
-0.46128605125741129 1:0.33333299 2:-0.058823999 3:0 4:-0.59340698 5:-1 6:0 7:0.33333299 8:-0.33333299 9:-1 10:-0.85714298 11:1 12:-1 13:-1 14:1 15:-1 16:-1 17:-1 18:1 19:-1 20:-1 21:1 22:-1 23:-1 24:1 #
0.50005884962638114 1:1 2:-0.058823999 3:1 4:-0.241758 5:-1 6:-0.5 7:-0.33333299 8:1 9:-0.33333299 10:-0.85714298 11:1 12:-0.33333299 13:-1 14:1 15:-1 16:-1 17:-1 18:1 19:-1 20:1 21:-1 22:-1 23:-1 24:1 #
0.50005884962638114 1:1 2:-0.058823999 3:0.5 4:-0.142857 5:1 6:-0.5 7:0.33333299 8:1 9:0.33333299 10:-0.71428603 11:1 12:-0.33333299 13:-1 14:1 15:-1 16:-1 17:-1 18:1 19:-1 20:1 21:-1 22:-1 23:-1 24:1 #
0.50005884962638114 1:-1 2:-0.58823502 3:0 4:-0.56044 5:-1 6:0 7:0.33333299 8:0.33333299 9:0.33333299 10:-0.178571 11:1 12:-1 13:-1 14:-1 15:-1 16:-1 17:-1 18:-1 19:1 20:-1 21:1 22:-1 23:-1 24:1 #
-0.50005884962638114 1:-1 2:-0.76470602 3:0 4:-0.84615397 5:-1 6:0 7:-0.33333299 8:0.33333299 9:-0.33333299 10:-0.60714298 11:1 12:-1 13:-1 14:-1 15:-1 16:-1 17:-1 18:-1 19:1 20:-1 21:1 22:-1 23:-1 24:1 #
-0.43931298374717326 1:-0.33333299 2:-0.58823502 3:0 4:-0.37362599 5:-0.5 6:0 7:0.33333299 8:-0.33333299 9:0.33333299 10:-0.60714298 11:1 12:-0.33333299 13:-1 14:1 15:-1 16:1 17:-1 18:1 19:-1 20:-1 21:1 22:-1 23:-1 24:1 #
-0.15643403122906335 1:1 2:-0.41176501 3:1 4:-0.747253 5:-0.5 6:0.5 7:1 8:0.33333299 9:-0.33333299 10:-0.71428603 11:1 12:-0.33333299 13:-1 14:1 15:-1 16:1 17:-1 18:1 19:-1 20:-1 21:1 22:-1 23:-1 24:1 #
0.50005884962638114 1:-1 2:-0.5 3:0 4:-0.82417601 5:-1 6:0 7:-0.33333299 8:-0.33333299 9:-1 10:-0.78571397 11:1 12:-0.33333299 13:-1 14:1 15:-1 16:-1 17:-1 18:1 19:-1 20:-1 21:1 22:-1 23:-1 24:1 #
0.50005884962638114 1:-0.33333299 2:-0.41176501 3:0 4:0.36263701 5:-1 6:1 7:-0.33333299 8:-0.33333299 9:1 10:-0.107143 11:1 12:-1 13:-1 14:1 15:-1 16:-1 17:1 18:1 19:-1 20:-1 21:-1 22:-1 23:-1 24:-1 #
0.50005884962638114 1:1 2:-0.5 3:0.5 4:-0.73626399 5:0 6:-0.5 7:0.33333299 8:-0.33333299 9:-1 10:-0.214286 11:-1 12:-1 13:1 14:-1 15:-1 16:-1 17:-1 18:1 19:-1 20:-1 21:1 22:-1 23:1 24:-1 #
-0.27188716102926813 1:1 2:0.117647 3:0 4:-0.23076899 5:1 6:0.5 7:1 8:1 9:-0.33333299 10:-0.64285702 11:1 12:-1 13:-1 14:1 15:-1 16:-1 17:-1 18:1 19:-1 20:1 21:-1 22:-1 23:-1 24:1 #
-0.32657158647506712 1:-1 2:-0.41176501 3:0 4:-0.70329702 5:-1 6:0.5 7:0.33333299 8:-1 9:1 10:-0.464286 11:1 12:-1 13:-1 14:1 15:-1 16:-1 17:1 18:1 19:-1 20:-1 21:-1 22:-1 23:-1 24:-1 #
-0.42726664079754662 1:-0.33333299 2:-0.58823502 3:1 4:-0.318681 5:-1 6:1 7:0.33333299 8:-1 9:1 10:-0.214286 11:1 12:-1 13:-1 14:1 15:-1 16:-1 17:-1 18:1 19:-1 20:-1 21:1 22:-1 23:-1 24:1 #
0.50005884962638114 1:-1 2:-0.76470602 3:1 4:-0.63736302 5:-1 6:0 7:-0.33333299 8:-0.33333299 9:-1 10:-0.64285702 11:1 12:-0.33333299 13:-1 14:-1 15:-1 16:1 17:-1 18:-1 19:1 20:-1 21:1 22:-1 23:-1 24:1 #
0.50005884962638114 1:-1 2:-0.058823999 3:0 4:-0.82417601 5:-1 6:-0.5 7:-0.33333299 8:1 9:0.33333299 10:-0.464286 11:1 12:-1 13:-1 14:1 15:-1 16:1 17:-1 18:1 19:-1 20:-1 21:1 22:-1 23:-1 24:1 #
0.50005884962638114 1:-1 2:-0.941176 3:0 4:0.615385 5:-1 6:1 7:0.33333299 8:1 9:1 10:0.75 11:-1 12:-1 13:-1 14:1 15:-1 16:1 17:-1 18:1 19:-1 20:-1 21:1 22:-1 23:-1 24:-1 #
-0.3197517047441194 1:-1 2:-0.58823502 3:-1 4:-0.681319 5:-1 6:0.5 7:0.33333299 8:-1 9:-0.33333299 10:-0.57142901 11:-1 12:-1 13:-1 14:1 15:-1 16:-1 17:-1 18:1 19:-1 20:-1 21:1 22:-1 23:-1 24:1 #
-0.29862051156568936 1:-0.33333299 2:-0.41176501 3:1 4:-0.59340698 5:-0.5 6:-0.5 7:-1 8:-0.33333299 9:0.33333299 10:-0.35714301 11:1 12:-1 13:-1 14:1 15:-1 16:1 17:-1 18:1 19:-1 20:-1 21:1 22:-1 23:-1 24:1 #
-0.33853656507663749 1:1 2:-0.76470602 3:0 4:-0.95604402 5:-1 6:0 7:-1 8:-0.33333299 9:-1 10:0.071428999 11:1 12:-1 13:-1 14:-1 15:-1 16:1 17:-1 18:1 19:-1 20:-1 21:1 22:-1 23:1 24:-1 #
0.50005884962638114 1:-1 2:-0.41176501 3:1 4:-0.89011002 5:-1 6:1 7:0.33333299 8:1 9:0.33333299 10:0.464286 11:1 12:-0.33333299 13:-1 14:-1 15:-1 16:1 17:-1 18:1 19:-1 20:-1 21:1 22:-1 23:1 24:-1 #
0.50005884962638114 1:1 2:-0.58823502 3:0 4:-0.27472499 5:1 6:0 7:0.33333299 8:1 9:0.33333299 10:0.75 11:1 12:-0.33333299 13:-1 14:-1 15:-1 16:1 17:-1 18:1 19:-1 20:1 21:-1 22:-1 23:-1 24:1 #
0.50005884962638114 1:-0.33333299 2:-0.058823999 3:0 4:0.34065899 5:1 6:0 7:0.33333299 8:1 9:1 10:-0.35714301 11:1 12:-1 13:-1 14:1 15:-1 16:1 17:-1 18:1 19:-1 20:-1 21:-1 22:-1 23:-1 24:1 #
-0.44569763411501012 1:-1 2:-0.88235301 3:1 4:-0.94505501 5:-1 6:1 7:0.33333299 8:1 9:-1 10:0 11:1 12:-0.33333299 13:-1 14:-1 15:-1 16:1 17:-1 18:1 19:-1 20:-1 21:1 22:-1 23:1 24:-1 #
-0.30373377042954108 1:-0.33333299 2:-0.41176501 3:0.5 4:-0.80219799 5:1 6:0 7:-0.33333299 8:1 9:0.33333299 10:-0.178571 11:1 12:-0.33333299 13:-1 14:1 15:-1 16:1 17:-1 18:1 19:-1 20:1 21:-1 22:-1 23:-1 24:1 #
-0.32007694068865566 1:1 2:-0.67647099 3:0 4:-0.67032999 5:0.5 6:0.5 7:-0.33333299 8:0.33333299 9:0.33333299 10:-0.96428603 11:1 12:-1 13:-1 14:-1 15:-1 16:1 17:-1 18:1 19:-1 20:1 21:-1 22:-1 23:-1 24:1 #
0.50005884962638114 1:-1 2:-0.41176501 3:-0.5 4:-0.26373601 5:-1 6:-0.5 7:-1 8:-1 9:-0.33333299 10:0.285714 11:-1 12:-1 13:-1 14:1 15:-1 16:-1 17:-1 18:1 19:-1 20:-1 21:1 22:-1 23:-1 24:1 #
0.50005884962638114 1:-1 2:-0.85294098 3:0 4:-0.868132 5:-1 6:-0.5 7:0.33333299 8:-0.33333299 9:1 10:-0.71428603 11:1 12:-1 13:-1 14:1 15:-1 16:1 17:-1 18:1 19:-1 20:-1 21:-1 22:-1 23:-1 24:-1 #
0.50005884962638114 1:-0.33333299 2:-0.67647099 3:-0.5 4:-0.27472499 5:-0.5 6:-1 7:0.33333299 8:-0.33333299 9:-0.33333299 10:-0.464286 11:1 12:-1 13:1 14:1 15:-1 16:1 17:-1 18:1 19:-1 20:-1 21:1 22:-1 23:-1 24:-1 #
-0.32942460131077073 1:-1 2:-0.58823502 3:0 4:-0.78021997 5:-0.5 6:0.5 7:0.33333299 8:0.33333299 9:0.33333299 10:-0.60714298 11:1 12:-1 13:1 14:1 15:-1 16:1 17:-1 18:1 19:-1 20:-1 21:1 22:-1 23:-1 24:-1 #
-0.32068392662974293 1:-1 2:-0.67647099 3:1 4:-0.85714298 5:-1 6:1 7:0.33333299 8:1 9:0.33333299 10:-0.107143 11:1 12:-0.33333299 13:1 14:1 15:-1 16:-1 17:-1 18:1 19:-1 20:-1 21:1 22:-1 23:-1 24:1 #
-0.2429340411615695 1:1 2:-0.76470602 3:0 4:-0.85714298 5:-1 6:-0.5 7:-0.33333299 8:0.33333299 9:0.33333299 10:-0.464286 11:1 12:-1 13:1 14:-1 15:-1 16:-1 17:-1 18:1 19:-1 20:-1 21:1 22:-1 23:-1 24:1 #
0.50005884962638114 1:1 2:-0.82352901 3:0 4:-0.87912101 5:1 6:0 7:0.33333299 8:1 9:-0.33333299 10:-0.71428603 11:1 12:-1 13:-1 14:-1 15:-1 16:1 17:-1 18:-1 19:-1 20:-1 21:1 22:-1 23:1 24:-1 #
0.50005884962638114 1:0.33333299 2:-0.41176501 3:0 4:-0.92307699 5:-1 6:0.5 7:0.33333299 8:0.33333299 9:1 10:-0.32142901 11:-1 12:-1 13:1 14:-1 15:-1 16:1 17:-1 18:1 19:-1 20:-1 21:-1 22:-1 23:-1 24:1 #
0.50005884962638114 1:-1 2:-0.41176501 3:0 4:-0.80219799 5:-1 6:0 7:0.33333299 8:1 9:-1 10:-0.92857099 11:1 12:-1 13:1 14:-1 15:-1 16:-1 17:-1 18:1 19:-1 20:1 21:-1 22:-1 23:1 24:-1 #
-0.29089876279846505 1:1 2:-1 3:0 4:-0.95604402 5:-1 6:-0.5 7:-0.33333299 8:0.33333299 9:-1 10:-0.85714298 11:1 12:-1 13:1 14:-1 15:-1 16:-1 17:-1 18:1 19:-1 20:1 21:-1 22:-1 23:1 24:-1 #
-0.062338065678553829 1:-0.33333299 2:-0.76470602 3:0 4:-0.934066 5:-0.5 6:0.5 7:-0.33333299 8:1 9:-1 10:-0.85714298 11:1 12:-1 13:-1 14:-1 15:-1 16:-1 17:-1 18:1 19:-1 20:1 21:-1 22:-1 23:1 24:-1 #
-0.31196658105199349 1:1 2:-0.58823502 3:0 4:-0.85714298 5:-1 6:0 7:0.33333299 8:-0.33333299 9:1 10:-0.53571397 11:1 12:-1 13:-1 14:1 15:-1 16:-1 17:-1 18:1 19:-1 20:-1 21:-1 22:-1 23:-1 24:-1 #
0.50005884962638114 1:-1 2:-0.41176501 3:0 4:-0.82417601 5:-1 6:-1 7:0.33333299 8:-0.33333299 9:0.33333299 10:-0.60714298 11:0 12:-1 13:1 14:-1 15:-1 16:-1 17:-1 18:1 19:-1 20:-1 21:1 22:-1 23:-1 24:-1 #
0.50005884962638114 1:1 2:-0.85294098 3:0 4:-0.80219799 5:-1 6:-0.5 7:-0.33333299 8:-0.33333299 9:0.33333299 10:-1 11:1 12:-0.33333299 13:-1 14:-1 15:-1 16:-1 17:-1 18:-1 19:1 20:1 21:-1 22:-1 23:-1 24:1 #
0.50005884962638114 1:-0.33333299 2:-0.41176501 3:1 4:-0.89011002 5:-0.5 6:-0.5 7:0.33333299 8:1 9:1 10:-0.32142901 11:-1 12:-0.33333299 13:1 14:-1 15:-1 16:-1 17:-1 18:1 19:-1 20:-1 21:1 22:-1 23:-1 24:1 #
-0.21789286891402415 1:1 2:-0.941176 3:-0.5 4:-0.82417601 5:0 6:1 7:0.33333299 8:1 9:-0.33333299 10:-0.071428999 11:-1 12:-1 13:1 14:-1 15:-1 16:-1 17:-1 18:1 19:-1 20:-1 21:1 22:-1 23:1 24:-1 #
-0.30099329230693261 1:-1 2:-0.76470602 3:0 4:-0.813187 5:-1 6:0 7:-0.33333299 8:1 9:-0.33333299 10:-0.64285702 11:1 12:-1 13:-1 14:1 15:-1 16:1 17:-1 18:-1 19:-1 20:-1 21:1 22:-1 23:-1 24:1 #
-0.50005884962638114 1:-1 2:0.29411799 3:0 4:-0.49450499 5:-1 6:0.5 7:0.33333299 8:0.33333299 9:-0.33333299 10:-0.75 11:1 12:-1 13:1 14:-1 15:-1 16:-1 17:1 18:1 19:-1 20:-1 21:1 22:-1 23:-1 24:1 #
0.50005884962638114 1:-0.33333299 2:-0.235294 3:-1 4:-0.54945099 5:-0.5 6:0 7:-0.33333299 8:1 9:0.33333299 10:-0.75 11:1 12:-0.33333299 13:-1 14:-1 15:-1 16:-1 17:-1 18:1 19:-1 20:1 21:-1 22:-1 23:1 24:-1 #
0.50005884962638114 1:-1 2:-0.41176501 3:0 4:-0.67032999 5:-1 6:-0.5 7:-0.33333299 8:1 9:-1 10:-0.85714298 11:1 12:-1 13:-1 14:1 15:-1 16:-1 17:-1 18:1 19:-1 20:1 21:-1 22:-1 23:1 24:-1 #
0.50005884962638114 1:1 2:-0.82352901 3:0 4:-0.78021997 5:-1 6:0 7:0.33333299 8:-0.33333299 9:-1 10:-0.78571397 11:-1 12:-1 13:-1 14:-1 15:-1 16:-1 17:-1 18:1 19:-1 20:1 21:-1 22:-1 23:1 24:-1 #
-0.44709569307692293 1:-1 2:-0.5 3:0 4:-0.62637401 5:-1 6:0.5 7:-0.33333299 8:1 9:0.33333299 10:-0.75 11:1 12:-1 13:-1 14:-1 15:-1 16:-1 17:-1 18:1 19:-1 20:1 21:-1 22:-1 23:1 24:-1 #
-0.41730645458104321 1:-1 2:-0.5 3:0 4:-0.73626399 5:-1 6:-0.5 7:-0.33333299 8:1 9:-0.33333299 10:-0.67857099 11:1 12:-1 13:-1 14:1 15:-1 16:-1 17:-1 18:1 19:-1 20:1 21:-1 22:-1 23:-1 24:-1 #
-0.25706877711742215 1:0.33333299 2:0.117647 3:-1 4:-0.32967001 5:-1 6:-0.5 7:-1 8:-1 9:-0.33333299 10:-0.5 11:1 12:-0.33333299 13:-1 14:-1 15:-1 16:-1 17:-1 18:1 19:-1 20:-1 21:1 22:-1 23:-1 24:1 #
0.50005884962638114 1:-1 2:-0.058823999 3:0 4:-0.120879 5:-1 6:0 7:0.33333299 8:-0.33333299 9:-0.33333299 10:-0.75 11:1 12:-1 13:1 14:-1 15:-1 16:-1 17:1 18:1 19:-1 20:-1 21:1 22:-1 23:-1 24:1 #
0.50005884962638114 1:1 2:-0.76470602 3:0 4:-0.94505501 5:-1 6:1 7:0.33333299 8:1 9:0.33333299 10:-0.214286 11:-1 12:-1 13:1 14:-1 15:-1 16:-1 17:-1 18:1 19:-1 20:-1 21:1 22:-1 23:1 24:-1 #
0.50005884962638114 1:-1 2:-0.41176501 3:0 4:-0.49450499 5:-1 6:0.5 7:0.33333299 8:0.33333299 9:-0.33333299 10:-0.57142901 11:1 12:-1 13:-1 14:1 15:-1 16:1 17:-1 18:-1 19:1 20:-1 21:1 22:-1 23:-1 24:1 #
-0.45618052872616699 1:-1 2:-0.82352901 3:1 4:-0.91208798 5:-1 6:0.5 7:0.33333299 8:0.33333299 9:-0.33333299 10:0.071428999 11:1 12:-0.33333299 13:-1 14:1 15:-1 16:1 17:-1 18:-1 19:1 20:-1 21:1 22:-1 23:-1 24:1 #
-0.50005884962638114 1:1 2:-0.67647099 3:-0.5 4:-0.84615397 5:-0.5 6:1 7:0.33333299 8:1 9:0.33333299 10:-0.464286 11:-1 12:-1 13:1 14:-1 15:-1 16:-1 17:-1 18:1 19:-1 20:-1 21:1 22:-1 23:1 24:-1 #
-0.30748169689083421 1:-1 2:-0.941176 3:0 4:-0.73626399 5:0 6:0 7:0.33333299 8:0.33333299 9:-1 10:-0.107143 11:1 12:-1 13:1 14:-1 15:-1 16:-1 17:-1 18:1 19:-1 20:1 21:-1 22:-1 23:-1 24:1 #
0.50005884962638114 1:-1 2:-0.941176 3:1 4:-0.64835203 5:-1 6:0 7:-1 8:1 9:-1 10:-0.107143 11:1 12:-1 13:-1 14:1 15:-1 16:-1 17:-1 18:1 19:-1 20:1 21:-1 22:-1 23:-1 24:-1 #
0.50005884962638114 1:-0.33333299 2:-0.058823999 3:0 4:0.010989 5:-1 6:-0.5 7:1 8:1 9:0.33333299 10:-0.67857099 11:1 12:-1 13:-1 14:1 15:-1 16:-1 17:1 18:1 19:-1 20:1 21:-1 22:-1 23:-1 24:-1 #
0.50005884962638114 1:-1 2:-0.41176501 3:-0.5 4:-0.67032999 5:-1 6:0 7:0.33333299 8:-0.33333299 9:-0.33333299 10:-0.57142901 11:1 12:-1 13:-1 14:1 15:-1 16:-1 17:-1 18:1 19:-1 20:1 21:-1 22:-1 23:-1 24:1 #
-0.33870897601259231 1:-0.33333299 2:-0.058823999 3:0 4:-0.26373601 5:-1 6:0 7:0.33333299 8:-0.33333299 9:0.33333299 10:-0.42857099 11:1 12:-1 13:-1 14:1 15:-1 16:-1 17:1 18:1 19:-1 20:1 21:-1 22:-1 23:-1 24:-1 #
-0.28229114708476161 1:-0.33333299 2:-0.41176501 3:0.5 4:-0.84615397 5:-0.5 6:0.5 7:-0.33333299 8:-0.33333299 9:-0.33333299 10:-0.85714298 11:1 12:-0.33333299 13:-1 14:1 15:-1 16:-1 17:-1 18:1 19:-1 20:1 21:-1 22:-1 23:-1 24:1 #
-0.28905837993113859 1:-0.33333299 2:0.029412 3:0.5 4:0.27472499 5:-0.5 6:0.5 7:0.33333299 8:0.33333299 9:1 10:-0.53571397 11:1 12:-1 13:-1 14:1 15:-1 16:-1 17:-1 18:1 19:-1 20:1 21:-1 22:-1 23:-1 24:1 #
0.50005884962638114 1:1 2:-0.76470602 3:1 4:-0.934066 5:1 6:1 7:-0.33333299 8:0.33333299 9:-0.33333299 10:-0.5 11:-1 12:-1 13:1 14:-1 15:-1 16:-1 17:-1 18:1 19:-1 20:-1 21:1 22:-1 23:1 24:-1 #
0.50005884962638114 1:-1 2:0.29411799 3:-1 4:-0.51648402 5:-1 6:1 7:0.33333299 8:1 9:1 10:-0.82142901 11:1 12:-0.33333299 13:1 14:-1 15:-1 16:-1 17:1 18:1 19:-1 20:-1 21:-1 22:-1 23:-1 24:1 #
0.50005884962638114 1:-0.33333299 2:-0.32352901 3:-1 4:-0.10989 5:-1 6:1 7:-0.33333299 8:1 9:1 10:-0.178571 11:1 12:-0.33333299 13:-1 14:1 15:-1 16:-1 17:-1 18:1 19:-1 20:-1 21:-1 22:-1 23:-1 24:-1 #
-0.25970741341017728 1:1 2:-0.32352901 3:1 4:-0.52747297 5:0.5 6:-0.5 7:0.33333299 8:-0.33333299 9:-1 10:-0.53571397 11:0 12:-0.33333299 13:1 14:1 15:-1 16:-1 17:-1 18:1 19:-1 20:-1 21:1 22:-1 23:1 24:-1 #
-0.24996106054469516 1:-0.33333299 2:-0.41176501 3:0.5 4:-0.76923102 5:1 6:-0.5 7:0.33333299 8:-0.33333299 9:-0.33333299 10:-0.64285702 11:-1 12:-1 13:-1 14:-1 15:-1 16:-1 17:-1 18:1 19:-1 20:-1 21:1 22:-1 23:1 24:-1 #
-0.34394145358665335 1:-1 2:0.26470599 3:0 4:0.153846 5:-1 6:-0.5 7:-0.33333299 8:-1 9:-1 10:-0.42857099 11:1 12:-1 13:-1 14:1 15:-1 16:1 17:-1 18:1 19:-1 20:-1 21:1 22:-1 23:1 24:-1 #
0.50005884962638114 1:-0.33333299 2:0.470588 3:-1 4:0.72527498 5:-1 6:-0.5 7:0.33333299 8:1 9:1 10:0.39285699 11:1 12:-1 13:-1 14:1 15:-1 16:-1 17:-1 18:1 19:-1 20:1 21:-1 22:-1 23:-1 24:1 #
0.50005884962638114 1:1 2:0.29411799 3:0 4:-0.49450499 5:-1 6:-1 7:0.33333299 8:-0.33333299 9:0.33333299 10:-0.5 11:-1 12:-1 13:-1 14:1 15:-1 16:-1 17:-1 18:1 19:-1 20:1 21:-1 22:-1 23:-1 24:-1 #
0.50005884962638114 1:-0.33333299 2:-0.058823999 3:0 4:-0.75824201 5:-1 6:-0.5 7:0.33333299 8:-1 9:1 10:-0.5 11:1 12:-1 13:-1 14:-1 15:-1 16:-1 17:-1 18:1 19:-1 20:1 21:-1 22:-1 23:1 24:-1 #
-0.40336119157264222 1:0.33333299 2:-0.76470602 3:0 4:-0.813187 5:-1 6:0 7:-0.33333299 8:-0.33333299 9:0.33333299 10:-0.107143 11:1 12:-1 13:-1 14:1 15:-1 16:-1 17:-1 18:1 19:-1 20:1 21:-1 22:-1 23:1 24:-1 #
-0.30609629510611619 1:-1 2:-0.58823502 3:1 4:-0.43956 5:-1 6:1 7:0.33333299 8:1 9:1 10:-0.39285699 11:1 12:0.33333299 13:-1 14:1 15:-1 16:1 17:-1 18:1 19:-1 20:-1 21:-1 22:-1 23:-1 24:-1 #
-0.30456853282025192 1:-0.33333299 2:0.29411799 3:-1 4:0.318681 5:1 6:0 7:0.33333299 8:-0.33333299 9:0.33333299 10:0.035714 11:-1 12:-1 13:-1 14:1 15:-1 16:-1 17:-1 18:1 19:-1 20:-1 21:1 22:-1 23:-1 24:-1 #
0.50005884962638114 1:0.33333299 2:-0.76470602 3:-0.5 4:-0.95604402 5:-1 6:-0.5 7:-0.33333299 8:-1 9:-1 10:-0.75 11:1 12:-1 13:-1 14:-1 15:-1 16:-1 17:-1 18:1 19:-1 20:-1 21:1 22:1 23:-1 24:-1 #
0.50005884962638114 1:-0.33333299 2:-0.41176501 3:1 4:-0.50549501 5:-1 6:-0.5 7:-0.33333299 8:1 9:0.33333299 10:-0.78571397 11:-1 12:-1 13:-1 14:-1 15:-1 16:-1 17:-1 18:1 19:-1 20:-1 21:1 22:-1 23:1 24:-1 #
0.50005884962638114 1:-1 2:-0.76470602 3:1 4:-0.49450499 5:-1 6:1 7:0.33333299 8:1 9:-0.33333299 10:-0.142857 11:1 12:-0.33333299 13:-1 14:1 15:-1 16:1 17:-1 18:-1 19:1 20:1 21:-1 22:-1 23:-1 24:1 #
-0.25695909745136253 1:1 2:-0.67647099 3:0 4:-0.72527498 5:-1 6:-0.5 7:0.33333299 8:0.33333299 9:-0.33333299 10:-0.71428603 11:-1 12:-0.33333299 13:-1 14:-1 15:-1 16:-1 17:-1 18:1 19:-1 20:-1 21:1 22:-1 23:1 24:-1 #
-0.26356295387825512 1:1 2:0.64705902 3:0 4:-0.30769199 5:1 6:0 7:0.33333299 8:1 9:1 10:-0.464286 11:1 12:-1 13:1 14:1 15:-1 16:1 17:-1 18:1 19:-1 20:-1 21:-1 22:-1 23:-1 24:1 #
-0.37535515326118724 1:-0.33333299 2:-0.941176 3:0 4:-0.96703303 5:-1 6:-0.5 7:1 8:-1 9:-0.33333299 10:-0.89285702 11:1 12:-1 13:-1 14:-1 15:-1 16:-1 17:-1 18:1 19:-1 20:-1 21:1 22:-1 23:1 24:-1 #
0.50005884962638114 1:-1 2:-0.41176501 3:0.5 4:-0.83516502 5:-1 6:-0.5 7:-0.33333299 8:-0.33333299 9:0.33333299 10:-0.64285702 11:1 12:-1 13:-1 14:1 15:-1 16:-1 17:-1 18:1 19:-1 20:1 21:-1 22:-1 23:1 24:-1 #
0.50005884962638114 1:1 2:-0.235294 3:-0.5 4:-0.19780201 5:1 6:-1 7:-0.33333299 8:-1 9:-1 10:0.214286 11:-1 12:-1 13:-1 14:1 15:-1 16:-1 17:1 18:1 19:-1 20:-1 21:1 22:-1 23:-1 24:-1 #
0.50005884962638114 1:-0.33333299 2:0.29411799 3:-1 4:1 5:-1 6:0 7:-0.33333299 8:-0.33333299 9:-0.33333299 10:-0.53571397 11:-1 12:-1 13:-1 14:1 15:1 16:-1 17:-1 18:1 19:-1 20:-1 21:1 22:-1 23:-1 24:-1 #
-0.25721294278887596 1:-1 2:-0.41176501 3:1 4:-0.89011002 5:0.5 6:1 7:-0.33333299 8:1 9:-0.33333299 10:0.35714301 11:1 12:-0.33333299 13:-1 14:1 15:-1 16:-1 17:-1 18:1 19:-1 20:1 21:-1 22:-1 23:-1 24:-1 #
-0.32620298035222406 1:-0.33333299 2:-0.76470602 3:0.5 4:-0.95604402 5:-1 6:0 7:1 8:1 9:-1 10:-0.96428603 11:1 12:-0.33333299 13:-1 14:-1 15:-1 16:-1 17:-1 18:-1 19:1 20:1 21:-1 22:-1 23:-1 24:1 #
-0.28751613025559153 1:0.33333299 2:0.117647 3:1 4:-0.49450499 5:-1 6:1 7:0.33333299 8:1 9:1 10:0.32142901 11:1 12:-1 13:-1 14:-1 15:-1 16:-1 17:1 18:1 19:-1 20:-1 21:-1 22:-1 23:-1 24:1 #
0.50005884962638114 1:-1 2:-0.41176501 3:-0.5 4:-0.85714298 5:-1 6:0.5 7:0.33333299 8:1 9:0.33333299 10:-0.82142901 11:-1 12:-1 13:-1 14:-1 15:-1 16:-1 17:-1 18:-1 19:-1 20:1 21:-1 22:-1 23:1 24:-1 #
0.50005884962638114 1:1 2:0.29411799 3:0 4:-0.59340698 5:1 6:0 7:-1 8:-0.33333299 9:-1 10:-0.32142901 11:-1 12:-1 13:-1 14:-1 15:-1 16:-1 17:-1 18:1 19:-1 20:-1 21:1 22:-1 23:-1 24:1 #
0.50005884962638114 1:-1 2:-0.41176501 3:0.5 4:-0.87912101 5:-1 6:-1 7:0.33333299 8:-0.33333299 9:-1 10:-0.142857 11:1 12:-0.33333299 13:1 14:-1 15:-1 16:1 17:-1 18:1 19:-1 20:-1 21:-1 22:-1 23:-1 24:1 #
-0.2001926379611686 1:-1 2:-0.79411799 3:1 4:-0.59340698 5:-1 6:0 7:0.33333299 8:-0.33333299 9:-1 10:-0.39285699 11:1 12:-0.33333299 13:1 14:-1 15:-1 16:1 17:-1 18:1 19:-1 20:1 21:-1 22:-1 23:-1 24:1 #
-0.17948515316352032 1:-1 2:-0.941176 3:1 4:-0.615385 5:-1 6:0 7:0.33333299 8:0.33333299 9:-1 10:-0.35714301 11:1 12:0.33333299 13:1 14:-1 15:-1 16:1 17:-1 18:1 19:-1 20:1 21:-1 22:-1 23:-1 24:1 #
-0.3862964398867661 1:-0.33333299 2:-0.67647099 3:1 4:-0.76923102 5:0 6:0 7:0.33333299 8:1 9:0.33333299 10:-0.71428603 11:-1 12:-1 13:-1 14:-1 15:-1 16:-1 17:-1 18:1 19:-1 20:-1 21:1 22:-1 23:-1 24:1 #
0.50005884962638114 1:-1 2:0.29411799 3:1 4:-0.32967001 5:-1 6:1 7:0.33333299 8:1 9:1 10:-0.035714 11:1 12:-0.33333299 13:-1 14:1 15:-1 16:-1 17:1 18:1 19:-1 20:-1 21:-1 22:-1 23:-1 24:1 #
0.50005884962638114 1:-1 2:-0.76470602 3:0 4:-0.64835203 5:-1 6:1 7:0.33333299 8:1 9:1 10:-0.42857099 11:1 12:-1 13:-1 14:1 15:-1 16:-1 17:1 18:1 19:-1 20:-1 21:-1 22:-1 23:-1 24:1 #
0.50005884962638114 1:-1 2:0.29411799 3:1 4:-0.351648 5:-1 6:1 7:-0.33333299 8:1 9:1 10:0.39285699 11:0 12:-0.33333299 13:-1 14:-1 15:-1 16:-1 17:1 18:1 19:-1 20:-1 21:-1 22:-1 23:1 24:-1 #
-0.37115314239926228 1:-1 2:-0.41176501 3:1 4:-0.69230801 5:-1 6:1 7:0.33333299 8:1 9:-0.33333299 10:0.57142901 11:1 12:-0.33333299 13:-1 14:1 15:-1 16:-1 17:1 18:1 19:-1 20:-1 21:1 22:-1 23:-1 24:1 #
-0.30141443324142553 1:-1 2:-0.41176501 3:1 4:-0.318681 5:-1 6:1 7:-0.33333299 8:1 9:1 10:-0.107143 11:1 12:-0.33333299 13:1 14:1 15:-1 16:-1 17:1 18:1 19:-1 20:-1 21:-1 22:-1 23:-1 24:-1 #
-0.31859184336429625 1:-1 2:-0.76470602 3:0 4:-0.73626399 5:-1 6:-1 7:-0.33333299 8:1 9:1 10:0.285714 11:1 12:-1 13:-1 14:-1 15:-1 16:-1 17:-1 18:1 19:-1 20:-1 21:-1 22:-1 23:-1 24:-1 #
0.50005884962638114 1:-1 2:-0.67647099 3:-1 4:-0.91208798 5:-1 6:1 7:0.33333299 8:0.33333299 9:0.33333299 10:-0.5 11:1 12:-0.33333299 13:1 14:-1 15:-1 16:1 17:-1 18:1 19:-1 20:1 21:-1 22:-1 23:-1 24:1 #
0.50005884962638114 1:-0.33333299 2:-0.58823502 3:1 4:-0.89011002 5:-1 6:0 7:1 8:-0.33333299 9:0.33333299 10:-0.5 11:1 12:-1 13:-1 14:-1 15:-1 16:-1 17:-1 18:1 19:-1 20:-1 21:1 22:-1 23:-1 24:1 #
0.50005884962638114 1:-0.33333299 2:-0.41176501 3:0 4:0.21978 5:-1 6:0 7:0.33333299 8:0.33333299 9:0.33333299 10:-0.64285702 11:-1 12:-0.33333299 13:-1 14:1 15:-1 16:-1 17:-1 18:-1 19:1 20:-1 21:1 22:-1 23:-1 24:-1 #
-0.3128363287595714 1:1 2:-0.41176501 3:1 4:-0.32967001 5:-1 6:-1 7:0.33333299 8:-0.33333299 9:1 10:-0.71428603 11:-1 12:-0.33333299 13:-1 14:1 15:-1 16:-1 17:-1 18:-1 19:1 20:-1 21:1 22:-1 23:-1 24:-1 #
-0.16264919478541442 1:-0.33333299 2:-0.88235301 3:0 4:-0.868132 5:-1 6:0 7:0.33333299 8:-0.33333299 9:-1 10:-0.5 11:1 12:-1 13:-1 14:-1 15:1 16:-1 17:-1 18:-1 19:-1 20:-1 21:1 22:-1 23:-1 24:1 #
-0.28010731639778103 1:-1 2:-0.58823502 3:-0.5 4:-0.813187 5:-1 6:-0.5 7:0.33333299 8:1 9:1 10:-0.39285699 11:-1 12:-1 13:-1 14:1 15:-1 16:-1 17:-1 18:-1 19:1 20:-1 21:-1 22:-1 23:-1 24:-1 #
0.50005884962638114 1:-1 2:-0.058823999 3:1 4:0.032967001 5:-1 6:0.5 7:0.33333299 8:1 9:0.33333299 10:-0.82142901 11:1 12:-0.33333299 13:-1 14:1 15:-1 16:-1 17:1 18:1 19:-1 20:-1 21:1 22:-1 23:-1 24:1 #
0.50005884962638114 1:-0.33333299 2:-0.85294098 3:-0.5 4:-0.46153799 5:-1 6:1 7:-0.33333299 8:1 9:1 10:0.96428603 11:-1 12:-1 13:1 14:1 15:-1 16:-1 17:1 18:1 19:-1 20:-1 21:-1 22:-1 23:-1 24:-1 #
0.50005884962638114 1:-1 2:-0.58823502 3:1 4:-0.89011002 5:-1 6:-1 7:-0.33333299 8:1 9:1 10:0.285714 11:1 12:0.33333299 13:1 14:-1 15:-1 16:-1 17:-1 18:1 19:-1 20:-1 21:-1 22:1 23:-1 24:-1 #
-0.20054851460115777 1:-0.33333299 2:-0.35294101 3:0 4:-0.142857 5:-1 6:-0.5 7:0.33333299 8:0.33333299 9:0.33333299 10:-0.60714298 11:1 12:-0.33333299 13:-1 14:-1 15:-1 16:-1 17:1 18:1 19:-1 20:-1 21:1 22:-1 23:-1 24:1 #
-0.1974475050448497 1:-0.33333299 2:0.205882 3:1 4:-0.51648402 5:-0.5 6:-1 7:0.33333299 8:1 9:0.33333299 10:-0.71428603 11:1 12:-1 13:-1 14:-1 15:-1 16:-1 17:1 18:1 19:-1 20:-1 21:1 22:-1 23:-1 24:1 #
-0.28605407512474085 1:1 2:-0.941176 3:-0.5 4:-0.934066 5:1 6:0 7:0.33333299 8:-0.33333299 9:-1 10:-0.75 11:0 12:-1 13:1 14:-1 15:-1 16:1 17:-1 18:-1 19:-1 20:-1 21:1 22:-1 23:1 24:-1 #
0.50005884962638114 1:-0.33333299 2:-0.76470602 3:0 4:-0.92307699 5:-1 6:1 7:0.33333299 8:1 9:0.33333299 10:-0.214286 11:-1 12:-1 13:1 14:-1 15:-1 16:1 17:-1 18:1 19:-1 20:-1 21:1 22:-1 23:1 24:-1 #
0.50005884962638114 1:-1 2:0.29411799 3:0 4:-0.16483501 5:-1 6:1 7:0.33333299 8:1 9:1 10:-0.178571 11:-1 12:-1 13:-1 14:-1 15:-1 16:1 17:-1 18:1 19:-1 20:-1 21:-1 22:-1 23:-1 24:-1 #
0.50005884962638114 1:1 2:-0.58823502 3:0 4:-0.85714298 5:-1 6:-0.5 7:1 8:-1 9:-0.33333299 10:-0.142857 11:1 12:-1 13:1 14:-1 15:-1 16:-1 17:-1 18:-1 19:1 20:-1 21:1 22:-1 23:1 24:-1 #
-0.301095170398403 1:-0.33333299 2:-0.76470602 3:1 4:-0.681319 5:-1 6:-0.5 7:0.33333299 8:0.33333299 9:-1 10:0.071428999 11:-1 12:-0.33333299 13:1 14:-1 15:-1 16:1 17:-1 18:1 19:-1 20:-1 21:1 22:-1 23:1 24:-1 #
-0.27356845656180645 1:-1 2:-0.76470602 3:0 4:-0.62637401 5:-1 6:0 7:0.33333299 8:-0.33333299 9:-0.33333299 10:-0.64285702 11:1 12:-1 13:1 14:-1 15:-1 16:-1 17:-1 18:-1 19:1 20:-1 21:1 22:-1 23:1 24:-1 #
-0.25702884626702799 1:1 2:-0.5 3:0 4:-0.71428603 5:0 6:0.5 7:-0.33333299 8:-0.33333299 9:0.33333299 10:-0.57142901 11:-1 12:-1 13:-1 14:-1 15:-1 16:1 17:-1 18:1 19:-1 20:-1 21:1 22:-1 23:-1 24:-1 #
0.50005884962638114 1:-1 2:-0.5 3:-0.5 4:-0.84615397 5:1 6:0 7:0.33333299 8:-0.33333299 9:-0.33333299 10:-0.25 11:1 12:-0.33333299 13:1 14:-1 15:-1 16:1 17:-1 18:1 19:-1 20:-1 21:1 22:-1 23:1 24:-1 #
0.50005884962638114 1:-0.33333299 2:-0.058823999 3:0 4:-0.032967001 5:-0.5 6:-0.5 7:0.33333299 8:-1 9:1 10:-0.64285702 11:1 12:-1 13:-1 14:1 15:-1 16:-1 17:-1 18:-1 19:1 20:1 21:-1 22:-1 23:-1 24:-1 #
0.50005884962638114 1:-1 2:0.64705902 3:0 4:-0.21978 5:-1 6:1 7:0.33333299 8:1 9:1 10:-0.39285699 11:1 12:-1 13:-1 14:-1 15:-1 16:-1 17:-1 18:-1 19:1 20:1 21:-1 22:-1 23:-1 24:1 #
-0.30941803918570365 1:-1 2:-0.941176 3:1 4:-0.50549501 5:1 6:-0.5 7:0.33333299 8:0.33333299 9:-1 10:-0.107143 11:1 12:-0.33333299 13:1 14:-1 15:-1 16:1 17:-1 18:1 19:-1 20:-1 21:1 22:-1 23:1 24:-1 #
-0.41790176017650271 1:-0.33333299 2:-0.85294098 3:0 4:-0.67032999 5:1 6:0 7:-0.33333299 8:-0.33333299 9:-1 10:-0.5 11:1 12:-1 13:-1 14:-1 15:-1 16:1 17:-1 18:1 19:-1 20:-1 21:1 22:-1 23:1 24:-1 #
-0.24368060749976334 1:-0.33333299 2:-0.41176501 3:0 4:-0.71428603 5:1 6:1 7:0.33333299 8:1 9:1 10:-0.39285699 11:-1 12:-1 13:-1 14:1 15:-1 16:-1 17:1 18:1 19:-1 20:-1 21:-1 22:-1 23:-1 24:1 #
0.50005884962638114 1:-0.33333299 2:-0.76470602 3:0 4:-0.934066 5:-0.5 6:-0.5 7:-0.33333299 8:-0.33333299 9:-0.33333299 10:-0.85714298 11:-1 12:-1 13:-1 14:-1 15:-1 16:1 17:-1 18:1 19:-1 20:-1 21:1 22:-1 23:1 24:-1 #
0.50005884962638114 1:1 2:-0.5 3:-1 4:-0.472527 5:1 6:0 7:-0.33333299 8:1 9:-0.33333299 10:-0.64285702 11:-1 12:-0.33333299 13:-1 14:1 15:-1 16:1 17:-1 18:1 19:-1 20:-1 21:1 22:-1 23:-1 24:1 #
0.50005884962638114 1:-1 2:-0.58823502 3:1 4:-0.58241802 5:-1 6:1 7:-0.33333299 8:1 9:-1 10:-0.5 11:-1 12:0.33333299 13:-1 14:1 15:-1 16:1 17:-1 18:1 19:-1 20:1 21:-1 22:-1 23:-1 24:1 #
-0.25048974793532941 1:1 2:-0.67647099 3:0 4:-0.78021997 5:1 6:0.5 7:-0.33333299 8:1 9:-1 10:-0.5 11:-1 12:-1 13:-1 14:-1 15:-1 16:-1 17:-1 18:1 19:-1 20:1 21:-1 22:-1 23:1 24:-1 #
-0.26486756169749287 1:1 2:0.29411799 3:1 4:-0.186813 5:1 6:1 7:-1 8:-0.33333299 9:0.33333299 10:-0.035714 11:-1 12:-0.33333299 13:1 14:-1 15:-1 16:-1 17:-1 18:1 19:-1 20:-1 21:1 22:-1 23:-1 24:-1 #
-0.28839421863827375 1:-0.33333299 2:-0.58823502 3:0 4:-0.71428603 5:-1 6:0 7:1 8:0.33333299 9:0.33333299 10:-0.92857099 11:1 12:-1 13:-1 14:1 15:-1 16:-1 17:1 18:1 19:-1 20:1 21:-1 22:-1 23:-1 24:1 #
0.50005884962638114 1:0.33333299 2:-0.41176501 3:1 4:-0.87912101 5:1 6:0.5 7:0.33333299 8:-0.33333299 9:-1 10:-0.35714301 11:-1 12:-0.33333299 13:1 14:-1 15:-1 16:1 17:-1 18:1 19:-1 20:-1 21:1 22:-1 23:1 24:-1 #
0.50005884962638114 1:-1 2:-0.58823502 3:0 4:-0.19780201 5:1 6:1 7:0.33333299 8:1 9:-0.33333299 10:0.142857 11:1 12:-1 13:1 14:1 15:-1 16:-1 17:1 18:1 19:-1 20:-1 21:-1 22:-1 23:-1 24:1 #
0.50005884962638114 1:-0.33333299 2:-0.941176 3:0 4:0.58241802 5:1 6:-1 7:0.33333299 8:-0.33333299 9:-0.33333299 10:-0.85714298 11:1 12:-1 13:-1 14:1 15:-1 16:1 17:-1 18:1 19:-1 20:-1 21:1 22:1 23:-1 24:-1 #
-0.31101804563719876 1:1 2:-0.941176 3:1 4:-1 5:0.5 6:0 7:-0.33333299 8:-0.33333299 9:-1 10:-0.214286 11:-1 12:-0.33333299 13:-1 14:-1 15:-1 16:1 17:-1 18:1 19:-1 20:-1 21:1 22:-1 23:1 24:-1 #
-0.29153852894286164 1:-0.33333299 2:-0.85294098 3:0 4:-0.85714298 5:1 6:-0.5 7:0.33333299 8:-0.33333299 9:-1 10:-0.42857099 11:1 12:-1 13:-1 14:-1 15:-1 16:1 17:-1 18:1 19:-1 20:-1 21:1 22:1 23:-1 24:-1 #
-0.31918882540643745 1:-0.33333299 2:-0.058823999 3:0.5 4:-0.70329702 5:-0.5 6:1 7:0.33333299 8:0.33333299 9:1 10:-0.60714298 11:1 12:-1 13:-1 14:-1 15:-1 16:1 17:-1 18:1 19:-1 20:-1 21:-1 22:-1 23:-1 24:1 #
0.50005884962638114 1:-0.33333299 2:-0.5 3:0 4:-0.71428603 5:-0.5 6:1 7:-1 8:-0.33333299 9:0.33333299 10:0.5 11:-1 12:-0.33333299 13:-1 14:-1 15:-1 16:-1 17:-1 18:1 19:-1 20:1 21:-1 22:-1 23:1 24:-1 #
0.50005884962638114 1:-0.33333299 2:-0.41176501 3:1 4:0.285714 5:-1 6:0 7:0.33333299 8:0.33333299 9:0.33333299 10:-0.285714 11:1 12:-0.33333299 13:1 14:1 15:-1 16:-1 17:-1 18:-1 19:1 20:-1 21:1 22:-1 23:-1 24:-1 #
0.50005884962638114 1:-0.33333299 2:0.29411799 3:-1 4:-0.60439599 5:-0.5 6:0.5 7:0.33333299 8:1 9:1 10:-0.464286 11:1 12:-1 13:1 14:-1 15:-1 16:-1 17:-1 18:1 19:-1 20:-1 21:-1 22:-1 23:1 24:-1 #
-0.26956127459204399 1:-0.33333299 2:-0.76470602 3:0 4:-0.69230801 5:-1 6:-0.5 7:-0.33333299 8:-1 9:-1 10:-0.464286 11:1 12:-1 13:-1 14:-1 15:-1 16:-1 17:-1 18:1 19:-1 20:1 21:-1 22:-1 23:-1 24:-1 #
-0.26927755499684392 1:-1 2:-0.41176501 3:0 4:-0.82417601 5:-1 6:1 7:-0.33333299 8:1 9:-1 10:0.39285699 11:1 12:-1 13:-1 14:1 15:-1 16:-1 17:-1 18:-1 19:-1 20:-1 21:1 22:-1 23:1 24:-1 #
-0.29480625185974679 1:-0.33333299 2:-0.76470602 3:0 4:-0.80219799 5:-1 6:0.5 7:0.33333299 8:1 9:-0.33333299 10:-0.60714298 11:1 12:-1 13:1 14:1 15:-1 16:1 17:-1 18:1 19:-1 20:1 21:-1 22:-1 23:-1 24:1 #
0.50005884962638114 1:1 2:0.29411799 3:1 4:0.087912001 5:0 6:0 7:0.33333299 8:-0.33333299 9:1 10:-0.107143 11:-1 12:-1 13:-1 14:-1 15:-1 16:1 17:-1 18:1 19:-1 20:-1 21:-1 22:-1 23:-1 24:1 #
0.50005884962638114 1:1 2:-0.5 3:1 4:0.37362599 5:1 6:1 7:0.33333299 8:1 9:1 10:-0.60714298 11:1 12:-1 13:-1 14:1 15:-1 16:1 17:-1 18:1 19:-1 20:-1 21:-1 22:-1 23:-1 24:-1 #
0.50005884962638114 1:-1 2:-0.058823999 3:1 4:-0.34065899 5:-1 6:-0.5 7:-0.33333299 8:1 9:1 10:-0.85714298 11:1 12:-0.33333299 13:-1 14:1 15:-1 16:-1 17:-1 18:-1 19:1 20:1 21:-1 22:-1 23:1 24:-1 #
-0.34329648143400227 1:1 2:-0.76470602 3:0 4:-0.79120898 5:1 6:1 7:-0.33333299 8:1 9:1 10:0.178571 11:1 12:-1 13:-1 14:1 15:-1 16:1 17:-1 18:1 19:-1 20:-1 21:-1 22:-1 23:-1 24:-1 #
-0.28471507239573868 1:1 2:0.64705902 3:1 4:0.49450499 5:1 6:1 7:0.33333299 8:1 9:1 10:0.57142901 11:-1 12:-1 13:-1 14:1 15:-1 16:1 17:-1 18:1 19:-1 20:-1 21:-1 22:-1 23:-1 24:-1 #
-0.27673182051054485 1:-1 2:-0.41176501 3:0 4:-0.681319 5:-1 6:-0.5 7:0.33333299 8:-1 9:1 10:-0.89285702 11:-1 12:-1 13:-1 14:-1 15:-1 16:-1 17:-1 18:1 19:-1 20:-1 21:-1 22:-1 23:-1 24:1 #
0.50005884962638114 1:-1 2:-0.41176501 3:0 4:-0.868132 5:1 6:0 7:-0.33333299 8:1 9:-1 10:-0.78571397 11:1 12:-1 13:-1 14:-1 15:-1 16:1 17:-1 18:1 19:-1 20:1 21:-1 22:-1 23:-1 24:1 #
0.50005884962638114 1:-1 2:0.29411799 3:0 4:-0.252747 5:-1 6:0.5 7:1 8:-1 9:-1 10:-0.464286 11:1 12:-0.33333299 13:-1 14:1 15:-1 16:-1 17:-1 18:-1 19:-1 20:-1 21:1 22:-1 23:-1 24:1 #
0.50005884962638114 1:-0.33333299 2:-0.058823999 3:0 4:0.36263701 5:-0.5 6:0 7:0.33333299 8:1 9:1 10:0 11:1 12:-1 13:1 14:1 15:-1 16:-1 17:-1 18:1 19:-1 20:-1 21:-1 22:-1 23:-1 24:1 #
-0.47599293811559218 1:-0.33333299 2:0.29411799 3:0.5 4:-0.285714 5:1 6:0 7:0.33333299 8:1 9:1 10:-0.32142901 11:1 12:-1 13:1 14:1 15:-1 16:-1 17:-1 18:1 19:-1 20:-1 21:-1 22:-1 23:-1 24:1 #
-0.27421188974533844 1:1 2:-0.941176 3:0 4:-0.87912101 5:-0.5 6:1 7:0.33333299 8:1 9:1 10:-0.178571 11:-1 12:-1 13:1 14:1 15:-1 16:-1 17:-1 18:1 19:-1 20:-1 21:-1 22:-1 23:-1 24:1 #
-0.26351150944476803 1:-0.33333299 2:-0.67647099 3:1 4:-0.72527498 5:1 6:0.5 7:0.33333299 8:-0.33333299 9:-1 10:-0.42857099 11:-1 12:0.33333299 13:-1 14:1 15:-1 16:-1 17:-1 18:-1 19:-1 20:-1 21:1 22:-1 23:-1 24:1 #
0.50005884962638114 1:-0.33333299 2:-0.235294 3:1 4:-0.45054901 5:-1 6:-1 7:1 8:-0.33333299 9:0.33333299 10:-0.67857099 11:1 12:-0.33333299 13:-1 14:-1 15:-1 16:1 17:-1 18:1 19:-1 20:-1 21:1 22:-1 23:-1 24:-1 #
0.50005884962638114 1:-1 2:-0.41176501 3:-1 4:-0.57142901 5:-1 6:1 7:0.33333299 8:1 9:1 10:-0.85714298 11:-1 12:-0.33333299 13:1 14:-1 15:-1 16:-1 17:-1 18:1 19:-1 20:1 21:-1 22:-1 23:-1 24:1 #
0.50005884962638114 1:-0.33333299 2:-0.76470602 3:0 4:-0.91208798 5:-0.5 6:-0.5 7:-0.33333299 8:1 9:0.33333299 10:-0.71428603 11:-1 12:1 13:-1 14:-1 15:-1 16:-1 17:-1 18:1 19:-1 20:1 21:-1 22:-1 23:-1 24:1 #
-0.22683632731072476 1:1 2:-0.79411799 3:1 4:-0.868132 5:-1 6:-0.5 7:-0.33333299 8:1 9:0.33333299 10:-0.42857099 11:1 12:-0.33333299 13:-1 14:-1 15:-1 16:1 17:-1 18:1 19:-1 20:-1 21:1 22:-1 23:-1 24:-1 #
-0.32789777948320104 1:1 2:-0.85294098 3:1 4:-0.75824201 5:-1 6:-1 7:0.33333299 8:0.33333299 9:0.33333299 10:-0.57142901 11:1 12:-1 13:-1 14:-1 15:-1 16:-1 17:-1 18:1 19:-1 20:-1 21:1 22:-1 23:-1 24:-1 #
-0.29014178869813634 1:1 2:-0.58823502 3:0 4:-0.82417601 5:-1 6:0 7:1 8:-0.33333299 9:-0.33333299 10:-0.60714298 11:1 12:-1 13:-1 14:1 15:-1 16:1 17:-1 18:1 19:-1 20:-1 21:1 22:-1 23:-1 24:-1 #
0.50005884962638114 1:-1 2:0.117647 3:0.5 4:-0.53846198 5:-1 6:0.5 7:0.33333299 8:-0.33333299 9:-0.33333299 10:-0.75 11:-1 12:-0.33333299 13:1 14:1 15:-1 16:-1 17:-1 18:1 19:-1 20:-1 21:1 22:-1 23:-1 24:1 #
0.50005884962638114 1:-0.33333299 2:0.29411799 3:0 4:0.186813 5:0.5 6:0.5 7:0.33333299 8:-0.33333299 9:1 10:-0.71428603 11:-1 12:-0.33333299 13:-1 14:1 15:-1 16:-1 17:-1 18:-1 19:1 20:-1 21:1 22:-1 23:-1 24:1 #
0.50005884962638114 1:-0.33333299 2:-0.058823999 3:0 4:0.54945099 5:-1 6:1 7:0.33333299 8:-0.33333299 9:1 10:0.35714301 11:1 12:-1 13:-1 14:1 15:-1 16:1 17:-1 18:1 19:-1 20:-1 21:-1 22:-1 23:-1 24:-1 #
-0.24848528972533715 1:1 2:-0.41176501 3:1 4:-0.73626399 5:-1 6:1 7:1 8:0.33333299 9:-1 10:-0.035714 11:1 12:-0.33333299 13:-1 14:-1 15:-1 16:-1 17:-1 18:-1 19:1 20:-1 21:1 22:-1 23:-1 24:1 #
-0.30018042500576042 1:0.33333299 2:-0.41176501 3:1 4:-0.62637401 5:1 6:1 7:0.33333299 8:1 9:1 10:-0.96428603 11:1 12:-0.33333299 13:-1 14:-1 15:-1 16:-1 17:-1 18:-1 19:1 20:1 21:-1 22:-1 23:-1 24:1 #
-0.27140727158491473 1:-1 2:-0.941176 3:0 4:-0.868132 5:-1 6:0 7:0.33333299 8:-0.33333299 9:-1 10:-0.39285699 11:-1 12:-1 13:-1 14:1 15:-1 16:-1 17:-1 18:1 19:-1 20:-1 21:1 22:-1 23:1 24:-1 #
0.50005884962638114 1:-0.33333299 2:-0.235294 3:0.5 4:-0.813187 5:-0.5 6:-0.5 7:0.33333299 8:0.33333299 9:1 10:-0.60714298 11:0 12:-0.33333299 13:-1 14:-1 15:-1 16:-1 17:-1 18:1 19:-1 20:-1 21:1 22:-1 23:-1 24:-1 #
0.50005884962638114 1:-0.33333299 2:-0.41176501 3:0 4:-0.868132 5:-1 6:-0.5 7:-0.33333299 8:1 9:0.33333299 10:-0.78571397 11:1 12:-1 13:-1 14:1 15:-1 16:1 17:-1 18:1 19:-1 20:-1 21:1 22:-1 23:1 24:-1 #
0.50005884962638114 1:0.33333299 2:-0.82352901 3:0 4:-0.89011002 5:-0.5 6:1 7:-0.33333299 8:1 9:1 10:0.035714 11:1 12:-1 13:1 14:-1 15:-1 16:1 17:-1 18:1 19:-1 20:-1 21:-1 22:-1 23:1 24:-1 #
-0.2975608807979403 1:1 2:-0.85294098 3:0 4:-0.747253 5:0 6:1 7:0.33333299 8:1 9:1 10:0.142857 11:1 12:-1 13:-1 14:-1 15:-1 16:1 17:-1 18:1 19:-1 20:-1 21:-1 22:-1 23:1 24:-1 #
-0.26098860396428142 1:-1 2:-0.941176 3:0 4:-0.94505501 5:-1 6:-0.5 7:0.33333299 8:1 9:-1 10:-0.214286 11:1 12:-1 13:1 14:1 15:-1 16:1 17:-1 18:1 19:-1 20:-1 21:1 22:-1 23:1 24:-1 #
-0.26713255112676321 1:-1 2:-0.76470602 3:1 4:-0.78021997 5:-1 6:0 7:0.33333299 8:1 9:-0.33333299 10:-0.32142901 11:-1 12:-0.33333299 13:-1 14:-1 15:1 16:1 17:-1 18:1 19:-1 20:-1 21:1 22:-1 23:1 24:-1 #
0.50005884962638114 1:-1 2:-0.41176501 3:0.5 4:-0.48351601 5:-1 6:0 7:0.33333299 8:1 9:1 10:0.214286 11:1 12:-0.33333299 13:1 14:-1 15:-1 16:1 17:-1 18:1 19:-1 20:-1 21:-1 22:-1 23:-1 24:1 #
0.50005884962638114 1:-1 2:-0.76470602 3:0 4:-0.73626399 5:-1 6:-0.5 7:0.33333299 8:-1 9:-1 10:-0.5 11:1 12:-1 13:1 14:-1 15:-1 16:1 17:-1 18:1 19:-1 20:-1 21:1 22:-1 23:1 24:-1 #
0.50005884962638114 1:-1 2:0.29411799 3:0 4:-0.59340698 5:-1 6:0.5 7:0.33333299 8:1 9:1 10:-0.035714 11:1 12:-1 13:1 14:-1 15:-1 16:1 17:-1 18:1 19:-1 20:-1 21:-1 22:-1 23:-1 24:1 #
-0.50005884962638114 1:-1 2:-0.76470602 3:0.5 4:-0.87912101 5:-1 6:0 7:0.33333299 8:-0.33333299 9:-1 10:-0.142857 11:1 12:-0.33333299 13:1 14:-1 15:-1 16:1 17:-1 18:1 19:-1 20:-1 21:1 22:-1 23:1 24:-1 #
0.50005884962638114 1:-0.33333299 2:-0.41176501 3:0 4:-0.57142901 5:0 6:-0.5 7:-0.33333299 8:1 9:0.33333299 10:-0.67857099 11:1 12:-1 13:-1 14:-1 15:-1 16:-1 17:1 18:1 19:-1 20:1 21:-1 22:-1 23:-1 24:1 #
-0.27742025689462174 1:-1 2:-0.41176501 3:0 4:-0.175824 5:1 6:-0.5 7:-0.33333299 8:-0.33333299 9:-0.33333299 10:-0.60714298 11:1 12:-1 13:-1 14:1 15:1 16:-1 17:-1 18:1 19:-1 20:-1 21:1 22:-1 23:-1 24:1 #
-0.12297191797116691 1:1 2:-0.76470602 3:1 4:-0.79120898 5:-1 6:0.5 7:0.33333299 8:0.33333299 9:-1 10:0.071428999 11:1 12:-1 13:1 14:-1 15:-1 16:-1 17:-1 18:1 19:-1 20:-1 21:1 22:-1 23:1 24:-1 #
0.50005884962638114 1:-0.33333299 2:-0.058823999 3:0 4:-0.72527498 5:-0.5 6:0 7:-0.33333299 8:1 9:1 10:0.107143 11:1 12:-1 13:-1 14:-1 15:-1 16:-1 17:-1 18:-1 19:1 20:-1 21:-1 22:-1 23:-1 24:1 #
0.50005884962638114 1:-0.33333299 2:-0.58823502 3:0 4:0.40659299 5:-1 6:-1 7:-0.33333299 8:1 9:1 10:-0.32142901 11:1 12:-1 13:-1 14:1 15:-1 16:-1 17:1 18:1 19:-1 20:-1 21:-1 22:-1 23:-1 24:-1 #
-0.28546132766830828 1:1 2:-0.76470602 3:0 4:-0.50549501 5:1 6:-0.5 7:-0.33333299 8:1 9:0.33333299 10:-0.96428603 11:1 12:-1 13:-1 14:-1 15:-1 16:-1 17:1 18:1 19:-1 20:1 21:-1 22:-1 23:-1 24:1 #
-0.22042755221563862 1:1 2:-0.941176 3:0 4:-0.89011002 5:0 6:0 7:0.33333299 8:1 9:-0.33333299 10:0.107143 11:1 12:-1 13:-1 14:-1 15:-1 16:-1 17:1 18:1 19:-1 20:1 21:-1 22:-1 23:-1 24:1 #
-0.25747321200287088 1:-0.33333299 2:-0.41176501 3:1 4:-0.16483501 5:0.5 6:1 7:-0.33333299 8:1 9:1 10:-0.64285702 11:1 12:-1 13:-1 14:-1 15:-1 16:-1 17:1 18:1 19:-1 20:1 21:-1 22:-1 23:-1 24:1 #
0.50005884962638114 1:-0.33333299 2:0.64705902 3:-0.5 4:0.60439599 5:-0.5 6:1 7:-0.33333299 8:1 9:1 10:0.464286 11:-1 12:-0.33333299 13:-1 14:1 15:-1 16:-1 17:-1 18:1 19:-1 20:-1 21:-1 22:-1 23:-1 24:-1 #
0.50005884962638114 1:-1 2:-0.64705902 3:1 4:-0.73626399 5:-1 6:1 7:0.33333299 8:1 9:-0.33333299 10:-0.142857 11:-1 12:-1 13:-1 14:1 15:-1 16:1 17:-1 18:-1 19:-1 20:1 21:-1 22:-1 23:-1 24:1 #
0.50005884962638114 1:-1 2:0.64705902 3:0.5 4:-0.27472499 5:-1 6:1 7:0.33333299 8:1 9:1 10:0.57142901 11:1 12:-0.33333299 13:-1 14:1 15:-1 16:-1 17:-1 18:1 19:-1 20:-1 21:1 22:-1 23:-1 24:1 #
-0.30321137279704902 1:-1 2:-0.41176501 3:1 4:-0.29670301 5:-1 6:-1 7:0.33333299 8:1 9:1 10:1 11:1 12:-0.33333299 13:-1 14:1 15:-1 16:-1 17:1 18:1 19:-1 20:-1 21:-1 22:-1 23:-1 24:-1 #
-0.28712723040596366 1:-0.33333299 2:0.29411799 3:0.5 4:-0.186813 5:-0.5 6:-1 7:0.33333299 8:1 9:1 10:-0.57142901 11:1 12:-1 13:-1 14:1 15:-1 16:-1 17:-1 18:1 19:-1 20:-1 21:-1 22:-1 23:-1 24:-1 #
-0.27385541169062672 1:-0.33333299 2:0.117647 3:-0.5 4:0 5:-1 6:-1 7:0.33333299 8:-0.33333299 9:1 10:0.285714 11:-1 12:-1 13:-1 14:1 15:-1 16:-1 17:1 18:1 19:-1 20:-1 21:-1 22:-1 23:-1 24:-1 #
0.50005884962638114 1:-0.33333299 2:-0.41176501 3:-0.5 4:-0.82417601 5:-1 6:0.5 7:-0.33333299 8:1 9:1 10:-0.464286 11:-1 12:-1 13:-1 14:-1 15:-1 16:-1 17:-1 18:1 19:-1 20:-1 21:-1 22:-1 23:1 24:-1 #
0.50005884962638114 1:-0.33333299 2:-0.41176501 3:-1 4:-0.56044 5:-1 6:0 7:0.33333299 8:1 9:-1 10:-0.39285699 11:1 12:0.33333299 13:-1 14:1 15:-1 16:-1 17:-1 18:1 19:-1 20:-1 21:1 22:-1 23:1 24:-1 #
0.50005884962638114 1:-0.33333299 2:0.64705902 3:0 4:0.51648402 5:-1 6:0.5 7:0.33333299 8:-0.33333299 9:1 10:-0.71428603 11:1 12:-1 13:-1 14:1 15:-1 16:1 17:-1 18:1 19:-1 20:-1 21:1 22:-1 23:-1 24:-1 #
-0.26641828140503743 1:-1 2:-0.235294 3:-1 4:-0.131868 5:1 6:-0.5 7:0.33333299 8:0.33333299 9:0.33333299 10:-0.78571397 11:-1 12:0.33333299 13:-1 14:-1 15:-1 16:-1 17:-1 18:1 19:-1 20:-1 21:1 22:-1 23:-1 24:1 #
-0.27263059372344178 1:-0.33333299 2:-0.58823502 3:1 4:-0.82417601 5:-1 6:1 7:-0.33333299 8:1 9:-1 10:0.035714 11:-1 12:-0.33333299 13:-1 14:1 15:-1 16:-1 17:-1 18:-1 19:-1 20:1 21:-1 22:-1 23:1 24:-1 #
-0.22302868549930824 1:1 2:-0.76470602 3:1 4:-0.83516502 5:-1 6:1 7:0.33333299 8:1 9:-1 10:0.57142901 11:1 12:-0.33333299 13:-1 14:1 15:-1 16:-1 17:-1 18:1 19:-1 20:-1 21:1 22:-1 23:1 24:-1 #
0.50005884962638114 1:-1 2:0.29411799 3:0 4:0.10989 5:-1 6:0.5 7:0.33333299 8:1 9:1 10:-0.285714 11:0 12:0.33333299 13:1 14:1 15:-1 16:-1 17:1 18:1 19:-1 20:-1 21:-1 22:-1 23:-1 24:1 #
0.50005884962638114 1:1 2:-0.41176501 3:0 4:-0.51648402 5:0.5 6:0 7:0.33333299 8:0.33333299 9:-0.33333299 10:0.25 11:1 12:0.33333299 13:-1 14:1 15:-1 16:-1 17:-1 18:1 19:-1 20:-1 21:1 22:-1 23:-1 24:-1 #
0.50005884962638114 1:0.33333299 2:-0.85294098 3:-1 4:-0.87912101 5:-1 6:-0.5 7:0.33333299 8:-0.33333299 9:0.33333299 10:-0.464286 11:1 12:-0.33333299 13:-1 14:1 15:-1 16:-1 17:-1 18:1 19:-1 20:-1 21:1 22:-1 23:-1 24:-1 #
-0.28939623613512683 1:0.33333299 2:-0.76470602 3:0 4:-0.868132 5:1 6:1 7:-0.33333299 8:1 9:-1 10:0.285714 11:1 12:-1 13:-1 14:1 15:-1 16:-1 17:-1 18:1 19:-1 20:-1 21:1 22:-1 23:-1 24:-1 #
-0.26995248723994997 1:1 2:-0.58823502 3:1 4:-0.95604402 5:0 6:1 7:0.33333299 8:0.33333299 9:-0.33333299 10:-0.53571397 11:-1 12:-0.33333299 13:-1 14:1 15:-1 16:-1 17:-1 18:1 19:-1 20:-1 21:1 22:-1 23:-1 24:-1 #
-0.25943280576571437 1:1 2:-0.941176 3:0 4:-0.89011002 5:1 6:-1 7:0.33333299 8:1 9:-0.33333299 10:-0.39285699 11:1 12:-1 13:1 14:1 15:-1 16:-1 17:-1 18:1 19:-1 20:-1 21:1 22:-1 23:-1 24:-1 #
0.50005884962638114 1:-0.33333299 2:0.29411799 3:-0.5 4:-0.318681 5:-1 6:1 7:-0.33333299 8:0.33333299 9:1 10:0.42857099 11:1 12:-1 13:-1 14:-1 15:-1 16:-1 17:-1 18:1 19:-1 20:1 21:-1 22:-1 23:-1 24:1 #
0.50005884962638114 1:-1 2:-0.41176501 3:-0.5 4:-0.65934098 5:0 6:-0.5 7:0.33333299 8:1 9:1 10:-0.60714298 11:1 12:-1 13:1 14:1 15:-1 16:-1 17:-1 18:1 19:-1 20:-1 21:-1 22:-1 23:-1 24:1 #
0.50005884962638114 1:-0.33333299 2:-0.58823502 3:-1 4:-0.76923102 5:-0.5 6:-0.5 7:-0.33333299 8:0.33333299 9:0.33333299 10:-0.67857099 11:1 12:-0.33333299 13:-1 14:-1 15:-1 16:1 17:-1 18:1 19:-1 20:-1 21:1 22:-1 23:-1 24:1 #
-0.24057503098693364 1:1 2:0.64705902 3:0 4:0.120879 5:-1 6:1 7:0.33333299 8:1 9:-0.33333299 10:-0.178571 11:1 12:-1 13:-1 14:1 15:-1 16:1 17:-1 18:1 19:-1 20:-1 21:1 22:-1 23:-1 24:-1 #
-0.26676726303001691 1:1 2:-0.41176501 3:0 4:-0.60439599 5:-1 6:1 7:-0.33333299 8:1 9:1 10:0.53571397 11:1 12:-1 13:-1 14:1 15:-1 16:1 17:-1 18:-1 19:1 20:-1 21:-1 22:-1 23:-1 24:1 #
-0.26763233642743406 1:-1 2:-0.941176 3:0 4:-0.868132 5:1 6:-1 7:-0.33333299 8:0.33333299 9:-0.33333299 10:1 11:1 12:-1 13:-1 14:1 15:-1 16:1 17:-1 18:1 19:-1 20:-1 21:1 22:-1 23:-1 24:-1 #
0.50005884962638114 1:-1 2:-0.41176501 3:-0.5 4:-0.868132 5:1 6:1 7:0.33333299 8:0.33333299 9:0.33333299 10:-0.25 11:0 12:-1 13:-1 14:1 15:-1 16:-1 17:-1 18:1 19:-1 20:-1 21:1 22:-1 23:-1 24:-1 #
0.50005884962638114 1:-1 2:-0.058823999 3:-0.5 4:-0.72527498 5:-1 6:1 7:0.33333299 8:1 9:0.33333299 10:-0.57142901 11:-1 12:-1 13:-1 14:-1 15:-1 16:-1 17:-1 18:1 19:-1 20:-1 21:1 22:-1 23:-1 24:1 #
0.50005884962638114 1:-0.33333299 2:-0.58823502 3:0 4:-0.813187 5:1 6:-0.5 7:-0.33333299 8:0.33333299 9:-1 10:-0.71428603 11:1 12:-1 13:-1 14:-1 15:-1 16:-1 17:-1 18:1 19:-1 20:1 21:-1 22:-1 23:-1 24:1 #
-0.42150921389714369 1:0.33333299 2:-0.76470602 3:-0.5 4:-0.97802198 5:0.5 6:0 7:-0.33333299 8:0.33333299 9:-1 10:-0.178571 11:1 12:-0.33333299 13:-1 14:-1 15:-1 16:-1 17:-1 18:1 19:-1 20:1 21:-1 22:-1 23:-1 24:1 #
-0.28470810515466621 1:-1 2:-0.41176501 3:0 4:-0.71428603 5:1 6:1 7:-0.33333299 8:1 9:-1 10:-0.75 11:1 12:-1 13:-1 14:-1 15:-1 16:-1 17:1 18:1 19:-1 20:1 21:-1 22:-1 23:-1 24:1 #
-0.26837891053140728 1:-0.33333299 2:-0.58823502 3:1 4:-0.62637401 5:-1 6:-1 7:1 8:0.33333299 9:0.33333299 10:-0.25 11:1 12:0.33333299 13:1 14:1 15:-1 16:-1 17:-1 18:1 19:-1 20:-1 21:1 22:1 23:-1 24:-1 #
0.50005884962638114 1:-0.33333299 2:-0.85294098 3:1 4:-0.90109903 5:0.5 6:1 7:0.33333299 8:0.33333299 9:1 10:-0.53571397 11:1 12:-0.33333299 13:1 14:-1 15:-1 16:-1 17:-1 18:1 19:-1 20:-1 21:-1 22:-1 23:-1 24:1 #
0.50005884962638114 1:-0.33333299 2:-0.85294098 3:1 4:-0.85714298 5:-1 6:1 7:-0.33333299 8:0.33333299 9:0.33333299 10:-0.464286 11:1 12:-0.33333299 13:-1 14:1 15:-1 16:-1 17:-1 18:1 19:-1 20:-1 21:1 22:-1 23:-1 24:-1 #
0.50005884962638114 1:-0.33333299 2:0.64705902 3:0 4:-0.208791 5:-0.5 6:-0.5 7:-0.33333299 8:-0.33333299 9:-0.33333299 10:-0.82142901 11:1 12:-1 13:-1 14:-1 15:-1 16:1 17:-1 18:1 19:-1 20:-1 21:1 22:-1 23:-1 24:-1 #
-0.35395158383978687 1:-1 2:-0.58823502 3:1 4:-0.813187 5:-1 6:0.5 7:1 8:-1 9:-0.33333299 10:-0.53571397 11:1 12:-0.33333299 13:-1 14:1 15:-1 16:-1 17:-1 18:1 19:-1 20:-1 21:1 22:-1 23:-1 24:-1 #
-0.2284517148715747 1:1 2:-0.941176 3:1 4:-0.94505501 5:1 6:1 7:0.33333299 8:1 9:1 10:-0.39285699 11:1 12:-0.33333299 13:-1 14:-1 15:-1 16:-1 17:-1 18:1 19:-1 20:-1 21:-1 22:-1 23:-1 24:1 #
-0.50005884962638114 1:1 2:-0.41176501 3:0 4:-0.67032999 5:0 6:1 7:-1 8:-0.33333299 9:0.33333299 10:-0.75 11:1 12:-1 13:-1 14:1 15:-1 16:-1 17:-1 18:1 19:-1 20:-1 21:1 22:-1 23:-1 24:-1 #
0.50005884962638114 1:-0.33333299 2:-0.67647099 3:-0.5 4:-0.87912101 5:-0.5 6:0 7:1 8:-0.33333299 9:-0.33333299 10:-0.78571397 11:1 12:-1 13:-1 14:-1 15:-1 16:1 17:-1 18:1 19:-1 20:1 21:-1 22:-1 23:-1 24:1 #
0.50005884962638114 1:-1 2:-0.058823999 3:0 4:-0.72527498 5:-1 6:1 7:0.33333299 8:-0.33333299 9:-0.33333299 10:-0.214286 11:-1 12:-1 13:1 14:-1 15:-1 16:-1 17:-1 18:1 19:-1 20:-1 21:1 22:-1 23:-1 24:1 #
0.50005884962638114 1:-1 2:-0.41176501 3:0 4:-0.76923102 5:-1 6:1 7:0.33333299 8:-1 9:-1 10:-0.071428999 11:1 12:-1 13:-1 14:-1 15:-1 16:1 17:-1 18:-1 19:1 20:-1 21:1 22:-1 23:-1 24:1 #
-0.3099491248724574 1:-0.33333299 2:-0.941176 3:0.5 4:-0.868132 5:-0.5 6:1 7:-1 8:-0.33333299 9:0.33333299 10:-0.57142901 11:-1 12:-0.33333299 13:1 14:-1 15:-1 16:-1 17:-1 18:1 19:-1 20:-1 21:1 22:-1 23:-1 24:1 #
-0.3217353916238635 1:-0.33333299 2:-0.235294 3:0.5 4:-0.747253 5:-0.5 6:1 7:0.33333299 8:-0.33333299 9:-0.33333299 10:-0.214286 11:0 12:-0.33333299 13:-1 14:-1 15:-1 16:-1 17:-1 18:1 19:-1 20:-1 21:1 22:-1 23:-1 24:1 #
-0.27872909515778943 1:-1 2:-0.235294 3:0 4:-0.59340698 5:-1 6:0 7:-1 8:1 9:-0.33333299 10:-0.25 11:1 12:-1 13:-1 14:1 15:-1 16:-1 17:1 18:1 19:-1 20:-1 21:1 22:-1 23:-1 24:-1 #
0.50005884962638114 1:-0.33333299 2:-0.76470602 3:0 4:-0.94505501 5:-1 6:0.5 7:1 8:0.33333299 9:0.33333299 10:-0.78571397 11:-1 12:-1 13:-1 14:-1 15:-1 16:1 17:-1 18:1 19:-1 20:-1 21:1 22:-1 23:1 24:-1 #
0.50005884962638114 1:-1 2:-0.58823502 3:0 4:-0.73626399 5:-1 6:0 7:0.33333299 8:1 9:1 10:0.64285702 11:1 12:-0.33333299 13:-1 14:-1 15:-1 16:-1 17:-1 18:1 19:-1 20:-1 21:-1 22:-1 23:-1 24:1 #
0.50005884962638114 1:-1 2:-0.58823502 3:0 4:-0.80219799 5:-1 6:0 7:-0.33333299 8:1 9:-1 10:-0.96428603 11:-1 12:-1 13:-1 14:-1 15:-1 16:-1 17:-1 18:1 19:-1 20:1 21:-1 22:-1 23:-1 24:1 #
-0.30812282554407888 1:-1 2:-0.70588201 3:0 4:-0.58241802 5:-1 6:-1 7:0.33333299 8:1 9:1 10:-0.89285702 11:1 12:-1 13:-1 14:-1 15:-1 16:1 17:-1 18:1 19:-1 20:-1 21:-1 22:-1 23:-1 24:1 #
-0.28139718112846585 1:1 2:-0.58823502 3:0 4:-0.80219799 5:-1 6:0 7:0.33333299 8:1 9:1 10:0 11:-1 12:-0.33333299 13:-1 14:-1 15:-1 16:-1 17:-1 18:1 19:-1 20:-1 21:-1 22:-1 23:-1 24:1 #
-0.27289520662025613 1:-1 2:-0.76470602 3:0 4:-0.89011002 5:1 6:0 7:-0.33333299 8:1 9:-0.33333299 10:-0.85714298 11:-1 12:-1 13:-1 14:1 15:-1 16:-1 17:-1 18:1 19:-1 20:1 21:-1 22:-1 23:-1 24:1 #
0.50005884962638114 1:-0.33333299 2:-0.235294 3:0 4:-0.64835203 5:-0.5 6:0 7:-0.33333299 8:1 9:0.33333299 10:-0.92857099 11:1 12:-1 13:-1 14:-1 15:-1 16:-1 17:-1 18:-1 19:1 20:1 21:-1 22:-1 23:-1 24:1 #
0.50005884962638114 1:-1 2:-0.58823502 3:-0.5 4:-0.868132 5:-1 6:0.5 7:0.33333299 8:1 9:1 10:-0.53571397 11:1 12:-0.33333299 13:1 14:-1 15:-1 16:1 17:-1 18:1 19:-1 20:-1 21:-1 22:-1 23:1 24:-1 #
0.50005884962638114 1:-1 2:0.29411799 3:-0.5 4:-0.175824 5:-1 6:0.5 7:-0.33333299 8:1 9:0.33333299 10:-0.35714301 11:1 12:-1 13:-1 14:-1 15:-1 16:-1 17:-1 18:-1 19:-1 20:1 21:-1 22:-1 23:-1 24:1 #
-0.27963215409250142 1:-1 2:-0.67647099 3:0 4:-0.82417601 5:-1 6:-0.5 7:-0.33333299 8:-1 9:-0.33333299 10:-0.035714 11:1 12:-1 13:-1 14:-1 15:-1 16:-1 17:-1 18:-1 19:-1 20:1 21:-1 22:-1 23:-1 24:1 #
-0.27126232402023454 1:1 2:-0.941176 3:0 4:-0.63736302 5:-1 6:0 7:0.33333299 8:0.33333299 9:-0.33333299 10:-0.75 11:1 12:-1 13:-1 14:-1 15:-1 16:1 17:-1 18:-1 19:-1 20:1 21:-1 22:-1 23:-1 24:1 #
-0.26870240729116346 1:-1 2:-0.41176501 3:0 4:-0.70329702 5:-1 6:0 7:0.33333299 8:1 9:1 10:0.57142901 11:-1 12:-1 13:1 14:1 15:-1 16:-1 17:1 18:-1 19:-1 20:-1 21:1 22:-1 23:-1 24:1 #
0.50005884962638114 1:1 2:-0.058823999 3:0 4:-0.65934098 5:-1 6:0 7:-0.33333299 8:-0.33333299 9:0.33333299 10:-0.67857099 11:1 12:-1 13:-1 14:1 15:-1 16:-1 17:-1 18:1 19:-1 20:-1 21:1 22:-1 23:-1 24:-1 #
0.50005884962638114 1:-1 2:-0.76470602 3:0 4:-0.94505501 5:-1 6:0 7:0.33333299 8:1 9:0.33333299 10:-0.25 11:1 12:-1 13:1 14:-1 15:-1 16:-1 17:-1 18:1 19:-1 20:1 21:-1 22:-1 23:1 24:-1 #
0.50005884962638114 1:-0.33333299 2:0.205882 3:1 4:-0.50549501 5:-1 6:-0.5 7:0.33333299 8:-0.33333299 9:-0.33333299 10:-0.78571397 11:1 12:-0.33333299 13:-1 14:-1 15:-1 16:-1 17:-1 18:1 19:-1 20:-1 21:1 22:-1 23:1 24:-1 #
-0.28154113125839092 1:1 2:-0.76470602 3:1 4:-0.868132 5:-1 6:0 7:-0.33333299 8:-0.33333299 9:-1 10:-0.64285702 11:1 12:-0.33333299 13:-1 14:1 15:-1 16:-1 17:-1 18:-1 19:-1 20:-1 21:1 22:-1 23:-1 24:-1 #
-0.23525028725513558 1:-1 2:-0.76470602 3:-0.5 4:-0.98901099 5:-1 6:1 7:1 8:-1 9:0.33333299 10:-0.071428999 11:-1 12:-1 13:-1 14:-1 15:-1 16:-1 17:-1 18:1 19:-1 20:-1 21:1 22:-1 23:1 24:-1 #
-0.25289754581625201 1:1 2:-0.82352901 3:0 4:-0.87912101 5:1 6:1 7:0.33333299 8:-0.33333299 9:-0.33333299 10:-0.071428999 11:1 12:-1 13:-1 14:-1 15:1 16:1 17:-1 18:-1 19:1 20:-1 21:1 22:-1 23:1 24:-1 #
0.50005884962638114 1:-1 2:-0.76470602 3:0 4:-0.153846 5:-1 6:1 7:0.33333299 8:1 9:1 10:0.214286 11:1 12:-1 13:-1 14:1 15:-1 16:-1 17:-1 18:1 19:-1 20:-1 21:-1 22:-1 23:-1 24:-1 #
0.50005884962638114 1:-1 2:0.29411799 3:-1 4:-0.241758 5:-1 6:0 7:0.33333299 8:1 9:1 10:0.214286 11:1 12:-0.33333299 13:1 14:-1 15:-1 16:-1 17:-1 18:1 19:-1 20:-1 21:-1 22:-1 23:-1 24:1 #
0.50005884962638114 1:-1 2:-0.58823502 3:0 4:-0.87912101 5:-1 6:0 7:1 8:0.33333299 9:-1 10:-0.75 11:-1 12:-1 13:-1 14:-1 15:-1 16:-1 17:-1 18:1 19:-1 20:-1 21:1 22:-1 23:-1 24:1 #
-0.34665496582227984 1:-1 2:0.29411799 3:0 4:-0.19780201 5:-1 6:0.5 7:0.33333299 8:-1 9:1 10:0.107143 11:1 12:-1 13:-1 14:1 15:-1 16:-1 17:-1 18:1 19:-1 20:-1 21:-1 22:-1 23:-1 24:-1 #
-0.28129596369531829 1:-1 2:-0.76470602 3:1 4:-0.85714298 5:-1 6:1 7:0.33333299 8:1 9:1 10:0.67857099 11:1 12:-0.33333299 13:-1 14:-1 15:-1 16:-1 17:1 18:1 19:-1 20:-1 21:-1 22:-1 23:-1 24:-1 #
-0.26330762210400593 1:1 2:-0.82352901 3:0 4:-0.84615397 5:0 6:0 7:0.33333299 8:-0.33333299 9:1 10:-0.25 11:1 12:-1 13:1 14:-1 15:1 16:1 17:-1 18:1 19:-1 20:1 21:-1 22:-1 23:1 24:-1 #
0.50005884962638114 1:-1 2:-0.58823502 3:0 4:-0.934066 5:-1 6:-1 7:-0.33333299 8:-1 9:-1 10:-0.71428603 11:1 12:-1 13:-1 14:-1 15:-1 16:-1 17:-1 18:1 19:-1 20:-1 21:1 22:1 23:-1 24:-1 #
0.50005884962638114 1:-1 2:-0.41176501 3:0 4:-0.75824201 5:-1 6:-0.5 7:-0.33333299 8:1 9:-1 10:-0.42857099 11:1 12:-1 13:-1 14:1 15:-1 16:-1 17:-1 18:1 19:-1 20:-1 21:1 22:-1 23:-1 24:1 #
0.50005884962638114 1:-1 2:0.205882 3:-1 4:0.27472499 5:-1 6:1 7:0.33333299 8:1 9:0.33333299 10:-0.64285702 11:1 12:-0.33333299 13:-1 14:-1 15:-1 16:-1 17:-1 18:1 19:-1 20:1 21:-1 22:-1 23:-1 24:1 #
-0.25272398799630313 1:-0.33333299 2:-0.76470602 3:0 4:-0.90109903 5:-1 6:0 7:-0.33333299 8:1 9:-1 10:0.071428999 11:1 12:-0.33333299 13:-1 14:1 15:-1 16:-1 17:-1 18:-1 19:-1 20:-1 21:1 22:-1 23:-1 24:1 #
-0.26693736143873642 1:-0.33333299 2:-0.41176501 3:0 4:-0.60439599 5:0 6:-1 7:-0.33333299 8:1 9:1 10:-0.85714298 11:1 12:-1 13:-1 14:-1 15:-1 16:-1 17:-1 18:1 19:-1 20:1 21:-1 22:1 23:-1 24:-1 #
-0.26936904656654947 1:-1 2:-0.82352901 3:1 4:-0.79120898 5:1 6:-0.5 7:-0.33333299 8:0.33333299 9:-1 10:-0.71428603 11:1 12:-0.33333299 13:-1 14:-1 15:1 16:-1 17:-1 18:-1 19:1 20:1 21:-1 22:-1 23:-1 24:1 #
0.50005884962638114 1:-1 2:-0.29411799 3:0 4:-0.58241802 5:-1 6:0 7:0.33333299 8:-0.33333299 9:0.33333299 10:-0.071428999 11:1 12:-1 13:-1 14:-1 15:-1 16:1 17:-1 18:1 19:-1 20:-1 21:1 22:-1 23:1 24:-1 #
0.50005884962638114 1:-0.33333299 2:0.29411799 3:-1 4:0.56044 5:-1 6:0 7:0.33333299 8:-0.33333299 9:0.33333299 10:-0.78571397 11:1 12:-1 13:-1 14:1 15:-1 16:-1 17:-1 18:1 19:-1 20:-1 21:1 22:-1 23:-1 24:1 #
0.50005884962638114 1:-1 2:-0.85294098 3:0 4:-0.94505501 5:-1 6:0 7:0.33333299 8:0.33333299 9:0.33333299 10:-0.67857099 11:1 12:-1 13:-1 14:-1 15:-1 16:1 17:-1 18:1 19:-1 20:-1 21:1 22:-1 23:1 24:-1 #
-0.33984243645971612 1:0.33333299 2:-0.58823502 3:0 4:-0.80219799 5:-1 6:1 7:-0.33333299 8:-0.33333299 9:0.33333299 10:-0.85714298 11:1 12:-1 13:-1 14:-1 15:-1 16:1 17:-1 18:1 19:-1 20:-1 21:1 22:-1 23:-1 24:-1 #
-0.26494810245728473 1:-0.33333299 2:-0.058823999 3:-0.5 4:-0.58241802 5:1 6:-0.5 7:-0.33333299 8:-0.33333299 9:1 10:-0.64285702 11:-1 12:-1 13:-1 14:-1 15:-1 16:-1 17:-1 18:1 19:-1 20:-1 21:1 22:1 23:-1 24:-1 #
-0.26362346395621011 1:1 2:-0.67647099 3:0 4:-0.87912101 5:1 6:1 7:0.33333299 8:1 9:1 10:-0.071428999 11:-1 12:-1 13:1 14:-1 15:-1 16:-1 17:1 18:1 19:-1 20:-1 21:-1 22:-1 23:-1 24:1 #
0.50005884962638114 1:-1 2:-0.058823999 3:1 4:-0.131868 5:-1 6:0 7:-0.33333299 8:-0.33333299 9:1 10:-0.78571397 11:1 12:-0.33333299 13:-1 14:1 15:-1 16:-1 17:-1 18:1 19:-1 20:-1 21:1 22:-1 23:-1 24:-1 #
0.50005884962638114 1:-1 2:0.29411799 3:0 4:-0.681319 5:-1 6:0 7:0.33333299 8:1 9:0.33333299 10:0.25 11:1 12:-1 13:-1 14:-1 15:-1 16:-1 17:-1 18:1 19:-1 20:-1 21:1 22:-1 23:-1 24:1 #
0.50005884962638114 1:-0.33333299 2:-0.58823502 3:0 4:-0.91208798 5:1 6:0 7:-0.33333299 8:-0.33333299 9:-0.33333299 10:-0.5 11:1 12:-1 13:-1 14:-1 15:-1 16:1 17:-1 18:1 19:-1 20:-1 21:1 22:-1 23:-1 24:1 #
-0.50005884962638114 1:-1 2:-0.41176501 3:0 4:-0.84615397 5:-1 6:1 7:-0.33333299 8:1 9:0.33333299 10:0.285714 11:1 12:-1 13:-1 14:-1 15:-1 16:-1 17:-1 18:1 19:-1 20:-1 21:1 22:-1 23:-1 24:1 #
-0.2310767051906242 1:1 2:-0.67647099 3:0.5 4:-0.85714298 5:-1 6:0 7:1 8:0.33333299 9:-1 10:-0.5 11:-1 12:-0.33333299 13:-1 14:-1 15:-1 16:-1 17:-1 18:1 19:-1 20:-1 21:1 22:-1 23:-1 24:1 #
-0.29704971622553589 1:-0.33333299 2:-0.235294 3:0 4:-0.60439599 5:-1 6:-0.5 7:1 8:-1 9:-0.33333299 10:-0.89285702 11:1 12:-1 13:-1 14:-1 15:-1 16:-1 17:-1 18:1 19:-1 20:-1 21:1 22:-1 23:-1 24:1 #
0.50005884962638114 1:-1 2:-0.76470602 3:-1 4:-0.34065899 5:-1 6:0 7:0.33333299 8:-0.33333299 9:-0.33333299 10:-0.67857099 11:1 12:-0.33333299 13:-1 14:1 15:-1 16:-1 17:-1 18:1 19:-1 20:1 21:-1 22:-1 23:-1 24:1 #
0.50005884962638114 1:-1 2:-0.76470602 3:0 4:-0.868132 5:-1 6:0.5 7:-1 8:0.33333299 9:0.33333299 10:-0.39285699 11:1 12:-1 13:-1 14:-1 15:-1 16:1 17:-1 18:1 19:-1 20:-1 21:1 22:-1 23:-1 24:1 #
0.50005884962638114 1:-1 2:-0.58823502 3:1 4:-0.79120898 5:-1 6:0 7:-0.33333299 8:1 9:-1 10:-0.82142901 11:1 12:-0.33333299 13:-1 14:-1 15:-1 16:-1 17:-1 18:1 19:-1 20:1 21:-1 22:-1 23:-1 24:1 #
-0.26771896567570774 1:1 2:-0.058823999 3:0 4:-0.021978 5:1 6:0 7:0.33333299 8:1 9:1 10:-0.42857099 11:1 12:-1 13:1 14:1 15:-1 16:-1 17:-1 18:1 19:-1 20:-1 21:-1 22:-1 23:1 24:-1 #
-0.26299682861365659 1:1 2:-0.82352901 3:0 4:-0.71428603 5:-0.5 6:0 7:0.33333299 8:-0.33333299 9:-1 10:-0.53571397 11:1 12:-1 13:1 14:-1 15:-1 16:-1 17:1 18:-1 19:1 20:-1 21:1 22:-1 23:-1 24:1 #
-0.26574438377545201 1:-0.33333299 2:-0.64705902 3:1 4:-0.89011002 5:-1 6:-1 7:0.33333299 8:0.33333299 9:0.33333299 10:0.75 11:1 12:0.33333299 13:-1 14:1 15:-1 16:1 17:-1 18:1 19:-1 20:-1 21:-1 22:1 23:-1 24:-1 #
0.50005884962638114 1:-0.33333299 2:0.64705902 3:0 4:-0.32967001 5:-1 6:0 7:0.33333299 8:1 9:1 10:-0.178571 11:1 12:-1 13:-1 14:-1 15:-1 16:-1 17:-1 18:1 19:-1 20:-1 21:-1 22:-1 23:-1 24:1 #
0.50005884962638114 1:-1 2:-0.058823999 3:0 4:-0.80219799 5:1 6:1 7:0.33333299 8:1 9:1 10:-0.25 11:1 12:-1 13:-1 14:1 15:-1 16:-1 17:-1 18:1 19:-1 20:-1 21:1 22:-1 23:-1 24:-1 #
0.50005884962638114 1:-0.33333299 2:-0.941176 3:-0.5 4:-0.92307699 5:-0.5 6:-0.5 7:-0.33333299 8:-1 9:-0.33333299 10:-0.53571397 11:0 12:-1 13:-1 14:-1 15:-1 16:1 17:-1 18:1 19:-1 20:-1 21:1 22:-1 23:1 24:-1 #
-0.29374237961109423 1:-0.33333299 2:-0.58823502 3:0 4:-0.89011002 5:1 6:0 7:0.33333299 8:1 9:1 10:0.5 11:1 12:-1 13:-1 14:-1 15:-1 16:-1 17:-1 18:1 19:-1 20:-1 21:-1 22:-1 23:-1 24:1 #
-0.2393284484529401 1:-1 2:-0.52941197 3:0 4:-0.78021997 5:1 6:0.5 7:0.33333299 8:1 9:0.33333299 10:-0.285714 11:1 12:-1 13:-1 14:1 15:-1 16:-1 17:-1 18:1 19:-1 20:-1 21:1 22:-1 23:-1 24:1 #
-0.26603093444543985 1:-0.33333299 2:0.64705902 3:0.5 4:-0.010989 5:1 6:0 7:0.33333299 8:-0.33333299 9:1 10:-0.71428603 11:1 12:-1 13:-1 14:-1 15:-1 16:-1 17:-1 18:1 19:-1 20:-1 21:-1 22:-1 23:-1 24:-1 #
0.50005884962638114 1:1 2:-0.058823999 3:0 4:0.186813 5:-1 6:-1 7:-0.33333299 8:-0.33333299 9:0.33333299 10:-0.75 11:1 12:-0.33333299 13:-1 14:1 15:-1 16:-1 17:-1 18:1 19:-1 20:-1 21:1 22:-1 23:-1 24:-1 #
0.50005884962638114 1:-0.33333299 2:-0.58823502 3:0.5 4:-0.54945099 5:-1 6:1 7:-1 8:0.33333299 9:1 10:-0.25 11:1 12:-1 13:-1 14:1 15:-1 16:-1 17:-1 18:1 19:-1 20:-1 21:1 22:-1 23:-1 24:-1 #
0.50005884962638114 1:1 2:-0.58823502 3:1 4:-0.71428603 5:-1 6:0.5 7:0.33333299 8:-0.33333299 9:-0.33333299 10:-0.57142901 11:-1 12:-0.33333299 13:-1 14:-1 15:-1 16:1 17:-1 18:1 19:-1 20:-1 21:1 22:-1 23:-1 24:1 #
-0.29056474524625453 1:-0.33333299 2:-0.76470602 3:1 4:-0.75824201 5:0 6:0.5 7:-1 8:0.33333299 9:0.33333299 10:-0.39285699 11:1 12:-1 13:-1 14:1 15:-1 16:1 17:-1 18:1 19:-1 20:-1 21:1 22:-1 23:-1 24:-1 #
-0.21229294025604362 1:1 2:-0.941176 3:1 4:-0.79120898 5:0 6:0 7:1 8:-0.33333299 9:0.33333299 10:-0.82142901 11:1 12:-1 13:-1 14:-1 15:-1 16:1 17:-1 18:1 19:-1 20:-1 21:1 22:-1 23:-1 24:1 #
-0.24848430976405136 1:1 2:-0.41176501 3:0 4:-0.42857099 5:1 6:-1 7:-0.33333299 8:1 9:-0.33333299 10:-0.75 11:1 12:-1 13:-1 14:1 15:-1 16:-1 17:1 18:1 19:-1 20:1 21:-1 22:-1 23:-1 24:-1 #
0.50005884962638114 1:-1 2:-0.58823502 3:0 4:-0.813187 5:-1 6:0 7:-0.33333299 8:1 9:0.33333299 10:-0.78571397 11:-1 12:-0.33333299 13:-1 14:-1 15:-1 16:-1 17:-1 18:1 19:-1 20:1 21:-1 22:-1 23:-1 24:1 #
0.50005884962638114 1:-0.33333299 2:0.29411799 3:0 4:0.70329702 5:-1 6:0 7:0.33333299 8:-0.33333299 9:0.33333299 10:-0.85714298 11:1 12:-1 13:-1 14:1 15:-1 16:-1 17:-1 18:1 19:-1 20:-1 21:1 22:-1 23:-1 24:1 #
0.50005884962638114 1:-1 2:-0.76470602 3:0 4:-0.87912101 5:-1 6:-0.5 7:-0.33333299 8:-1 9:-1 10:-0.35714301 11:1 12:-1 13:-1 14:-1 15:-1 16:1 17:-1 18:1 19:-1 20:-1 21:1 22:-1 23:1 24:-1 #
-0.27875280303206162 1:-0.33333299 2:0.64705902 3:0.5 4:-0.208791 5:1 6:0 7:0.33333299 8:-1 9:-1 10:-0.71428603 11:1 12:-1 13:-1 14:-1 15:-1 16:-1 17:-1 18:1 19:-1 20:-1 21:1 22:-1 23:1 24:-1 #
-0.42028959613937367 1:0.33333299 2:-0.82352901 3:0 4:-0.89011002 5:-1 6:0 7:0.33333299 8:-0.33333299 9:0.33333299 10:-0.35714301 11:1 12:-1 13:-1 14:1 15:-1 16:-1 17:-1 18:1 19:-1 20:-1 21:1 22:-1 23:-1 24:1 #
-0.28371371487101138 1:0.33333299 2:-0.76470602 3:0 4:-0.87912101 5:-1 6:0 7:1 8:1 9:-1 10:-0.85714298 11:1 12:-1 13:-1 14:-1 15:-1 16:-1 17:-1 18:1 19:-1 20:1 21:-1 22:-1 23:-1 24:1 #
0.50005884962638114 1:-1 2:-0.41176501 3:-0.5 4:-0.62637401 5:-1 6:0.5 7:0.33333299 8:1 9:0.33333299 10:-0.71428603 11:-1 12:-1 13:-1 14:-1 15:-1 16:-1 17:-1 18:1 19:-1 20:-1 21:1 22:-1 23:-1 24:1 #
0.50005884962638114 1:-1 2:-0.41176501 3:0 4:-0.813187 5:-1 6:-0.5 7:-1 8:0.33333299 9:-0.33333299 10:-0.53571397 11:1 12:-1 13:-1 14:-1 15:-1 16:-1 17:-1 18:1 19:-1 20:-1 21:1 22:-1 23:-1 24:1 #
0.50005884962638114 1:-0.33333299 2:0.29411799 3:0 4:0.076922998 5:-1 6:-0.5 7:-0.33333299 8:-0.33333299 9:0.33333299 10:-0.75 11:1 12:-1 13:-1 14:1 15:-1 16:-1 17:-1 18:1 19:-1 20:-1 21:1 22:-1 23:-1 24:1 #
-0.25294237524610108 1:-1 2:-0.235294 3:-1 4:-0.51648402 5:-1 6:0 7:-1 8:-0.33333299 9:-1 10:-0.53571397 11:1 12:-0.33333299 13:-1 14:-1 15:-1 16:-1 17:-1 18:-1 19:-1 20:-1 21:1 22:-1 23:-1 24:1 #
-0.26853317617941747 1:-0.33333299 2:-0.52941197 3:-1 4:-0.351648 5:-0.5 6:1 7:1 8:1 9:0.33333299 10:-0.57142901 11:-1 12:-0.33333299 13:-1 14:1 15:-1 16:-1 17:1 18:1 19:-1 20:-1 21:1 22:-1 23:-1 24:1 #
-0.26222184948285221 1:-1 2:-0.76470602 3:1 4:-0.79120898 5:-1 6:0 7:0.33333299 8:-0.33333299 9:-1 10:-0.285714 11:1 12:-0.33333299 13:1 14:-1 15:1 16:1 17:-1 18:1 19:-1 20:1 21:-1 22:-1 23:1 24:-1 #
0.48787700493564029 1:-1 2:0.29411799 3:0 4:-0.27472499 5:-1 6:0 7:-0.33333299 8:-0.33333299 9:0.33333299 10:-0.57142901 11:1 12:-1 13:-1 14:1 15:-1 16:-1 17:-1 18:1 19:-1 20:-1 21:1 22:-1 23:-1 24:1 #
-0.40954702768400331 1:-0.33333299 2:-0.76470602 3:0 4:-0.89011002 5:0 6:0 7:-1 8:-1 9:0.33333299 10:-0.75 11:1 12:-1 13:-1 14:1 15:-1 16:-1 17:-1 18:1 19:-1 20:-1 21:1 22:-1 23:-1 24:1 #
-0.22577234280391209 1:1 2:-0.82352901 3:0 4:-0.85714298 5:-1 6:0 7:0.33333299 8:-0.33333299 9:-1 10:-0.57142901 11:1 12:-1 13:1 14:-1 15:1 16:1 17:-1 18:1 19:-1 20:-1 21:1 22:-1 23:1 24:-1 #
-0.25486635730915208 1:-1 2:-0.58823502 3:0 4:-0.813187 5:1 6:0.5 7:1 8:1 9:0.33333299 10:-0.85714298 11:1 12:-0.33333299 13:-1 14:-1 15:-1 16:-1 17:-1 18:1 19:-1 20:1 21:-1 22:-1 23:1 24:-1 #
-0.23084658523152055 1:1 2:-0.76470602 3:1 4:-0.84615397 5:0.5 6:0.5 7:-0.33333299 8:-0.33333299 9:-0.33333299 10:-0.42857099 11:1 12:-1 13:-1 14:-1 15:1 16:-1 17:-1 18:1 19:-1 20:-1 21:1 22:-1 23:-1 24:1 #
-0.26529552101199777 1:-0.33333299 2:0.29411799 3:0 4:-0.42857099 5:1 6:-1 7:0.33333299 8:1 9:1 10:-0.25 11:-1 12:-1 13:-1 14:1 15:-1 16:-1 17:-1 18:1 19:-1 20:-1 21:-1 22:1 23:-1 24:-1 #
-0.26355868934174165 1:1 2:-0.85294098 3:0 4:-0.62637401 5:-0.5 6:0 7:0.33333299 8:-0.33333299 9:-1 10:-0.75 11:1 12:-1 13:1 14:-1 15:1 16:1 17:-1 18:-1 19:-1 20:1 21:-1 22:-1 23:-1 24:1 #
-0.29345926503376502 1:-0.33333299 2:-0.5 3:1 4:-0.615385 5:-1 6:0.5 7:0.33333299 8:0.33333299 9:-0.33333299 10:-0.71428603 11:1 12:-0.33333299 13:-1 14:-1 15:-1 16:-1 17:-1 18:1 19:-1 20:-1 21:1 22:-1 23:-1 24:1 #
-0.21868291725753716 1:1 2:-0.58823502 3:0 4:-0.64835203 5:1 6:0 7:0.33333299 8:-1 9:-0.33333299 10:-0.57142901 11:1 12:-1 13:-1 14:1 15:-1 16:-1 17:1 18:1 19:-1 20:-1 21:1 22:-1 23:-1 24:1 #
