SVM-light Version V6.02
0 # kernel type
3 # kernel parameter -d 
1 # kernel parameter -g 
1 # kernel parameter -s 
1 # kernel parameter -r 
empty# kernel parameter -u 
24 # highest feature index 
800 # number of training documents 
464 # number of support vectors plus 1 
0.029682974 # threshold b, each following line is a SV (starting with alpha*y)
-0.054107312552241035 1:-1 2:-0.41176501 3:0 4:-0.82417601 5:-1 6:1 7:-0.33333299 8:1 9:-1 10:0.39285699 11:1 12:-1 13:-1 14:1 15:-1 16:-1 17:-1 18:-1 19:-1 20:-1 21:1 22:-1 23:1 24:-1 #
-0.054107312552241035 1:-0.33333299 2:-0.58823502 3:0 4:-0.90109903 5:-1 6:0 7:-0.33333299 8:1 9:-1 10:-0.75 11:1 12:-1 13:1 14:-1 15:-1 16:-1 17:-1 18:-1 19:-1 20:-1 21:1 22:-1 23:1 24:-1 #
-0.054107312552241035 1:-0.33333299 2:-0.82352901 3:0 4:-0.21978 5:-1 6:-1 7:0.33333299 8:1 9:1 10:0.82142901 11:-1 12:-1 13:-1 14:1 15:-1 16:1 17:-1 18:1 19:-1 20:-1 21:-1 22:-1 23:-1 24:-1 #
-0.054107312552241035 1:1 2:-0.41176501 3:0 4:-0.58241802 5:-1 6:0.5 7:-0.33333299 8:1 9:-0.33333299 10:-0.78571397 11:1 12:-1 13:-1 14:1 15:-1 16:-1 17:-1 18:1 19:-1 20:1 21:-1 22:-1 23:-1 24:1 #
-0.054107312552241035 1:-0.33333299 2:-0.41176501 3:0 4:-0.80219799 5:-1 6:1 7:-0.33333299 8:1 9:0.33333299 10:-0.96428603 11:1 12:-1 13:-1 14:1 15:-1 16:-1 17:-1 18:1 19:-1 20:-1 21:1 22:-1 23:-1 24:1 #
0.054107312552241035 1:-0.33333299 2:0.029412 3:1 4:-0.48351601 5:-1 6:0.5 7:0.33333299 8:-0.33333299 9:-1 10:-0.78571397 11:1 12:-0.33333299 13:-1 14:-1 15:-1 16:-1 17:-1 18:-1 19:-1 20:-1 21:1 22:-1 23:-1 24:1 #
0.054107312552241035 1:-0.33333299 2:-0.76470602 3:0 4:-0.85714298 5:-1 6:-0.5 7:1 8:-1 9:-1 10:-0.85714298 11:1 12:-1 13:-1 14:-1 15:-1 16:-1 17:-1 18:1 19:-1 20:1 21:-1 22:-1 23:-1 24:1 #
0.054107312552241035 1:-1 2:-0.58823502 3:0 4:-0.89011002 5:-1 6:-0.5 7:-0.33333299 8:0.33333299 9:0.33333299 10:-0.85714298 11:1 12:-1 13:-1 14:1 15:-1 16:1 17:-1 18:1 19:-1 20:1 21:-1 22:-1 23:-1 24:1 #
0.054107312552241035 1:-0.33333299 2:0.29411799 3:0.5 4:-0.34065899 5:-1 6:1 7:0.33333299 8:1 9:1 10:0.107143 11:1 12:-1 13:-1 14:-1 15:-1 16:-1 17:-1 18:1 19:-1 20:-1 21:-1 22:-1 23:-1 24:1 #
0.054107312552241035 1:0.33333299 2:-0.058823999 3:0 4:-0.56044 5:-1 6:0 7:0.33333299 8:-0.33333299 9:0.33333299 10:-0.75 11:1 12:-1 13:-1 14:-1 15:-1 16:-1 17:-1 18:1 19:-1 20:-1 21:1 22:-1 23:-1 24:1 #
-0.054107312552241035 1:-1 2:-0.235294 3:0 4:-0.59340698 5:-1 6:0 7:-1 8:1 9:-0.33333299 10:-0.25 11:1 12:-1 13:-1 14:1 15:-1 16:-1 17:1 18:1 19:-1 20:-1 21:1 22:-1 23:-1 24:-1 #
-0.054107312552241035 1:-1 2:-0.76470602 3:0 4:-0.813187 5:-1 6:-0.5 7:-0.33333299 8:-1 9:0.33333299 10:-0.89285702 11:1 12:-1 13:-1 14:-1 15:-1 16:-1 17:-1 18:1 19:-1 20:1 21:-1 22:-1 23:-1 24:1 #
-0.054107312552241035 1:-1 2:-0.235294 3:1 4:-0.34065899 5:-0.5 6:0.5 7:1 8:1 9:0.33333299 10:-0.82142901 11:1 12:-0.33333299 13:-1 14:-1 15:-1 16:-1 17:1 18:1 19:-1 20:1 21:-1 22:-1 23:-1 24:1 #
-0.054107312552241035 1:-0.33333299 2:-0.76470602 3:0.5 4:-0.95604402 5:-1 6:0 7:1 8:1 9:-1 10:-0.96428603 11:1 12:-0.33333299 13:-1 14:-1 15:-1 16:-1 17:-1 18:-1 19:1 20:1 21:-1 22:-1 23:-1 24:1 #
0.054107312552241035 1:-0.33333299 2:-0.76470602 3:0 4:-0.92307699 5:-1 6:1 7:0.33333299 8:1 9:0.33333299 10:-0.214286 11:-1 12:-1 13:1 14:-1 15:-1 16:1 17:-1 18:1 19:-1 20:-1 21:1 22:-1 23:1 24:-1 #
0.054107312552241035 1:1 2:-0.76470602 3:1 4:-0.934066 5:1 6:1 7:-0.33333299 8:0.33333299 9:-0.33333299 10:-0.5 11:-1 12:-1 13:1 14:-1 15:-1 16:-1 17:-1 18:1 19:-1 20:-1 21:1 22:-1 23:1 24:-1 #
0.054107312552241035 1:1 2:-0.76470602 3:0 4:-0.94505501 5:-1 6:1 7:0.33333299 8:1 9:0.33333299 10:-0.214286 11:-1 12:-1 13:1 14:-1 15:-1 16:-1 17:-1 18:1 19:-1 20:-1 21:1 22:-1 23:1 24:-1 #
0.054107312552241035 1:1 2:-0.5 3:-1 4:-0.472527 5:1 6:0 7:-0.33333299 8:1 9:-0.33333299 10:-0.64285702 11:-1 12:-0.33333299 13:-1 14:1 15:-1 16:1 17:-1 18:1 19:-1 20:-1 21:1 22:-1 23:-1 24:1 #
-0.054107312552241035 1:-0.33333299 2:-0.64705902 3:1 4:-0.89011002 5:-1 6:-1 7:0.33333299 8:0.33333299 9:0.33333299 10:0.75 11:1 12:0.33333299 13:-1 14:1 15:-1 16:1 17:-1 18:1 19:-1 20:-1 21:-1 22:1 23:-1 24:-1 #
-0.014412272708470279 1:-0.33333299 2:-0.76470602 3:0 4:-0.95604402 5:-1 6:-0.5 7:1 8:-1 9:-1 10:-0.75 11:-1 12:-1 13:-1 14:-1 15:-1 16:-1 17:-1 18:-1 19:-1 20:-1 21:1 22:-1 23:1 24:-1 #
-0.054107312552241035 1:1 2:-0.76470602 3:0 4:-0.85714298 5:-1 6:-0.5 7:-0.33333299 8:0.33333299 9:0.33333299 10:-0.464286 11:1 12:-1 13:1 14:-1 15:-1 16:-1 17:-1 18:1 19:-1 20:-1 21:1 22:-1 23:-1 24:1 #
-0.054107312552241035 1:-0.33333299 2:-0.76470602 3:1 4:-0.681319 5:-1 6:-0.5 7:0.33333299 8:0.33333299 9:-1 10:0.071428999 11:-1 12:-0.33333299 13:1 14:-1 15:-1 16:1 17:-1 18:1 19:-1 20:-1 21:1 22:-1 23:1 24:-1 #
0.054107312552241035 1:-0.33333299 2:-0.058823999 3:0 4:-0.032967001 5:-0.5 6:-0.5 7:0.33333299 8:-1 9:1 10:-0.64285702 11:1 12:-1 13:-1 14:1 15:-1 16:-1 17:-1 18:-1 19:1 20:1 21:-1 22:-1 23:-1 24:-1 #
0.054107312552241035 1:-0.33333299 2:-0.058823999 3:0 4:0.010989 5:-1 6:-0.5 7:1 8:1 9:0.33333299 10:-0.67857099 11:1 12:-1 13:-1 14:1 15:-1 16:-1 17:1 18:1 19:-1 20:1 21:-1 22:-1 23:-1 24:-1 #
0.054107312552241035 1:-1 2:-0.76470602 3:1 4:-0.49450499 5:-1 6:1 7:0.33333299 8:1 9:-0.33333299 10:-0.142857 11:1 12:-0.33333299 13:-1 14:1 15:-1 16:1 17:-1 18:-1 19:1 20:1 21:-1 22:-1 23:-1 24:1 #
0.054107312552241035 1:-0.33333299 2:-0.235294 3:0 4:-0.64835203 5:-0.5 6:0 7:-0.33333299 8:1 9:0.33333299 10:-0.92857099 11:1 12:-1 13:-1 14:-1 15:-1 16:-1 17:-1 18:-1 19:1 20:1 21:-1 22:-1 23:-1 24:1 #
-0.054107312552241035 1:1 2:-0.41176501 3:0 4:-0.60439599 5:-1 6:1 7:-0.33333299 8:1 9:1 10:0.53571397 11:1 12:-1 13:-1 14:1 15:-1 16:1 17:-1 18:-1 19:1 20:-1 21:-1 22:-1 23:-1 24:1 #
-0.054107312552241035 1:-0.33333299 2:0.029412 3:0.5 4:0.27472499 5:-0.5 6:0.5 7:0.33333299 8:0.33333299 9:1 10:-0.53571397 11:1 12:-1 13:-1 14:1 15:-1 16:-1 17:-1 18:1 19:-1 20:1 21:-1 22:-1 23:-1 24:1 #
0.03041605759866918 1:-0.33333299 2:0.64705902 3:0 4:-0.32967001 5:-1 6:0 7:0.33333299 8:1 9:1 10:-0.178571 11:1 12:-1 13:-1 14:-1 15:-1 16:-1 17:-1 18:1 19:-1 20:-1 21:-1 22:-1 23:-1 24:1 #
-0.054107312552241035 1:-0.33333299 2:-0.58823502 3:0 4:-0.71428603 5:-1 6:0 7:1 8:0.33333299 9:0.33333299 10:-0.92857099 11:1 12:-1 13:-1 14:1 15:-1 16:-1 17:1 18:1 19:-1 20:1 21:-1 22:-1 23:-1 24:1 #
0.054107312552241035 1:1 2:-0.5 3:0.5 4:-0.73626399 5:0 6:-0.5 7:0.33333299 8:-0.33333299 9:-1 10:-0.214286 11:-1 12:-1 13:1 14:-1 15:-1 16:-1 17:-1 18:1 19:-1 20:-1 21:1 22:-1 23:1 24:-1 #
0.054107312552241035 1:0.33333299 2:-0.58823502 3:0 4:-0.70329702 5:-1 6:0 7:0.33333299 8:-1 9:-1 10:-0.464286 11:1 12:-1 13:1 14:-1 15:-1 16:-1 17:-1 18:1 19:-1 20:-1 21:1 22:-1 23:1 24:-1 #
0.054107312552241035 1:-1 2:-0.5 3:-0.5 4:-0.84615397 5:1 6:0 7:0.33333299 8:-0.33333299 9:-0.33333299 10:-0.25 11:1 12:-0.33333299 13:1 14:-1 15:-1 16:1 17:-1 18:1 19:-1 20:-1 21:1 22:-1 23:1 24:-1 #
0.054107312552241035 1:-1 2:-0.058823999 3:0 4:-0.82417601 5:-1 6:-0.5 7:-0.33333299 8:1 9:0.33333299 10:-0.464286 11:1 12:-1 13:-1 14:1 15:-1 16:1 17:-1 18:1 19:-1 20:-1 21:1 22:-1 23:-1 24:1 #
-0.054107312552241035 1:-1 2:-0.76470602 3:0 4:-0.94505501 5:-1 6:1 7:-0.33333299 8:1 9:-0.33333299 10:-0.82142901 11:1 12:-1 13:-1 14:-1 15:-1 16:-1 17:-1 18:1 19:-1 20:1 21:-1 22:-1 23:-1 24:1 #
-0.054107312552241035 1:-0.33333299 2:0.29411799 3:0.5 4:-0.285714 5:1 6:0 7:0.33333299 8:1 9:1 10:-0.32142901 11:1 12:-1 13:1 14:1 15:-1 16:-1 17:-1 18:1 19:-1 20:-1 21:-1 22:-1 23:-1 24:1 #
0.054107312552241035 1:-1 2:-0.058823999 3:0 4:-0.72527498 5:-1 6:1 7:0.33333299 8:-0.33333299 9:-0.33333299 10:-0.214286 11:-1 12:-1 13:1 14:-1 15:-1 16:-1 17:-1 18:1 19:-1 20:-1 21:1 22:-1 23:-1 24:1 #
0.054107312552241035 1:-1 2:-0.64705902 3:1 4:-0.73626399 5:-1 6:1 7:0.33333299 8:1 9:-0.33333299 10:-0.142857 11:-1 12:-1 13:-1 14:1 15:-1 16:1 17:-1 18:-1 19:-1 20:1 21:-1 22:-1 23:-1 24:1 #
0.054107312552241035 1:-1 2:-0.76470602 3:0 4:-0.64835203 5:-1 6:1 7:0.33333299 8:1 9:1 10:-0.42857099 11:1 12:-1 13:-1 14:1 15:-1 16:-1 17:1 18:1 19:-1 20:-1 21:-1 22:-1 23:-1 24:1 #
0.054107312552241035 1:1 2:-0.058823999 3:1 4:-0.241758 5:-1 6:-0.5 7:-0.33333299 8:1 9:-0.33333299 10:-0.85714298 11:1 12:-0.33333299 13:-1 14:1 15:-1 16:-1 17:-1 18:1 19:-1 20:1 21:-1 22:-1 23:-1 24:1 #
-0.054107312552241035 1:-1 2:-0.76470602 3:0 4:-0.89011002 5:1 6:0 7:-0.33333299 8:1 9:-0.33333299 10:-0.85714298 11:-1 12:-1 13:-1 14:1 15:-1 16:-1 17:-1 18:1 19:-1 20:1 21:-1 22:-1 23:-1 24:1 #
-0.054107312552241035 1:-1 2:-0.58823502 3:-0.5 4:-0.813187 5:-1 6:-0.5 7:0.33333299 8:1 9:1 10:-0.39285699 11:-1 12:-1 13:-1 14:1 15:-1 16:-1 17:-1 18:-1 19:1 20:-1 21:-1 22:-1 23:-1 24:-1 #
-0.054107312552241035 1:-1 2:-0.5 3:0 4:-0.73626399 5:-1 6:-0.5 7:-0.33333299 8:1 9:-0.33333299 10:-0.67857099 11:1 12:-1 13:-1 14:1 15:-1 16:-1 17:-1 18:1 19:-1 20:1 21:-1 22:-1 23:-1 24:-1 #
0.054107312552241035 1:1 2:-0.58823502 3:0 4:-0.85714298 5:-1 6:-0.5 7:1 8:-1 9:-0.33333299 10:-0.142857 11:1 12:-1 13:1 14:-1 15:-1 16:-1 17:-1 18:-1 19:1 20:-1 21:1 22:-1 23:1 24:-1 #
0.054107312552241035 1:1 2:-0.82352901 3:0 4:-0.87912101 5:1 6:0 7:0.33333299 8:1 9:-0.33333299 10:-0.71428603 11:1 12:-1 13:-1 14:-1 15:-1 16:1 17:-1 18:-1 19:-1 20:-1 21:1 22:-1 23:1 24:-1 #
-0.054107312552241035 1:-0.33333299 2:-0.941176 3:0 4:-0.90109903 5:-1 6:1 7:0.33333299 8:1 9:0.33333299 10:-0.67857099 11:1 12:-1 13:1 14:-1 15:-1 16:-1 17:-1 18:1 19:-1 20:-1 21:1 22:-1 23:-1 24:1 #
0.054107312552241035 1:-1 2:-0.41176501 3:0 4:-0.82417601 5:-1 6:-1 7:0.33333299 8:-0.33333299 9:0.33333299 10:-0.60714298 11:0 12:-1 13:1 14:-1 15:-1 16:-1 17:-1 18:1 19:-1 20:-1 21:1 22:-1 23:-1 24:-1 #
0.054107312552241035 1:-1 2:-0.941176 3:1 4:-0.64835203 5:-1 6:0 7:-1 8:1 9:-1 10:-0.107143 11:1 12:-1 13:-1 14:1 15:-1 16:-1 17:-1 18:1 19:-1 20:1 21:-1 22:-1 23:-1 24:-1 #
0.054107312552241035 1:-1 2:-0.76470602 3:-1 4:-0.34065899 5:-1 6:0 7:0.33333299 8:-0.33333299 9:-0.33333299 10:-0.67857099 11:1 12:-0.33333299 13:-1 14:1 15:-1 16:-1 17:-1 18:1 19:-1 20:1 21:-1 22:-1 23:-1 24:1 #
0.054107312552241035 1:-1 2:-0.76470602 3:0 4:-0.153846 5:-1 6:1 7:0.33333299 8:1 9:1 10:0.214286 11:1 12:-1 13:-1 14:1 15:-1 16:-1 17:-1 18:1 19:-1 20:-1 21:-1 22:-1 23:-1 24:-1 #
-0.054107312552241035 1:-1 2:-0.235294 3:0 4:-0.62637401 5:0.5 6:1 7:-0.33333299 8:1 9:-0.33333299 10:0.35714301 11:1 12:-0.33333299 13:-1 14:1 15:-1 16:-1 17:-1 18:1 19:-1 20:1 21:-1 22:-1 23:-1 24:1 #
-0.054107312552241035 1:-0.33333299 2:0.29411799 3:0.5 4:-0.186813 5:-0.5 6:-1 7:0.33333299 8:1 9:1 10:-0.57142901 11:1 12:-1 13:-1 14:1 15:-1 16:-1 17:-1 18:1 19:-1 20:-1 21:-1 22:-1 23:-1 24:-1 #
-0.054107312552241035 1:-1 2:-0.58823502 3:0 4:-0.62637401 5:-1 6:-0.5 7:-0.33333299 8:1 9:0.33333299 10:-0.89285702 11:1 12:-1 13:-1 14:-1 15:-1 16:-1 17:-1 18:1 19:-1 20:1 21:-1 22:-1 23:-1 24:1 #
0.054107312552241035 1:0.33333299 2:-0.41176501 3:1 4:-0.87912101 5:1 6:0.5 7:0.33333299 8:-0.33333299 9:-1 10:-0.35714301 11:-1 12:-0.33333299 13:1 14:-1 15:-1 16:1 17:-1 18:1 19:-1 20:-1 21:1 22:-1 23:1 24:-1 #
0.054107312552241035 1:-1 2:-0.76470602 3:0 4:-0.73626399 5:-1 6:-0.5 7:0.33333299 8:-1 9:-1 10:-0.5 11:1 12:-1 13:1 14:-1 15:-1 16:1 17:-1 18:1 19:-1 20:-1 21:1 22:-1 23:1 24:-1 #
0.054107312552241035 1:-0.33333299 2:-0.941176 3:-0.5 4:-0.92307699 5:-0.5 6:-0.5 7:-0.33333299 8:-1 9:-0.33333299 10:-0.53571397 11:0 12:-1 13:-1 14:-1 15:-1 16:1 17:-1 18:1 19:-1 20:-1 21:1 22:-1 23:1 24:-1 #
-0.054107312552241035 1:-1 2:-0.76470602 3:0.5 4:-0.87912101 5:-1 6:0 7:0.33333299 8:-0.33333299 9:-1 10:-0.142857 11:1 12:-0.33333299 13:1 14:-1 15:-1 16:1 17:-1 18:1 19:-1 20:-1 21:1 22:-1 23:1 24:-1 #
-0.054107312552241035 1:-1 2:-0.79411799 3:1 4:-0.59340698 5:-1 6:0 7:0.33333299 8:-0.33333299 9:-1 10:-0.25 11:1 12:-0.33333299 13:1 14:-1 15:-1 16:1 17:-1 18:1 19:-1 20:-1 21:1 22:-1 23:1 24:-1 #
-0.054107312552241035 1:-0.33333299 2:0.117647 3:1 4:-0.36263701 5:-1 6:0.5 7:-0.33333299 8:-1 9:-1 10:-0.214286 11:-1 12:-0.33333299 13:-1 14:-1 15:-1 16:-1 17:-1 18:1 19:-1 20:-1 21:1 22:-1 23:1 24:-1 #
0.054107312552241035 1:0.33333299 2:-0.67647099 3:1 4:-0.87912101 5:1 6:0 7:0.33333299 8:1 9:1 10:-0.285714 11:1 12:-0.33333299 13:-1 14:1 15:-1 16:-1 17:-1 18:1 19:-1 20:-1 21:-1 22:-1 23:-1 24:1 #
0.054107312552241035 1:-0.33333299 2:-0.41176501 3:0 4:-0.57142901 5:0 6:-0.5 7:-0.33333299 8:1 9:0.33333299 10:-0.67857099 11:1 12:-1 13:-1 14:-1 15:-1 16:-1 17:1 18:1 19:-1 20:1 21:-1 22:-1 23:-1 24:1 #
0.054107312552241035 1:1 2:-0.85294098 3:0 4:-0.80219799 5:-1 6:-0.5 7:-0.33333299 8:-0.33333299 9:0.33333299 10:-1 11:1 12:-0.33333299 13:-1 14:-1 15:-1 16:-1 17:-1 18:-1 19:1 20:1 21:-1 22:-1 23:-1 24:1 #
0.054107312552241035 1:-1 2:-0.58823502 3:-0.5 4:-0.84615397 5:-1 6:0 7:0.33333299 8:0.33333299 9:0.33333299 10:-0.107143 11:-1 12:-1 13:-1 14:-1 15:-1 16:-1 17:-1 18:1 19:-1 20:-1 21:1 22:-1 23:-1 24:1 #
-0.054107312552241035 1:-1 2:-0.41176501 3:0 4:-0.70329702 5:-1 6:0.5 7:0.33333299 8:-1 9:1 10:-0.464286 11:1 12:-1 13:-1 14:1 15:-1 16:-1 17:1 18:1 19:-1 20:-1 21:-1 22:-1 23:-1 24:-1 #
0.054107312552241035 1:-1 2:-0.41176501 3:1 4:-0.89011002 5:-1 6:1 7:0.33333299 8:1 9:0.33333299 10:0.464286 11:1 12:-0.33333299 13:-1 14:-1 15:-1 16:1 17:-1 18:1 19:-1 20:-1 21:1 22:-1 23:1 24:-1 #
0.054107312552241035 1:-1 2:-0.76470602 3:0 4:-0.89011002 5:-1 6:0 7:-0.33333299 8:-0.33333299 9:-1 10:-0.82142901 11:1 12:-1 13:-1 14:-1 15:-1 16:1 17:-1 18:1 19:-1 20:-1 21:1 22:-1 23:1 24:-1 #
0.054107312552241035 1:1 2:-0.058823999 3:0.5 4:-0.142857 5:1 6:-0.5 7:0.33333299 8:1 9:0.33333299 10:-0.71428603 11:1 12:-0.33333299 13:-1 14:1 15:-1 16:-1 17:-1 18:1 19:-1 20:1 21:-1 22:-1 23:-1 24:1 #
-0.054107312552241035 1:-0.33333299 2:-0.76470602 3:1 4:-0.75824201 5:0 6:0.5 7:-1 8:0.33333299 9:0.33333299 10:-0.39285699 11:1 12:-1 13:-1 14:1 15:-1 16:1 17:-1 18:1 19:-1 20:-1 21:1 22:-1 23:-1 24:-1 #
-0.054107312552241035 1:0.33333299 2:-0.5 3:0 4:-0.70329702 5:-0.5 6:0 7:-0.33333299 8:-1 9:0.33333299 10:-0.67857099 11:-1 12:-1 13:-1 14:1 15:-1 16:1 17:-1 18:1 19:-1 20:-1 21:1 22:-1 23:-1 24:-1 #
0.054107312552241035 1:-1 2:-0.058823999 3:0 4:0 5:-1 6:0.5 7:0.33333299 8:-1 9:0.33333299 10:-0.82142901 11:1 12:-1 13:-1 14:1 15:-1 16:1 17:-1 18:1 19:-1 20:-1 21:1 22:-1 23:-1 24:1 #
-0.054107312552241035 1:-1 2:0.29411799 3:0 4:-0.19780201 5:-1 6:0.5 7:0.33333299 8:-1 9:1 10:0.107143 11:1 12:-1 13:-1 14:1 15:-1 16:-1 17:-1 18:1 19:-1 20:-1 21:-1 22:-1 23:-1 24:-1 #
-0.054107312552241035 1:-1 2:-0.76470602 3:0 4:-0.87912101 5:-1 6:0 7:0.33333299 8:-1 9:-0.33333299 10:-0.92857099 11:1 12:-1 13:-1 14:-1 15:-1 16:-1 17:-1 18:-1 19:-1 20:-1 21:1 22:-1 23:1 24:-1 #
-0.054107312552241035 1:-1 2:0.26470599 3:0 4:0.153846 5:-1 6:-0.5 7:-0.33333299 8:-1 9:-1 10:-0.42857099 11:1 12:-1 13:-1 14:1 15:-1 16:1 17:-1 18:1 19:-1 20:-1 21:1 22:-1 23:1 24:-1 #
-0.054107312552241035 1:-0.33333299 2:-0.941176 3:0 4:-0.79120898 5:-1 6:-0.5 7:1 8:0.33333299 9:0.33333299 10:-0.60714298 11:1 12:-1 13:-1 14:1 15:-1 16:-1 17:-1 18:1 19:-1 20:1 21:-1 22:-1 23:-1 24:-1 #
-0.054107312552241035 1:-1 2:-0.67647099 3:0 4:-0.868132 5:-1 6:0 7:-0.33333299 8:1 9:0.33333299 10:-0.67857099 11:1 12:-1 13:-1 14:-1 15:-1 16:1 17:-1 18:1 19:-1 20:1 21:-1 22:-1 23:-1 24:1 #
0.054107312552241035 1:1 2:-0.76470602 3:0.5 4:-0.84615397 5:0.5 6:1 7:0.33333299 8:1 9:1 10:0.285714 11:1 12:-0.33333299 13:1 14:-1 15:-1 16:-1 17:-1 18:1 19:-1 20:-1 21:-1 22:-1 23:-1 24:1 #
0.054107312552241035 1:1 2:0.29411799 3:0 4:-0.59340698 5:1 6:0 7:-1 8:-0.33333299 9:-1 10:-0.32142901 11:-1 12:-1 13:-1 14:-1 15:-1 16:-1 17:-1 18:1 19:-1 20:-1 21:1 22:-1 23:-1 24:1 #
0.054107312552241035 1:1 2:-0.235294 3:-0.5 4:-0.19780201 5:1 6:-1 7:-0.33333299 8:-1 9:-1 10:0.214286 11:-1 12:-1 13:-1 14:1 15:-1 16:-1 17:1 18:1 19:-1 20:-1 21:1 22:-1 23:-1 24:-1 #
0.054107312552241035 1:-1 2:-0.58823502 3:0 4:-0.19780201 5:1 6:1 7:0.33333299 8:1 9:-0.33333299 10:0.142857 11:1 12:-1 13:1 14:1 15:-1 16:-1 17:1 18:1 19:-1 20:-1 21:-1 22:-1 23:-1 24:1 #
0.054107312552241035 1:-0.33333299 2:-0.85294098 3:1 4:-0.90109903 5:0.5 6:1 7:0.33333299 8:0.33333299 9:1 10:-0.53571397 11:1 12:-0.33333299 13:1 14:-1 15:-1 16:-1 17:-1 18:1 19:-1 20:-1 21:-1 22:-1 23:-1 24:1 #
-0.054107312552241035 1:-1 2:-0.235294 3:-1 4:-0.131868 5:1 6:-0.5 7:0.33333299 8:0.33333299 9:0.33333299 10:-0.78571397 11:-1 12:0.33333299 13:-1 14:-1 15:-1 16:-1 17:-1 18:1 19:-1 20:-1 21:1 22:-1 23:-1 24:1 #
-0.054107312552241035 1:-1 2:-0.41176501 3:0 4:-0.70329702 5:-1 6:0 7:0.33333299 8:1 9:1 10:0.57142901 11:-1 12:-1 13:1 14:1 15:-1 16:-1 17:1 18:-1 19:-1 20:-1 21:1 22:-1 23:-1 24:1 #
-0.054107312552241035 1:-0.33333299 2:-0.52941197 3:-1 4:-0.351648 5:-0.5 6:1 7:1 8:1 9:0.33333299 10:-0.57142901 11:-1 12:-0.33333299 13:-1 14:1 15:-1 16:-1 17:1 18:1 19:-1 20:-1 21:1 22:-1 23:-1 24:1 #
-0.054107312552241035 1:-0.33333299 2:-0.058823999 3:0 4:-0.615385 5:1 6:0 7:1 8:-0.33333299 9:0.33333299 10:-0.71428603 11:1 12:-1 13:-1 14:-1 15:-1 16:-1 17:-1 18:1 19:-1 20:-1 21:1 22:-1 23:-1 24:1 #
0.054107312552241035 1:-1 2:-0.76470602 3:0 4:-0.94505501 5:-1 6:0 7:0.33333299 8:1 9:0.33333299 10:-0.25 11:1 12:-1 13:1 14:-1 15:-1 16:-1 17:-1 18:1 19:-1 20:1 21:-1 22:-1 23:1 24:-1 #
0.03884808408044732 1:-1 2:-0.41176501 3:0 4:-0.868132 5:-1 6:0.5 7:-0.33333299 8:1 9:0.33333299 10:-0.85714298 11:1 12:-0.33333299 13:-1 14:-1 15:-1 16:1 17:-1 18:1 19:-1 20:1 21:-1 22:-1 23:-1 24:1 #
0.054107312552241035 1:1 2:-0.82352901 3:0 4:-0.78021997 5:-1 6:0 7:0.33333299 8:-0.33333299 9:-1 10:-0.78571397 11:-1 12:-1 13:-1 14:-1 15:-1 16:-1 17:-1 18:1 19:-1 20:1 21:-1 22:-1 23:1 24:-1 #
0.054107312552241035 1:-0.33333299 2:-0.76470602 3:0 4:-0.934066 5:-0.5 6:-0.5 7:-0.33333299 8:-0.33333299 9:-0.33333299 10:-0.85714298 11:-1 12:-1 13:-1 14:-1 15:-1 16:1 17:-1 18:1 19:-1 20:-1 21:1 22:-1 23:1 24:-1 #
-0.054107312552241035 1:-0.33333299 2:-0.58823502 3:0 4:-0.89011002 5:1 6:0 7:0.33333299 8:1 9:1 10:0.5 11:1 12:-1 13:-1 14:-1 15:-1 16:-1 17:-1 18:1 19:-1 20:-1 21:-1 22:-1 23:-1 24:1 #
0.054107312552241035 1:-0.33333299 2:-0.58823502 3:-1 4:-0.76923102 5:-0.5 6:-0.5 7:-0.33333299 8:0.33333299 9:0.33333299 10:-0.67857099 11:1 12:-0.33333299 13:-1 14:-1 15:-1 16:1 17:-1 18:1 19:-1 20:-1 21:1 22:-1 23:-1 24:1 #
-0.054107312552241035 1:-0.33333299 2:-0.76470602 3:0 4:-0.934066 5:-0.5 6:0.5 7:-0.33333299 8:1 9:-1 10:-0.85714298 11:1 12:-1 13:-1 14:-1 15:-1 16:-1 17:-1 18:1 19:-1 20:1 21:-1 22:-1 23:1 24:-1 #
-0.054107312552241035 1:-0.33333299 2:-0.58823502 3:0 4:-0.32967001 5:-1 6:0.5 7:0.33333299 8:0.33333299 9:-1 10:-0.67857099 11:1 12:-1 13:-1 14:-1 15:-1 16:1 17:-1 18:1 19:-1 20:1 21:-1 22:-1 23:1 24:-1 #
0.054107312552241035 1:-1 2:0.29411799 3:1 4:-0.32967001 5:-1 6:1 7:0.33333299 8:1 9:1 10:-0.035714 11:1 12:-0.33333299 13:-1 14:1 15:-1 16:-1 17:1 18:1 19:-1 20:-1 21:-1 22:-1 23:-1 24:1 #
0.054107312552241035 1:0.33333299 2:-0.76470602 3:1 4:-0.92307699 5:0 6:0.5 7:1 8:-0.33333299 9:-1 10:-0.67857099 11:1 12:0.33333299 13:-1 14:1 15:-1 16:1 17:-1 18:1 19:-1 20:-1 21:1 22:-1 23:-1 24:1 #
0.050045636067738729 1:-0.33333299 2:0.29411799 3:-1 4:1 5:-1 6:0 7:-0.33333299 8:-0.33333299 9:-0.33333299 10:-0.53571397 11:-1 12:-1 13:-1 14:1 15:1 16:-1 17:-1 18:1 19:-1 20:-1 21:1 22:-1 23:-1 24:-1 #
0.054107312552241035 1:-0.33333299 2:-0.41176501 3:1 4:-0.813187 5:-1 6:1 7:-1 8:1 9:-1 10:-0.57142901 11:1 12:-0.33333299 13:-1 14:1 15:-1 16:-1 17:-1 18:1 19:-1 20:-1 21:1 22:-1 23:-1 24:1 #
-0.054107312552241035 1:-1 2:-0.941176 3:0 4:-0.97802198 5:-1 6:1 7:-0.33333299 8:-1 9:-0.33333299 10:0.071428999 11:-1 12:-1 13:-1 14:1 15:-1 16:-1 17:-1 18:1 19:-1 20:-1 21:1 22:-1 23:-1 24:1 #
0.054107312552241035 1:-1 2:-0.41176501 3:0 4:-0.868132 5:1 6:0 7:-0.33333299 8:1 9:-1 10:-0.78571397 11:1 12:-1 13:-1 14:-1 15:-1 16:1 17:-1 18:1 19:-1 20:1 21:-1 22:-1 23:-1 24:1 #
-0.054107312552241035 1:-1 2:-0.67647099 3:1 4:-0.85714298 5:-1 6:1 7:0.33333299 8:1 9:0.33333299 10:-0.107143 11:1 12:-0.33333299 13:1 14:1 15:-1 16:-1 17:-1 18:1 19:-1 20:-1 21:1 22:-1 23:-1 24:1 #
-0.054107312552241035 1:-0.33333299 2:-0.058823999 3:0 4:-0.76923102 5:-1 6:0.5 7:0.33333299 8:-1 9:0.33333299 10:-0.53571397 11:1 12:-0.33333299 13:1 14:-1 15:-1 16:-1 17:-1 18:1 19:-1 20:-1 21:1 22:-1 23:-1 24:1 #
-0.054107312552241035 1:-0.33333299 2:-0.32352901 3:0 4:-0.747253 5:-1 6:-0.5 7:-0.33333299 8:-1 9:-0.33333299 10:-0.53571397 11:1 12:-1 13:1 14:1 15:-1 16:-1 17:-1 18:1 19:-1 20:-1 21:1 22:-1 23:-1 24:1 #
-0.054107312552241035 1:-0.33333299 2:0.29411799 3:0 4:-0.087912001 5:1 6:0.5 7:-0.33333299 8:-0.33333299 9:0.33333299 10:-0.82142901 11:1 12:-1 13:-1 14:-1 15:-1 16:1 17:-1 18:1 19:-1 20:-1 21:1 22:-1 23:-1 24:1 #
0.054107312552241035 1:-0.33333299 2:-0.5 3:0 4:-0.71428603 5:-0.5 6:1 7:-1 8:-0.33333299 9:0.33333299 10:0.5 11:-1 12:-0.33333299 13:-1 14:-1 15:-1 16:-1 17:-1 18:1 19:-1 20:1 21:-1 22:-1 23:1 24:-1 #
0.054107312552241035 1:-1 2:-0.41176501 3:0 4:-0.80219799 5:-1 6:0 7:0.33333299 8:1 9:-1 10:-0.92857099 11:1 12:-1 13:1 14:-1 15:-1 16:-1 17:-1 18:1 19:-1 20:1 21:-1 22:-1 23:1 24:-1 #
0.054107312552241035 1:0.33333299 2:-0.67647099 3:0 4:-0.76923102 5:-1 6:-0.5 7:-0.33333299 8:0.33333299 9:-1 10:-0.78571397 11:1 12:-1 13:-1 14:-1 15:-1 16:-1 17:-1 18:1 19:-1 20:-1 21:1 22:-1 23:1 24:-1 #
-0.054107312552241035 1:-1 2:-0.941176 3:0 4:-0.89011002 5:-0.5 6:1 7:0.33333299 8:-0.33333299 9:-0.33333299 10:-0.142857 11:1 12:-1 13:-1 14:1 15:-1 16:1 17:-1 18:1 19:-1 20:-1 21:1 22:-1 23:-1 24:1 #
-0.054107312552241035 1:-0.33333299 2:-0.76470602 3:0 4:-0.91208798 5:0.5 6:-0.5 7:-0.33333299 8:1 9:-1 10:-1 11:1 12:-1 13:-1 14:-1 15:-1 16:-1 17:-1 18:1 19:-1 20:1 21:-1 22:-1 23:1 24:-1 #
-0.054107312552241035 1:-1 2:-0.41176501 3:0 4:-0.69230801 5:-1 6:0 7:-1 8:-0.33333299 9:-1 10:-0.82142901 11:1 12:-1 13:-1 14:-1 15:-1 16:-1 17:-1 18:1 19:-1 20:1 21:-1 22:-1 23:1 24:-1 #
0.054107312552241035 1:-0.33333299 2:-0.85294098 3:0 4:-0.91208798 5:-1 6:0 7:-0.33333299 8:-0.33333299 9:0.33333299 10:-0.64285702 11:1 12:-1 13:-1 14:-1 15:1 16:-1 17:-1 18:1 19:-1 20:-1 21:1 22:-1 23:-1 24:1 #
0.054107312552241035 1:-1 2:-0.058823999 3:1 4:0.032967001 5:-1 6:0.5 7:0.33333299 8:1 9:0.33333299 10:-0.82142901 11:1 12:-0.33333299 13:-1 14:1 15:-1 16:-1 17:1 18:1 19:-1 20:-1 21:1 22:-1 23:-1 24:1 #
0.054107312552241035 1:-0.33333299 2:-0.32352901 3:0 4:-0.59340698 5:-1 6:0 7:0.33333299 8:-0.33333299 9:0.33333299 10:-0.39285699 11:1 12:-1 13:1 14:1 15:-1 16:-1 17:-1 18:1 19:-1 20:-1 21:1 22:-1 23:-1 24:1 #
0.054107312552241035 1:-0.33333299 2:-0.76470602 3:0 4:-0.85714298 5:1 6:0 7:1 8:-1 9:-1 10:-0.78571397 11:1 12:-1 13:-1 14:1 15:-1 16:-1 17:-1 18:1 19:-1 20:-1 21:1 22:-1 23:-1 24:1 #
0.054107312552241035 1:1 2:-0.41176501 3:0 4:-0.37362599 5:1 6:-0.5 7:-0.33333299 8:-1 9:0.33333299 10:-0.107143 11:1 12:-0.33333299 13:-1 14:1 15:-1 16:-1 17:-1 18:1 19:-1 20:-1 21:1 22:-1 23:-1 24:1 #
-0.054107312552241035 1:-1 2:-0.058823999 3:0 4:-0.62637401 5:-1 6:0 7:0.33333299 8:-0.33333299 9:-0.33333299 10:-0.35714301 11:1 12:-1 13:1 14:-1 15:-1 16:-1 17:-1 18:-1 19:-1 20:-1 21:1 22:-1 23:-1 24:1 #
-0.030740926127703148 1:-1 2:-0.41176501 3:0 4:-0.175824 5:1 6:-0.5 7:-0.33333299 8:-0.33333299 9:-0.33333299 10:-0.60714298 11:1 12:-1 13:-1 14:1 15:1 16:-1 17:-1 18:1 19:-1 20:-1 21:1 22:-1 23:-1 24:1 #
-0.054107312552241035 1:-0.33333299 2:-0.35294101 3:0 4:-0.142857 5:-1 6:-0.5 7:0.33333299 8:0.33333299 9:0.33333299 10:-0.60714298 11:1 12:-0.33333299 13:-1 14:-1 15:-1 16:-1 17:1 18:1 19:-1 20:-1 21:1 22:-1 23:-1 24:1 #
0.054107312552241035 1:-0.33333299 2:-0.76470602 3:0 4:-0.91208798 5:-0.5 6:-0.5 7:-0.33333299 8:1 9:0.33333299 10:-0.71428603 11:-1 12:1 13:-1 14:-1 15:-1 16:-1 17:-1 18:1 19:-1 20:1 21:-1 22:-1 23:-1 24:1 #
0.054107312552241035 1:-0.33333299 2:-0.58823502 3:0 4:-0.813187 5:1 6:-0.5 7:-0.33333299 8:0.33333299 9:-1 10:-0.71428603 11:1 12:-1 13:-1 14:-1 15:-1 16:-1 17:-1 18:1 19:-1 20:1 21:-1 22:-1 23:-1 24:1 #
0.054107312552241035 1:1 2:-0.58823502 3:0 4:-0.27472499 5:1 6:0 7:0.33333299 8:1 9:0.33333299 10:0.75 11:1 12:-0.33333299 13:-1 14:-1 15:-1 16:1 17:-1 18:1 19:-1 20:1 21:-1 22:-1 23:-1 24:1 #
-0.054107312552241035 1:1 2:-0.67647099 3:0 4:-0.67032999 5:0.5 6:0.5 7:-0.33333299 8:0.33333299 9:0.33333299 10:-0.96428603 11:1 12:-1 13:-1 14:-1 15:-1 16:1 17:-1 18:1 19:-1 20:1 21:-1 22:-1 23:-1 24:1 #
-0.054107312552241035 1:-0.33333299 2:-0.67647099 3:1 4:-0.76923102 5:0 6:0 7:0.33333299 8:1 9:0.33333299 10:-0.71428603 11:-1 12:-1 13:-1 14:-1 15:-1 16:-1 17:-1 18:1 19:-1 20:-1 21:1 22:-1 23:-1 24:1 #
-0.054107312552241035 1:-1 2:-0.941176 3:1 4:-0.615385 5:-1 6:0 7:0.33333299 8:0.33333299 9:-1 10:-0.35714301 11:1 12:0.33333299 13:1 14:-1 15:-1 16:1 17:-1 18:1 19:-1 20:1 21:-1 22:-1 23:-1 24:1 #
-0.054107312552241035 1:-0.33333299 2:-0.85294098 3:0 4:-0.89011002 5:-1 6:0.5 7:-0.33333299 8:1 9:-0.33333299 10:0.71428603 11:1 12:-0.33333299 13:-1 14:1 15:-1 16:-1 17:-1 18:1 19:-1 20:-1 21:1 22:-1 23:-1 24:-1 #
0.054107312552241035 1:-0.33333299 2:-0.58823502 3:0.5 4:-0.54945099 5:-1 6:1 7:-1 8:0.33333299 9:1 10:-0.25 11:1 12:-1 13:-1 14:1 15:-1 16:-1 17:-1 18:1 19:-1 20:-1 21:1 22:-1 23:-1 24:-1 #
0.054107312552241035 1:-0.33333299 2:-0.41176501 3:1 4:0.285714 5:-1 6:0 7:0.33333299 8:0.33333299 9:0.33333299 10:-0.285714 11:1 12:-0.33333299 13:1 14:1 15:-1 16:-1 17:-1 18:-1 19:1 20:-1 21:1 22:-1 23:-1 24:-1 #
0.054107312552241035 1:-1 2:-0.235294 3:0 4:-0.681319 5:-1 6:-0.5 7:-1 8:1 9:-0.33333299 10:-0.57142901 11:1 12:-1 13:-1 14:-1 15:-1 16:-1 17:-1 18:1 19:-1 20:-1 21:1 22:-1 23:1 24:-1 #
0.054107312552241035 1:-0.33333299 2:-0.85294098 3:1 4:-0.85714298 5:-1 6:1 7:-0.33333299 8:0.33333299 9:0.33333299 10:-0.464286 11:1 12:-0.33333299 13:-1 14:1 15:-1 16:-1 17:-1 18:1 19:-1 20:-1 21:1 22:-1 23:-1 24:-1 #
-0.054107312552241035 1:1 2:-0.41176501 3:1 4:-0.32967001 5:-1 6:-1 7:0.33333299 8:-0.33333299 9:1 10:-0.71428603 11:-1 12:-0.33333299 13:-1 14:1 15:-1 16:-1 17:-1 18:-1 19:1 20:-1 21:1 22:-1 23:-1 24:-1 #
-0.054107312552241035 1:-1 2:0.029412 3:1 4:0.53846198 5:1 6:0.5 7:0.33333299 8:1 9:-0.33333299 10:-0.60714298 11:1 12:-0.33333299 13:-1 14:1 15:-1 16:-1 17:-1 18:1 19:-1 20:-1 21:1 22:-1 23:-1 24:-1 #
-0.054107312552241035 1:-0.33333299 2:0.29411799 3:-1 4:0.318681 5:1 6:0 7:0.33333299 8:-0.33333299 9:0.33333299 10:0.035714 11:-1 12:-1 13:-1 14:1 15:-1 16:-1 17:-1 18:1 19:-1 20:-1 21:1 22:-1 23:-1 24:-1 #
-0.054107312552241035 1:-0.33333299 2:0.29411799 3:0 4:-0.42857099 5:1 6:-1 7:0.33333299 8:1 9:1 10:-0.25 11:-1 12:-1 13:-1 14:1 15:-1 16:-1 17:-1 18:1 19:-1 20:-1 21:-1 22:1 23:-1 24:-1 #
-0.054107312552241035 1:-0.33333299 2:-0.58823502 3:1 4:-0.208791 5:-1 6:-1 7:0.33333299 8:1 9:-0.33333299 10:-0.25 11:0 12:-0.33333299 13:-1 14:1 15:-1 16:-1 17:-1 18:1 19:-1 20:-1 21:1 22:-1 23:-1 24:-1 #
-0.054107312552241035 1:0.33333299 2:-0.058823999 3:0 4:-0.59340698 5:-1 6:0 7:0.33333299 8:-0.33333299 9:-1 10:-0.85714298 11:1 12:-1 13:-1 14:1 15:-1 16:-1 17:-1 18:1 19:-1 20:-1 21:1 22:-1 23:-1 24:1 #
0.054107312552241035 1:-1 2:-0.41176501 3:0.5 4:-0.87912101 5:-1 6:-1 7:0.33333299 8:-0.33333299 9:-1 10:-0.142857 11:1 12:-0.33333299 13:1 14:-1 15:-1 16:1 17:-1 18:1 19:-1 20:-1 21:-1 22:-1 23:-1 24:1 #
0.054107312552241035 1:1 2:-0.76470602 3:0 4:-0.868132 5:0 6:0 7:-0.33333299 8:-0.33333299 9:-0.33333299 10:-0.75 11:1 12:-1 13:-1 14:-1 15:-1 16:1 17:-1 18:1 19:-1 20:-1 21:1 22:-1 23:-1 24:1 #
0.054107312552241035 1:-1 2:-0.058823999 3:0 4:-0.120879 5:-1 6:0 7:0.33333299 8:-0.33333299 9:-0.33333299 10:-0.75 11:1 12:-1 13:1 14:-1 15:-1 16:-1 17:1 18:1 19:-1 20:-1 21:1 22:-1 23:-1 24:1 #
-0.054107312552241035 1:0.33333299 2:-0.41176501 3:0 4:-0.70329702 5:-1 6:1 7:-1 8:1 9:1 10:0.142857 11:1 12:-1 13:-1 14:-1 15:-1 16:-1 17:-1 18:1 19:-1 20:-1 21:-1 22:-1 23:-1 24:1 #
-0.054107312552241035 1:-0.33333299 2:-0.058823999 3:0.5 4:-0.70329702 5:-0.5 6:1 7:0.33333299 8:0.33333299 9:1 10:-0.60714298 11:1 12:-1 13:-1 14:-1 15:-1 16:1 17:-1 18:1 19:-1 20:-1 21:-1 22:-1 23:-1 24:1 #
-0.054107312552241035 1:-0.33333299 2:-0.41176501 3:0 4:-0.681319 5:-0.5 6:1 7:0.33333299 8:1 9:1 10:-0.60714298 11:1 12:-1 13:-1 14:-1 15:-1 16:-1 17:-1 18:1 19:-1 20:-1 21:-1 22:-1 23:-1 24:1 #
-0.054107312552241035 1:-1 2:-0.235294 3:0 4:-0.747253 5:-1 6:1 7:0.33333299 8:0.33333299 9:-0.33333299 10:-0.285714 11:1 12:-1 13:1 14:-1 15:-1 16:-1 17:-1 18:-1 19:-1 20:-1 21:1 22:-1 23:-1 24:1 #
0.054107312552241035 1:-0.33333299 2:-0.941176 3:0 4:0.58241802 5:1 6:-1 7:0.33333299 8:-0.33333299 9:-0.33333299 10:-0.85714298 11:1 12:-1 13:-1 14:1 15:-1 16:1 17:-1 18:1 19:-1 20:-1 21:1 22:1 23:-1 24:-1 #
0.054107312552241035 1:-0.33333299 2:-0.76470602 3:0 4:-0.30769199 5:1 6:-1 7:0.33333299 8:-1 9:1 10:0.178571 11:1 12:-1 13:-1 14:1 15:-1 16:-1 17:-1 18:1 19:-1 20:-1 21:1 22:-1 23:-1 24:-1 #
0.054107312552241035 1:1 2:-0.41176501 3:0 4:-0.51648402 5:0.5 6:0 7:0.33333299 8:0.33333299 9:-0.33333299 10:0.25 11:1 12:0.33333299 13:-1 14:1 15:-1 16:-1 17:-1 18:1 19:-1 20:-1 21:1 22:-1 23:-1 24:-1 #
0.054107312552241035 1:1 2:-0.76470602 3:1 4:-0.76923102 5:-1 6:-1 7:0.33333299 8:-0.33333299 9:0.33333299 10:-0.178571 11:0 12:-0.33333299 13:-1 14:1 15:-1 16:-1 17:-1 18:1 19:-1 20:-1 21:1 22:-1 23:-1 24:-1 #
0.054107312552241035 1:-1 2:0.117647 3:0 4:-0.23076899 5:1 6:0.5 7:-0.33333299 8:0.33333299 9:0.33333299 10:-0.60714298 11:1 12:-1 13:-1 14:1 15:-1 16:-1 17:-1 18:1 19:-1 20:-1 21:1 22:-1 23:-1 24:-1 #
-0.054107312552241035 1:-0.33333299 2:-0.58823502 3:1 4:-0.62637401 5:-1 6:-1 7:1 8:0.33333299 9:0.33333299 10:-0.25 11:1 12:0.33333299 13:1 14:1 15:-1 16:-1 17:-1 18:1 19:-1 20:-1 21:1 22:1 23:-1 24:-1 #
-0.0061700234820621924 1:-1 2:-0.941176 3:1 4:-0.95604402 5:-1 6:0.5 7:-0.33333299 8:0.33333299 9:-0.33333299 10:-0.35714301 11:1 12:-0.33333299 13:-1 14:-1 15:1 16:1 17:-1 18:1 19:-1 20:-1 21:1 22:-1 23:-1 24:1 #
-0.054107312552241035 1:-0.33333299 2:-0.941176 3:0.5 4:-0.91208798 5:-1 6:-1 7:0.33333299 8:-1 9:-0.33333299 10:-0.42857099 11:0 12:-0.33333299 13:-1 14:1 15:-1 16:-1 17:-1 18:1 19:-1 20:-1 21:1 22:-1 23:-1 24:-1 #
-0.033852604727183752 1:1 2:-0.14705899 3:0.5 4:-0.71428603 5:-1 6:0 7:-0.33333299 8:-0.33333299 9:0.33333299 10:-0.75 11:1 12:-0.33333299 13:-1 14:1 15:-1 16:-1 17:-1 18:1 19:-1 20:-1 21:1 22:-1 23:-1 24:1 #
-0.029727333308372034 1:0.33333299 2:-0.82352901 3:1 4:-0.934066 5:-1 6:1 7:0.33333299 8:1 9:1 10:0.57142901 11:1 12:-0.33333299 13:-1 14:1 15:-1 16:1 17:-1 18:1 19:-1 20:-1 21:-1 22:-1 23:-1 24:1 #
0.054107312552241035 1:1 2:-0.058823999 3:0 4:-0.82417601 5:-1 6:0 7:0.33333299 8:1 9:1 10:-0.35714301 11:0 12:-1 13:-1 14:1 15:-1 16:-1 17:-1 18:1 19:-1 20:-1 21:-1 22:-1 23:-1 24:1 #
0.054107312552241035 1:-1 2:-0.41176501 3:0.5 4:-0.91208798 5:-1 6:-0.5 7:1 8:1 9:-1 10:0.035714 11:0 12:-1 13:-1 14:-1 15:-1 16:-1 17:-1 18:1 19:-1 20:-1 21:1 22:-1 23:-1 24:1 #
0.054107312552241035 1:0.33333299 2:-0.41176501 3:0 4:-0.92307699 5:-1 6:0.5 7:0.33333299 8:0.33333299 9:1 10:-0.32142901 11:-1 12:-1 13:1 14:-1 15:-1 16:1 17:-1 18:1 19:-1 20:-1 21:-1 22:-1 23:-1 24:1 #
-0.054107312552241035 1:-1 2:-0.41176501 3:-0.5 4:-0.76923102 5:-0.5 6:0.5 7:0.33333299 8:0.33333299 9:0.33333299 10:-0.53571397 11:-1 12:-1 13:-1 14:-1 15:-1 16:1 17:-1 18:1 19:-1 20:-1 21:1 22:-1 23:-1 24:1 #
-0.054107312552241035 1:-1 2:-0.70588201 3:0 4:-0.58241802 5:-1 6:-1 7:0.33333299 8:1 9:1 10:-0.89285702 11:1 12:-1 13:-1 14:-1 15:-1 16:1 17:-1 18:1 19:-1 20:-1 21:-1 22:-1 23:-1 24:1 #
-0.054107312552241035 1:-1 2:-0.5 3:1 4:-0.95604402 5:-1 6:1 7:0.33333299 8:1 9:-1 10:0.64285702 11:1 12:-0.33333299 13:-1 14:-1 15:-1 16:1 17:-1 18:1 19:-1 20:-1 21:1 22:-1 23:-1 24:1 #
-0.054107312552241035 1:1 2:-0.76470602 3:-1 4:-0.71428603 5:-1 6:1 7:0.33333299 8:1 9:-0.33333299 10:-0.464286 11:1 12:-0.33333299 13:-1 14:-1 15:-1 16:-1 17:-1 18:1 19:-1 20:-1 21:1 22:-1 23:-1 24:1 #
0.054107312552241035 1:1 2:-0.058823999 3:0.5 4:-0.52747297 5:-1 6:0 7:0.33333299 8:-0.33333299 9:0.33333299 10:-0.75 11:1 12:-0.33333299 13:-1 14:1 15:-1 16:-1 17:-1 18:1 19:-1 20:-1 21:1 22:-1 23:-1 24:-1 #
0.054107312552241035 1:1 2:-0.67647099 3:0 4:-0.51648402 5:-0.5 6:0 7:0.33333299 8:-0.33333299 9:-0.33333299 10:-0.25 11:1 12:-1 13:-1 14:1 15:-1 16:-1 17:-1 18:1 19:-1 20:-1 21:1 22:-1 23:-1 24:-1 #
0.054107312552241035 1:1 2:-0.058823999 3:0 4:-0.65934098 5:-1 6:0 7:-0.33333299 8:-0.33333299 9:0.33333299 10:-0.67857099 11:1 12:-1 13:-1 14:1 15:-1 16:-1 17:-1 18:1 19:-1 20:-1 21:1 22:-1 23:-1 24:-1 #
-0.011655755313283448 1:1 2:-0.058823999 3:0 4:-0.50549501 5:-1 6:0 7:0.33333299 8:-0.33333299 9:1 10:-0.53571397 11:1 12:-1 13:-1 14:1 15:-1 16:-1 17:1 18:1 19:-1 20:-1 21:-1 22:-1 23:-1 24:-1 #
-0.054107312552241035 1:-0.33333299 2:-0.76470602 3:0 4:-0.70329702 5:-1 6:0.5 7:-0.33333299 8:-1 9:-1 10:-0.71428603 11:1 12:-1 13:-1 14:-1 15:-1 16:-1 17:-1 18:1 19:-1 20:-1 21:1 22:-1 23:-1 24:1 #
-0.054107312552241035 1:-0.33333299 2:0.117647 3:-0.5 4:0 5:-1 6:-1 7:0.33333299 8:-0.33333299 9:1 10:0.285714 11:-1 12:-1 13:-1 14:1 15:-1 16:-1 17:1 18:1 19:-1 20:-1 21:-1 22:-1 23:-1 24:-1 #
-0.054107312552241035 1:1 2:0.29411799 3:0 4:0.098901004 5:1 6:0.5 7:0.33333299 8:0.33333299 9:0.33333299 10:-0.35714301 11:0 12:-1 13:-1 14:1 15:-1 16:-1 17:-1 18:1 19:-1 20:-1 21:1 22:-1 23:-1 24:1 #
0.054107312552241035 1:-0.33333299 2:-0.058823999 3:1 4:-0.71428603 5:-1 6:-0.5 7:-1 8:1 9:0.33333299 10:-0.71428603 11:1 12:-0.33333299 13:-1 14:-1 15:-1 16:1 17:-1 18:1 19:-1 20:-1 21:1 22:-1 23:-1 24:1 #
0.054107312552241035 1:-1 2:-0.41176501 3:0 4:-0.92307699 5:1 6:1 7:-0.33333299 8:-0.33333299 9:0.33333299 10:-0.64285702 11:-1 12:-1 13:-1 14:-1 15:-1 16:1 17:-1 18:1 19:-1 20:-1 21:1 22:-1 23:-1 24:1 #
0.054107312552241035 1:-1 2:-0.76470602 3:1 4:-0.78021997 5:-1 6:1 7:0.33333299 8:0.33333299 9:-0.33333299 10:0.464286 11:1 12:-0.33333299 13:-1 14:-1 15:-1 16:-1 17:-1 18:1 19:-1 20:-1 21:1 22:-1 23:-1 24:1 #
0.054107312552241035 1:-0.33333299 2:-0.88235301 3:0 4:-0.89011002 5:-1 6:0 7:-0.33333299 8:1 9:-1 10:-0.82142901 11:1 12:-1 13:-1 14:-1 15:-1 16:-1 17:-1 18:1 19:-1 20:-1 21:1 22:-1 23:-1 24:1 #
0.054107312552241035 1:-1 2:0.29411799 3:0 4:-0.27472499 5:-1 6:0 7:-0.33333299 8:-0.33333299 9:0.33333299 10:-0.57142901 11:1 12:-1 13:-1 14:1 15:-1 16:-1 17:-1 18:1 19:-1 20:-1 21:1 22:-1 23:-1 24:1 #
-0.054107312552241035 1:-1 2:-0.52941197 3:1 4:-0.54945099 5:-1 6:1 7:-0.33333299 8:1 9:-0.33333299 10:-0.82142901 11:1 12:-0.33333299 13:-1 14:-1 15:-1 16:-1 17:-1 18:1 19:-1 20:-1 21:1 22:-1 23:-1 24:1 #
-0.054107312552241035 1:-1 2:-0.85294098 3:0 4:-0.868132 5:-1 6:0.5 7:0.33333299 8:1 9:-1 10:0.42857099 11:1 12:-1 13:-1 14:-1 15:-1 16:-1 17:-1 18:1 19:-1 20:-1 21:1 22:-1 23:-1 24:1 #
0.054107312552241035 1:-0.33333299 2:-0.58823502 3:0 4:0.40659299 5:-1 6:-1 7:-0.33333299 8:1 9:1 10:-0.32142901 11:1 12:-1 13:-1 14:1 15:-1 16:-1 17:1 18:1 19:-1 20:-1 21:-1 22:-1 23:-1 24:-1 #
0.054107312552241035 1:-0.33333299 2:-0.41176501 3:0 4:0.36263701 5:-1 6:1 7:-0.33333299 8:-0.33333299 9:1 10:-0.107143 11:1 12:-1 13:-1 14:1 15:-1 16:-1 17:1 18:1 19:-1 20:-1 21:-1 22:-1 23:-1 24:-1 #
0.054107312552241035 1:1 2:-0.5 3:1 4:0.37362599 5:1 6:1 7:0.33333299 8:1 9:1 10:-0.60714298 11:1 12:-1 13:-1 14:1 15:-1 16:1 17:-1 18:1 19:-1 20:-1 21:-1 22:-1 23:-1 24:-1 #
-0.054107312552241035 1:-0.33333299 2:-0.41176501 3:0.5 4:-0.252747 5:-0.5 6:0.5 7:0.33333299 8:1 9:0.33333299 10:-0.39285699 11:1 12:-1 13:-1 14:1 15:-1 16:-1 17:-1 18:1 19:-1 20:1 21:-1 22:-1 23:-1 24:-1 #
-0.054107312552241035 1:-1 2:-0.58823502 3:0 4:-0.78021997 5:-0.5 6:0.5 7:0.33333299 8:0.33333299 9:0.33333299 10:-0.60714298 11:1 12:-1 13:1 14:1 15:-1 16:1 17:-1 18:1 19:-1 20:-1 21:1 22:-1 23:-1 24:-1 #
-0.054107312552241035 1:1 2:0.64705902 3:0 4:0.120879 5:-1 6:1 7:0.33333299 8:1 9:-0.33333299 10:-0.178571 11:1 12:-1 13:-1 14:1 15:-1 16:1 17:-1 18:1 19:-1 20:-1 21:1 22:-1 23:-1 24:-1 #
0.054107312552241035 1:-0.33333299 2:0.29411799 3:0 4:-0.681319 5:-1 6:0.5 7:0.33333299 8:1 9:-1 10:-0.67857099 11:1 12:-0.33333299 13:-1 14:-1 15:-1 16:-1 17:-1 18:1 19:-1 20:-1 21:1 22:-1 23:-1 24:1 #
0.054107312552241035 1:-0.33333299 2:-0.235294 3:1 4:-0.098901004 5:-1 6:0.5 7:0.33333299 8:-0.33333299 9:-0.33333299 10:0.071428999 11:1 12:-1 13:-1 14:-1 15:-1 16:-1 17:-1 18:1 19:-1 20:-1 21:1 22:-1 23:-1 24:1 #
0.054107312552241035 1:-0.33333299 2:-0.67647099 3:0.5 4:-0.85714298 5:0.5 6:0 7:1 8:0.33333299 9:-0.33333299 10:0.5 11:0 12:-0.33333299 13:-1 14:-1 15:-1 16:-1 17:-1 18:1 19:-1 20:-1 21:1 22:-1 23:-1 24:1 #
0.054107312552241035 1:1 2:-0.58823502 3:1 4:-0.85714298 5:-1 6:0 7:0.33333299 8:-0.33333299 9:-0.33333299 10:-0.53571397 11:-1 12:-0.33333299 13:-1 14:-1 15:-1 16:1 17:-1 18:1 19:-1 20:-1 21:1 22:-1 23:-1 24:1 #
-0.054107312552241035 1:0.33333299 2:0.117647 3:-1 4:-0.32967001 5:-1 6:-0.5 7:-1 8:-1 9:-0.33333299 10:-0.5 11:1 12:-0.33333299 13:-1 14:-1 15:-1 16:-1 17:-1 18:1 19:-1 20:-1 21:1 22:-1 23:-1 24:1 #
-0.054107312552241035 1:1 2:0.29411799 3:-0.5 4:-0.62637401 5:-1 6:0 7:-0.33333299 8:-1 9:-1 10:-0.71428603 11:0 12:-1 13:-1 14:-1 15:-1 16:-1 17:-1 18:1 19:-1 20:-1 21:1 22:-1 23:-1 24:1 #
-0.041110741278868906 1:0.33333299 2:-0.76470602 3:-0.5 4:-0.97802198 5:0.5 6:0 7:-0.33333299 8:0.33333299 9:-1 10:-0.178571 11:1 12:-0.33333299 13:-1 14:-1 15:-1 16:-1 17:-1 18:1 19:-1 20:1 21:-1 22:-1 23:-1 24:1 #
-0.054107312552241035 1:1 2:-0.76470602 3:0 4:-0.78021997 5:-1 6:-0.5 7:-0.33333299 8:-0.33333299 9:0.33333299 10:-0.64285702 11:-1 12:-1 13:-1 14:-1 15:-1 16:-1 17:-1 18:1 19:-1 20:-1 21:1 22:-1 23:-1 24:1 #
0.054107312552241035 1:-1 2:-0.058823999 3:0 4:-0.80219799 5:1 6:1 7:0.33333299 8:1 9:1 10:-0.25 11:1 12:-1 13:-1 14:1 15:-1 16:-1 17:-1 18:1 19:-1 20:-1 21:1 22:-1 23:-1 24:-1 #
0.054107312552241035 1:-0.33333299 2:-0.76470602 3:0 4:-0.94505501 5:-1 6:0.5 7:1 8:0.33333299 9:0.33333299 10:-0.78571397 11:-1 12:-1 13:-1 14:-1 15:-1 16:1 17:-1 18:1 19:-1 20:-1 21:1 22:-1 23:1 24:-1 #
0.054107312552241035 1:0.33333299 2:-0.235294 3:0.5 4:-0.813187 5:-1 6:1 7:0.33333299 8:1 9:-1 10:0.67857099 11:1 12:-1 13:-1 14:1 15:-1 16:-1 17:-1 18:1 19:-1 20:-1 21:1 22:-1 23:-1 24:-1 #
-0.054107312552241035 1:-1 2:-0.941176 3:0 4:-0.94505501 5:-1 6:-0.5 7:0.33333299 8:1 9:-1 10:-0.214286 11:1 12:-1 13:1 14:1 15:-1 16:1 17:-1 18:1 19:-1 20:-1 21:1 22:-1 23:1 24:-1 #
-0.054107312552241035 1:-1 2:-0.941176 3:0 4:-0.868132 5:1 6:-1 7:-0.33333299 8:0.33333299 9:-0.33333299 10:1 11:1 12:-1 13:-1 14:1 15:-1 16:1 17:-1 18:1 19:-1 20:-1 21:1 22:-1 23:-1 24:-1 #
-0.054107312552241035 1:-1 2:-0.88235301 3:1 4:-0.94505501 5:-1 6:1 7:0.33333299 8:1 9:-1 10:0 11:1 12:-0.33333299 13:-1 14:-1 15:-1 16:1 17:-1 18:1 19:-1 20:-1 21:1 22:-1 23:1 24:-1 #
-0.054107312552241035 1:-1 2:-0.58823502 3:1 4:-0.43956 5:-1 6:1 7:0.33333299 8:1 9:1 10:-0.39285699 11:1 12:0.33333299 13:-1 14:1 15:-1 16:1 17:-1 18:1 19:-1 20:-1 21:-1 22:-1 23:-1 24:-1 #
-0.054107312552241035 1:1 2:-0.058823999 3:0 4:-0.021978 5:1 6:0 7:0.33333299 8:1 9:1 10:-0.42857099 11:1 12:-1 13:1 14:1 15:-1 16:-1 17:-1 18:1 19:-1 20:-1 21:-1 22:-1 23:1 24:-1 #
0.054107312552241035 1:1 2:-0.58823502 3:0.5 4:-0.82417601 5:-1 6:0.5 7:-0.33333299 8:-1 9:-1 10:-0.89285702 11:1 12:-1 13:-1 14:-1 15:-1 16:-1 17:-1 18:1 19:-1 20:-1 21:1 22:-1 23:-1 24:1 #
0.054107312552241035 1:1 2:-0.058823999 3:0.5 4:0.032967001 5:-1 6:-0.5 7:-1 8:-1 9:0.33333299 10:-0.67857099 11:1 12:-0.33333299 13:-1 14:-1 15:-1 16:-1 17:-1 18:1 19:-1 20:-1 21:1 22:-1 23:-1 24:1 #
0.054107312552241035 1:0.33333299 2:-0.76470602 3:-0.5 4:-0.95604402 5:-1 6:-0.5 7:-0.33333299 8:-1 9:-1 10:-0.75 11:1 12:-1 13:-1 14:-1 15:-1 16:-1 17:-1 18:1 19:-1 20:-1 21:1 22:1 23:-1 24:-1 #
0.054107312552241035 1:1 2:-0.58823502 3:0 4:-0.813187 5:-1 6:-0.5 7:-0.33333299 8:1 9:-1 10:-0.85714298 11:1 12:-1 13:-1 14:-1 15:-1 16:-1 17:-1 18:1 19:-1 20:-1 21:1 22:-1 23:-1 24:1 #
0.054107312552241035 1:1 2:-0.941176 3:0 4:-0.51648402 5:-1 6:-0.5 7:-0.33333299 8:1 9:-0.33333299 10:-0.53571397 11:1 12:-1 13:-1 14:-1 15:-1 16:-1 17:-1 18:1 19:-1 20:-1 21:1 22:-1 23:-1 24:1 #
0.054107312552241035 1:-0.33333299 2:-0.67647099 3:-0.5 4:-0.27472499 5:-0.5 6:-1 7:0.33333299 8:-0.33333299 9:-0.33333299 10:-0.464286 11:1 12:-1 13:1 14:1 15:-1 16:1 17:-1 18:1 19:-1 20:-1 21:1 22:-1 23:-1 24:-1 #
-0.027179251410595587 1:1 2:-0.67647099 3:-0.5 4:-0.84615397 5:-0.5 6:1 7:0.33333299 8:1 9:0.33333299 10:-0.464286 11:-1 12:-1 13:1 14:-1 15:-1 16:-1 17:-1 18:1 19:-1 20:-1 21:1 22:-1 23:1 24:-1 #
-0.054107312552241035 1:0.33333299 2:-0.058823999 3:0 4:-0.52747297 5:-1 6:1 7:0.33333299 8:-0.33333299 9:0.33333299 10:-0.57142901 11:1 12:-1 13:-1 14:-1 15:-1 16:-1 17:-1 18:1 19:-1 20:-1 21:1 22:-1 23:-1 24:1 #
-0.054107312552241035 1:1 2:0.64705902 3:0 4:0.087912001 5:-0.5 6:0.5 7:-0.33333299 8:1 9:-1 10:-0.92857099 11:1 12:-1 13:-1 14:1 15:-1 16:-1 17:-1 18:1 19:-1 20:-1 21:1 22:-1 23:-1 24:1 #
-0.054107312552241035 1:-0.33333299 2:-0.41176501 3:0.5 4:-0.76923102 5:1 6:-0.5 7:0.33333299 8:-0.33333299 9:-0.33333299 10:-0.64285702 11:-1 12:-1 13:-1 14:-1 15:-1 16:-1 17:-1 18:1 19:-1 20:-1 21:1 22:-1 23:1 24:-1 #
-0.054107312552241035 1:-1 2:-0.82352901 3:1 4:-0.91208798 5:-1 6:0.5 7:0.33333299 8:0.33333299 9:-0.33333299 10:0.071428999 11:1 12:-0.33333299 13:-1 14:1 15:-1 16:1 17:-1 18:-1 19:1 20:-1 21:1 22:-1 23:-1 24:1 #
0.054107312552241035 1:0.33333299 2:-0.82352901 3:0 4:-0.89011002 5:-0.5 6:1 7:-0.33333299 8:1 9:1 10:0.035714 11:1 12:-1 13:1 14:-1 15:-1 16:1 17:-1 18:1 19:-1 20:-1 21:-1 22:-1 23:1 24:-1 #
0.054107312552241035 1:-1 2:-0.41176501 3:0.5 4:-0.48351601 5:-1 6:0 7:0.33333299 8:1 9:1 10:0.214286 11:1 12:-0.33333299 13:1 14:-1 15:-1 16:1 17:-1 18:1 19:-1 20:-1 21:-1 22:-1 23:-1 24:1 #
0.054107312552241035 1:-1 2:0.29411799 3:1 4:-0.351648 5:-1 6:1 7:-0.33333299 8:1 9:1 10:0.39285699 11:0 12:-0.33333299 13:-1 14:-1 15:-1 16:-1 17:1 18:1 19:-1 20:-1 21:-1 22:-1 23:1 24:-1 #
-0.054107312552241035 1:-1 2:-0.41176501 3:1 4:-0.29670301 5:-1 6:-1 7:0.33333299 8:1 9:1 10:1 11:1 12:-0.33333299 13:-1 14:1 15:-1 16:-1 17:1 18:1 19:-1 20:-1 21:-1 22:-1 23:-1 24:-1 #
-0.054107312552241035 1:-0.33333299 2:0.64705902 3:0.5 4:-0.010989 5:1 6:0 7:0.33333299 8:-0.33333299 9:1 10:-0.71428603 11:1 12:-1 13:-1 14:-1 15:-1 16:-1 17:-1 18:1 19:-1 20:-1 21:-1 22:-1 23:-1 24:-1 #
-0.054107312552241035 1:-1 2:-0.76470602 3:0 4:-0.73626399 5:-1 6:-1 7:-0.33333299 8:1 9:1 10:0.285714 11:1 12:-1 13:-1 14:-1 15:-1 16:-1 17:-1 18:1 19:-1 20:-1 21:-1 22:-1 23:-1 24:-1 #
-0.054107312552241035 1:-1 2:-0.79411799 3:1 4:-0.59340698 5:-1 6:0 7:0.33333299 8:-0.33333299 9:-1 10:-0.39285699 11:1 12:-0.33333299 13:1 14:-1 15:-1 16:1 17:-1 18:1 19:-1 20:1 21:-1 22:-1 23:-1 24:1 #
0.054107312552241035 1:1 2:-0.41176501 3:0 4:-0.75824201 5:0 6:1 7:0.33333299 8:-0.33333299 9:0.33333299 10:-0.42857099 11:-1 12:-0.33333299 13:-1 14:1 15:-1 16:-1 17:-1 18:1 19:-1 20:-1 21:1 22:-1 23:-1 24:1 #
0.054107312552241035 1:-0.33333299 2:-0.76470602 3:0 4:-0.71428603 5:1 6:1 7:-0.33333299 8:-0.33333299 9:-0.33333299 10:-0.78571397 11:-1 12:-1 13:-1 14:1 15:-1 16:-1 17:-1 18:1 19:-1 20:-1 21:1 22:-1 23:-1 24:1 #
-0.054107312552241035 1:-0.33333299 2:-0.058823999 3:-0.5 4:-0.58241802 5:1 6:-0.5 7:-0.33333299 8:-0.33333299 9:1 10:-0.64285702 11:-1 12:-1 13:-1 14:-1 15:-1 16:-1 17:-1 18:1 19:-1 20:-1 21:1 22:1 23:-1 24:-1 #
0.032137844045519739 1:-0.33333299 2:0.29411799 3:-0.5 4:-0.318681 5:-1 6:1 7:-0.33333299 8:0.33333299 9:1 10:0.42857099 11:1 12:-1 13:-1 14:-1 15:-1 16:-1 17:-1 18:1 19:-1 20:1 21:-1 22:-1 23:-1 24:1 #
-0.054107312552241035 1:-1 2:-0.5 3:0 4:-0.64835203 5:0.5 6:-0.5 7:-0.33333299 8:-0.33333299 9:0.33333299 10:-0.64285702 11:-1 12:-1 13:-1 14:-1 15:-1 16:-1 17:-1 18:1 19:-1 20:-1 21:1 22:-1 23:-1 24:1 #
0.054107312552241035 1:-1 2:-0.41176501 3:0 4:-0.89011002 5:-1 6:-0.5 7:-0.33333299 8:1 9:-0.33333299 10:-0.82142901 11:1 12:-1 13:-1 14:-1 15:-1 16:1 17:-1 18:1 19:-1 20:1 21:-1 22:-1 23:-1 24:1 #
0.054107312552241035 1:-0.33333299 2:-0.58823502 3:1 4:-0.813187 5:-1 6:-0.5 7:0.33333299 8:-0.33333299 9:-1 10:-0.57142901 11:1 12:-0.33333299 13:-1 14:-1 15:-1 16:-1 17:-1 18:1 19:-1 20:-1 21:1 22:-1 23:1 24:-1 #
0.054107312552241035 1:-0.33333299 2:0.205882 3:1 4:-0.50549501 5:-1 6:-0.5 7:0.33333299 8:-0.33333299 9:-0.33333299 10:-0.78571397 11:1 12:-0.33333299 13:-1 14:-1 15:-1 16:-1 17:-1 18:1 19:-1 20:-1 21:1 22:-1 23:1 24:-1 #
0.054107312552241035 1:-0.33333299 2:-0.76470602 3:0 4:-0.813187 5:-1 6:0 7:0.33333299 8:-0.33333299 9:-0.33333299 10:-0.35714301 11:1 12:-1 13:-1 14:-1 15:-1 16:-1 17:-1 18:1 19:-1 20:-1 21:1 22:-1 23:1 24:-1 #
0.054107312552241035 1:-1 2:-0.58823502 3:1 4:-0.89011002 5:-1 6:-1 7:-0.33333299 8:1 9:1 10:0.285714 11:1 12:0.33333299 13:1 14:-1 15:-1 16:-1 17:-1 18:1 19:-1 20:-1 21:-1 22:1 23:-1 24:-1 #
0.054107312552241035 1:-0.33333299 2:-0.32352901 3:1 4:-0.747253 5:0 6:0 7:0.33333299 8:-0.33333299 9:-0.33333299 10:-0.85714298 11:1 12:-0.33333299 13:-1 14:-1 15:-1 16:-1 17:-1 18:1 19:-1 20:-1 21:1 22:-1 23:1 24:-1 #
-0.054107312552241035 1:-1 2:-0.76470602 3:0 4:-0.62637401 5:-1 6:0 7:0.33333299 8:-0.33333299 9:-0.33333299 10:-0.64285702 11:1 12:-1 13:1 14:-1 15:-1 16:-1 17:-1 18:-1 19:1 20:-1 21:1 22:-1 23:1 24:-1 #
-0.054107312552241035 1:-0.33333299 2:-0.85294098 3:0 4:-0.96703303 5:-1 6:0 7:0.33333299 8:0.33333299 9:-1 10:-0.82142901 11:1 12:-1 13:-1 14:-1 15:-1 16:-1 17:-1 18:1 19:-1 20:-1 21:1 22:-1 23:-1 24:1 #
-0.054107312552241035 1:-0.33333299 2:-0.76470602 3:1 4:-0.62637401 5:-1 6:1 7:0.33333299 8:1 9:0.33333299 10:-0.67857099 11:1 12:0.33333299 13:-1 14:1 15:-1 16:-1 17:-1 18:1 19:-1 20:1 21:-1 22:-1 23:-1 24:1 #
-0.054107312552241035 1:0.33333299 2:-0.58823502 3:0 4:-0.69230801 5:-1 6:-0.5 7:-0.33333299 8:-1 9:-0.33333299 10:-0.071428999 11:0 12:-1 13:-1 14:-1 15:-1 16:-1 17:-1 18:1 19:-1 20:-1 21:1 22:-1 23:1 24:-1 #
-0.054107312552241035 1:-1 2:-0.76470602 3:0 4:-0.94505501 5:-1 6:0 7:0.33333299 8:0.33333299 9:-0.33333299 10:-0.32142901 11:1 12:-1 13:1 14:-1 15:-1 16:-1 17:-1 18:-1 19:-1 20:-1 21:1 22:-1 23:1 24:-1 #
0.054107312552241035 1:-1 2:-0.41176501 3:0 4:-0.69230801 5:1 6:0 7:1 8:1 9:0.33333299 10:-0.96428603 11:1 12:-1 13:-1 14:-1 15:-1 16:-1 17:-1 18:1 19:-1 20:-1 21:1 22:-1 23:-1 24:1 #
0.054107312552241035 1:-1 2:-0.41176501 3:0 4:-0.868132 5:1 6:0 7:-0.33333299 8:-0.33333299 9:-0.33333299 10:-0.42857099 11:1 12:-1 13:-1 14:-1 15:-1 16:1 17:-1 18:1 19:-1 20:-1 21:1 22:-1 23:-1 24:1 #
0.054107312552241035 1:-0.33333299 2:-0.58823502 3:0 4:-0.91208798 5:1 6:0 7:-0.33333299 8:-0.33333299 9:-0.33333299 10:-0.5 11:1 12:-1 13:-1 14:-1 15:-1 16:1 17:-1 18:1 19:-1 20:-1 21:1 22:-1 23:-1 24:1 #
0.054107312552241035 1:-1 2:-0.41176501 3:-0.5 4:-0.868132 5:1 6:1 7:0.33333299 8:0.33333299 9:0.33333299 10:-0.25 11:0 12:-1 13:-1 14:1 15:-1 16:-1 17:-1 18:1 19:-1 20:-1 21:1 22:-1 23:-1 24:-1 #
0.054107312552241035 1:-1 2:-0.58823502 3:0 4:-0.813187 5:-1 6:0 7:-0.33333299 8:1 9:0.33333299 10:-0.78571397 11:-1 12:-0.33333299 13:-1 14:-1 15:-1 16:-1 17:-1 18:1 19:-1 20:1 21:-1 22:-1 23:-1 24:1 #
-0.054107312552241035 1:-0.33333299 2:0.29411799 3:-1 4:-0.098901004 5:0 6:-0.5 7:-0.33333299 8:-1 9:0.33333299 10:-0.60714298 11:1 12:-0.33333299 13:-1 14:-1 15:-1 16:1 17:-1 18:1 19:-1 20:-1 21:1 22:-1 23:-1 24:1 #
0.054107312552241035 1:-1 2:0.117647 3:0 4:-0.58241802 5:-1 6:-0.5 7:0.33333299 8:0.33333299 9:0.33333299 10:-0.464286 11:1 12:-1 13:-1 14:-1 15:-1 16:-1 17:-1 18:1 19:-1 20:-1 21:1 22:-1 23:-1 24:1 #
-0.054107312552241035 1:-1 2:-0.52941197 3:0 4:-0.78021997 5:1 6:0.5 7:0.33333299 8:1 9:0.33333299 10:-0.285714 11:1 12:-1 13:-1 14:1 15:-1 16:-1 17:-1 18:1 19:-1 20:-1 21:1 22:-1 23:-1 24:1 #
0.054107312552241035 1:0.33333299 2:-0.85294098 3:0 4:-0.94505501 5:-1 6:0 7:-0.33333299 8:-0.33333299 9:-1 10:-0.67857099 11:1 12:-1 13:-1 14:-1 15:-1 16:-1 17:-1 18:1 19:-1 20:-1 21:1 22:-1 23:1 24:-1 #
0.054107312552241035 1:-1 2:-0.76470602 3:0 4:-0.94505501 5:-1 6:1 7:0.33333299 8:1 9:-1 10:0.35714301 11:0 12:-1 13:-1 14:-1 15:-1 16:-1 17:-1 18:1 19:-1 20:-1 21:1 22:-1 23:1 24:-1 #
0.054107312552241035 1:-0.33333299 2:-0.41176501 3:-0.5 4:-0.82417601 5:-1 6:0.5 7:-0.33333299 8:1 9:1 10:-0.464286 11:-1 12:-1 13:-1 14:-1 15:-1 16:-1 17:-1 18:1 19:-1 20:-1 21:-1 22:-1 23:1 24:-1 #
-0.054107312552241035 1:-1 2:-0.67647099 3:0.5 4:-0.62637401 5:-1 6:1 7:-0.33333299 8:1 9:-0.33333299 10:-0.71428603 11:1 12:-0.33333299 13:-1 14:-1 15:-1 16:-1 17:-1 18:1 19:-1 20:-1 21:1 22:-1 23:1 24:-1 #
-0.054107312552241035 1:-0.33333299 2:-0.82352901 3:-0.5 4:-0.91208798 5:-1 6:0 7:0.33333299 8:1 9:-1 10:-0.85714298 11:0 12:-1 13:-1 14:-1 15:-1 16:-1 17:-1 18:1 19:-1 20:-1 21:1 22:-1 23:1 24:-1 #
-0.054107312552241035 1:-0.33333299 2:-0.85294098 3:0 4:-0.90109903 5:-1 6:1 7:0.33333299 8:1 9:0.33333299 10:-0.71428603 11:1 12:-0.33333299 13:-1 14:-1 15:-1 16:-1 17:-1 18:1 19:-1 20:-1 21:1 22:-1 23:1 24:-1 #
-0.054107312552241035 1:-0.33333299 2:0.64705902 3:0.5 4:-0.208791 5:1 6:0 7:0.33333299 8:-1 9:-1 10:-0.71428603 11:1 12:-1 13:-1 14:-1 15:-1 16:-1 17:-1 18:1 19:-1 20:-1 21:1 22:-1 23:1 24:-1 #
0.054107312552241035 1:-1 2:-0.41176501 3:-0.5 4:-0.65934098 5:0 6:-0.5 7:0.33333299 8:1 9:1 10:-0.60714298 11:1 12:-1 13:1 14:1 15:-1 16:-1 17:-1 18:1 19:-1 20:-1 21:-1 22:-1 23:-1 24:1 #
0.054107312552241035 1:1 2:-0.058823999 3:0 4:0.186813 5:-1 6:-1 7:-0.33333299 8:-0.33333299 9:0.33333299 10:-0.75 11:1 12:-0.33333299 13:-1 14:1 15:-1 16:-1 17:-1 18:1 19:-1 20:-1 21:1 22:-1 23:-1 24:-1 #
-0.054107312552241035 1:1 2:0.29411799 3:1 4:-0.351648 5:-1 6:0 7:0.33333299 8:0.33333299 9:1 10:-0.57142901 11:-1 12:-1 13:-1 14:1 15:-1 16:-1 17:-1 18:1 19:-1 20:-1 21:-1 22:-1 23:-1 24:1 #
-0.054107312552241035 1:-1 2:-0.941176 3:1 4:-0.813187 5:-1 6:-1 7:0.33333299 8:1 9:1 10:-0.39285699 11:1 12:0.33333299 13:-1 14:1 15:-1 16:-1 17:-1 18:1 19:-1 20:-1 21:-1 22:-1 23:-1 24:-1 #
-0.033393298979766672 1:-0.33333299 2:-0.79411799 3:0.5 4:-0.49450499 5:-1 6:0.5 7:0.33333299 8:1 9:-0.33333299 10:0.142857 11:1 12:-1 13:-1 14:-1 15:-1 16:-1 17:-1 18:1 19:-1 20:-1 21:1 22:-1 23:-1 24:1 #
-0.054107312552241035 1:-1 2:-0.41176501 3:0 4:-0.681319 5:-1 6:-0.5 7:0.33333299 8:-1 9:1 10:-0.89285702 11:-1 12:-1 13:-1 14:-1 15:-1 16:-1 17:-1 18:1 19:-1 20:-1 21:-1 22:-1 23:-1 24:1 #
0.054107312552241035 1:-0.33333299 2:-0.76470602 3:0 4:-0.934066 5:0 6:0 7:0.33333299 8:0.33333299 9:-1 10:0.67857099 11:1 12:-1 13:-1 14:-1 15:-1 16:-1 17:-1 18:1 19:-1 20:-1 21:1 22:-1 23:1 24:-1 #
0.054107312552241035 1:-0.33333299 2:-0.058823999 3:0 4:-0.72527498 5:-0.5 6:0 7:-0.33333299 8:1 9:1 10:0.107143 11:1 12:-1 13:-1 14:-1 15:-1 16:-1 17:-1 18:-1 19:1 20:-1 21:-1 22:-1 23:-1 24:1 #
-0.054107312552241035 1:-0.33333299 2:-0.67647099 3:0 4:-0.73626399 5:-0.5 6:0 7:-0.33333299 8:-0.33333299 9:-1 10:-0.78571397 11:1 12:-1 13:-1 14:-1 15:-1 16:-1 17:-1 18:1 19:-1 20:-1 21:1 22:-1 23:1 24:-1 #
0.054107312552241035 1:1 2:0.29411799 3:1 4:0.087912001 5:0 6:0 7:0.33333299 8:-0.33333299 9:1 10:-0.107143 11:-1 12:-1 13:-1 14:-1 15:-1 16:1 17:-1 18:1 19:-1 20:-1 21:-1 22:-1 23:-1 24:1 #
0.054107312552241035 1:-1 2:-0.14705899 3:1 4:-0.54945099 5:0 6:0 7:-0.33333299 8:1 9:0.33333299 10:-0.85714298 11:1 12:-0.33333299 13:-1 14:-1 15:-1 16:-1 17:-1 18:1 19:-1 20:-1 21:1 22:-1 23:-1 24:1 #
-0.054107312552241035 1:1 2:-0.41176501 3:0.5 4:-0.80219799 5:-1 6:1 7:0.33333299 8:1 9:1 10:0.464286 11:1 12:-0.33333299 13:-1 14:1 15:-1 16:1 17:-1 18:1 19:-1 20:-1 21:-1 22:-1 23:-1 24:1 #
-0.043609606318503288 1:1 2:-0.058823999 3:1 4:-0.29670301 5:-1 6:1 7:0.33333299 8:1 9:0.33333299 10:-0.464286 11:1 12:-0.33333299 13:-1 14:1 15:-1 16:1 17:-1 18:1 19:-1 20:-1 21:1 22:-1 23:-1 24:-1 #
0.054107312552241035 1:-0.33333299 2:-0.058823999 3:0.5 4:-0.52747297 5:-1 6:0 7:-1 8:-0.33333299 9:-1 10:-0.60714298 11:0 12:-0.33333299 13:-1 14:1 15:-1 16:-1 17:-1 18:1 19:-1 20:-1 21:1 22:-1 23:-1 24:-1 #
0.054107312552241035 1:-0.33333299 2:-0.41176501 3:1 4:-0.50549501 5:-1 6:-0.5 7:-0.33333299 8:1 9:0.33333299 10:-0.78571397 11:-1 12:-1 13:-1 14:-1 15:-1 16:-1 17:-1 18:1 19:-1 20:-1 21:1 22:-1 23:1 24:-1 #
0.054107312552241035 1:-0.33333299 2:-0.235294 3:0.5 4:-0.813187 5:-0.5 6:-0.5 7:0.33333299 8:0.33333299 9:1 10:-0.60714298 11:0 12:-0.33333299 13:-1 14:-1 15:-1 16:-1 17:-1 18:1 19:-1 20:-1 21:1 22:-1 23:-1 24:-1 #
-0.054107312552241035 1:-1 2:-0.76470602 3:0 4:-0.85714298 5:-1 6:0 7:-0.33333299 8:-1 9:0.33333299 10:-0.85714298 11:-1 12:-1 13:-1 14:-1 15:-1 16:-1 17:-1 18:1 19:-1 20:-1 21:1 22:-1 23:-1 24:1 #
-0.054107312552241035 1:0.33333299 2:-0.941176 3:0.5 4:-0.94505501 5:-1 6:-0.5 7:-0.33333299 8:-1 9:-0.33333299 10:-0.64285702 11:-1 12:-1 13:-1 14:-1 15:-1 16:-1 17:-1 18:1 19:-1 20:-1 21:1 22:-1 23:-1 24:1 #
-0.054107312552241035 1:-0.33333299 2:-0.235294 3:0.5 4:-0.747253 5:-0.5 6:1 7:0.33333299 8:-0.33333299 9:-0.33333299 10:-0.214286 11:0 12:-0.33333299 13:-1 14:-1 15:-1 16:-1 17:-1 18:1 19:-1 20:-1 21:1 22:-1 23:-1 24:1 #
0.054107312552241035 1:1 2:-0.58823502 3:1 4:-0.71428603 5:-1 6:0.5 7:0.33333299 8:-0.33333299 9:-0.33333299 10:-0.57142901 11:-1 12:-0.33333299 13:-1 14:-1 15:-1 16:1 17:-1 18:1 19:-1 20:-1 21:1 22:-1 23:-1 24:1 #
0.054107312552241035 1:-0.33333299 2:0.29411799 3:-1 4:-0.60439599 5:-0.5 6:0.5 7:0.33333299 8:1 9:1 10:-0.464286 11:1 12:-1 13:1 14:-1 15:-1 16:-1 17:-1 18:1 19:-1 20:-1 21:-1 22:-1 23:1 24:-1 #
0.054107312552241035 1:-0.33333299 2:-0.67647099 3:0 4:-0.934066 5:-1 6:1 7:0.33333299 8:0.33333299 9:0.33333299 10:-0.35714301 11:1 12:-1 13:1 14:-1 15:-1 16:-1 17:-1 18:1 19:-1 20:-1 21:1 22:-1 23:-1 24:1 #
0.054107312552241035 1:-1 2:-0.058823999 3:0 4:-0.64835203 5:-1 6:1 7:0.33333299 8:-0.33333299 9:0.33333299 10:-0.178571 11:1 12:-1 13:1 14:-1 15:-1 16:-1 17:-1 18:1 19:-1 20:-1 21:1 22:-1 23:-1 24:1 #
0.054107312552241035 1:-1 2:0.117647 3:0.5 4:-0.53846198 5:-1 6:0.5 7:0.33333299 8:-0.33333299 9:-0.33333299 10:-0.75 11:-1 12:-0.33333299 13:1 14:1 15:-1 16:-1 17:-1 18:1 19:-1 20:-1 21:1 22:-1 23:-1 24:1 #
-0.054107312552241035 1:-1 2:-0.941176 3:0 4:-0.73626399 5:0 6:0 7:0.33333299 8:0.33333299 9:-1 10:-0.107143 11:1 12:-1 13:1 14:-1 15:-1 16:-1 17:-1 18:1 19:-1 20:1 21:-1 22:-1 23:-1 24:1 #
-0.054107312552241035 1:-0.33333299 2:0.205882 3:1 4:-0.51648402 5:-0.5 6:-1 7:0.33333299 8:1 9:0.33333299 10:-0.71428603 11:1 12:-1 13:-1 14:-1 15:-1 16:-1 17:1 18:1 19:-1 20:-1 21:1 22:-1 23:-1 24:1 #
-0.054107312552241035 1:-0.33333299 2:-0.235294 3:0 4:-0.69230801 5:1 6:1 7:-0.33333299 8:1 9:0.33333299 10:-0.78571397 11:1 12:-1 13:-1 14:-1 15:-1 16:-1 17:-1 18:1 19:-1 20:-1 21:1 22:-1 23:-1 24:1 #
0.054107312552241035 1:-1 2:-0.76470602 3:-0.5 4:-0.79120898 5:-1 6:0 7:-1 8:-1 9:1 10:-0.64285702 11:1 12:-1 13:-1 14:-1 15:-1 16:-1 17:-1 18:1 19:-1 20:-1 21:-1 22:-1 23:-1 24:1 #
0.054107312552241035 1:-0.33333299 2:0.29411799 3:0 4:0.186813 5:0.5 6:0.5 7:0.33333299 8:-0.33333299 9:1 10:-0.71428603 11:-1 12:-0.33333299 13:-1 14:1 15:-1 16:-1 17:-1 18:-1 19:1 20:-1 21:1 22:-1 23:-1 24:1 #
-0.020893317767489733 1:1 2:0.29411799 3:0.5 4:-0.23076899 5:1 6:1 7:0.33333299 8:0.33333299 9:0.33333299 10:-0.53571397 11:-1 12:-0.33333299 13:1 14:-1 15:-1 16:-1 17:-1 18:1 19:-1 20:-1 21:1 22:-1 23:-1 24:1 #
0.054107312552241035 1:-1 2:-0.41176501 3:0 4:-0.75824201 5:-1 6:-0.5 7:-0.33333299 8:1 9:-1 10:-0.42857099 11:1 12:-1 13:-1 14:1 15:-1 16:-1 17:-1 18:1 19:-1 20:-1 21:1 22:-1 23:-1 24:1 #
-0.054107312552241035 1:-1 2:-0.058823999 3:1 4:-0.42857099 5:-1 6:0 7:0.33333299 8:-0.33333299 9:-0.33333299 10:-0.67857099 11:1 12:-0.33333299 13:-1 14:-1 15:-1 16:-1 17:-1 18:-1 19:-1 20:-1 21:1 22:-1 23:-1 24:1 #
-0.054107312552241035 1:-0.33333299 2:-0.941176 3:0.5 4:-0.868132 5:-0.5 6:1 7:-1 8:-0.33333299 9:0.33333299 10:-0.57142901 11:-1 12:-0.33333299 13:1 14:-1 15:-1 16:-1 17:-1 18:1 19:-1 20:-1 21:1 22:-1 23:-1 24:1 #
0.054107312552241035 1:-1 2:0.29411799 3:0 4:-0.252747 5:-1 6:0.5 7:1 8:-1 9:-1 10:-0.464286 11:1 12:-0.33333299 13:-1 14:1 15:-1 16:-1 17:-1 18:-1 19:-1 20:-1 21:1 22:-1 23:-1 24:1 #
0.054107312552241035 1:-1 2:-0.41176501 3:0 4:-0.49450499 5:-1 6:0.5 7:0.33333299 8:0.33333299 9:-0.33333299 10:-0.57142901 11:1 12:-1 13:-1 14:1 15:-1 16:1 17:-1 18:-1 19:1 20:-1 21:1 22:-1 23:-1 24:1 #
0.054107312552241035 1:-1 2:-0.41176501 3:0 4:-0.76923102 5:-1 6:1 7:0.33333299 8:-1 9:-1 10:-0.071428999 11:1 12:-1 13:-1 14:-1 15:-1 16:1 17:-1 18:-1 19:1 20:-1 21:1 22:-1 23:-1 24:1 #
0.054107312552241035 1:-1 2:-0.76470602 3:1 4:-0.63736302 5:-1 6:0 7:-0.33333299 8:-0.33333299 9:-1 10:-0.64285702 11:1 12:-0.33333299 13:-1 14:-1 15:-1 16:1 17:-1 18:-1 19:1 20:-1 21:1 22:-1 23:-1 24:1 #
0.054107312552241035 1:-1 2:-0.41176501 3:-0.5 4:-0.67032999 5:-1 6:0 7:0.33333299 8:-0.33333299 9:-0.33333299 10:-0.57142901 11:1 12:-1 13:-1 14:1 15:-1 16:-1 17:-1 18:1 19:-1 20:1 21:-1 22:-1 23:-1 24:1 #
-0.054107312552241035 1:-1 2:-0.76470602 3:1 4:-0.79120898 5:-1 6:0 7:0.33333299 8:-0.33333299 9:-1 10:-0.285714 11:1 12:-0.33333299 13:1 14:-1 15:1 16:1 17:-1 18:1 19:-1 20:1 21:-1 22:-1 23:1 24:-1 #
-0.054107312552241035 1:-1 2:-0.76470602 3:0 4:-0.90109903 5:-1 6:0 7:0.33333299 8:-0.33333299 9:-1 10:-0.96428603 11:1 12:-1 13:1 14:1 15:-1 16:-1 17:-1 18:1 19:-1 20:1 21:-1 22:-1 23:-1 24:-1 #
0.054107312552241035 1:-1 2:-0.76470602 3:-0.5 4:-0.94505501 5:-1 6:-0.5 7:0.33333299 8:-0.33333299 9:0.33333299 10:-0.035714 11:-1 12:-0.33333299 13:-1 14:1 15:-1 16:1 17:-1 18:1 19:-1 20:-1 21:1 22:-1 23:-1 24:1 #
0.054107312552241035 1:-1 2:-0.41176501 3:-0.5 4:-0.85714298 5:-1 6:0.5 7:0.33333299 8:1 9:0.33333299 10:-0.82142901 11:-1 12:-1 13:-1 14:-1 15:-1 16:-1 17:-1 18:-1 19:-1 20:1 21:-1 22:-1 23:1 24:-1 #
0.054107312552241035 1:1 2:0.29411799 3:0 4:-0.49450499 5:-1 6:-1 7:0.33333299 8:-0.33333299 9:0.33333299 10:-0.5 11:-1 12:-1 13:-1 14:1 15:-1 16:-1 17:-1 18:1 19:-1 20:1 21:-1 22:-1 23:-1 24:-1 #
0.054107312552241035 1:-0.33333299 2:-0.58823502 3:1 4:-0.89011002 5:-1 6:0 7:1 8:-0.33333299 9:0.33333299 10:-0.5 11:1 12:-1 13:-1 14:-1 15:-1 16:-1 17:-1 18:1 19:-1 20:-1 21:1 22:-1 23:-1 24:1 #
0.054107312552241035 1:0.33333299 2:-0.85294098 3:-1 4:-0.87912101 5:-1 6:-0.5 7:0.33333299 8:-0.33333299 9:0.33333299 10:-0.464286 11:1 12:-0.33333299 13:-1 14:1 15:-1 16:-1 17:-1 18:1 19:-1 20:-1 21:1 22:-1 23:-1 24:-1 #
-0.054107312552241035 1:-1 2:-0.58823502 3:-1 4:-0.681319 5:-1 6:0.5 7:0.33333299 8:-1 9:-0.33333299 10:-0.57142901 11:-1 12:-1 13:-1 14:1 15:-1 16:-1 17:-1 18:1 19:-1 20:-1 21:1 22:-1 23:-1 24:1 #
-0.054107312552241035 1:-1 2:-0.235294 3:-1 4:-0.51648402 5:-1 6:0 7:-1 8:-0.33333299 9:-1 10:-0.53571397 11:1 12:-0.33333299 13:-1 14:-1 15:-1 16:-1 17:-1 18:-1 19:-1 20:-1 21:1 22:-1 23:-1 24:1 #
-0.054107312552241035 1:-0.33333299 2:-0.235294 3:-1 4:-0.56044 5:-1 6:0 7:-0.33333299 8:-1 9:0.33333299 10:-0.67857099 11:1 12:-0.33333299 13:-1 14:-1 15:-1 16:-1 17:-1 18:1 19:-1 20:-1 21:1 22:-1 23:-1 24:1 #
0.054107312552241035 1:-1 2:-0.76470602 3:0 4:-0.87912101 5:-1 6:-0.5 7:-0.33333299 8:-1 9:-1 10:-0.35714301 11:1 12:-1 13:-1 14:-1 15:-1 16:1 17:-1 18:1 19:-1 20:-1 21:1 22:-1 23:1 24:-1 #
0.054107312552241035 1:-1 2:-0.85294098 3:0 4:-0.94505501 5:-1 6:0 7:0.33333299 8:0.33333299 9:0.33333299 10:-0.67857099 11:1 12:-1 13:-1 14:-1 15:-1 16:1 17:-1 18:1 19:-1 20:-1 21:1 22:-1 23:1 24:-1 #
0.054107312552241035 1:-0.33333299 2:-0.41176501 3:0 4:-0.868132 5:-1 6:-0.5 7:-0.33333299 8:1 9:0.33333299 10:-0.78571397 11:1 12:-1 13:-1 14:1 15:-1 16:1 17:-1 18:1 19:-1 20:-1 21:1 22:-1 23:1 24:-1 #
0.054107312552241035 1:-1 2:-0.41176501 3:0 4:-0.87912101 5:-0.5 6:0 7:-0.33333299 8:-0.33333299 9:0.33333299 10:-0.53571397 11:1 12:-1 13:-1 14:-1 15:-1 16:-1 17:-1 18:1 19:-1 20:-1 21:1 22:-1 23:1 24:-1 #
0.054107312552241035 1:-1 2:-0.58823502 3:0 4:-0.80219799 5:-1 6:0 7:-0.33333299 8:1 9:-1 10:-0.96428603 11:-1 12:-1 13:-1 14:-1 15:-1 16:-1 17:-1 18:1 19:-1 20:1 21:-1 22:-1 23:-1 24:1 #
-0.054107312552241035 1:-1 2:-0.67647099 3:0 4:-0.747253 5:-1 6:-1 7:-0.33333299 8:1 9:0.33333299 10:-0.85714298 11:1 12:-1 13:-1 14:-1 15:-1 16:1 17:-1 18:1 19:-1 20:1 21:-1 22:-1 23:-1 24:1 #
0.054107312552241035 1:-0.33333299 2:-0.85294098 3:0 4:-0.92307699 5:-1 6:0 7:-0.33333299 8:-1 9:-0.33333299 10:-0.60714298 11:1 12:-1 13:-1 14:-1 15:-1 16:-1 17:-1 18:1 19:-1 20:-1 21:1 22:-1 23:-1 24:1 #
-0.054107312552241035 1:-1 2:-0.41176501 3:0 4:-0.29670301 5:-1 6:0 7:1 8:-0.33333299 9:0.33333299 10:-0.92857099 11:0 12:-1 13:-1 14:-1 15:-1 16:-1 17:-1 18:1 19:-1 20:-1 21:1 22:-1 23:1 24:-1 #
0.054107312552241035 1:-1 2:-0.58823502 3:1 4:-0.58241802 5:-1 6:1 7:-0.33333299 8:1 9:-1 10:-0.5 11:-1 12:0.33333299 13:-1 14:1 15:-1 16:1 17:-1 18:1 19:-1 20:1 21:-1 22:-1 23:-1 24:1 #
-0.054107312552241035 1:-1 2:-0.67647099 3:0 4:-0.83516502 5:-1 6:-0.5 7:0.33333299 8:0.33333299 9:-1 10:-0.39285699 11:1 12:-1 13:-1 14:-1 15:-1 16:1 17:-1 18:1 19:-1 20:-1 21:1 22:-1 23:-1 24:1 #
0.054107312552241035 1:-1 2:-0.76470602 3:0 4:-0.94505501 5:-0.5 6:0.5 7:1 8:-1 9:-0.33333299 10:-0.96428603 11:1 12:-1 13:-1 14:-1 15:-1 16:-1 17:-1 18:1 19:-1 20:-1 21:1 22:-1 23:-1 24:1 #
-0.054107312552241035 1:-1 2:-0.67647099 3:0 4:-0.934066 5:-1 6:0 7:-0.33333299 8:1 9:-0.33333299 10:-0.89285702 11:1 12:-1 13:-1 14:-1 15:-1 16:-1 17:-1 18:1 19:-1 20:-1 21:1 22:-1 23:1 24:-1 #
-0.054107312552241035 1:-1 2:-0.76470602 3:0 4:-0.78021997 5:-1 6:0 7:0.33333299 8:0.33333299 9:-0.33333299 10:-0.82142901 11:1 12:-1 13:-1 14:-1 15:-1 16:-1 17:-1 18:1 19:-1 20:-1 21:1 22:-1 23:1 24:-1 #
-0.054107312552241035 1:-1 2:-0.058823999 3:0 4:-0.58241802 5:-1 6:-1 7:0.33333299 8:0.33333299 9:-0.33333299 10:-0.60714298 11:1 12:-1 13:-1 14:1 15:-1 16:-1 17:-1 18:1 19:-1 20:-1 21:1 22:-1 23:-1 24:-1 #
-0.054107312552241035 1:-1 2:-0.76470602 3:0 4:-0.94505501 5:-1 6:0 7:1 8:-0.33333299 9:-1 10:-0.25 11:1 12:-1 13:-1 14:-1 15:-1 16:-1 17:-1 18:1 19:-1 20:-1 21:1 22:-1 23:1 24:-1 #
-0.054107312552241035 1:-1 2:-0.941176 3:0 4:-0.868132 5:-1 6:0 7:0.33333299 8:-0.33333299 9:-1 10:-0.39285699 11:-1 12:-1 13:-1 14:1 15:-1 16:-1 17:-1 18:1 19:-1 20:-1 21:1 22:-1 23:1 24:-1 #
0.054107312552241035 1:-0.33333299 2:-0.76470602 3:0 4:-0.87912101 5:-1 6:-0.5 7:0.33333299 8:-1 9:0.33333299 10:-0.89285702 11:0 12:-1 13:-1 14:-1 15:-1 16:-1 17:-1 18:1 19:-1 20:-1 21:1 22:-1 23:-1 24:1 #
0.054107312552241035 1:-0.33333299 2:-0.76470602 3:0 4:-0.95604402 5:-1 6:0 7:0.33333299 8:-0.33333299 9:0.33333299 10:-0.60714298 11:1 12:-1 13:-1 14:-1 15:-1 16:-1 17:-1 18:1 19:-1 20:-1 21:1 22:-1 23:-1 24:1 #
0.054107312552241035 1:-0.33333299 2:-0.235294 3:0 4:-0.78021997 5:-1 6:0 7:-0.33333299 8:-0.33333299 9:1 10:-0.82142901 11:-1 12:-1 13:-1 14:-1 15:-1 16:1 17:-1 18:-1 19:-1 20:-1 21:1 22:-1 23:-1 24:1 #
0.054107312552241035 1:-1 2:-0.58823502 3:0 4:-0.934066 5:-1 6:-1 7:-0.33333299 8:-1 9:-1 10:-0.71428603 11:1 12:-1 13:-1 14:-1 15:-1 16:-1 17:-1 18:1 19:-1 20:-1 21:1 22:1 23:-1 24:-1 #
-0.054107312552241035 1:-1 2:-0.58823502 3:0 4:-0.75824201 5:-1 6:-0.5 7:-0.33333299 8:-1 9:0.33333299 10:-0.71428603 11:0 12:-1 13:-1 14:-1 15:-1 16:-1 17:-1 18:1 19:-1 20:-1 21:1 22:-1 23:-1 24:1 #
-0.054107312552241035 1:-0.33333299 2:-0.76470602 3:0 4:-0.351648 5:-1 6:0.5 7:0.33333299 8:-0.33333299 9:0.33333299 10:-0.53571397 11:1 12:-1 13:-1 14:-1 15:-1 16:1 17:-1 18:1 19:-1 20:-1 21:1 22:-1 23:-1 24:1 #
-0.054107312552241035 1:-1 2:-0.76470602 3:0 4:-0.73626399 5:-1 6:0 7:-1 8:-1 9:0.33333299 10:-0.178571 11:1 12:-1 13:-1 14:-1 15:-1 16:-1 17:-1 18:1 19:-1 20:-1 21:1 22:-1 23:-1 24:1 #
-0.054107312552241035 1:0.33333299 2:-0.76470602 3:0 4:-0.87912101 5:-1 6:-0.5 7:0.33333299 8:-1 9:-1 10:-0.75 11:1 12:-1 13:-1 14:-1 15:-1 16:1 17:-1 18:1 19:-1 20:-1 21:1 22:-1 23:-1 24:1 #
-0.054107312552241035 1:-1 2:-0.67647099 3:0 4:-0.82417601 5:-1 6:-0.5 7:-0.33333299 8:-1 9:-0.33333299 10:-0.035714 11:1 12:-1 13:-1 14:-1 15:-1 16:-1 17:-1 18:-1 19:-1 20:1 21:-1 22:-1 23:-1 24:1 #
0.054107312552241035 1:-0.33333299 2:-0.41176501 3:-1 4:-0.56044 5:-1 6:0 7:0.33333299 8:1 9:-1 10:-0.39285699 11:1 12:0.33333299 13:-1 14:1 15:-1 16:-1 17:-1 18:1 19:-1 20:-1 21:1 22:-1 23:1 24:-1 #
0.054107312552241035 1:-1 2:-0.58823502 3:0 4:-0.89011002 5:-1 6:0 7:1 8:0.33333299 9:-1 10:0 11:1 12:-1 13:-1 14:1 15:-1 16:-1 17:-1 18:1 19:-1 20:-1 21:1 22:-1 23:1 24:-1 #
0.054107312552241035 1:-1 2:-0.41176501 3:0 4:-0.67032999 5:-1 6:-0.5 7:-0.33333299 8:1 9:-1 10:-0.85714298 11:1 12:-1 13:-1 14:1 15:-1 16:-1 17:-1 18:1 19:-1 20:1 21:-1 22:-1 23:1 24:-1 #
0.054107312552241035 1:-1 2:-0.76470602 3:0 4:-0.94505501 5:-0.5 6:-0.5 7:1 8:0.33333299 9:1 10:-0.5 11:1 12:-1 13:-1 14:1 15:-1 16:-1 17:-1 18:1 19:-1 20:-1 21:1 22:-1 23:1 24:-1 #
0.054107312552241035 1:-0.33333299 2:-0.235294 3:-1 4:-0.54945099 5:-0.5 6:0 7:-0.33333299 8:1 9:0.33333299 10:-0.75 11:1 12:-0.33333299 13:-1 14:-1 15:-1 16:-1 17:-1 18:1 19:-1 20:1 21:-1 22:-1 23:1 24:-1 #
-0.054107312552241035 1:-0.33333299 2:-0.79411799 3:1 4:-0.87912101 5:0.5 6:0 7:-0.33333299 8:1 9:0.33333299 10:-0.25 11:1 12:-0.33333299 13:-1 14:-1 15:-1 16:1 17:-1 18:1 19:-1 20:-1 21:1 22:-1 23:-1 24:1 #
-0.054107312552241035 1:1 2:0.64705902 3:1 4:0.49450499 5:1 6:1 7:0.33333299 8:1 9:1 10:0.57142901 11:-1 12:-1 13:-1 14:1 15:-1 16:1 17:-1 18:1 19:-1 20:-1 21:-1 22:-1 23:-1 24:-1 #
0.018064845637666208 1:-1 2:-0.41176501 3:-0.5 4:-0.26373601 5:-1 6:-0.5 7:-1 8:-1 9:-0.33333299 10:0.285714 11:-1 12:-1 13:-1 14:1 15:-1 16:-1 17:-1 18:1 19:-1 20:-1 21:1 22:-1 23:-1 24:1 #
0.054107312552241035 1:-1 2:-0.41176501 3:0 4:-0.75824201 5:-0.5 6:-1 7:-1 8:-1 9:-0.33333299 10:-0.5 11:1 12:-1 13:-1 14:-1 15:-1 16:-1 17:-1 18:1 19:-1 20:-1 21:1 22:-1 23:-1 24:1 #
0.054107312552241035 1:-1 2:-0.58823502 3:0 4:-0.67032999 5:-1 6:0 7:-0.33333299 8:-0.33333299 9:-1 10:-0.82142901 11:1 12:-1 13:-1 14:-1 15:-1 16:-1 17:-1 18:1 19:-1 20:-1 21:1 22:-1 23:-1 24:1 #
0.054107312552241035 1:-1 2:-0.76470602 3:1 4:-0.94505501 5:-1 6:1 7:0.33333299 8:0.33333299 9:-0.33333299 10:-0.42857099 11:1 12:-0.33333299 13:-1 14:-1 15:-1 16:1 17:-1 18:1 19:-1 20:-1 21:1 22:-1 23:-1 24:1 #
0.054107312552241035 1:-0.33333299 2:-0.76470602 3:0 4:-0.89011002 5:-1 6:1 7:-1 8:-1 9:-1 10:-0.035714 11:1 12:-0.33333299 13:-1 14:-1 15:-1 16:1 17:-1 18:1 19:-1 20:1 21:-1 22:-1 23:-1 24:1 #
-0.054107312552241035 1:-1 2:-0.76470602 3:0 4:-0.83516502 5:-1 6:0 7:0.33333299 8:-0.33333299 9:-1 10:-0.71428603 11:1 12:-1 13:-1 14:-1 15:-1 16:-1 17:-1 18:1 19:-1 20:-1 21:1 22:-1 23:-1 24:1 #
-0.054107312552241035 1:-1 2:-0.85294098 3:0 4:-0.79120898 5:-1 6:0 7:0.33333299 8:-0.33333299 9:-1 10:-0.78571397 11:1 12:-1 13:-1 14:-1 15:-1 16:-1 17:-1 18:1 19:-1 20:-1 21:1 22:-1 23:-1 24:1 #
-0.054107312552241035 1:-0.33333299 2:0.29411799 3:-0.5 4:-0.62637401 5:-0.5 6:0.5 7:0.33333299 8:-0.33333299 9:0.33333299 10:-0.60714298 11:1 12:-1 13:-1 14:-1 15:-1 16:-1 17:-1 18:1 19:-1 20:-1 21:1 22:-1 23:-1 24:1 #
-0.054107312552241035 1:-0.33333299 2:-0.235294 3:0 4:-0.60439599 5:-1 6:-0.5 7:1 8:-1 9:-0.33333299 10:-0.89285702 11:1 12:-1 13:-1 14:-1 15:-1 16:-1 17:-1 18:1 19:-1 20:-1 21:1 22:-1 23:-1 24:1 #
0.054107312552241035 1:-1 2:-0.941176 3:0 4:0.615385 5:-1 6:1 7:0.33333299 8:1 9:1 10:0.75 11:-1 12:-1 13:-1 14:1 15:-1 16:1 17:-1 18:1 19:-1 20:-1 21:1 22:-1 23:-1 24:-1 #
0.054107312552241035 1:-1 2:0.29411799 3:0 4:0.10989 5:-1 6:0.5 7:0.33333299 8:1 9:1 10:-0.285714 11:0 12:0.33333299 13:1 14:1 15:-1 16:-1 17:1 18:1 19:-1 20:-1 21:-1 22:-1 23:-1 24:1 #
0.054107312552241035 1:-0.33333299 2:0.29411799 3:1 4:-0.46153799 5:-1 6:0 7:-0.33333299 8:0.33333299 9:0.33333299 10:-0.60714298 11:1 12:-1 13:-1 14:1 15:-1 16:-1 17:-1 18:1 19:-1 20:-1 21:1 22:-1 23:-1 24:-1 #
0.054107312552241035 1:-1 2:-0.58823502 3:0 4:-0.87912101 5:-1 6:0 7:1 8:0.33333299 9:-1 10:-0.75 11:-1 12:-1 13:-1 14:-1 15:-1 16:-1 17:-1 18:1 19:-1 20:-1 21:1 22:-1 23:-1 24:1 #
-0.054107312552241035 1:-1 2:-0.41176501 3:1 4:-0.318681 5:-1 6:1 7:-0.33333299 8:1 9:1 10:-0.107143 11:1 12:-0.33333299 13:1 14:1 15:-1 16:-1 17:1 18:1 19:-1 20:-1 21:-1 22:-1 23:-1 24:-1 #
-0.054107312552241035 1:-1 2:-0.941176 3:1 4:-0.92307699 5:-1 6:1 7:-0.33333299 8:1 9:1 10:-0.285714 11:1 12:-0.33333299 13:-1 14:1 15:-1 16:1 17:-1 18:1 19:-1 20:-1 21:1 22:-1 23:-1 24:1 #
-0.054107312552241035 1:-0.33333299 2:-0.41176501 3:1 4:-0.39560401 5:-1 6:-0.5 7:-0.33333299 8:1 9:1 10:-0.82142901 11:1 12:-0.33333299 13:-1 14:1 15:-1 16:-1 17:-1 18:1 19:-1 20:-1 21:-1 22:-1 23:-1 24:1 #
-0.054107312552241035 1:-1 2:-0.32352901 3:1 4:-0.75824201 5:-1 6:1 7:0.33333299 8:1 9:0.33333299 10:-0.142857 11:0 12:1 13:1 14:1 15:-1 16:-1 17:-1 18:1 19:-1 20:-1 21:1 22:-1 23:-1 24:-1 #
0.054107312552241035 1:-1 2:-0.76470602 3:0 4:-0.934066 5:-1 6:0.5 7:0.33333299 8:-0.33333299 9:-1 10:-0.75 11:1 12:-1 13:-1 14:-1 15:-1 16:1 17:-1 18:1 19:-1 20:-1 21:1 22:-1 23:-1 24:1 #
0.054107312552241035 1:-1 2:-0.58823502 3:0 4:-0.747253 5:-1 6:0 7:0.33333299 8:-0.33333299 9:0.33333299 10:-0.89285702 11:1 12:-1 13:-1 14:-1 15:-1 16:-1 17:-1 18:1 19:-1 20:-1 21:1 22:-1 23:-1 24:1 #
0.054107312552241035 1:-0.33333299 2:1 3:0 4:-0.40659299 5:-0.5 6:0 7:1 8:-0.33333299 9:0.33333299 10:-0.82142901 11:1 12:-1 13:-1 14:-1 15:-1 16:-1 17:-1 18:1 19:-1 20:-1 21:1 22:-1 23:-1 24:1 #
0.054107312552241035 1:-1 2:-0.941176 3:0 4:-0.97802198 5:-1 6:-0.5 7:-0.33333299 8:1 9:-0.33333299 10:-0.85714298 11:1 12:-1 13:-1 14:-1 15:-1 16:-1 17:-1 18:1 19:-1 20:-1 21:1 22:-1 23:-1 24:1 #
-0.054107312552241035 1:-1 2:-0.41176501 3:0 4:-0.58241802 5:-1 6:0 7:0.33333299 8:-0.33333299 9:0.33333299 10:-0.71428603 11:0 12:-1 13:-1 14:-1 15:-1 16:-1 17:-1 18:1 19:-1 20:-1 21:1 22:-1 23:-1 24:1 #
0.054107312552241035 1:-1 2:-0.058823999 3:1 4:-0.131868 5:-1 6:0 7:-0.33333299 8:-0.33333299 9:1 10:-0.78571397 11:1 12:-0.33333299 13:-1 14:1 15:-1 16:-1 17:-1 18:1 19:-1 20:-1 21:1 22:-1 23:-1 24:-1 #
-0.054107312552241035 1:-0.33333299 2:-0.058823999 3:0 4:-0.49450499 5:-1 6:-0.5 7:-0.33333299 8:-1 9:1 10:-0.60714298 11:1 12:-1 13:-1 14:1 15:-1 16:-1 17:-1 18:1 19:-1 20:-1 21:1 22:-1 23:-1 24:-1 #
-0.054107312552241035 1:-1 2:-0.76470602 3:-0.5 4:-0.98901099 5:-1 6:1 7:1 8:-1 9:0.33333299 10:-0.071428999 11:-1 12:-1 13:-1 14:-1 15:-1 16:-1 17:-1 18:1 19:-1 20:-1 21:1 22:-1 23:1 24:-1 #
-0.054107312552241035 1:-1 2:-0.41176501 3:0 4:-0.56044 5:-1 6:0 7:0.33333299 8:1 9:-0.33333299 10:-0.67857099 11:1 12:-1 13:-1 14:-1 15:-1 16:-1 17:-1 18:1 19:-1 20:-1 21:1 22:-1 23:-1 24:1 #
0.054107312552241035 1:-0.33333299 2:-0.058823999 3:0 4:0.34065899 5:1 6:0 7:0.33333299 8:1 9:1 10:-0.35714301 11:1 12:-1 13:-1 14:1 15:-1 16:1 17:-1 18:1 19:-1 20:-1 21:-1 22:-1 23:-1 24:1 #
0.054107312552241035 1:-1 2:-0.58823502 3:0 4:-0.73626399 5:-1 6:0 7:0.33333299 8:1 9:1 10:0.64285702 11:1 12:-0.33333299 13:-1 14:-1 15:-1 16:-1 17:-1 18:1 19:-1 20:-1 21:-1 22:-1 23:-1 24:1 #
0.054107312552241035 1:-0.33333299 2:-0.41176501 3:0 4:-0.57142901 5:-1 6:0.5 7:-1 8:0.33333299 9:0.33333299 10:-0.142857 11:1 12:-1 13:-1 14:1 15:-1 16:-1 17:-1 18:1 19:-1 20:-1 21:1 22:-1 23:-1 24:1 #
0.054107312552241035 1:-0.33333299 2:-0.41176501 3:0.5 4:-0.79120898 5:-1 6:-1 7:-0.33333299 8:-0.33333299 9:-0.33333299 10:-0.464286 11:1 12:-1 13:-1 14:1 15:-1 16:-1 17:-1 18:1 19:-1 20:-1 21:1 22:-1 23:-1 24:-1 #
-0.054107312552241035 1:-0.33333299 2:-0.41176501 3:1 4:-0.59340698 5:-0.5 6:-0.5 7:-1 8:-0.33333299 9:0.33333299 10:-0.35714301 11:1 12:-1 13:-1 14:1 15:-1 16:1 17:-1 18:1 19:-1 20:-1 21:1 22:-1 23:-1 24:1 #
-0.054107312552241035 1:-0.33333299 2:-0.58823502 3:0 4:-0.59340698 5:-1 6:-1 7:-0.33333299 8:1 9:0.33333299 10:0.71428603 11:1 12:-1 13:-1 14:1 15:-1 16:-1 17:-1 18:1 19:-1 20:-1 21:1 22:-1 23:-1 24:1 #
-0.054107312552241035 1:-1 2:-0.41176501 3:-0.5 4:-0.71428603 5:0 6:0 7:0.33333299 8:1 9:-1 10:-0.89285702 11:0 12:-1 13:-1 14:1 15:-1 16:-1 17:-1 18:1 19:-1 20:-1 21:1 22:-1 23:-1 24:1 #
0.054107312552241035 1:-0.33333299 2:-0.235294 3:1 4:-0.45054901 5:-1 6:-1 7:1 8:-0.33333299 9:0.33333299 10:-0.67857099 11:1 12:-0.33333299 13:-1 14:-1 15:-1 16:1 17:-1 18:1 19:-1 20:-1 21:1 22:-1 23:-1 24:-1 #
0.054107312552241035 1:-1 2:-0.29411799 3:0 4:-0.58241802 5:-1 6:0 7:0.33333299 8:-0.33333299 9:0.33333299 10:-0.071428999 11:1 12:-1 13:-1 14:-1 15:-1 16:1 17:-1 18:1 19:-1 20:-1 21:1 22:-1 23:1 24:-1 #
0.054107312552241035 1:-0.33333299 2:-0.41176501 3:0 4:-0.80219799 5:-1 6:-0.5 7:1 8:-1 9:-0.33333299 10:-0.89285702 11:1 12:-1 13:-1 14:1 15:-1 16:-1 17:-1 18:1 19:-1 20:-1 21:1 22:-1 23:-1 24:1 #
-0.054107312552241035 1:0.33333299 2:-0.58823502 3:0 4:-0.80219799 5:-1 6:1 7:-0.33333299 8:-0.33333299 9:0.33333299 10:-0.85714298 11:1 12:-1 13:-1 14:-1 15:-1 16:1 17:-1 18:1 19:-1 20:-1 21:1 22:-1 23:-1 24:-1 #
0.054107312552241035 1:-0.33333299 2:-0.85294098 3:0 4:-0.83516502 5:-1 6:-0.5 7:-0.33333299 8:-0.33333299 9:0.33333299 10:-0.89285702 11:1 12:-1 13:-1 14:1 15:-1 16:-1 17:-1 18:1 19:-1 20:-1 21:1 22:-1 23:-1 24:1 #
-0.054107312552241035 1:-0.33333299 2:-0.941176 3:0 4:-0.96703303 5:-1 6:-0.5 7:1 8:-1 9:-0.33333299 10:-0.89285702 11:1 12:-1 13:-1 14:-1 15:-1 16:-1 17:-1 18:1 19:-1 20:-1 21:1 22:-1 23:1 24:-1 #
-0.054107312552241035 1:-0.33333299 2:-0.76470602 3:0 4:-0.69230801 5:-1 6:-0.5 7:-0.33333299 8:-1 9:-1 10:-0.464286 11:1 12:-1 13:-1 14:-1 15:-1 16:-1 17:-1 18:1 19:-1 20:1 21:-1 22:-1 23:-1 24:-1 #
-0.054107312552241035 1:-0.33333299 2:-0.41176501 3:0 4:-0.70329702 5:-0.5 6:-0.5 7:0.33333299 8:-1 9:0.33333299 10:-0.64285702 11:1 12:-1 13:-1 14:-1 15:-1 16:-1 17:-1 18:1 19:-1 20:-1 21:1 22:-1 23:-1 24:1 #
-0.054107312552241035 1:-0.33333299 2:-0.41176501 3:0.5 4:-0.318681 5:-1 6:-0.5 7:0.33333299 8:-0.33333299 9:0.33333299 10:-0.5 11:1 12:-1 13:-1 14:-1 15:-1 16:-1 17:-1 18:1 19:-1 20:-1 21:1 22:-1 23:-1 24:1 #
0.054107312552241035 1:-1 2:-0.58823502 3:1 4:-0.79120898 5:-1 6:0 7:-0.33333299 8:1 9:-1 10:-0.82142901 11:1 12:-0.33333299 13:-1 14:-1 15:-1 16:-1 17:-1 18:1 19:-1 20:1 21:-1 22:-1 23:-1 24:1 #
0.054107312552241035 1:-1 2:-0.058823999 3:-0.5 4:-0.72527498 5:-1 6:1 7:0.33333299 8:1 9:0.33333299 10:-0.57142901 11:-1 12:-1 13:-1 14:-1 15:-1 16:-1 17:-1 18:1 19:-1 20:-1 21:1 22:-1 23:-1 24:1 #
0.054107312552241035 1:-1 2:-0.76470602 3:0 4:-0.934066 5:-1 6:-0.5 7:-0.33333299 8:1 9:-0.33333299 10:0.214286 11:1 12:-1 13:-1 14:-1 15:-1 16:-1 17:-1 18:1 19:-1 20:-1 21:1 22:-1 23:-1 24:1 #
-0.054107312552241035 1:-1 2:-0.41176501 3:0 4:-0.84615397 5:-1 6:1 7:-0.33333299 8:1 9:0.33333299 10:0.285714 11:1 12:-1 13:-1 14:-1 15:-1 16:-1 17:-1 18:1 19:-1 20:-1 21:1 22:-1 23:-1 24:1 #
-0.054107312552241035 1:-0.33333299 2:-0.58823502 3:1 4:-0.87912101 5:-1 6:-0.5 7:-0.33333299 8:-1 9:-0.33333299 10:-0.71428603 11:1 12:-0.33333299 13:-1 14:-1 15:-1 16:-1 17:-1 18:1 19:-1 20:-1 21:1 22:-1 23:-1 24:1 #
-0.054107312552241035 1:-1 2:-0.67647099 3:1 4:-0.91208798 5:-1 6:0 7:-1 8:0.33333299 9:-0.33333299 10:-0.78571397 11:1 12:-0.33333299 13:-1 14:-1 15:-1 16:-1 17:-1 18:1 19:-1 20:-1 21:1 22:-1 23:-1 24:1 #
0.054107312552241035 1:-0.33333299 2:-0.058823999 3:0 4:-0.75824201 5:-1 6:-0.5 7:0.33333299 8:-1 9:1 10:-0.5 11:1 12:-1 13:-1 14:-1 15:-1 16:-1 17:-1 18:1 19:-1 20:1 21:-1 22:-1 23:1 24:-1 #
0.054107312552241035 1:-1 2:-0.058823999 3:0.5 4:-0.79120898 5:-1 6:0.5 7:0.33333299 8:-1 9:0.33333299 10:-0.82142901 11:1 12:-0.33333299 13:-1 14:1 15:-1 16:-1 17:-1 18:1 19:-1 20:-1 21:1 22:-1 23:-1 24:1 #
0.054107312552241035 1:-0.33333299 2:-0.058823999 3:-1 4:-0.60439599 5:-1 6:0 7:-0.33333299 8:-1 9:0.33333299 10:-0.178571 11:1 12:-1 13:-1 14:1 15:-1 16:-1 17:-1 18:1 19:-1 20:-1 21:1 22:-1 23:-1 24:1 #
-0.054107312552241035 1:-0.33333299 2:-0.52941197 3:0.5 4:-0.73626399 5:-1 6:0 7:0.33333299 8:0.33333299 9:0.33333299 10:-0.64285702 11:-1 12:-0.33333299 13:-1 14:1 15:-1 16:-1 17:-1 18:1 19:-1 20:-1 21:1 22:-1 23:-1 24:1 #
-0.054107312552241035 1:0.33333299 2:-0.76470602 3:0.5 4:-0.78021997 5:-1 6:0 7:-0.33333299 8:-0.33333299 9:0.33333299 10:-0.39285699 11:0 12:-0.33333299 13:-1 14:1 15:-1 16:1 17:-1 18:1 19:-1 20:-1 21:1 22:-1 23:-1 24:1 #
-0.054107312552241035 1:1 2:-0.58823502 3:0 4:-0.80219799 5:-1 6:0 7:0.33333299 8:1 9:1 10:0 11:-1 12:-0.33333299 13:-1 14:-1 15:-1 16:-1 17:-1 18:1 19:-1 20:-1 21:-1 22:-1 23:-1 24:1 #
0.054107312552241035 1:-1 2:-0.41176501 3:0 4:-0.813187 5:-1 6:-0.5 7:-1 8:0.33333299 9:-0.33333299 10:-0.53571397 11:1 12:-1 13:-1 14:-1 15:-1 16:-1 17:-1 18:1 19:-1 20:-1 21:1 22:-1 23:-1 24:1 #
0.054107312552241035 1:-0.33333299 2:-0.85294098 3:-0.5 4:-0.868132 5:-0.5 6:0.5 7:0.33333299 8:0.33333299 9:1 10:-0.64285702 11:1 12:-1 13:-1 14:-1 15:-1 16:1 17:-1 18:1 19:-1 20:-1 21:1 22:-1 23:-1 24:1 #
0.054107312552241035 1:-1 2:-0.76470602 3:0 4:-0.868132 5:-1 6:0.5 7:-1 8:0.33333299 9:0.33333299 10:-0.39285699 11:1 12:-1 13:-1 14:-1 15:-1 16:1 17:-1 18:1 19:-1 20:-1 21:1 22:-1 23:-1 24:1 #
0.054107312552241035 1:-1 2:-0.76470602 3:-1 4:-0.90109903 5:-1 6:0.5 7:0.33333299 8:0.33333299 9:-1 10:-0.67857099 11:1 12:-0.33333299 13:-1 14:-1 15:-1 16:-1 17:-1 18:1 19:-1 20:-1 21:1 22:-1 23:-1 24:1 #
-0.054107312552241035 1:-1 2:0.29411799 3:0 4:-0.49450499 5:-1 6:0.5 7:0.33333299 8:0.33333299 9:-0.33333299 10:-0.75 11:1 12:-1 13:1 14:-1 15:-1 16:-1 17:1 18:1 19:-1 20:-1 21:1 22:-1 23:-1 24:1 #
-0.054107312552241035 1:-1 2:-0.58823502 3:0 4:-0.72527498 5:0.5 6:0 7:0.33333299 8:-0.33333299 9:0.33333299 10:-0.67857099 11:1 12:-1 13:-1 14:-1 15:-1 16:-1 17:-1 18:1 19:-1 20:-1 21:1 22:-1 23:-1 24:1 #
0.054107312552241035 1:-0.33333299 2:-0.41176501 3:0 4:0.21978 5:-1 6:0 7:0.33333299 8:0.33333299 9:0.33333299 10:-0.64285702 11:-1 12:-0.33333299 13:-1 14:1 15:-1 16:-1 17:-1 18:-1 19:1 20:-1 21:1 22:-1 23:-1 24:-1 #
0.054107312552241035 1:-1 2:0.058823999 3:1 4:-0.36263701 5:-1 6:0 7:0.33333299 8:0.33333299 9:1 10:-0.71428603 11:-1 12:-1 13:-1 14:1 15:-1 16:-1 17:-1 18:1 19:-1 20:-1 21:1 22:-1 23:-1 24:1 #
-0.054107312552241035 1:-0.33333299 2:-0.76470602 3:0 4:-0.84615397 5:-1 6:0 7:-0.33333299 8:-1 9:0.33333299 10:-0.89285702 11:1 12:-1 13:-1 14:1 15:-1 16:-1 17:-1 18:1 19:-1 20:-1 21:1 22:-1 23:-1 24:1 #
-0.054107312552241035 1:0.33333299 2:-0.76470602 3:0 4:-0.85714298 5:-1 6:-0.5 7:-0.33333299 8:-1 9:-0.33333299 10:-0.5 11:-1 12:-1 13:-1 14:1 15:-1 16:-1 17:-1 18:1 19:-1 20:-1 21:1 22:-1 23:-1 24:-1 #
-0.054107312552241035 1:-0.33333299 2:-0.85294098 3:0 4:-0.868132 5:-1 6:0 7:1 8:-1 9:-1 10:-0.71428603 11:-1 12:-1 13:-1 14:1 15:-1 16:-1 17:-1 18:1 19:-1 20:-1 21:1 22:-1 23:-1 24:1 #
0.054107312552241035 1:-1 2:-0.58823502 3:0 4:-0.90109903 5:-1 6:-1 7:-0.33333299 8:-0.33333299 9:0.33333299 10:-0.5 11:1 12:-1 13:-1 14:-1 15:-1 16:-1 17:-1 18:1 19:-1 20:-1 21:1 22:-1 23:-1 24:1 #
0.054107312552241035 1:-1 2:-0.85294098 3:0 4:-0.868132 5:-1 6:-0.5 7:-0.33333299 8:1 9:-0.33333299 10:-0.89285702 11:1 12:-1 13:-1 14:-1 15:-1 16:-1 17:-1 18:1 19:-1 20:1 21:-1 22:-1 23:-1 24:1 #
0.054107312552241035 1:-1 2:-0.5 3:0 4:-0.82417601 5:-1 6:0 7:-0.33333299 8:-0.33333299 9:-1 10:-0.78571397 11:1 12:-0.33333299 13:-1 14:1 15:-1 16:-1 17:-1 18:1 19:-1 20:-1 21:1 22:-1 23:-1 24:1 #
0.054107312552241035 1:-0.33333299 2:-0.67647099 3:-0.5 4:-0.87912101 5:-0.5 6:0 7:1 8:-0.33333299 9:-0.33333299 10:-0.78571397 11:1 12:-1 13:-1 14:-1 15:-1 16:1 17:-1 18:1 19:-1 20:1 21:-1 22:-1 23:-1 24:1 #
-0.054107312552241035 1:-0.33333299 2:-0.58823502 3:0 4:-0.73626399 5:-0.5 6:0 7:0.33333299 8:1 9:0.33333299 10:-0.464286 11:1 12:-1 13:-1 14:-1 15:-1 16:-1 17:-1 18:1 19:-1 20:-1 21:1 22:-1 23:-1 24:1 #
-0.054107312552241035 1:0.33333299 2:-0.41176501 3:0 4:-0.615385 5:-1 6:-0.5 7:-0.33333299 8:1 9:0.33333299 10:-0.75 11:1 12:-1 13:-1 14:-1 15:-1 16:-1 17:-1 18:1 19:-1 20:-1 21:1 22:-1 23:-1 24:1 #
-0.054107312552241035 1:-1 2:-0.941176 3:1 4:-0.80219799 5:-1 6:0.5 7:-0.33333299 8:1 9:0.33333299 10:-0.57142901 11:1 12:-1 13:-1 14:-1 15:-1 16:-1 17:-1 18:1 19:-1 20:-1 21:1 22:-1 23:-1 24:1 #
0.054107312552241035 1:-1 2:-0.058823999 3:0.5 4:-0.26373601 5:-1 6:0 7:0.33333299 8:0.33333299 9:-0.33333299 10:-0.64285702 11:0 12:-1 13:-1 14:1 15:-1 16:-1 17:-1 18:1 19:-1 20:-1 21:1 22:-1 23:-1 24:1 #
0.054107312552241035 1:-0.33333299 2:0.29411799 3:0 4:0.70329702 5:-1 6:0 7:0.33333299 8:-0.33333299 9:0.33333299 10:-0.85714298 11:1 12:-1 13:-1 14:1 15:-1 16:-1 17:-1 18:1 19:-1 20:-1 21:1 22:-1 23:-1 24:1 #
-0.054107312552241035 1:-1 2:-0.41176501 3:0 4:-0.69230801 5:1 6:1 7:0.33333299 8:1 9:1 10:0.071428999 11:-1 12:-1 13:1 14:1 15:-1 16:-1 17:1 18:1 19:-1 20:-1 21:-1 22:-1 23:-1 24:1 #
-0.054107312552241035 1:-0.33333299 2:-0.76470602 3:0 4:-0.89011002 5:0 6:0 7:-1 8:-1 9:0.33333299 10:-0.75 11:1 12:-1 13:-1 14:1 15:-1 16:-1 17:-1 18:1 19:-1 20:-1 21:1 22:-1 23:-1 24:1 #
0.054107312552241035 1:-0.33333299 2:0.29411799 3:0 4:-0.29670301 5:-0.5 6:0.5 7:0.33333299 8:-0.33333299 9:-0.33333299 10:-0.82142901 11:1 12:-1 13:-1 14:-1 15:-1 16:1 17:-1 18:1 19:-1 20:-1 21:1 22:-1 23:-1 24:1 #
0.054107312552241035 1:-1 2:-0.941176 3:-0.5 4:-0.89011002 5:-1 6:1 7:-0.33333299 8:1 9:1 10:-0.42857099 11:1 12:-1 13:-1 14:-1 15:-1 16:-1 17:-1 18:1 19:-1 20:-1 21:-1 22:-1 23:-1 24:1 #
0.054107312552241035 1:-1 2:0.29411799 3:0 4:-0.681319 5:-1 6:0 7:0.33333299 8:1 9:0.33333299 10:0.25 11:1 12:-1 13:-1 14:-1 15:-1 16:-1 17:-1 18:1 19:-1 20:-1 21:1 22:-1 23:-1 24:1 #
-0.054107312552241035 1:-1 2:-0.76470602 3:1 4:-0.78021997 5:-1 6:0 7:0.33333299 8:1 9:-0.33333299 10:-0.32142901 11:-1 12:-0.33333299 13:-1 14:-1 15:1 16:1 17:-1 18:1 19:-1 20:-1 21:1 22:-1 23:1 24:-1 #
-0.054107312552241035 1:1 2:-0.41176501 3:0.5 4:-0.59340698 5:-1 6:0 7:0.33333299 8:-0.33333299 9:1 10:-0.53571397 11:1 12:-1 13:-1 14:-1 15:-1 16:-1 17:-1 18:1 19:-1 20:-1 21:-1 22:-1 23:-1 24:1 #
0.054107312552241035 1:-1 2:-0.41176501 3:0.5 4:-0.83516502 5:-1 6:-0.5 7:-0.33333299 8:-0.33333299 9:0.33333299 10:-0.64285702 11:1 12:-1 13:-1 14:1 15:-1 16:-1 17:-1 18:1 19:-1 20:1 21:-1 22:-1 23:1 24:-1 #
0.054107312552241035 1:-0.33333299 2:0.29411799 3:0 4:0.076922998 5:-1 6:-0.5 7:-0.33333299 8:-0.33333299 9:0.33333299 10:-0.75 11:1 12:-1 13:-1 14:1 15:-1 16:-1 17:-1 18:1 19:-1 20:-1 21:1 22:-1 23:-1 24:1 #
-0.054107312552241035 1:-1 2:-0.5 3:0 4:-0.62637401 5:-1 6:0.5 7:-0.33333299 8:1 9:0.33333299 10:-0.75 11:1 12:-1 13:-1 14:-1 15:-1 16:-1 17:-1 18:1 19:-1 20:1 21:-1 22:-1 23:1 24:-1 #
-0.054107312552241035 1:-0.33333299 2:-0.058823999 3:0.5 4:-0.208791 5:-1 6:0 7:-0.33333299 8:-0.33333299 9:-0.33333299 10:0.25 11:1 12:-1 13:-1 14:-1 15:-1 16:1 17:-1 18:1 19:-1 20:1 21:-1 22:-1 23:-1 24:1 #
-0.054107312552241035 1:-0.33333299 2:-0.41176501 3:0 4:-0.60439599 5:0 6:-1 7:-0.33333299 8:1 9:1 10:-0.85714298 11:1 12:-1 13:-1 14:-1 15:-1 16:-1 17:-1 18:1 19:-1 20:1 21:-1 22:1 23:-1 24:-1 #
0.054107312552241035 1:-0.33333299 2:-0.41176501 3:1 4:-0.89011002 5:-0.5 6:-0.5 7:0.33333299 8:1 9:1 10:-0.32142901 11:-1 12:-0.33333299 13:1 14:-1 15:-1 16:-1 17:-1 18:1 19:-1 20:-1 21:1 22:-1 23:-1 24:1 #
0.054107312552241035 1:1 2:-0.58823502 3:-1 4:-0.56044 5:-1 6:0 7:0.33333299 8:-0.33333299 9:0.33333299 10:-0.39285699 11:0 12:-0.33333299 13:1 14:-1 15:-1 16:-1 17:-1 18:1 19:-1 20:-1 21:1 22:-1 23:-1 24:1 #
-0.054107312552241035 1:-1 2:-0.76470602 3:0 4:-0.84615397 5:-1 6:0 7:-0.33333299 8:0.33333299 9:-0.33333299 10:-0.60714298 11:1 12:-1 13:-1 14:-1 15:-1 16:-1 17:-1 18:-1 19:1 20:-1 21:1 22:-1 23:-1 24:1 #
-0.054107312552241035 1:-0.33333299 2:-0.58823502 3:0 4:-0.37362599 5:-0.5 6:0 7:0.33333299 8:-0.33333299 9:0.33333299 10:-0.60714298 11:1 12:-0.33333299 13:-1 14:1 15:-1 16:1 17:-1 18:1 19:-1 20:-1 21:1 22:-1 23:-1 24:1 #
-0.054107312552241035 1:1 2:0.64705902 3:0 4:-0.30769199 5:1 6:0 7:0.33333299 8:1 9:1 10:-0.464286 11:1 12:-1 13:1 14:1 15:-1 16:1 17:-1 18:1 19:-1 20:-1 21:-1 22:-1 23:-1 24:1 #
-0.054107312552241035 1:-1 2:-0.41176501 3:0 4:-0.83516502 5:-1 6:-0.5 7:0.33333299 8:-1 9:-0.33333299 10:-0.82142901 11:1 12:-1 13:-1 14:-1 15:1 16:-1 17:-1 18:-1 19:1 20:-1 21:1 22:-1 23:1 24:-1 #
0.054107312552241035 1:-1 2:-0.76470602 3:0 4:-0.87912101 5:-1 6:0 7:-0.33333299 8:1 9:0.33333299 10:-0.96428603 11:1 12:-1 13:-1 14:-1 15:-1 16:-1 17:-1 18:1 19:-1 20:1 21:-1 22:-1 23:-1 24:1 #
-0.054107312552241035 1:-0.33333299 2:-0.85294098 3:0 4:-0.98901099 5:-1 6:0 7:1 8:1 9:-1 10:-0.89285702 11:1 12:-1 13:-1 14:-1 15:-1 16:1 17:-1 18:1 19:-1 20:1 21:-1 22:-1 23:1 24:-1 #
-0.054107312552241035 1:-1 2:-0.58823502 3:0 4:-0.813187 5:1 6:0.5 7:1 8:1 9:0.33333299 10:-0.85714298 11:1 12:-0.33333299 13:-1 14:-1 15:-1 16:-1 17:-1 18:1 19:-1 20:1 21:-1 22:-1 23:1 24:-1 #
-0.054107312552241035 1:-0.33333299 2:-0.76470602 3:0 4:-0.80219799 5:-1 6:0.5 7:0.33333299 8:1 9:-0.33333299 10:-0.60714298 11:1 12:-1 13:1 14:1 15:-1 16:1 17:-1 18:1 19:-1 20:1 21:-1 22:-1 23:-1 24:1 #
-0.054107312552241035 1:0.33333299 2:-0.76470602 3:0 4:-0.813187 5:-1 6:0 7:-0.33333299 8:-0.33333299 9:0.33333299 10:-0.107143 11:1 12:-1 13:-1 14:1 15:-1 16:-1 17:-1 18:1 19:-1 20:1 21:-1 22:-1 23:1 24:-1 #
0.054107312552241035 1:-0.33333299 2:-0.85294098 3:-0.5 4:-0.46153799 5:-1 6:1 7:-0.33333299 8:1 9:1 10:0.96428603 11:-1 12:-1 13:1 14:1 15:-1 16:-1 17:1 18:1 19:-1 20:-1 21:-1 22:-1 23:-1 24:-1 #
-0.054107312552241035 1:-1 2:-0.76470602 3:0 4:-0.813187 5:-1 6:0 7:-0.33333299 8:1 9:-0.33333299 10:-0.64285702 11:1 12:-1 13:-1 14:1 15:-1 16:1 17:-1 18:-1 19:-1 20:-1 21:1 22:-1 23:-1 24:1 #
0.054107312552241035 1:-0.33333299 2:-0.76470602 3:0 4:-0.87912101 5:-1 6:-0.5 7:-0.33333299 8:-1 9:0.33333299 10:-0.78571397 11:1 12:-1 13:-1 14:-1 15:-1 16:1 17:-1 18:1 19:-1 20:1 21:-1 22:-1 23:-1 24:1 #
0.054107312552241035 1:-1 2:-0.058823999 3:0 4:-0.76923102 5:-1 6:0 7:-1 8:1 9:0.33333299 10:-0.57142901 11:1 12:-1 13:-1 14:-1 15:-1 16:-1 17:-1 18:1 19:-1 20:1 21:-1 22:-1 23:-1 24:1 #
-0.054107312552241035 1:-0.33333299 2:-0.058823999 3:0 4:-0.26373601 5:-1 6:0 7:0.33333299 8:-0.33333299 9:0.33333299 10:-0.42857099 11:1 12:-1 13:-1 14:1 15:-1 16:-1 17:1 18:1 19:-1 20:1 21:-1 22:-1 23:-1 24:-1 #
-0.054107312552241035 1:-1 2:-0.58823502 3:0.5 4:-0.087912001 5:1 6:0 7:-0.33333299 8:-0.33333299 9:0.33333299 10:-0.85714298 11:1 12:-0.33333299 13:-1 14:1 15:-1 16:-1 17:-1 18:1 19:-1 20:1 21:-1 22:-1 23:-1 24:1 #
-0.054107312552241035 1:-0.33333299 2:-0.41176501 3:0.5 4:-0.80219799 5:1 6:0 7:-0.33333299 8:1 9:0.33333299 10:-0.178571 11:1 12:-0.33333299 13:-1 14:1 15:-1 16:1 17:-1 18:1 19:-1 20:1 21:-1 22:-1 23:-1 24:1 #
-0.054107312552241035 1:1 2:-0.41176501 3:0 4:-0.89011002 5:-1 6:-0.5 7:1 8:-0.33333299 9:-1 10:-0.67857099 11:1 12:-1 13:-1 14:-1 15:-1 16:1 17:-1 18:1 19:-1 20:-1 21:1 22:-1 23:-1 24:1 #
-0.054107312552241035 1:1 2:-0.41176501 3:0 4:-0.84615397 5:-1 6:0.5 7:0.33333299 8:-1 9:0.33333299 10:-0.53571397 11:-1 12:-1 13:1 14:-1 15:-1 16:-1 17:-1 18:1 19:-1 20:-1 21:1 22:-1 23:-1 24:1 #
-0.054107312552241035 1:0.33333299 2:-0.058823999 3:0 4:-0.384615 5:-1 6:0 7:0.33333299 8:-1 9:0.33333299 10:-0.82142901 11:1 12:-1 13:-1 14:-1 15:-1 16:-1 17:-1 18:1 19:-1 20:-1 21:1 22:-1 23:-1 24:1 #
-0.054107312552241035 1:1 2:-0.5 3:0 4:-0.71428603 5:0 6:0.5 7:-0.33333299 8:-0.33333299 9:0.33333299 10:-0.57142901 11:-1 12:-1 13:-1 14:-1 15:-1 16:1 17:-1 18:1 19:-1 20:-1 21:1 22:-1 23:-1 24:-1 #
-0.054107312552241035 1:1 2:-0.67647099 3:0 4:-0.72527498 5:-1 6:-0.5 7:0.33333299 8:0.33333299 9:-0.33333299 10:-0.71428603 11:-1 12:-0.33333299 13:-1 14:-1 15:-1 16:-1 17:-1 18:1 19:-1 20:-1 21:1 22:-1 23:1 24:-1 #
0.035012933853002068 1:-1 2:-0.058823999 3:1 4:-0.34065899 5:-1 6:-0.5 7:-0.33333299 8:1 9:1 10:-0.85714298 11:1 12:-0.33333299 13:-1 14:1 15:-1 16:-1 17:-1 18:-1 19:1 20:1 21:-1 22:-1 23:1 24:-1 #
0.054107312552241035 1:-1 2:-0.85294098 3:0 4:-0.868132 5:-1 6:-0.5 7:0.33333299 8:-0.33333299 9:1 10:-0.71428603 11:1 12:-1 13:-1 14:1 15:-1 16:1 17:-1 18:1 19:-1 20:-1 21:-1 22:-1 23:-1 24:-1 #
0.054107312552241035 1:-0.33333299 2:-0.32352901 3:-1 4:-0.10989 5:-1 6:1 7:-0.33333299 8:1 9:1 10:-0.178571 11:1 12:-0.33333299 13:-1 14:1 15:-1 16:-1 17:-1 18:1 19:-1 20:-1 21:-1 22:-1 23:-1 24:-1 #
0.054107312552241035 1:-0.33333299 2:-0.058823999 3:0 4:0.36263701 5:-0.5 6:0 7:0.33333299 8:1 9:1 10:0 11:1 12:-1 13:1 14:1 15:-1 16:-1 17:-1 18:1 19:-1 20:-1 21:-1 22:-1 23:-1 24:1 #
0.054107312552241035 1:-0.33333299 2:-0.058823999 3:0 4:0.54945099 5:-1 6:1 7:0.33333299 8:-0.33333299 9:1 10:0.35714301 11:1 12:-1 13:-1 14:1 15:-1 16:1 17:-1 18:1 19:-1 20:-1 21:-1 22:-1 23:-1 24:-1 #
-0.054107312552241035 1:1 2:-0.058823999 3:0 4:-0.131868 5:-1 6:0 7:-0.33333299 8:-0.33333299 9:-0.33333299 10:-0.60714298 11:-1 12:-1 13:-1 14:-1 15:-1 16:-1 17:1 18:1 19:-1 20:-1 21:1 22:-1 23:-1 24:1 #
0.054107312552241035 1:-1 2:0.64705902 3:0.5 4:-0.27472499 5:-1 6:1 7:0.33333299 8:1 9:1 10:0.57142901 11:1 12:-0.33333299 13:-1 14:1 15:-1 16:-1 17:-1 18:1 19:-1 20:-1 21:1 22:-1 23:-1 24:1 #
0.054107312552241035 1:-1 2:-0.58823502 3:0 4:-0.56044 5:-1 6:0 7:0.33333299 8:0.33333299 9:0.33333299 10:-0.178571 11:1 12:-1 13:-1 14:-1 15:-1 16:-1 17:-1 18:-1 19:1 20:-1 21:1 22:-1 23:-1 24:1 #
0.054107312552241035 1:-1 2:-0.41176501 3:0 4:-0.681319 5:-1 6:-0.5 7:-0.33333299 8:-1 9:-0.33333299 10:-0.71428603 11:1 12:-1 13:-1 14:-1 15:-1 16:1 17:-1 18:1 19:-1 20:-1 21:1 22:-1 23:-1 24:1 #
-0.054107312552241035 1:-0.33333299 2:0.29411799 3:0 4:-0.58241802 5:1 6:0.5 7:0.33333299 8:-1 9:0.33333299 10:-0.214286 11:1 12:-0.33333299 13:1 14:1 15:-1 16:-1 17:-1 18:1 19:-1 20:-1 21:1 22:-1 23:-1 24:1 #
-0.054107312552241035 1:1 2:-0.67647099 3:0 4:-0.43956 5:0 6:1 7:-0.33333299 8:1 9:1 10:-0.42857099 11:1 12:-1 13:-1 14:-1 15:-1 16:1 17:-1 18:1 19:-1 20:-1 21:-1 22:-1 23:-1 24:1 #
-0.054107312552241035 1:1 2:-0.67647099 3:1 4:-0.71428603 5:-1 6:0.5 7:-0.33333299 8:0.33333299 9:0.33333299 10:-0.82142901 11:-1 12:-0.33333299 13:-1 14:-1 15:-1 16:-1 17:-1 18:-1 19:1 20:-1 21:1 22:-1 23:-1 24:1 #
-0.054107312552241035 1:-0.33333299 2:-0.85294098 3:0 4:-0.67032999 5:1 6:0 7:-0.33333299 8:-0.33333299 9:-1 10:-0.5 11:1 12:-1 13:-1 14:-1 15:-1 16:1 17:-1 18:1 19:-1 20:-1 21:1 22:-1 23:1 24:-1 #
-0.054107312552241035 1:0.33333299 2:-0.67647099 3:0 4:-0.97802198 5:-1 6:-0.5 7:-0.33333299 8:1 9:-0.33333299 10:-0.85714298 11:1 12:-1 13:-1 14:1 15:-1 16:-1 17:-1 18:1 19:-1 20:1 21:-1 22:-1 23:-1 24:1 #
-0.054107312552241035 1:-0.33333299 2:-0.41176501 3:0.5 4:-0.84615397 5:-0.5 6:0.5 7:-0.33333299 8:-0.33333299 9:-0.33333299 10:-0.85714298 11:1 12:-0.33333299 13:-1 14:1 15:-1 16:-1 17:-1 18:1 19:-1 20:1 21:-1 22:-1 23:-1 24:1 #
-0.054107312552241035 1:0.33333299 2:-0.76470602 3:0 4:-0.76923102 5:-1 6:0 7:-0.33333299 8:-0.33333299 9:0.33333299 10:-0.035714 11:1 12:-1 13:-1 14:-1 15:-1 16:-1 17:-1 18:1 19:-1 20:-1 21:1 22:-1 23:1 24:-1 #
-0.054107312552241035 1:1 2:-0.76470602 3:0 4:-0.95604402 5:-1 6:0 7:-1 8:-0.33333299 9:-1 10:0.071428999 11:1 12:-1 13:-1 14:-1 15:-1 16:1 17:-1 18:1 19:-1 20:-1 21:1 22:-1 23:1 24:-1 #
-0.054107312552241035 1:-1 2:-0.5 3:1 4:-0.84615397 5:-1 6:1 7:1 8:0.33333299 9:0.33333299 10:-0.60714298 11:1 12:-0.33333299 13:-1 14:1 15:-1 16:1 17:-1 18:1 19:-1 20:-1 21:1 22:-1 23:-1 24:1 #
-0.054107312552241035 1:1 2:-0.41176501 3:0 4:-0.85714298 5:-1 6:-0.5 7:-0.33333299 8:0.33333299 9:0.33333299 10:-0.32142901 11:0 12:-1 13:-1 14:1 15:-1 16:-1 17:-1 18:1 19:-1 20:-1 21:1 22:-1 23:-1 24:1 #
0.054107312552241035 1:-1 2:-0.41176501 3:-0.5 4:-0.62637401 5:-1 6:0.5 7:0.33333299 8:1 9:0.33333299 10:-0.71428603 11:-1 12:-1 13:-1 14:-1 15:-1 16:-1 17:-1 18:1 19:-1 20:-1 21:1 22:-1 23:-1 24:1 #
-0.054107312552241035 1:-0.33333299 2:-0.85294098 3:0 4:-0.79120898 5:-1 6:0 7:0.33333299 8:-0.33333299 9:-1 10:-0.35714301 11:1 12:-1 13:1 14:-1 15:-1 16:-1 17:-1 18:1 19:-1 20:-1 21:1 22:-1 23:1 24:-1 #
-0.050453214196034754 1:0.33333299 2:-0.58823502 3:-0.5 4:-0.868132 5:1 6:0.5 7:0.33333299 8:1 9:0.33333299 10:0.071428999 11:-1 12:-1 13:-1 14:-1 15:-1 16:-1 17:-1 18:1 19:-1 20:-1 21:1 22:-1 23:1 24:-1 #
-0.054107312552241035 1:1 2:-0.941176 3:0 4:-0.85714298 5:-1 6:-0.5 7:-0.33333299 8:-0.33333299 9:1 10:0.32142901 11:1 12:-1 13:-1 14:-1 15:-1 16:-1 17:-1 18:1 19:-1 20:-1 21:1 22:-1 23:-1 24:1 #
-0.054107312552241035 1:1 2:-0.82352901 3:0 4:-0.868132 5:-1 6:0 7:-0.33333299 8:1 9:0.33333299 10:0.60714298 11:1 12:-1 13:-1 14:1 15:-1 16:1 17:-1 18:1 19:-1 20:-1 21:1 22:-1 23:-1 24:1 #
-0.054107312552241035 1:-1 2:-0.5 3:0 4:-0.60439599 5:1 6:0.5 7:0.33333299 8:-0.33333299 9:-1 10:-0.82142901 11:1 12:-1 13:-1 14:-1 15:1 16:1 17:-1 18:-1 19:1 20:-1 21:1 22:-1 23:1 24:-1 #
-0.054107312552241035 1:0.33333299 2:-0.82352901 3:0 4:-0.87912101 5:-1 6:-0.5 7:-0.33333299 8:-0.33333299 9:-0.33333299 10:-0.85714298 11:1 12:-1 13:-1 14:-1 15:-1 16:-1 17:-1 18:1 19:-1 20:-1 21:1 22:-1 23:-1 24:1 #
-0.054107312552241035 1:0.33333299 2:-0.41176501 3:0 4:-0.87912101 5:0 6:0 7:-0.33333299 8:0.33333299 9:0.33333299 10:0.35714301 11:1 12:-1 13:-1 14:-1 15:-1 16:-1 17:-1 18:1 19:-1 20:-1 21:1 22:-1 23:1 24:-1 #
-0.046037016895320679 1:0.33333299 2:-0.76470602 3:0 4:-0.69230801 5:-1 6:0 7:1 8:-1 9:0.33333299 10:-0.82142901 11:1 12:-1 13:-1 14:-1 15:-1 16:-1 17:-1 18:1 19:-1 20:-1 21:1 22:-1 23:-1 24:1 #
-0.054107312552241035 1:1 2:-0.058823999 3:1 4:-0.63736302 5:-1 6:0.5 7:0.33333299 8:1 9:0.33333299 10:-0.35714301 11:1 12:-0.33333299 13:-1 14:1 15:-1 16:1 17:-1 18:1 19:-1 20:-1 21:1 22:-1 23:-1 24:1 #
-0.054107312552241035 1:-0.33333299 2:-0.5 3:1 4:-0.615385 5:-1 6:0.5 7:0.33333299 8:0.33333299 9:-0.33333299 10:-0.71428603 11:1 12:-0.33333299 13:-1 14:-1 15:-1 16:-1 17:-1 18:1 19:-1 20:-1 21:1 22:-1 23:-1 24:1 #
-0.030524802830243142 1:0.33333299 2:-0.41176501 3:0 4:-0.813187 5:-1 6:0 7:0.33333299 8:-0.33333299 9:-1 10:-0.75 11:1 12:-1 13:-1 14:-1 15:-1 16:-1 17:-1 18:1 19:-1 20:-1 21:1 22:-1 23:-1 24:1 #
-0.0011944861481095817 1:-1 2:-0.76470602 3:1 4:-0.85714298 5:-1 6:1 7:0.33333299 8:1 9:1 10:0.67857099 11:1 12:-0.33333299 13:-1 14:-1 15:-1 16:-1 17:1 18:1 19:-1 20:-1 21:-1 22:-1 23:-1 24:-1 #
