SVM-light Version V6.02
2 # kernel type
3 # kernel parameter -d 
0.5 # kernel parameter -g 
1 # kernel parameter -s 
1 # kernel parameter -r 
empty# kernel parameter -u 
13 # highest feature index 
216 # number of training documents 
165 # number of support vectors plus 1 
0.025236025 # threshold b, each following line is a SV (starting with alpha*y)
-0.27527583955654283 1:0.75 2:-1 3:-0.33333299 4:0.24528299 5:-0.196347 6:-1 7:-1 8:0.38931301 9:-1 10:-0.87096798 11:-1 12:0.33333299 13:-1 #
-0.50993063255369386 1:0.166667 2:-1 3:1 4:-0.50943398 5:0.041095998 6:-1 7:-1 8:0.40458 9:1 10:-0.80645198 11:-1 12:-1 13:-1 #
-0.19465789723897012 1:-0.166667 2:-1 3:-0.33333299 4:-0.24528299 5:-0.33790001 6:-1 7:-1 8:0.38931301 9:-1 10:-1 11:0 12:-1 13:-1 #
0.07824840728643094 1:0.041666999 2:1 3:1 4:-0.69811302 5:-0.63470298 6:-1 7:1 8:-0.43511501 9:1 10:-1 11:0 12:-0.33333299 13:-1 #
-0.10344601832897271 1:-1 2:1 3:-0.33333299 4:-0.320755 5:-0.64383602 6:-1 7:1 8:1 9:-1 10:-1 11:-1 12:-1 13:-1 #
0.50993063255369386 1:-0.75 2:1 3:1 4:-0.39622599 5:-0.287671 6:-1 7:1 8:0.29771 9:1 10:-1 11:-1 12:-1 13:1 #
-0.38472933817520327 1:-0.041666999 2:1 3:-0.33333299 4:-0.50943398 5:-0.091324002 6:-1 7:-1 8:0.54198498 9:-1 10:-0.93548399 11:-1 12:-1 13:-1 #
0.50993063255369386 1:0.33333299 2:-1 3:1 4:-0.037735999 5:-0.17351601 6:-1 7:1 8:0.14503799 9:1 10:-0.67741901 11:0 12:-1 13:1 #
0.50993063255369386 1:0.25 2:1 3:1 4:0.43396199 5:-0.086758003 6:-1 7:1 8:0.053435002 9:1 10:0.096773997 11:1 12:-1 13:1 #
0.50993063255369386 1:0.208333 2:1 3:1 4:0.056604002 5:-0.342466 6:-1 7:1 8:-0.38931301 9:1 10:-0.74193501 11:-1 12:-1 13:1 #
-0.50993063255369386 1:0 2:1 3:1 4:-0.094339997 5:-0.54337901 6:-1 7:1 8:-0.38931301 9:1 10:-1 11:-1 12:-1 13:1 #
-0.50993063255369386 1:0.041666999 2:1 3:0.33333299 4:0.056604002 5:-0.51598197 6:-1 7:1 8:0.43511501 9:-1 10:-0.48387101 11:-1 12:-1 13:1 #
-0.50993063255369386 1:0.041666999 2:1 3:0.33333299 4:-0.50943398 5:-0.39726001 6:-1 7:1 8:0.16030499 9:-1 10:-0.87096798 11:0 12:-1 13:1 #
0.50993063255369386 1:0.375 2:-1 3:1 4:0.056604002 5:-0.46118701 6:-1 7:-1 8:0.267176 9:1 10:-0.54838699 11:0 12:-1 13:-1 #
0.50993063255369386 1:0.25 2:-1 3:1 4:0.50943398 5:-0.43835601 6:-1 7:-1 8:0.099237002 9:1 10:-1 11:0 12:-1 13:-1 #
0.50993063255369386 1:0.45833299 2:1 3:0.33333299 4:-0.132075 5:-0.045662001 6:-1 7:-1 8:0.328244 9:-1 10:-1 11:-1 12:-1 13:-1 #
-0.24540726261848589 1:0.041666999 2:1 3:1 4:-0.132075 5:-0.484018 6:-1 7:-1 8:0.35877901 9:-1 10:-0.612903 11:-1 12:-1 13:-1 #
-0.0036762549155029047 1:0.041666999 2:-1 3:0.33333299 4:-0.73584902 5:-0.35616401 6:-1 7:1 8:0.46564901 9:-1 10:-1 11:-1 12:-1 13:-1 #
0.37482068597163803 1:0.66666698 2:1 3:0.33333299 4:-0.132075 5:-0.41552499 6:-1 7:1 8:0.14503799 9:-1 10:-0.354839 11:0 12:1 13:1 #
0.50993063255369386 1:-0.208333 2:1 3:1 4:-0.43396199 5:-0.32420099 6:-1 7:1 8:0.45038199 9:-1 10:-0.83871001 11:0 12:-1 13:1 #
0.23853758978631323 1:0.166667 2:1 3:0.33333299 4:-0.358491 5:-0.52968001 6:-1 7:1 8:0.20610701 9:-1 10:-0.87096798 11:0 12:-0.33333299 13:1 #
0.36603499018141011 1:0.208333 2:1 3:0.33333299 4:-0.66037703 5:-0.525114 6:-1 7:1 8:0.43511501 9:-1 10:-0.19354799 11:0 12:-0.33333299 13:1 #
-0.50993063255369386 1:0.45833299 2:-1 3:1 4:0.62264198 5:-0.091324002 6:-1 7:-1 8:0.267176 9:1 10:-1 11:-1 12:-1 13:-1 #
-0.50993063255369386 1:-0.29166701 2:-1 3:0.33333299 4:-0.094339997 5:-0.76712298 6:-1 7:1 8:0.35877901 9:1 10:-0.54838699 11:1 12:-1 13:-1 #
-0.50993063255369386 1:0.375 2:1 3:0.33333299 4:-0.320755 5:-0.52054799 6:-1 7:-1 8:0.14503799 9:-1 10:-0.41935501 11:0 12:1 13:1 #
0.50993063255369386 1:-0.25 2:1 3:0.33333299 4:-0.73584902 5:-0.46575299 6:-1 7:-1 8:0.236641 9:-1 10:-1 11:-1 12:-1 13:-1 #
0.50993063255369386 1:-0.041666999 2:1 3:1 4:-0.66037703 5:-0.525114 6:-1 7:-1 8:0.35877901 9:-1 10:-1 11:-1 12:-0.33333299 13:-1 #
0.50993063255369386 1:-0.29166701 2:1 3:0.33333299 4:0.056604002 5:-0.52054799 6:-1 7:-1 8:0.16030499 9:-1 10:0.16129 11:0 12:-1 13:-1 #
-0.50993063255369386 1:-0.66666698 2:1 3:0.33333299 4:-0.320755 5:-0.43379 6:-1 7:-1 8:0.77099198 9:-1 10:0.129032 11:1 12:-1 13:-1 #
-0.48116696417162952 1:-0.41666701 2:1 3:1 4:-0.60377401 5:-0.191781 6:-1 7:-1 8:0.679389 9:-1 10:-0.612903 11:0 12:-1 13:-1 #
-0.50993063255369386 1:-0.25 2:1 3:1 4:-0.66037703 5:-0.64383602 6:-1 7:-1 8:0.099237002 9:-1 10:-0.96774203 11:-1 12:-1 13:-1 #
0.50993063255369386 1:0.25 2:1 3:-1 4:0.24528299 5:-0.328767 6:-1 7:1 8:-0.17557301 9:-1 10:-1 11:-1 12:-1 13:-1 #
0.50993063255369386 1:0.29166701 2:-1 3:1 4:0.20754699 5:-0.182648 6:-1 7:1 8:0.374046 9:-1 10:-1 11:-1 12:-1 13:-1 #
0.50993063255369386 1:0.33333299 2:-1 3:1 4:-0.320755 5:-0.068493001 6:-1 7:1 8:0.49618301 9:-1 10:-1 11:-1 12:-1 13:-1 #
-0.41909780054401496 1:0.41666701 2:-1 3:0.33333299 4:-0.22641499 5:-0.424658 6:-1 7:1 8:0.54198498 9:-1 10:-1 11:-1 12:-1 13:-1 #
-0.50993063255369386 1:0.5 2:-1 3:0.33333299 4:0.24528299 5:0.068493001 6:-1 7:1 8:0.22137401 9:-1 10:-0.74193501 11:-1 12:-1 13:-1 #
0.16200105330867168 1:0.125 2:1 3:0.33333299 4:-0.320755 5:-0.40639299 6:1 7:1 8:0.083970003 9:1 10:-0.80645198 11:0 12:-0.33333299 13:0.5 #
0.50993063255369386 1:-0.125 2:1 3:0.33333299 4:-0.132075 5:-0.51141602 6:-1 7:-1 8:0.40458 9:-1 10:-0.80645198 11:0 12:-0.33333299 13:1 #
0.50993063255369386 1:0.166667 2:1 3:-0.33333299 4:-0.43396199 5:-0.383562 6:-1 7:-1 8:0.068701997 9:-1 10:-0.90322602 11:-1 12:-1 13:1 #
0.50993063255369386 1:-0.041666999 2:1 3:1 4:-0.41509399 5:-0.607306 6:-1 7:-1 8:0.48091599 9:-1 10:-0.67741901 11:-1 12:0.33333299 13:1 #
-0.50993063255369386 1:0.041666999 2:1 3:-0.33333299 4:-0.73584902 5:-0.16438399 6:-1 7:-1 8:0.29771 9:-1 10:-1 11:-1 12:-1 13:1 #
-0.50993063255369386 1:-0.375 2:1 3:-0.33333299 4:-0.50943398 5:-0.37442899 6:-1 7:-1 8:0.55725199 9:-1 10:-1 11:-1 12:-1 13:1 #
-0.50993063255369386 1:0.25 2:1 3:1 4:-0.22641499 5:-0.50684899 6:-1 7:-1 8:0.374046 9:-1 10:-0.83871001 11:0 12:-1 13:1 #
0.50993063255369386 1:0.208333 2:-1 3:-0.33333299 4:-0.20754699 5:-0.118721 6:1 7:1 8:0.236641 9:-1 10:-1 11:-1 12:0.33333299 13:-1 #
0.50993063255369386 1:0.33333299 2:1 3:-1 4:-0.24528299 5:-0.50684899 6:-1 7:-1 8:0.12977099 9:-1 10:-0.16129 11:0 12:0.33333299 13:-1 #
0.50993063255369386 1:-0.375 2:1 3:1 4:-0.66037703 5:-0.251142 6:-1 7:1 8:0.251908 9:-1 10:-1 11:-1 12:-0.33333299 13:-1 #
-0.50993063255369386 1:0.70833302 2:1 3:-0.33333299 4:0.169811 5:-0.45662099 6:-1 7:1 8:0.099237002 9:-1 10:-1 11:-1 12:-1 13:-1 #
-0.50993063255369386 1:0.5 2:-1 3:0.33333299 4:-0.132075 5:0.328767 6:1 7:1 8:0.31297699 9:-1 10:-0.74193501 11:-1 12:-0.33333299 13:-1 #
-0.50993063255369386 1:-0.33333299 2:1 3:1 4:-0.60377401 5:-0.38812801 6:-1 7:1 8:0.74045801 9:-1 10:-1 11:-1 12:-1 13:-1 #
0.50993063255369386 1:-0.54166698 2:1 3:1 4:0.094339997 5:-0.557078 6:-1 7:-1 8:0.679389 9:-1 10:-1 11:-1 12:-1 13:1 #
0.50993063255369386 1:-0.58333302 2:1 3:1 4:-0.54716998 5:-0.575342 6:-1 7:-1 8:0.053435002 9:-1 10:-0.612903 11:0 12:-1 13:1 #
0.50993063255369386 1:0.375 2:-1 3:0.33333299 4:-0.320755 5:-0.37442899 6:-1 7:-1 8:-0.60305297 9:-1 10:-0.612903 11:0 12:-0.33333299 13:1 #
-0.50993063255369386 1:-0.41666701 2:1 3:1 4:-0.69811302 5:-0.61187202 6:-1 7:-1 8:0.374046 9:-1 10:-1 11:-1 12:-1 13:1 #
-0.50993063255369386 1:0.5 2:1 3:1 4:-0.50943398 5:-0.76712298 6:-1 7:-1 8:0.053435002 9:-1 10:-0.87096798 11:-1 12:-1 13:1 #
-0.50993063255369386 1:0.166667 2:1 3:1 4:-0.132075 5:-0.69862998 6:-1 7:-1 8:0.17557301 9:-1 10:-0.87096798 11:0 12:-1 13:0.5 #
0.50993063255369386 1:0.208333 2:1 3:-0.33333299 4:-0.50943398 5:-0.278539 6:-1 7:1 8:0.35877901 9:-1 10:-0.41935501 11:0 12:-1 13:-1 #
0.50993063255369386 1:0.29166701 2:1 3:0.33333299 4:-0.132075 5:-0.73059398 6:-1 7:1 8:0.28244299 9:-1 10:-0.032258 11:0 12:-1 13:-1 #
0.50993063255369386 1:0.375 2:-1 3:1 4:-0.132075 5:-0.35159799 6:-1 7:1 8:0.35877901 9:-1 10:0.16129 11:1 12:0.33333299 13:-1 #
-0.50993063255369386 1:0.041666999 2:1 3:0.33333299 4:-0.41509399 5:-0.328767 6:-1 7:1 8:0.236641 9:-1 10:-0.83871001 11:1 12:-0.33333299 13:-1 #
-0.50993063255369386 1:-0.5 2:1 3:0.33333299 4:-0.320755 5:-0.59817398 6:-1 7:1 8:0.48091599 9:-1 10:-0.354839 11:0 12:-1 13:-1 #
-0.50993063255369386 1:-0.041666999 2:1 3:-1 4:-0.54716998 5:-0.72602701 6:-1 7:1 8:0.81679398 9:-1 10:-1 11:0 12:-1 13:0.5 #
0.50993063255369386 1:0.208333 2:1 3:1 4:-0.886792 5:-0.50684899 6:-1 7:-1 8:0.29771 9:-1 10:-0.96774203 11:-1 12:-0.33333299 13:1 #
0.34094996997215804 1:0.041666999 2:1 3:1 4:-0.50943398 5:-0.71689498 6:-1 7:-1 8:-0.35877901 9:-1 10:-0.54838699 11:0 12:-0.33333299 13:1 #
0.50993063255369386 1:0.208333 2:1 3:1 4:-0.018867999 5:-0.57990903 6:-1 7:-1 8:-0.48091599 9:-1 10:-0.354839 11:0 12:-0.33333299 13:1 #
-0.50993063255369386 1:0.45833299 2:-1 3:0.33333299 4:-0.132075 5:-0.146119 6:-1 7:-1 8:-0.053435002 9:-1 10:-0.93548399 11:-1 12:-1 13:1 #
-0.50993063255369386 1:-0.083333001 2:1 3:0.33333299 4:-1 5:-0.53881299 6:-1 7:-1 8:0.267176 9:1 10:-1 11:-1 12:-0.33333299 13:1 #
-0.50993063255369386 1:0.166667 2:1 3:1 4:-0.28301901 5:-0.63013703 6:-1 7:-1 8:0.48091599 9:1 10:-1 11:-1 12:-1 13:1 #
0.50993063255369386 1:0.25 2:1 3:-1 4:0.43396199 5:-0.26027399 6:-1 7:1 8:0.34351099 9:-1 10:-0.93548399 11:0 12:-1 13:1 #
0.50993063255369386 1:0.041666999 2:1 3:-0.33333299 4:0.84905702 5:-0.28310499 6:-1 7:1 8:0.89313 9:-1 10:-1 11:-1 12:-0.33333299 13:1 #
0.50993063255369386 1:-0.625 2:1 3:-1 4:-0.50943398 5:-0.52054799 6:-1 7:-1 8:0.69465601 9:1 10:0.225806 11:0 12:-1 13:1 #
-0.50993063255369386 1:0.25 2:1 3:-1 4:0.58490598 5:-0.342466 6:-1 7:1 8:0.12977099 9:-1 10:0.354839 11:1 12:-1 13:1 #
-0.50993063255369386 1:-0.54166698 2:1 3:-1 4:-0.132075 5:-0.66666698 6:-1 7:-1 8:0.63358802 9:1 10:-0.54838699 11:-1 12:-1 13:1 #
-0.50993063255369386 1:0 2:1 3:0.33333299 4:-0.320755 5:-0.45205501 6:1 7:1 8:0.55725199 9:-1 10:-1 11:-1 12:1 13:-1 #
0.50993063255369386 1:-0.041666999 2:1 3:1 4:-0.358491 5:-0.41095901 6:-1 7:-1 8:0.374046 9:1 10:-1 11:-1 12:-0.33333299 13:1 #
0.50993063255369386 1:0.25 2:1 3:1 4:-0.132075 5:-0.76712298 6:-1 7:-1 8:0.38931301 9:1 10:-1 11:-1 12:-0.33333299 13:1 #
0.50993063255369386 1:-0.083333001 2:1 3:1 4:-0.132075 5:-0.21004599 6:-1 7:-1 8:0.55725199 9:1 10:-0.48387101 11:-1 12:-1 13:1 #
-0.50993063255369386 1:0.166667 2:1 3:0.33333299 4:0.056604002 5:-1 6:1 7:-1 8:0.55725199 9:-1 10:-0.93548399 11:-1 12:-0.33333299 13:1 #
-0.50993063255369386 1:0.58333302 2:-1 3:0.33333299 4:-0.60377401 5:1 6:-1 7:1 8:0.35877901 9:-1 10:-0.48387101 11:0 12:-1 13:1 #
-0.50993063255369386 1:0.45833299 2:1 3:-1 4:-0.69811302 5:-0.61187202 6:-1 7:1 8:0.114504 9:1 10:-0.41935501 11:0 12:-1 13:-1 #
0.50993063255369386 1:0.5 2:1 3:-1 4:-0.169811 5:-0.287671 6:1 7:1 8:0.572519 9:-1 10:-0.54838699 11:0 12:-0.33333299 13:-1 #
0.50993063255369386 1:0.125 2:1 3:1 4:-0.41509399 5:-0.43835601 6:1 7:1 8:0.114504 9:1 10:-0.612903 11:0 12:-0.33333299 13:-1 #
0.50993063255369386 1:0.125 2:-1 3:1 4:1 5:-0.26027399 6:1 7:1 8:-0.053435002 9:1 10:0.29032299 11:1 12:0.33333299 13:1 #
-0.50993063255369386 1:0.66666698 2:1 3:-1 4:0.24528299 5:-0.50684899 6:1 7:1 8:-0.083970003 9:-1 10:-0.96774203 11:0 12:-0.33333299 13:-1 #
-0.43807459789545117 1:0.375 2:1 3:-0.33333299 4:-0.358491 5:-0.62557101 6:1 7:1 8:0.053435002 9:-1 10:-1 11:-1 12:-1 13:-1 #
-0.50993063255369386 1:0 2:1 3:0.33333299 4:-0.320755 5:-0.67579901 6:1 7:1 8:0.236641 9:-1 10:-0.612903 11:1 12:-1 13:-1 #
0.50993063255369386 1:0.58333302 2:1 3:1 4:-0.41509399 5:-0.41552499 6:1 7:-1 8:0.40458 9:-1 10:-0.93548399 11:0 12:0.33333299 13:1 #
0.50993063255369386 1:0.45833299 2:1 3:1 4:-0.50943398 5:-0.45205501 6:-1 7:1 8:-0.618321 9:1 10:-0.29032299 11:1 12:-0.33333299 13:-1 #
0.50993063255369386 1:0.54166698 2:-1 3:1 4:0.58490598 5:-0.53424698 6:1 7:-1 8:0.43511501 9:1 10:-0.67741901 11:0 12:0.33333299 13:1 #
-0.50993063255369386 1:0.33333299 2:1 3:0.33333299 4:0.056604002 5:-0.46575299 6:1 7:-1 8:0.0076339999 9:1 10:-0.67741901 11:0 12:-1 13:-1 #
-0.50993063255369386 1:-0.45833299 2:1 3:0.33333299 4:-0.50943398 5:-0.47945201 6:1 7:-1 8:0.87786299 9:-1 10:-0.74193501 11:1 12:-1 13:1 #
-0.50993063255369386 1:-0.083333001 2:1 3:1 4:-0.132075 5:-0.383562 6:-1 7:1 8:0.75572503 9:1 10:-1 11:-1 12:-1 13:-1 #
0.50993063255369386 1:0.54166698 2:1 3:-0.33333299 4:0.24528299 5:-0.45205501 6:-1 7:-1 8:-0.251908 9:1 10:-1 11:0 12:1 13:0.5 #
0.50993063255369386 1:0.41666701 2:-1 3:1 4:0.056604002 5:0.28310499 6:-1 7:1 8:0.267176 9:-1 10:0.29032299 11:0 12:1 13:1 #
0.50993063255369386 1:0.41666701 2:1 3:1 4:-0.320755 5:-0.068493001 6:1 7:1 8:-0.068701997 9:1 10:-0.41935501 11:-1 12:1 13:1 #
-0.50993063255369386 1:-0.45833299 2:1 3:-1 4:0.018867999 5:-0.46118701 6:-1 7:1 8:0.63358802 9:-1 10:-0.74193501 11:-1 12:0.33333299 13:-1 #
-0.50993063255369386 1:0.29166701 2:-1 3:0.33333299 4:-0.50943398 5:-0.76255703 6:1 7:-1 8:-0.618321 9:-1 10:-1 11:-1 12:-1 13:-1 #
-0.50993063255369386 1:0.41666701 2:1 3:-1 4:-0.037735999 5:-0.51141602 6:1 7:1 8:0.20610701 9:-1 10:-0.25806499 11:1 12:-1 13:0.5 #
0.50993063255369386 1:0.54166698 2:1 3:1 4:-0.66037703 5:-0.607306 6:-1 7:1 8:-0.068701997 9:1 10:-0.96774203 11:-1 12:-0.33333299 13:-1 #
0.50993063255369386 1:-0.208333 2:1 3:-0.33333299 4:-0.69811302 5:-0.52968001 6:-1 7:-1 8:0.48091599 9:-1 10:-0.67741901 11:1 12:-1 13:1 #
0.50993063255369386 1:-0.166667 2:1 3:0.33333299 4:-0.54716998 5:-0.89497697 6:-1 7:1 8:-0.16030499 9:-1 10:-0.74193501 11:-1 12:1 13:-1 #
-0.50993063255369386 1:-0.083333001 2:1 3:0.33333299 4:-0.886792 5:-0.56164402 6:-1 7:-1 8:0.099237002 9:1 10:-0.612903 11:0 12:-1 13:-1 #
-0.50993063255369386 1:0.375 2:-1 3:1 4:-0.132075 5:0.223744 6:-1 7:1 8:0.31297699 9:-1 10:-0.612903 11:0 12:-1 13:-1 #
-0.50993063255369386 1:-0.208333 2:1 3:0.33333299 4:-0.43396199 5:-0.41095901 6:1 7:-1 8:0.58778602 9:-1 10:-1 11:-1 12:0.33333299 13:-1 #
0.43228075867102184 1:0 2:1 3:1 4:-0.132075 5:-0.64840198 6:1 7:1 8:0.28244299 9:1 10:0 11:1 12:-1 13:1 #
0.50993063255369386 1:0.625 2:1 3:0.33333299 4:0.62264198 5:-0.32420099 6:1 7:1 8:0.20610701 9:1 10:-0.48387101 11:0 12:-1 13:1 #
0.46872591724582863 1:0.125 2:1 3:1 4:-0.320755 5:-0.28310499 6:1 7:1 8:-0.51144999 9:1 10:-0.48387101 11:1 12:-1 13:1 #
-0.50993063255369386 1:0.208333 2:-1 3:-1 4:0.056604002 5:-0.28310499 6:1 7:1 8:0.38931301 9:-1 10:-0.67741901 11:-1 12:-1 13:-1 #
-0.50993063255369386 1:-0.041666999 2:1 3:-1 4:0.094339997 5:-0.21461201 6:1 7:-1 8:0.63358802 9:-1 10:-0.612903 11:0 12:-1 13:1 #
-0.50993063255369386 1:-0.5 2:-1 3:0.33333299 4:-0.66037703 5:-0.35159799 6:-1 7:1 8:0.54198498 9:1 10:-1 11:-1 12:-1 13:-1 #
0.50993063255369386 1:0.083333001 2:1 3:1 4:-0.132075 5:-0.58447498 6:-1 7:-1 8:-0.38931301 9:1 10:0.80645198 11:1 12:-1 13:1 #
0.50993063255369386 1:0.166667 2:1 3:1 4:0.339623 5:-0.25570801 6:1 7:1 8:-0.19084001 9:-1 10:-0.67741901 11:0 12:1 13:1 #
0.50993063255369386 1:0.29166701 2:1 3:1 4:-0.56603801 5:-0.525114 6:1 7:-1 8:0.35877901 9:1 10:-0.54838699 11:-1 12:0.33333299 13:1 #
-0.50993063255369386 1:-0.083333001 2:1 3:-1 4:-0.41509399 5:-0.60273999 6:-1 7:1 8:-0.17557301 9:1 10:-0.54838699 11:-1 12:-0.33333299 13:-1 #
-0.50993063255369386 1:0.75 2:-1 3:1 4:-0.66037703 5:-0.89497697 6:-1 7:-1 8:-0.17557301 9:-1 10:-0.48387101 11:0 12:-1 13:-1 #
-0.50993063255369386 1:0.58333302 2:-1 3:1 4:-0.77358502 5:-0.557078 6:-1 7:-1 8:0.083970003 9:-1 10:-0.90322602 11:-1 12:0.33333299 13:-1 #
0.50993063255369386 1:-0.083333001 2:-1 3:1 4:-0.320755 5:-0.182648 6:-1 7:-1 8:0.083970003 9:1 10:-0.612903 11:0 12:-1 13:1 #
0.50993063255369386 1:0.70833302 2:1 3:1 4:-0.320755 5:-0.105023 6:-1 7:1 8:-0.41984701 9:-1 10:-0.225806 11:0 12:1 13:-1 #
0.50993063255369386 1:-0.083333001 2:1 3:1 4:-0.132075 5:-0.21461201 6:-1 7:-1 8:-0.22137401 9:1 10:0.354839 11:0 12:1 13:1 #
-0.45085990112895868 1:-0.41666701 2:1 3:0.33333299 4:-0.320755 5:-0.136986 6:-1 7:-1 8:0.38931301 9:-1 10:-0.387097 11:-1 12:-0.33333299 13:-1 #
-0.50993063255369386 1:0.75 2:-1 3:0.33333299 4:-0.69811302 5:-0.36529699 6:1 7:1 8:-0.099237002 9:-1 10:-1 11:-1 12:-0.33333299 13:-1 #
-0.43845447994145709 1:0.25 2:1 3:-0.33333299 4:-0.132075 5:-0.56620997 6:-1 7:-1 8:0.41984701 9:1 10:-1 11:-1 12:-1 13:-1 #
0.50993063255369386 1:-0.5 2:1 3:1 4:-0.69811302 5:-0.78995401 6:-1 7:1 8:0.328244 9:-1 10:-1 11:-1 12:-1 13:1 #
0.50993063255369386 1:0.5 2:-1 3:1 4:0.056604002 5:-0.54794502 6:-1 7:1 8:-0.34351099 9:-1 10:-0.67741901 11:0 12:1 13:1 #
0.50993063255369386 1:0.125 2:-1 3:1 4:-0.24528299 5:0.29223701 6:-1 7:1 8:0.20610701 9:1 10:-0.387097 11:0 12:0.33333299 13:1 #
-0.4350802941738412 1:-0.29166701 2:1 3:-0.33333299 4:-0.86792499 5:-0.67579901 6:1 7:-1 8:0.29771 9:-1 10:-1 11:-1 12:-1 13:1 #
-0.50993063255369386 1:0.25 2:1 3:1 4:-0.169811 5:-0.33790001 6:-1 7:1 8:0.69465601 9:-1 10:-1 11:-1 12:-1 13:-1 #
-0.50993063255369386 1:-0.45833299 2:-1 3:1 4:-0.84905702 5:-0.36529699 6:-1 7:1 8:-0.22137401 9:-1 10:-0.80645198 11:0 12:-1 13:-1 #
0.35691472015502146 1:-0.25 2:1 3:1 4:-0.69811302 5:-0.319635 6:-1 7:1 8:-0.28244299 9:1 10:-0.67741901 11:0 12:-0.33333299 13:-1 #
0.40146233728028957 1:0.33333299 2:1 3:1 4:-0.169811 5:-0.817352 6:-1 7:1 8:-0.17557301 9:1 10:0.16129 11:0 12:-0.33333299 13:-1 #
-0.28239933728986344 1:0.25 2:1 3:0.33333299 4:0.056604002 5:-0.607306 6:1 7:-1 8:0.31297699 9:-1 10:-0.48387101 11:-1 12:-1 13:-1 #
-0.45417655122058231 1:-0.75 2:-1 3:1 4:-0.169811 5:-0.73972601 6:-1 7:-1 8:0.69465601 9:-1 10:-0.54838699 11:-1 12:-1 13:-1 #
-0.42800155389345768 1:0.041666999 2:-1 3:0.33333299 4:-0.22641499 5:-0.187215 6:1 7:-1 8:0.51144999 9:-1 10:-1 11:-1 12:-1 13:-1 #
0.37508549044467138 1:0.45833299 2:1 3:0.33333299 4:-0.41509399 5:-0.16438399 6:-1 7:-1 8:-0.083970003 9:1 10:-0.41935501 11:0 12:-1 13:1 #
0.49406109866114001 1:-0.33333299 2:1 3:1 4:-0.094339997 5:-0.16438399 6:-1 7:1 8:0.16030499 9:1 10:-1 11:0 12:1 13:1 #
-0.50993063255369386 1:0.66666698 2:-1 3:-1 4:-0.132075 5:-0.484018 6:-1 7:-1 8:0.22137401 9:-1 10:-0.41935501 11:-1 12:0.33333299 13:-1 #
-0.28697739769853697 1:0.29166701 2:-1 3:-1 4:0.056604002 5:-0.47945201 6:-1 7:-1 8:0.52671802 9:-1 10:-0.70967698 11:-1 12:-1 13:-1 #
-0.44491878842754806 1:-0.041666999 2:1 3:-0.33333299 4:-0.24528299 5:-0.657534 6:-1 7:-1 8:0.328244 9:-1 10:-0.74193501 11:-1 12:-0.33333299 13:-1 #
0.43401697672582312 1:-0.208333 2:1 3:1 4:-0.320755 5:-0.40639299 6:1 7:1 8:0.20610701 9:1 10:-1 11:-1 12:0.33333299 13:1 #
0.38170865464172526 1:-0.54166698 2:1 3:1 4:-0.69811302 5:-0.81278503 6:-1 7:1 8:-0.34351099 9:1 10:-0.354839 11:0 12:-1 13:1 #
-0.37269734286576556 1:-0.041666999 2:1 3:0.33333299 4:0.47169799 5:-0.66666698 6:1 7:-1 8:0.38931301 9:-1 10:-0.83871001 11:-1 12:-1 13:1 #
-0.50993063255369386 1:-0.79166698 2:1 3:-1 4:-0.54716998 5:-0.74429202 6:-1 7:1 8:0.572519 9:-1 10:-1 11:-1 12:-1 13:-1 #
-0.29364286905997544 1:0.625 2:-1 3:0.33333299 4:-0.50943398 5:-0.61187202 6:-1 7:1 8:-0.328244 9:-1 10:-0.51612902 11:0 12:-1 13:-1 #
0.44984637245087611 1:-0.29166701 2:1 3:1 4:-0.50943398 5:-0.43835601 6:-1 7:1 8:0.114504 9:-1 10:-0.74193501 11:-1 12:-1 13:1 #
0.35152034384602832 1:-0.45833299 2:1 3:1 4:-0.20754699 5:-0.136986 6:-1 7:-1 8:-0.17557301 9:1 10:-0.41935501 11:0 12:-1 13:0.5 #
0.27461481668964038 1:0.29166701 2:-1 3:1 4:0.056604002 5:-0.39726001 6:-1 7:1 8:0.31297699 9:-1 10:-0.16129 11:0 12:0.33333299 13:1 #
-0.34705086419560527 1:-0.375 2:1 3:0.33333299 4:-0.320755 5:-0.51141602 6:-1 7:-1 8:0.64885497 9:1 10:-0.87096798 11:-1 12:-1 13:-1 #
-0.38586021466225684 1:-0.083333001 2:1 3:0.33333299 4:-0.69811302 5:-0.77625602 6:-1 7:-1 8:-0.20610701 9:-1 10:-0.80645198 11:-1 12:-1 13:-1 #
-0.26978021464496982 1:0.208333 2:1 3:0.33333299 4:-0.132075 5:-0.61187202 6:1 7:1 8:0.43511501 9:-1 10:-1 11:-1 12:-1 13:-1 #
0.33864290211949144 1:0.208333 2:1 3:0.33333299 4:-0.28301901 5:-0.55251098 6:-1 7:1 8:0.55725199 9:-1 10:0.032258 11:-1 12:0.33333299 13:1 #
0.22846801378508677 1:0.208333 2:1 3:1 4:-0.358491 5:-0.58904099 6:-1 7:1 8:-0.083970003 9:1 10:-0.29032299 11:0 12:1 13:1 #
-0.23973405922885851 1:-0.5 2:-1 3:-0.33333299 4:-0.320755 5:-0.64383602 6:-1 7:1 8:0.54198498 9:-1 10:-0.54838699 11:-1 12:-1 13:-1 #
-0.13271532076694037 1:-0.33333299 2:-1 3:-0.33333299 4:-0.320755 5:-0.50684899 6:-1 7:1 8:0.58778602 9:-1 10:-0.80645198 11:0 12:-1 13:-1 #
-0.24412635625847237 1:-0.79166698 2:-1 3:-0.33333299 4:-0.54716998 5:-0.61643797 6:-1 7:-1 8:0.84732801 9:-1 10:-0.774194 11:-1 12:-1 13:-1 #
0.18385946299296632 1:0.58333302 2:1 3:1 4:-0.886792 5:-0.21004599 6:-1 7:1 8:-0.17557301 9:1 10:-0.70967698 11:0 12:0.33333299 13:-1 #
-0.2315501089535672 1:-0.041666999 2:1 3:-0.33333299 4:-0.358491 5:-0.63926899 6:1 7:-1 8:0.725191 9:-1 10:-1 11:-1 12:-1 13:-1 #
-0.15618847067620822 1:-0.208333 2:1 3:1 4:-0.47169799 5:-0.56164402 6:-1 7:1 8:0.75572503 9:-1 10:-1 11:-1 12:-1 13:-1 #
-0.10887891273945137 1:-0.375 2:-1 3:0.33333299 4:-0.54716998 5:-0.47031999 6:-1 7:-1 8:0.19084001 9:-1 10:-0.90322602 11:0 12:-0.33333299 13:-1 #
0.20711837738803104 1:0.5 2:1 3:1 4:-0.69811302 5:-0.442922 6:-1 7:1 8:0.328244 9:-1 10:-0.80645198 11:-1 12:0.33333299 13:0.5 #
0.15072240278771004 1:0.70833302 2:1 3:0.33333299 4:0.24528299 5:-0.34703201 6:-1 7:-1 8:-0.374046 9:1 10:-0.064516 11:0 12:-0.33333299 13:1 #
0.093914896085838181 1:0.33333299 2:1 3:1 4:-0.132075 5:-0.63013703 6:-1 7:1 8:0.022901 9:1 10:-0.387097 11:-1 12:-0.33333299 13:1 #
-0.042320524038796506 1:0.208333 2:-1 3:1 4:-0.886792 5:-0.442922 6:-1 7:1 8:-0.22137401 9:-1 10:-0.67741901 11:0 12:-1 13:-1 #
0.040318681007480928 1:0.5 2:1 3:1 4:-0.22641499 5:-0.41552499 6:-1 7:1 8:-0.14503799 9:-1 10:-0.096773997 11:0 12:-0.33333299 13:1 #
-0.14816484980611239 1:-0.41666701 2:1 3:1 4:0.056604002 5:-0.44748899 6:-1 7:-1 8:0.52671802 9:-1 10:-0.51612902 11:-1 12:-1 13:-1 #
-0.014556432030376909 1:-0.58333302 2:-1 3:0.33333299 4:-1 5:-0.66666698 6:-1 7:-1 8:0.64885497 9:-1 10:-1 11:-1 12:-1 13:-1 #
